[
    {
        "TRAINING_BATCHES": 1000000,
        "BATCH_SIZE": 32,
        "SEED": 16,
        "INIT_LEARNING_RATE": 0,
        "LEARNING_RATE": 0.001,
        "WARMUP_STEPS": 2000,
        "TRANSITION_STEP": 50000,
        "DECAY_RATE": 0.95,
        "CODE_DISTANCE": 5,
        "ERROR_PROBS": [
            9.980039976653643e-06,
            9.980039976653643e-06,
            0.009980039671063423
        ],
        "CONV_LAYERS_INPUT_1": [
            [
                24,
                2,
                1,
                0
            ]
        ],
        "CONV_LAYERS_INPUT_2": [
            [
                24,
                1,
                1,
                0
            ]
        ],
        "CONV_LAYERS_STAGE_2": [
            [
                24,
                2,
                1,
                0
            ]
        ],
        "FC_LAYERS": [
            50,
            2
        ]
    },
    {
        "CNN_input_1": [
            {
                "b": [
                    -0.01731022819876671,
                    0.006734014954417944,
                    0.030028346925973892,
                    -0.004625212401151657,
                    -0.011766393668949604,
                    -0.11786853522062302,
                    0.007118426728993654,
                    -0.01385998073965311,
                    0.032090745866298676,
                    0.27161282300949097,
                    0.035581376403570175,
                    0.23986822366714478,
                    -0.0443694032728672,
                    0.25523295998573303,
                    -0.05312079191207886,
                    0.03811284154653549,
                    0.2105240821838379,
                    0.24349986016750336,
                    0.037196140736341476,
                    -0.6644704937934875,
                    0.16228221356868744,
                    0.0006242676172405481,
                    -0.497782438993454,
                    0.2087467610836029
                ],
                "w": [
                    [
                        [
                            [
                                -0.019592944532632828,
                                0.0009483039029873908
                            ],
                            [
                                -0.013601441867649555,
                                -0.01243359874933958
                            ]
                        ]
                    ],
                    [
                        [
                            [
                                -0.01460530236363411,
                                0.013557128608226776
                            ],
                            [
                                0.041952528059482574,
                                -0.0030732995364814997
                            ]
                        ]
                    ],
                    [
                        [
                            [
                                0.05226650834083557,
                                -0.034641608595848083
                            ],
                            [
                                -0.042551372200250626,
                                0.02156331017613411
                            ]
                        ]
                    ],
                    [
                        [
                            [
                                -0.00977133959531784,
                                -0.04622061550617218
                            ],
                            [
                                0.012757073156535625,
                                -0.010879742912948132
                            ]
                        ]
                    ],
                    [
                        [
                            [
                                0.03606019541621208,
                                0.2128903716802597
                            ],
                            [
                                -0.08754711598157883,
                                -0.03421628102660179
                            ]
                        ]
                    ],
                    [
                        [
                            [
                                -0.08368704468011856,
                                0.24107061326503754
                            ],
                            [
                                -0.011203214526176453,
                                0.06499813497066498
                            ]
                        ]
                    ],
                    [
                        [
                            [
                                0.015015889890491962,
                                -0.006540484726428986
                            ],
                            [
                                -0.008581993170082569,
                                -0.010964731685817242
                            ]
                        ]
                    ],
                    [
                        [
                            [
                                -0.00825346726924181,
                                0.009433434344828129
                            ],
                            [
                                -0.003809808986261487,
                                0.022419849410653114
                            ]
                        ]
                    ],
                    [
                        [
                            [
                                0.028399741277098656,
                                -0.011660178191959858
                            ],
                            [
                                0.02573595568537712,
                                0.03577278554439545
                            ]
                        ]
                    ],
                    [
                        [
                            [
                                -0.07340694218873978,
                                0.06676613539457321
                            ],
                            [
                                -0.010268649086356163,
                                0.016825571656227112
                            ]
                        ]
                    ],
                    [
                        [
                            [
                                -0.045757293701171875,
                                -0.10029125958681107
                            ],
                            [
                                -0.19422204792499542,
                                -0.07646995037794113
                            ]
                        ]
                    ],
                    [
                        [
                            [
                                -0.019033601507544518,
                                0.16040009260177612
                            ],
                            [
                                -0.13262854516506195,
                                -0.043578293174505234
                            ]
                        ]
                    ],
                    [
                        [
                            [
                                -0.014967747963964939,
                                0.031940262764692307
                            ],
                            [
                                0.04560103639960289,
                                -0.036346226930618286
                            ]
                        ]
                    ],
                    [
                        [
                            [
                                -0.2699755132198334,
                                -0.3007439374923706
                            ],
                            [
                                0.11316077411174774,
                                -0.13445690274238586
                            ]
                        ]
                    ],
                    [
                        [
                            [
                                -0.023663904517889023,
                                0.000157652742927894
                            ],
                            [
                                -0.01711445115506649,
                                0.04922359436750412
                            ]
                        ]
                    ],
                    [
                        [
                            [
                                -0.027499116957187653,
                                0.02947264537215233
                            ],
                            [
                                -0.11611627787351608,
                                0.00593319907784462
                            ]
                        ]
                    ],
                    [
                        [
                            [
                                0.04561370611190796,
                                -0.008591799065470695
                            ],
                            [
                                0.08543789386749268,
                                0.12094643712043762
                            ]
                        ]
                    ],
                    [
                        [
                            [
                                0.12088283151388168,
                                -0.09078142791986465
                            ],
                            [
                                -0.0936933159828186,
                                -0.14977163076400757
                            ]
                        ]
                    ],
                    [
                        [
                            [
                                -0.041189342737197876,
                                -0.023008838295936584
                            ],
                            [
                                -0.03928336501121521,
                                0.06498885899782181
                            ]
                        ]
                    ],
                    [
                        [
                            [
                                0.49595075845718384,
                                -0.21107646822929382
                            ],
                            [
                                0.2834327220916748,
                                0.3015054762363434
                            ]
                        ]
                    ],
                    [
                        [
                            [
                                -0.10296402871608734,
                                -0.06851212680339813
                            ],
                            [
                                0.2941505014896393,
                                -0.17003141343593597
                            ]
                        ]
                    ],
                    [
                        [
                            [
                                0.04879988729953766,
                                -0.04899045452475548
                            ],
                            [
                                -0.004313911311328411,
                                0.005708366632461548
                            ]
                        ]
                    ],
                    [
                        [
                            [
                                0.18541890382766724,
                                0.10290521383285522
                            ],
                            [
                                0.09714877605438232,
                                0.4806986153125763
                            ]
                        ]
                    ],
                    [
                        [
                            [
                                0.05816735699772835,
                                0.0456765741109848
                            ],
                            [
                                0.14548948407173157,
                                -0.21395833790302277
                            ]
                        ]
                    ]
                ]
            }
        ],
        "CNN_input_2": [
            {
                "b": [
                    -0.279999703168869,
                    0.561796247959137,
                    0.13303226232528687,
                    0.3314574360847473,
                    -0.018686659634113312,
                    0.13988542556762695,
                    0.5800260305404663,
                    -0.07604927569627762,
                    -0.09587594121694565,
                    -0.40647873282432556,
                    0.1653444916009903,
                    -0.06482217460870743,
                    -0.07092996686697006,
                    0.9962630867958069,
                    -0.43770232796669006,
                    -0.3202161192893982,
                    -0.033449284732341766,
                    0.5434595942497253,
                    0.027213189750909805,
                    0.4228687286376953,
                    -0.8389787673950195,
                    0.5967691540718079,
                    -0.6051145195960999,
                    -0.16323170065879822
                ],
                "w": [
                    [
                        [
                            [
                                0.29586267471313477
                            ]
                        ],
                        [
                            [
                                0.2618701457977295
                            ]
                        ],
                        [
                            [
                                -0.028636831790208817
                            ]
                        ],
                        [
                            [
                                0.3183032274246216
                            ]
                        ],
                        [
                            [
                                0.26185494661331177
                            ]
                        ],
                        [
                            [
                                -0.030643567442893982
                            ]
                        ]
                    ],
                    [
                        [
                            [
                                -0.5175918936729431
                            ]
                        ],
                        [
                            [
                                -0.5737901926040649
                            ]
                        ],
                        [
                            [
                                -0.40946483612060547
                            ]
                        ],
                        [
                            [
                                -0.5693158507347107
                            ]
                        ],
                        [
                            [
                                -0.589613139629364
                            ]
                        ],
                        [
                            [
                                -0.409219354391098
                            ]
                        ]
                    ],
                    [
                        [
                            [
                                -0.14438210427761078
                            ]
                        ],
                        [
                            [
                                -0.07065737992525101
                            ]
                        ],
                        [
                            [
                                -0.2146853804588318
                            ]
                        ],
                        [
                            [
                                -0.07093852758407593
                            ]
                        ],
                        [
                            [
                                -0.13449326157569885
                            ]
                        ],
                        [
                            [
                                -0.21142223477363586
                            ]
                        ]
                    ],
                    [
                        [
                            [
                                -0.3370860517024994
                            ]
                        ],
                        [
                            [
                                -0.2933077812194824
                            ]
                        ],
                        [
                            [
                                0.05420922487974167
                            ]
                        ],
                        [
                            [
                                -0.33391937613487244
                            ]
                        ],
                        [
                            [
                                -0.3474390506744385
                            ]
                        ],
                        [
                            [
                                0.05899529904127121
                            ]
                        ]
                    ],
                    [
                        [
                            [
                                0.12298645079135895
                            ]
                        ],
                        [
                            [
                                -0.06370317190885544
                            ]
                        ],
                        [
                            [
                                0.36340057849884033
                            ]
                        ],
                        [
                            [
                                0.06452243030071259
                            ]
                        ],
                        [
                            [
                                0.18294686079025269
                            ]
                        ],
                        [
                            [
                                0.3698565363883972
                            ]
                        ]
                    ],
                    [
                        [
                            [
                                -0.08172407001256943
                            ]
                        ],
                        [
                            [
                                -0.0776914656162262
                            ]
                        ],
                        [
                            [
                                0.049995485693216324
                            ]
                        ],
                        [
                            [
                                -0.13860440254211426
                            ]
                        ],
                        [
                            [
                                0.18247468769550323
                            ]
                        ],
                        [
                            [
                                0.04577037692070007
                            ]
                        ]
                    ],
                    [
                        [
                            [
                                -0.5750321745872498
                            ]
                        ],
                        [
                            [
                                -0.5692006945610046
                            ]
                        ],
                        [
                            [
                                -0.3116738796234131
                            ]
                        ],
                        [
                            [
                                -0.5554811954498291
                            ]
                        ],
                        [
                            [
                                -0.5596237778663635
                            ]
                        ],
                        [
                            [
                                -0.3115840256214142
                            ]
                        ]
                    ],
                    [
                        [
                            [
                                0.06394960731267929
                            ]
                        ],
                        [
                            [
                                0.055532392114400864
                            ]
                        ],
                        [
                            [
                                0.17286241054534912
                            ]
                        ],
                        [
                            [
                                0.06854033470153809
                            ]
                        ],
                        [
                            [
                                0.05203964188694954
                            ]
                        ],
                        [
                            [
                                0.16603195667266846
                            ]
                        ]
                    ],
                    [
                        [
                            [
                                0.09834957867860794
                            ]
                        ],
                        [
                            [
                                0.03908479958772659
                            ]
                        ],
                        [
                            [
                                0.014390001073479652
                            ]
                        ],
                        [
                            [
                                0.08023075014352798
                            ]
                        ],
                        [
                            [
                                0.118555948138237
                            ]
                        ],
                        [
                            [
                                0.00699760252609849
                            ]
                        ]
                    ],
                    [
                        [
                            [
                                0.509564995765686
                            ]
                        ],
                        [
                            [
                                0.17123064398765564
                            ]
                        ],
                        [
                            [
                                0.2944476008415222
                            ]
                        ],
                        [
                            [
                                0.29878953099250793
                            ]
                        ],
                        [
                            [
                                0.4009969234466553
                            ]
                        ],
                        [
                            [
                                0.30029863119125366
                            ]
                        ]
                    ],
                    [
                        [
                            [
                                -0.303379088640213
                            ]
                        ],
                        [
                            [
                                -0.2868559956550598
                            ]
                        ],
                        [
                            [
                                -0.016781456768512726
                            ]
                        ],
                        [
                            [
                                -0.018426619470119476
                            ]
                        ],
                        [
                            [
                                -0.16989579796791077
                            ]
                        ],
                        [
                            [
                                -0.02144632861018181
                            ]
                        ]
                    ],
                    [
                        [
                            [
                                0.048314932733774185
                            ]
                        ],
                        [
                            [
                                -0.05484016239643097
                            ]
                        ],
                        [
                            [
                                0.057343531399965286
                            ]
                        ],
                        [
                            [
                                -0.13638357818126678
                            ]
                        ],
                        [
                            [
                                0.3569157123565674
                            ]
                        ],
                        [
                            [
                                0.06288238614797592
                            ]
                        ]
                    ],
                    [
                        [
                            [
                                0.07243479043245316
                            ]
                        ],
                        [
                            [
                                0.036097317934036255
                            ]
                        ],
                        [
                            [
                                0.2157583087682724
                            ]
                        ],
                        [
                            [
                                0.11724629998207092
                            ]
                        ],
                        [
                            [
                                -0.06022684648633003
                            ]
                        ],
                        [
                            [
                                0.21258555352687836
                            ]
                        ]
                    ],
                    [
                        [
                            [
                                -1.1509640216827393
                            ]
                        ],
                        [
                            [
                                -1.1350958347320557
                            ]
                        ],
                        [
                            [
                                -1.0823571681976318
                            ]
                        ],
                        [
                            [
                                -1.1467831134796143
                            ]
                        ],
                        [
                            [
                                -1.1702635288238525
                            ]
                        ],
                        [
                            [
                                -1.0827051401138306
                            ]
                        ]
                    ],
                    [
                        [
                            [
                                0.5013943910598755
                            ]
                        ],
                        [
                            [
                                0.422684907913208
                            ]
                        ],
                        [
                            [
                                -0.35826778411865234
                            ]
                        ],
                        [
                            [
                                0.3852073550224304
                            ]
                        ],
                        [
                            [
                                0.39600932598114014
                            ]
                        ],
                        [
                            [
                                -0.3507375121116638
                            ]
                        ]
                    ],
                    [
                        [
                            [
                                0.21139739453792572
                            ]
                        ],
                        [
                            [
                                0.3386315107345581
                            ]
                        ],
                        [
                            [
                                0.350100040435791
                            ]
                        ],
                        [
                            [
                                0.27793028950691223
                            ]
                        ],
                        [
                            [
                                0.27101004123687744
                            ]
                        ],
                        [
                            [
                                0.35511186718940735
                            ]
                        ]
                    ],
                    [
                        [
                            [
                                -0.0631498396396637
                            ]
                        ],
                        [
                            [
                                0.012941374443471432
                            ]
                        ],
                        [
                            [
                                0.0867820456624031
                            ]
                        ],
                        [
                            [
                                0.19042187929153442
                            ]
                        ],
                        [
                            [
                                0.26574376225471497
                            ]
                        ],
                        [
                            [
                                0.07750619947910309
                            ]
                        ]
                    ],
                    [
                        [
                            [
                                -0.38117605447769165
                            ]
                        ],
                        [
                            [
                                -0.6190067529678345
                            ]
                        ],
                        [
                            [
                                -0.3201965391635895
                            ]
                        ],
                        [
                            [
                                -0.5614983439445496
                            ]
                        ],
                        [
                            [
                                -0.7700068950653076
                            ]
                        ],
                        [
                            [
                                -0.3324953615665436
                            ]
                        ]
                    ],
                    [
                        [
                            [
                                -0.032917510718107224
                            ]
                        ],
                        [
                            [
                                0.08703580498695374
                            ]
                        ],
                        [
                            [
                                0.1659425050020218
                            ]
                        ],
                        [
                            [
                                -0.02600819244980812
                            ]
                        ],
                        [
                            [
                                -0.09967855364084244
                            ]
                        ],
                        [
                            [
                                0.15841524302959442
                            ]
                        ]
                    ],
                    [
                        [
                            [
                                -0.6147029399871826
                            ]
                        ],
                        [
                            [
                                -0.6054990291595459
                            ]
                        ],
                        [
                            [
                                -0.7508758902549744
                            ]
                        ],
                        [
                            [
                                -0.6211287379264832
                            ]
                        ],
                        [
                            [
                                -0.5648752450942993
                            ]
                        ],
                        [
                            [
                                -0.7497854232788086
                            ]
                        ]
                    ],
                    [
                        [
                            [
                                1.0233738422393799
                            ]
                        ],
                        [
                            [
                                0.9790156483650208
                            ]
                        ],
                        [
                            [
                                1.0775386095046997
                            ]
                        ],
                        [
                            [
                                1.0488287210464478
                            ]
                        ],
                        [
                            [
                                1.0006732940673828
                            ]
                        ],
                        [
                            [
                                1.0763798952102661
                            ]
                        ]
                    ],
                    [
                        [
                            [
                                -0.5718855857849121
                            ]
                        ],
                        [
                            [
                                -0.5649110078811646
                            ]
                        ],
                        [
                            [
                                -0.7315040230751038
                            ]
                        ],
                        [
                            [
                                -0.5807835459709167
                            ]
                        ],
                        [
                            [
                                -0.5188888311386108
                            ]
                        ],
                        [
                            [
                                -0.7294977307319641
                            ]
                        ]
                    ],
                    [
                        [
                            [
                                0.6832225918769836
                            ]
                        ],
                        [
                            [
                                0.6554098725318909
                            ]
                        ],
                        [
                            [
                                0.8199591636657715
                            ]
                        ],
                        [
                            [
                                0.7451068758964539
                            ]
                        ],
                        [
                            [
                                0.7245267033576965
                            ]
                        ],
                        [
                            [
                                0.8200459480285645
                            ]
                        ]
                    ],
                    [
                        [
                            [
                                0.1580129712820053
                            ]
                        ],
                        [
                            [
                                0.20555907487869263
                            ]
                        ],
                        [
                            [
                                0.2749568521976471
                            ]
                        ],
                        [
                            [
                                0.4653661549091339
                            ]
                        ],
                        [
                            [
                                0.29558128118515015
                            ]
                        ],
                        [
                            [
                                0.26075634360313416
                            ]
                        ]
                    ]
                ]
            }
        ],
        "CNN_stage_2": [
            {
                "b": [
                    -0.6192440986633301,
                    -0.657467246055603,
                    -1.0172228813171387,
                    -0.8870671391487122,
                    -1.0181787014007568,
                    -0.9435328245162964,
                    -0.09092291444540024,
                    -0.07755124568939209,
                    -0.7238669395446777,
                    -0.4280160665512085,
                    -0.35856160521507263,
                    -1.026412844657898,
                    -1.0491353273391724,
                    -0.6233305931091309,
                    -0.7178037166595459,
                    -0.9794772863388062,
                    0.5024653077125549,
                    -0.4785788953304291,
                    -0.26842284202575684,
                    2.5454914569854736,
                    -0.15388906002044678,
                    -0.9188553094863892,
                    -0.3277796506881714,
                    -1.3321632146835327
                ],
                "w": [
                    [
                        [
                            [
                                0.06443213671445847,
                                -0.054355211555957794
                            ],
                            [
                                0.005323315970599651,
                                0.16634026169776917
                            ]
                        ],
                        [
                            [
                                -0.33683639764785767,
                                -0.28058096766471863
                            ],
                            [
                                -0.9860583543777466,
                                -0.21197651326656342
                            ]
                        ],
                        [
                            [
                                0.20362891256809235,
                                -1.4242445230484009
                            ],
                            [
                                1.9393372535705566,
                                1.6007475852966309
                            ]
                        ],
                        [
                            [
                                -0.30824702978134155,
                                -1.5559883117675781
                            ],
                            [
                                0.6810464262962341,
                                -1.4079790115356445
                            ]
                        ],
                        [
                            [
                                0.39872103929519653,
                                1.3060568571090698
                            ],
                            [
                                -1.119847297668457,
                                0.28475964069366455
                            ]
                        ],
                        [
                            [
                                -0.20049947500228882,
                                -0.34467369318008423
                            ],
                            [
                                0.14907579123973846,
                                0.20000894367694855
                            ]
                        ],
                        [
                            [
                                1.6064320802688599,
                                -0.31054890155792236
                            ],
                            [
                                -1.5270249843597412,
                                -1.0812304019927979
                            ]
                        ],
                        [
                            [
                                0.019382106140255928,
                                0.4072534441947937
                            ],
                            [
                                -0.1755249798297882,
                                -0.012148638255894184
                            ]
                        ],
                        [
                            [
                                0.09732276946306229,
                                -0.9589963555335999
                            ],
                            [
                                0.6141860485076904,
                                -1.3546561002731323
                            ]
                        ],
                        [
                            [
                                0.09286585450172424,
                                -0.42059728503227234
                            ],
                            [
                                0.22062081098556519,
                                0.16379620134830475
                            ]
                        ],
                        [
                            [
                                0.1888670176267624,
                                0.890996515750885
                            ],
                            [
                                -0.8813137412071228,
                                -0.2390722632408142
                            ]
                        ],
                        [
                            [
                                0.14983214437961578,
                                0.061855364590883255
                            ],
                            [
                                -0.3314532935619354,
                                -0.31346794962882996
                            ]
                        ],
                        [
                            [
                                -0.18604150414466858,
                                -0.21060378849506378
                            ],
                            [
                                0.7324942350387573,
                                -0.1362350732088089
                            ]
                        ],
                        [
                            [
                                0.8506065607070923,
                                0.404985636472702
                            ],
                            [
                                -0.07035510241985321,
                                -0.47294849157333374
                            ]
                        ],
                        [
                            [
                                -0.33174407482147217,
                                -0.08000289648771286
                            ],
                            [
                                0.6408081650733948,
                                1.724492073059082
                            ]
                        ],
                        [
                            [
                                -0.24890358746051788,
                                -0.08922158181667328
                            ],
                            [
                                -0.44735902547836304,
                                0.13771969079971313
                            ]
                        ],
                        [
                            [
                                0.1626519411802292,
                                -0.2832289934158325
                            ],
                            [
                                -0.1240202933549881,
                                0.34487518668174744
                            ]
                        ],
                        [
                            [
                                -0.470571368932724,
                                -1.134462833404541
                            ],
                            [
                                0.41543328762054443,
                                0.004997395444661379
                            ]
                        ],
                        [
                            [
                                -0.20891344547271729,
                                0.09976661950349808
                            ],
                            [
                                -1.1774555444717407,
                                -0.26159319281578064
                            ]
                        ],
                        [
                            [
                                -0.2421199083328247,
                                0.07908916473388672
                            ],
                            [
                                0.053125426173210144,
                                0.09207309037446976
                            ]
                        ],
                        [
                            [
                                0.43824008107185364,
                                -0.538266658782959
                            ],
                            [
                                -0.9577392339706421,
                                -0.08979219943284988
                            ]
                        ],
                        [
                            [
                                0.05095434933900833,
                                0.36465200781822205
                            ],
                            [
                                -0.16056855022907257,
                                0.539797842502594
                            ]
                        ],
                        [
                            [
                                -0.15768930315971375,
                                -0.17925339937210083
                            ],
                            [
                                -0.34522733092308044,
                                0.8889344334602356
                            ]
                        ],
                        [
                            [
                                0.44585925340652466,
                                0.18671028316020966
                            ],
                            [
                                0.14191477000713348,
                                0.02566920779645443
                            ]
                        ]
                    ],
                    [
                        [
                            [
                                -0.06693074852228165,
                                -0.07697682082653046
                            ],
                            [
                                -0.019241927191615105,
                                0.03633899986743927
                            ]
                        ],
                        [
                            [
                                -0.35467371344566345,
                                -0.18650949001312256
                            ],
                            [
                                -0.3068782091140747,
                                0.10591980069875717
                            ]
                        ],
                        [
                            [
                                0.14178885519504547,
                                -0.20526999235153198
                            ],
                            [
                                0.01616906188428402,
                                -0.35221001505851746
                            ]
                        ],
                        [
                            [
                                0.104979008436203,
                                0.15090760588645935
                            ],
                            [
                                0.008314446546137333,
                                0.019772155210375786
                            ]
                        ],
                        [
                            [
                                0.05065976828336716,
                                0.5893914699554443
                            ],
                            [
                                0.10868939012289047,
                                0.10605455189943314
                            ]
                        ],
                        [
                            [
                                0.8054453134536743,
                                0.42948776483535767
                            ],
                            [
                                -0.5964518785476685,
                                0.36871734261512756
                            ]
                        ],
                        [
                            [
                                -0.7498282194137573,
                                0.17389041185379028
                            ],
                            [
                                0.11515621095895767,
                                0.19302096962928772
                            ]
                        ],
                        [
                            [
                                -0.15247879922389984,
                                -0.07154959440231323
                            ],
                            [
                                -0.034507982432842255,
                                0.05416923388838768
                            ]
                        ],
                        [
                            [
                                -0.42831477522850037,
                                -0.3103397786617279
                            ],
                            [
                                -0.33694636821746826,
                                0.13329698145389557
                            ]
                        ],
                        [
                            [
                                -0.3397703766822815,
                                0.2213539332151413
                            ],
                            [
                                0.13086700439453125,
                                0.12250063568353653
                            ]
                        ],
                        [
                            [
                                -0.6108438968658447,
                                -0.9040161967277527
                            ],
                            [
                                -2.2944815158843994,
                                0.4694824814796448
                            ]
                        ],
                        [
                            [
                                1.4424009323120117,
                                -0.40722113847732544
                            ],
                            [
                                -0.4014759659767151,
                                -0.8041959404945374
                            ]
                        ],
                        [
                            [
                                -0.07158257067203522,
                                -0.1063886508345604
                            ],
                            [
                                0.27470365166664124,
                                -0.07141667604446411
                            ]
                        ],
                        [
                            [
                                -1.0251373052597046,
                                0.9461252689361572
                            ],
                            [
                                -1.0808069705963135,
                                -0.0966959297657013
                            ]
                        ],
                        [
                            [
                                -0.10586857050657272,
                                0.138483464717865
                            ],
                            [
                                -0.08277617394924164,
                                -0.07618920505046844
                            ]
                        ],
                        [
                            [
                                0.2143370807170868,
                                -0.10541818290948868
                            ],
                            [
                                0.20214056968688965,
                                0.1045418530702591
                            ]
                        ],
                        [
                            [
                                0.28289344906806946,
                                -0.9684087038040161
                            ],
                            [
                                0.6467565298080444,
                                -0.20478174090385437
                            ]
                        ],
                        [
                            [
                                0.07743939012289047,
                                -0.38732975721359253
                            ],
                            [
                                -0.10784301906824112,
                                0.7332382202148438
                            ]
                        ],
                        [
                            [
                                0.78618323802948,
                                0.12815721333026886
                            ],
                            [
                                -0.42059043049812317,
                                0.6269338726997375
                            ]
                        ],
                        [
                            [
                                0.37576785683631897,
                                -0.5473156571388245
                            ],
                            [
                                -1.2419236898422241,
                                0.10748755186796188
                            ]
                        ],
                        [
                            [
                                0.22627516090869904,
                                -0.9102519750595093
                            ],
                            [
                                0.6316705942153931,
                                -0.0426754429936409
                            ]
                        ],
                        [
                            [
                                -0.046204883605241776,
                                -0.1485024243593216
                            ],
                            [
                                0.3039972186088562,
                                -0.1414513885974884
                            ]
                        ],
                        [
                            [
                                -0.27290311455726624,
                                -1.5958137512207031
                            ],
                            [
                                -0.6318804621696472,
                                -0.06499145179986954
                            ]
                        ],
                        [
                            [
                                0.42822763323783875,
                                -0.34413355588912964
                            ],
                            [
                                0.39644983410835266,
                                -0.5911540389060974
                            ]
                        ]
                    ],
                    [
                        [
                            [
                                -0.0076621826738119125,
                                -0.06253176927566528
                            ],
                            [
                                0.018971823155879974,
                                -0.08887562900781631
                            ]
                        ],
                        [
                            [
                                0.2912417948246002,
                                0.006839590612798929
                            ],
                            [
                                0.43662500381469727,
                                0.08440572023391724
                            ]
                        ],
                        [
                            [
                                0.40993234515190125,
                                -0.1895865648984909
                            ],
                            [
                                -0.44700372219085693,
                                0.9714651703834534
                            ]
                        ],
                        [
                            [
                                0.08157019317150116,
                                -0.09526234865188599
                            ],
                            [
                                0.08439001441001892,
                                -0.21454326808452606
                            ]
                        ],
                        [
                            [
                                -0.34538188576698303,
                                0.2417026311159134
                            ],
                            [
                                -0.35401853919029236,
                                -0.21535208821296692
                            ]
                        ],
                        [
                            [
                                -0.09731247276067734,
                                -0.30361101031303406
                            ],
                            [
                                -1.129137396812439,
                                -1.6459894180297852
                            ]
                        ],
                        [
                            [
                                -0.19883300364017487,
                                0.07147607952356339
                            ],
                            [
                                -0.01053390558809042,
                                -0.6692941784858704
                            ]
                        ],
                        [
                            [
                                0.046061936765909195,
                                0.06068914756178856
                            ],
                            [
                                0.07520454376935959,
                                0.12082912027835846
                            ]
                        ],
                        [
                            [
                                0.08399472385644913,
                                -0.4196773171424866
                            ],
                            [
                                -0.19053146243095398,
                                -0.2170257866382599
                            ]
                        ],
                        [
                            [
                                0.7462419271469116,
                                -0.4679151475429535
                            ],
                            [
                                0.11127433180809021,
                                -0.055681515485048294
                            ]
                        ],
                        [
                            [
                                0.48660004138946533,
                                -0.43341362476348877
                            ],
                            [
                                -0.7960460186004639,
                                -0.3259051740169525
                            ]
                        ],
                        [
                            [
                                -0.3524157702922821,
                                1.0328831672668457
                            ],
                            [
                                -1.0468316078186035,
                                0.5130009651184082
                            ]
                        ],
                        [
                            [
                                -0.33947545289993286,
                                0.01068861037492752
                            ],
                            [
                                0.01148002129048109,
                                -0.03278016671538353
                            ]
                        ],
                        [
                            [
                                0.3604719936847687,
                                0.9033058881759644
                            ],
                            [
                                -1.2929750680923462,
                                -0.2693968415260315
                            ]
                        ],
                        [
                            [
                                -0.09730365872383118,
                                -0.3790832459926605
                            ],
                            [
                                -0.11390518397092819,
                                0.04798712208867073
                            ]
                        ],
                        [
                            [
                                0.26517453789711,
                                0.2879616320133209
                            ],
                            [
                                -0.26885879039764404,
                                -0.2705739438533783
                            ]
                        ],
                        [
                            [
                                0.2786880433559418,
                                0.12145407497882843
                            ],
                            [
                                1.0952584743499756,
                                0.20541414618492126
                            ]
                        ],
                        [
                            [
                                -0.5389262437820435,
                                -0.20893308520317078
                            ],
                            [
                                -0.5680603981018066,
                                0.1227346658706665
                            ]
                        ],
                        [
                            [
                                -0.5542913675308228,
                                0.662609875202179
                            ],
                            [
                                0.17111405730247498,
                                -0.29981040954589844
                            ]
                        ],
                        [
                            [
                                0.15636180341243744,
                                0.03712839260697365
                            ],
                            [
                                -1.1409763097763062,
                                -0.0217171348631382
                            ]
                        ],
                        [
                            [
                                0.3281104266643524,
                                -0.4395800232887268
                            ],
                            [
                                0.33459219336509705,
                                1.567528486251831
                            ]
                        ],
                        [
                            [
                                0.19746628403663635,
                                -0.4770364761352539
                            ],
                            [
                                0.44519224762916565,
                                0.04342173784971237
                            ]
                        ],
                        [
                            [
                                -0.5936669707298279,
                                -1.0337716341018677
                            ],
                            [
                                -1.6474369764328003,
                                -0.5731127858161926
                            ]
                        ],
                        [
                            [
                                -0.26415616273880005,
                                0.4427603483200073
                            ],
                            [
                                0.5069496035575867,
                                0.4511808753013611
                            ]
                        ]
                    ],
                    [
                        [
                            [
                                0.29412636160850525,
                                0.4030681550502777
                            ],
                            [
                                0.560943067073822,
                                0.05095992237329483
                            ]
                        ],
                        [
                            [
                                -0.8670371770858765,
                                0.46751710772514343
                            ],
                            [
                                -0.621728241443634,
                                0.1744019091129303
                            ]
                        ],
                        [
                            [
                                0.7312995791435242,
                                -0.16830748319625854
                            ],
                            [
                                -0.3503786027431488,
                                0.012819727882742882
                            ]
                        ],
                        [
                            [
                                0.2293069064617157,
                                -0.2731061577796936
                            ],
                            [
                                -0.7467674612998962,
                                0.18696436285972595
                            ]
                        ],
                        [
                            [
                                0.04551071301102638,
                                -1.158185601234436
                            ],
                            [
                                -0.37287217378616333,
                                0.39532944560050964
                            ]
                        ],
                        [
                            [
                                0.12415583431720734,
                                -0.004057756159454584
                            ],
                            [
                                0.2937696576118469,
                                0.7814438939094543
                            ]
                        ],
                        [
                            [
                                0.04434393718838692,
                                0.27733638882637024
                            ],
                            [
                                -0.6415322422981262,
                                0.36004719138145447
                            ]
                        ],
                        [
                            [
                                0.197567418217659,
                                0.19133181869983673
                            ],
                            [
                                0.16483038663864136,
                                0.07358821481466293
                            ]
                        ],
                        [
                            [
                                -0.18603210151195526,
                                0.7376714944839478
                            ],
                            [
                                0.5389061570167542,
                                -0.5195315480232239
                            ]
                        ],
                        [
                            [
                                -0.08941075205802917,
                                0.04982477053999901
                            ],
                            [
                                0.695665717124939,
                                -0.607595682144165
                            ]
                        ],
                        [
                            [
                                0.8728052377700806,
                                0.192798912525177
                            ],
                            [
                                0.44599995017051697,
                                -1.494433879852295
                            ]
                        ],
                        [
                            [
                                -0.8042349815368652,
                                1.5234805345535278
                            ],
                            [
                                0.44019967317581177,
                                -0.04419875144958496
                            ]
                        ],
                        [
                            [
                                0.5973528027534485,
                                0.5732725262641907
                            ],
                            [
                                0.3022388219833374,
                                -0.09749418497085571
                            ]
                        ],
                        [
                            [
                                -1.4164949655532837,
                                1.9867128133773804
                            ],
                            [
                                0.04032811149954796,
                                -0.09402094036340714
                            ]
                        ],
                        [
                            [
                                -2.2290420532226562,
                                -1.2185794115066528
                            ],
                            [
                                -0.09933913499116898,
                                -0.06534117460250854
                            ]
                        ],
                        [
                            [
                                -0.16480648517608643,
                                0.8141714930534363
                            ],
                            [
                                0.03537876904010773,
                                0.5920063853263855
                            ]
                        ],
                        [
                            [
                                -0.44401416182518005,
                                -0.1480189859867096
                            ],
                            [
                                0.6459425091743469,
                                0.9875273704528809
                            ]
                        ],
                        [
                            [
                                2.2231252193450928,
                                0.37809062004089355
                            ],
                            [
                                -0.2770402431488037,
                                1.5124958753585815
                            ]
                        ],
                        [
                            [
                                -0.9271709322929382,
                                0.21581825613975525
                            ],
                            [
                                0.3461296558380127,
                                0.16745613515377045
                            ]
                        ],
                        [
                            [
                                0.7824264168739319,
                                0.6646518707275391
                            ],
                            [
                                -0.5588340759277344,
                                -0.14020928740501404
                            ]
                        ],
                        [
                            [
                                -0.12028799206018448,
                                -0.7598192691802979
                            ],
                            [
                                -2.334444999694824,
                                -0.00973903015255928
                            ]
                        ],
                        [
                            [
                                0.21943150460720062,
                                -0.6562584042549133
                            ],
                            [
                                -0.07168211787939072,
                                -0.5196224451065063
                            ]
                        ],
                        [
                            [
                                -0.12691842019557953,
                                -1.1250615119934082
                            ],
                            [
                                -1.5702805519104004,
                                -0.18672645092010498
                            ]
                        ],
                        [
                            [
                                -0.8733527064323425,
                                1.1562942266464233
                            ],
                            [
                                -0.08395613729953766,
                                0.3124801516532898
                            ]
                        ]
                    ],
                    [
                        [
                            [
                                0.09669984132051468,
                                0.24096673727035522
                            ],
                            [
                                -0.8439546227455139,
                                0.24157077074050903
                            ]
                        ],
                        [
                            [
                                0.11939863860607147,
                                0.03793608397245407
                            ],
                            [
                                -0.7362439632415771,
                                -0.27129900455474854
                            ]
                        ],
                        [
                            [
                                0.09320949018001556,
                                0.13096947968006134
                            ],
                            [
                                -1.179020643234253,
                                -0.3577113449573517
                            ]
                        ],
                        [
                            [
                                -0.3713827431201935,
                                0.300091415643692
                            ],
                            [
                                -0.09833725541830063,
                                -0.1476120501756668
                            ]
                        ],
                        [
                            [
                                0.29077374935150146,
                                -0.21741880476474762
                            ],
                            [
                                0.3702082335948944,
                                0.15079298615455627
                            ]
                        ],
                        [
                            [
                                0.1456594616174698,
                                0.35567355155944824
                            ],
                            [
                                -0.2934970557689667,
                                -0.3188815414905548
                            ]
                        ],
                        [
                            [
                                0.17156288027763367,
                                -0.2770538628101349
                            ],
                            [
                                0.01993619091808796,
                                0.4212247431278229
                            ]
                        ],
                        [
                            [
                                0.2209029495716095,
                                0.09098469465970993
                            ],
                            [
                                0.04463212937116623,
                                0.010959706269204617
                            ]
                        ],
                        [
                            [
                                -0.0346318855881691,
                                0.22752158343791962
                            ],
                            [
                                0.5528684854507446,
                                -0.0764869749546051
                            ]
                        ],
                        [
                            [
                                -0.08123729377985,
                                0.060808971524238586
                            ],
                            [
                                0.9194096922874451,
                                0.1863117665052414
                            ]
                        ],
                        [
                            [
                                0.016283784061670303,
                                -0.1372462958097458
                            ],
                            [
                                0.14111751317977905,
                                -0.4565243721008301
                            ]
                        ],
                        [
                            [
                                -0.13368132710456848,
                                -0.25860530138015747
                            ],
                            [
                                0.12052678316831589,
                                -0.2273482084274292
                            ]
                        ],
                        [
                            [
                                0.4689972698688507,
                                -0.22724923491477966
                            ],
                            [
                                0.09152282029390335,
                                0.22955627739429474
                            ]
                        ],
                        [
                            [
                                0.32312774658203125,
                                0.2555966079235077
                            ],
                            [
                                0.07089120149612427,
                                0.0970177873969078
                            ]
                        ],
                        [
                            [
                                0.10458412766456604,
                                -0.06351996213197708
                            ],
                            [
                                -1.4586330652236938,
                                -0.012526925653219223
                            ]
                        ],
                        [
                            [
                                0.071468785405159,
                                0.5501663088798523
                            ],
                            [
                                -0.11727191507816315,
                                -0.34446167945861816
                            ]
                        ],
                        [
                            [
                                -0.08611885458230972,
                                -0.18274269998073578
                            ],
                            [
                                0.5187515616416931,
                                -0.23586846888065338
                            ]
                        ],
                        [
                            [
                                0.06074361875653267,
                                -0.1120602935552597
                            ],
                            [
                                0.746674656867981,
                                -0.39344245195388794
                            ]
                        ],
                        [
                            [
                                0.11261484026908875,
                                -0.1550174504518509
                            ],
                            [
                                -0.23661701381206512,
                                0.34930047392845154
                            ]
                        ],
                        [
                            [
                                -0.08884783834218979,
                                -0.45904532074928284
                            ],
                            [
                                -0.0033773663453757763,
                                -0.09947049617767334
                            ]
                        ],
                        [
                            [
                                0.408418744802475,
                                0.32672378420829773
                            ],
                            [
                                -0.0971018597483635,
                                -0.626591145992279
                            ]
                        ],
                        [
                            [
                                0.019786784425377846,
                                0.10447919368743896
                            ],
                            [
                                0.4323161840438843,
                                -0.7291679978370667
                            ]
                        ],
                        [
                            [
                                -0.03497568890452385,
                                0.051877934485673904
                            ],
                            [
                                -0.2234390676021576,
                                -0.14018316566944122
                            ]
                        ],
                        [
                            [
                                0.0122156273573637,
                                -0.14830775558948517
                            ],
                            [
                                -0.0468691922724247,
                                0.11604365706443787
                            ]
                        ]
                    ],
                    [
                        [
                            [
                                0.6087047457695007,
                                1.0599486827850342
                            ],
                            [
                                0.062095124274492264,
                                0.45096251368522644
                            ]
                        ],
                        [
                            [
                                0.07625921815633774,
                                -1.1655962467193604
                            ],
                            [
                                -0.19457747042179108,
                                -0.5647677779197693
                            ]
                        ],
                        [
                            [
                                -0.21048913896083832,
                                -1.2057769298553467
                            ],
                            [
                                -0.4220137298107147,
                                0.3171323835849762
                            ]
                        ],
                        [
                            [
                                -0.08452065289020538,
                                0.45900535583496094
                            ],
                            [
                                0.3042732775211334,
                                0.21334239840507507
                            ]
                        ],
                        [
                            [
                                -0.6315503120422363,
                                -0.7813009023666382
                            ],
                            [
                                -0.36905354261398315,
                                -0.48210492730140686
                            ]
                        ],
                        [
                            [
                                0.7411291599273682,
                                -0.15204308927059174
                            ],
                            [
                                -0.9656338095664978,
                                0.034431930631399155
                            ]
                        ],
                        [
                            [
                                0.14568859338760376,
                                3.494868516921997
                            ],
                            [
                                -0.1012553945183754,
                                0.3075171113014221
                            ]
                        ],
                        [
                            [
                                -0.30792704224586487,
                                0.0839185044169426
                            ],
                            [
                                -0.29385873675346375,
                                0.4377463161945343
                            ]
                        ],
                        [
                            [
                                0.2601531744003296,
                                0.3159520924091339
                            ],
                            [
                                0.6647449135780334,
                                0.117658331990242
                            ]
                        ],
                        [
                            [
                                0.5172339677810669,
                                -0.09955213963985443
                            ],
                            [
                                -0.09488311409950256,
                                0.20427489280700684
                            ]
                        ],
                        [
                            [
                                -0.444049596786499,
                                -0.07546735554933548
                            ],
                            [
                                -0.031113434582948685,
                                0.1050771027803421
                            ]
                        ],
                        [
                            [
                                0.935399055480957,
                                -0.3305845558643341
                            ],
                            [
                                1.0586693286895752,
                                -0.013079059310257435
                            ]
                        ],
                        [
                            [
                                0.9992578029632568,
                                -0.08722143620252609
                            ],
                            [
                                0.6597771644592285,
                                0.08622518926858902
                            ]
                        ],
                        [
                            [
                                -1.1873983144760132,
                                -0.22810402512550354
                            ],
                            [
                                0.7605105042457581,
                                -0.1619233936071396
                            ]
                        ],
                        [
                            [
                                -0.6481321454048157,
                                -2.43056058883667
                            ],
                            [
                                -0.20092575252056122,
                                -1.0042822360992432
                            ]
                        ],
                        [
                            [
                                -0.14435811340808868,
                                0.5272193551063538
                            ],
                            [
                                0.7423593997955322,
                                -0.1982138603925705
                            ]
                        ],
                        [
                            [
                                0.6216570734977722,
                                0.10450313985347748
                            ],
                            [
                                -0.5282852649688721,
                                -0.07230640202760696
                            ]
                        ],
                        [
                            [
                                -0.5316454172134399,
                                -2.536306858062744
                            ],
                            [
                                -0.014240301214158535,
                                -0.4126150906085968
                            ]
                        ],
                        [
                            [
                                0.023346100002527237,
                                -1.1738866567611694
                            ],
                            [
                                -0.706858217716217,
                                0.44936832785606384
                            ]
                        ],
                        [
                            [
                                -1.0830458402633667,
                                0.28565171360969543
                            ],
                            [
                                -0.15288828313350677,
                                -0.5732441544532776
                            ]
                        ],
                        [
                            [
                                -2.4263720512390137,
                                -1.0418232679367065
                            ],
                            [
                                -0.7066699266433716,
                                0.9089297652244568
                            ]
                        ],
                        [
                            [
                                -0.11414534598588943,
                                -0.376003623008728
                            ],
                            [
                                0.12625423073768616,
                                0.6559189558029175
                            ]
                        ],
                        [
                            [
                                -2.1816277503967285,
                                -0.3671863079071045
                            ],
                            [
                                1.6145254373550415,
                                0.12283769249916077
                            ]
                        ],
                        [
                            [
                                0.03195396065711975,
                                -0.12079332023859024
                            ],
                            [
                                0.0352536104619503,
                                -0.268738716840744
                            ]
                        ]
                    ],
                    [
                        [
                            [
                                -0.06132878363132477,
                                0.14313986897468567
                            ],
                            [
                                -0.1729990541934967,
                                0.1777333915233612
                            ]
                        ],
                        [
                            [
                                0.033701468259096146,
                                0.07365544140338898
                            ],
                            [
                                -0.047512445598840714,
                                -0.055904701352119446
                            ]
                        ],
                        [
                            [
                                0.29437556862831116,
                                -0.14820162951946259
                            ],
                            [
                                0.0018097421852871776,
                                -0.042971182614564896
                            ]
                        ],
                        [
                            [
                                0.05966948717832565,
                                -0.057967573404312134
                            ],
                            [
                                0.01125690434128046,
                                0.025154409930109978
                            ]
                        ],
                        [
                            [
                                -0.6305000185966492,
                                -0.3807383179664612
                            ],
                            [
                                -0.7745329737663269,
                                -0.01145168673247099
                            ]
                        ],
                        [
                            [
                                0.3612076938152313,
                                -0.15371575951576233
                            ],
                            [
                                0.03858209028840065,
                                -0.4574839770793915
                            ]
                        ],
                        [
                            [
                                -0.2357170432806015,
                                -0.06429442763328552
                            ],
                            [
                                -0.0037905992940068245,
                                0.26882338523864746
                            ]
                        ],
                        [
                            [
                                -0.005145061295479536,
                                -0.022620340809226036
                            ],
                            [
                                0.11473706364631653,
                                -0.037189945578575134
                            ]
                        ],
                        [
                            [
                                0.05875927582383156,
                                -0.15102003514766693
                            ],
                            [
                                -0.23236940801143646,
                                0.23116996884346008
                            ]
                        ],
                        [
                            [
                                -0.4969380497932434,
                                -0.3385874629020691
                            ],
                            [
                                0.09594957530498505,
                                -0.13750237226486206
                            ]
                        ],
                        [
                            [
                                -1.5766724348068237,
                                0.2651228904724121
                            ],
                            [
                                0.3249956965446472,
                                0.9083542823791504
                            ]
                        ],
                        [
                            [
                                -0.3021794259548187,
                                -0.3601113259792328
                            ],
                            [
                                -0.23373037576675415,
                                0.27897942066192627
                            ]
                        ],
                        [
                            [
                                -0.05569883808493614,
                                0.05976046621799469
                            ],
                            [
                                -0.03960726410150528,
