[
    {
        "TRAINING_BATCHES": 1000000,
        "BATCH_SIZE": 32,
        "SEED": 16,
        "INIT_LEARNING_RATE": 0,
        "LEARNING_RATE": 0.001,
        "WARMUP_STEPS": 2000,
        "TRANSITION_STEP": 50000,
        "DECAY_RATE": 0.95,
        "CODE_DISTANCE": 3,
        "ERROR_PROBS": [
            9.980039976653643e-06,
            9.980039976653643e-06,
            0.009980039671063423
        ],
        "CONV_LAYERS_INPUT_1": [
            [
                8,
                2,
                1,
                0
            ]
        ],
        "CONV_LAYERS_INPUT_2": [
            [
                8,
                1,
                1,
                0
            ]
        ],
        "CONV_LAYERS_STAGE_2": [
            [
                8,
                2,
                1,
                0
            ]
        ],
        "FC_LAYERS": [
            50,
            2
        ]
    },
    {
        "CNN_input_1": [
            {
                "b": [
                    -0.36045414209365845,
                    0.05718778818845749,
                    -0.0015147629892453551,
                    -0.028208021074533463,
                    -0.010932917706668377,
                    -0.019211208447813988,
                    0.05737660825252533,
                    -0.530011773109436
                ],
                "w": [
                    [
                        [
                            [
                                0.7600879669189453,
                                -0.30435246229171753
                            ],
                            [
                                -0.1495424211025238,
                                0.5338268280029297
                            ]
                        ]
                    ],
                    [
                        [
                            [
                                -0.014562725089490414,
                                -0.004582686349749565
                            ],
                            [
                                -0.025760261341929436,
                                -0.051682181656360626
                            ]
                        ]
                    ],
                    [
                        [
                            [
                                -0.2595684230327606,
                                0.13460972905158997
                            ],
                            [
                                -0.09973390400409698,
                                0.5161798000335693
                            ]
                        ]
                    ],
                    [
                        [
                            [
                                0.023884745314717293,
                                0.012620978057384491
                            ],
                            [
                                0.019313309341669083,
                                0.017549224197864532
                            ]
                        ]
                    ],
                    [
                        [
                            [
                                -0.01692170649766922,
                                -0.0025087089743465185
                            ],
                            [
                                -0.010208891704678535,
                                0.016002455726265907
                            ]
                        ]
                    ],
                    [
                        [
                            [
                                0.009648431092500687,
                                0.013882690109312534
                            ],
                            [
                                0.011293841525912285,
                                -0.0005969949415884912
                            ]
                        ]
                    ],
                    [
                        [
                            [
                                -0.002819888759404421,
                                -0.004471866879612207
                            ],
                            [
                                -0.023390144109725952,
                                -0.037098534405231476
                            ]
                        ]
                    ],
                    [
                        [
                            [
                                0.07995706796646118,
                                0.5379339456558228
                            ],
                            [
                                0.3136020302772522,
                                0.0491688996553421
                            ]
                        ]
                    ]
                ]
            }
        ],
        "CNN_input_2": [
            {
                "b": [
                    -0.4087335467338562,
                    -0.4798138737678528,
                    -0.3807934522628784,
                    0.22156579792499542,
                    0.28940099477767944,
                    -0.05873407796025276,
                    -0.085420161485672,
                    -0.2696150839328766
                ],
                "w": [
                    [
                        [
                            [
                                0.5122969150543213
                            ]
                        ],
                        [
                            [
                                -0.22129742801189423
                            ]
                        ],
                        [
                            [
                                -0.7444870471954346
                            ]
                        ],
                        [
                            [
                                -0.36601364612579346
                            ]
                        ],
                        [
                            [
                                0.5011692047119141
                            ]
                        ],
                        [
                            [
                                0.612005352973938
                            ]
                        ]
                    ],
                    [
                        [
                            [
                                0.45535120368003845
                            ]
                        ],
                        [
                            [
                                -0.8086554408073425
                            ]
                        ],
                        [
                            [
                                0.5275465250015259
                            ]
                        ],
                        [
                            [
                                -0.17027448117733002
                            ]
                        ],
                        [
                            [
                                -0.6160134077072144
                            ]
                        ],
                        [
                            [
                                0.41421738266944885
                            ]
                        ]
                    ],
                    [
                        [
                            [
                                0.5292753577232361
                            ]
                        ],
                        [
                            [
                                -0.12305886298418045
                            ]
                        ],
                        [
                            [
                                0.11460522562265396
                            ]
                        ],
                        [
                            [
                                0.06930331885814667
                            ]
                        ],
                        [
                            [
                                -1.1551427841186523
                            ]
                        ],
                        [
                            [
                                -0.3223192095756531
                            ]
                        ]
                    ],
                    [
                        [
                            [
                                -0.214808389544487
                            ]
                        ],
                        [
                            [
                                -0.21700911223888397
                            ]
                        ],
                        [
                            [
                                0.8757100105285645
                            ]
                        ],
                        [
                            [
                                -0.8854182958602905
                            ]
                        ],
                        [
                            [
                                0.28024694323539734
                            ]
                        ],
                        [
                            [
                                0.008742481470108032
                            ]
                        ]
                    ],
                    [
                        [
                            [
                                -0.29975804686546326
                            ]
                        ],
                        [
                            [
                                -0.3380590081214905
                            ]
                        ],
                        [
                            [
                                -0.01587655581533909
                            ]
                        ],
                        [
                            [
                                0.04448135197162628
                            ]
                        ],
                        [
                            [
                                -0.684414803981781
                            ]
                        ],
                        [
                            [
                                -0.24688905477523804
                            ]
                        ]
                    ],
                    [
                        [
                            [
                                0.06219647452235222
                            ]
                        ],
                        [
                            [
                                -0.7401731014251709
                            ]
                        ],
                        [
                            [
                                0.9183512926101685
                            ]
                        ],
                        [
                            [
                                0.07781968265771866
                            ]
                        ],
                        [
                            [
                                0.45334693789482117
                            ]
                        ],
                        [
                            [
                                -0.4189065992832184
                            ]
                        ]
                    ],
                    [
                        [
                            [
                                0.08836967498064041
                            ]
                        ],
                        [
                            [
                                -0.8817168474197388
                            ]
                        ],
                        [
                            [
                                0.39567795395851135
                            ]
                        ],
                        [
                            [
                                1.083691954612732
                            ]
                        ],
                        [
                            [
                                -0.050309646874666214
                            ]
                        ],
                        [
                            [
                                0.008909155614674091
                            ]
                        ]
                    ],
                    [
                        [
                            [
                                0.30702918767929077
                            ]
                        ],
                        [
                            [
                                -0.057528119534254074
                            ]
                        ],
                        [
                            [
                                0.38921141624450684
                            ]
                        ],
                        [
                            [
                                -0.5489907264709473
                            ]
                        ],
                        [
                            [
                                0.5517398715019226
                            ]
                        ],
                        [
                            [
                                0.16449138522148132
                            ]
                        ]
                    ]
                ]
            }
        ],
        "CNN_stage_2": [
            {
                "b": [
                    0.1463336944580078,
                    -0.02755059115588665,
                    -0.05071207508444786,
                    0.018022561445832253,
                    0.038767505437135696,
                    -0.055088214576244354,
                    -0.02152538299560547,
                    -0.40353405475616455
                ],
                "w": [
                    [
                        [
                            [
                                0.989873468875885,
                                -1.2635133266448975
                            ],
                            [
                                -0.598973274230957,
                                -0.16034334897994995
                            ]
                        ],
                        [
                            [
                                0.24064935743808746,
                                -0.05605510622262955
                            ],
                            [
                                -0.19251450896263123,
                                -0.07321039587259293
                            ]
                        ],
                        [
                            [
                                -0.26659268140792847,
                                -0.007115615531802177
                            ],
                            [
                                -0.10917948931455612,
                                0.08547963947057724
                            ]
                        ],
                        [
                            [
                                -0.044397007673978806,
                                -0.1481553614139557
                            ],
                            [
                                0.07432044297456741,
                                -0.10774580389261246
                            ]
                        ],
                        [
                            [
                                -0.012483838945627213,
                                0.025576889514923096
                            ],
                            [
                                0.018436240032315254,
                                -0.02426779270172119
                            ]
                        ],
                        [
                            [
                                -0.06462211161851883,
                                -0.09635870158672333
                            ],
                            [
                                -0.04807228595018387,
                                0.07038138806819916
                            ]
                        ],
                        [
                            [
                                -0.052317358553409576,
                                0.021968042477965355
                            ],
                            [
                                -0.10666434466838837,
                                -0.055301643908023834
                            ]
                        ],
                        [
                            [
                                0.272962361574173,
                                1.14151930809021
                            ],
                            [
                                -1.170957326889038,
                                -0.15451930463314056
                            ]
                        ]
                    ],
                    [
                        [
                            [
                                0.28301599621772766,
                                -0.26397421956062317
                            ],
                            [
                                -1.007734775543213,
                                -0.4092939794063568
                            ]
                        ],
                        [
                            [
                                -0.17229461669921875,
                                -0.0008306661620736122
                            ],
                            [
                                -0.01482199877500534,
                                0.01216015126556158
                            ]
                        ],
                        [
                            [
                                0.4186878502368927,
                                1.0196723937988281
                            ],
                            [
                                -0.572739839553833,
                                0.3751491904258728
                            ]
                        ],
                        [
                            [
                                0.05328403785824776,
                                0.0028576410841196775
                            ],
                            [
                                0.046522799879312515,
                                0.01332748681306839
                            ]
                        ],
                        [
                            [
                                -0.040589358657598495,
                                -0.0001681388239376247
                            ],
                            [
                                0.008694708347320557,
                                -0.01500011421740055
                            ]
                        ],
                        [
                            [
                                0.20938114821910858,
                                -0.14681515097618103
                            ],
                            [
                                0.027327008545398712,
                                -0.148218035697937
                            ]
                        ],
                        [
                            [
                                -0.04281415045261383,
                                -0.09261327981948853
                            ],
                            [
                                0.04573298245668411,
                                -0.013208446092903614
                            ]
                        ],
                        [
                            [
                                -1.0019291639328003,
                                -0.2620283365249634
                            ],
                            [
                                -0.4042094647884369,
                                0.17993304133415222
                            ]
                        ]
                    ],
                    [
                        [
                            [
                                0.4246133863925934,
                                -0.2978953719139099
                            ],
                            [
                                0.23503445088863373,
                                -0.16745394468307495
                            ]
                        ],
                        [
                            [
                                -0.04056683927774429,
                                -0.051139865070581436
                            ],
                            [
                                0.10227380692958832,
                                0.09499159455299377
                            ]
                        ],
                        [
                            [
                                -0.3953971564769745,
                                -0.8907530903816223
                            ],
                            [
                                1.4018205404281616,
                                -0.34212610125541687
                            ]
                        ],
                        [
                            [
                                -0.08324500918388367,
                                -0.023632731288671494
                            ],
                            [
                                0.08909104764461517,
                                0.1586189866065979
                            ]
                        ],
                        [
                            [
                                -0.02519158460199833,
                                0.008523290045559406
                            ],
                            [
                                0.0250910222530365,
                                0.040848225355148315
                            ]
                        ],
                        [
                            [
                                -0.028602080419659615,
                                -0.09244755655527115
                            ],
                            [
                                0.12359145283699036,
                                0.004597626626491547
                            ]
                        ],
                        [
                            [
                                0.09857897460460663,
                                0.15474800765514374
                            ],
                            [
                                -0.10765412449836731,
                                -0.0468531958758831
                            ]
                        ],
                        [
                            [
                                -0.855068027973175,
                                0.32733607292175293
                            ],
                            [
                                -0.907522976398468,
                                0.6456820368766785
                            ]
                        ]
                    ],
                    [
                        [
                            [
                                -0.30472472310066223,
                                0.79474937915802
                            ],
                            [
                                -0.36552444100379944,
                                0.41488924622535706
                            ]
                        ],
                        [
                            [
                                0.037019457668066025,
                                0.008390452712774277
                            ],
                            [
                                -0.035248879343271255,
                                0.024535438045859337
                            ]
                        ],
                        [
                            [
                                -0.08182688802480698,
                                -0.13567215204238892
                            ],
                            [
                                -0.2188868224620819,
                                0.1112380176782608
                            ]
                        ],
                        [
                            [
                                0.13481321930885315,
                                0.046238355338573456
                            ],
                            [
                                -0.03870030492544174,
                                -0.10211454331874847
                            ]
                        ],
                        [
                            [
                                0.029005423188209534,
                                -0.02286997251212597
                            ],
                            [
                                -0.08763766288757324,
                                -0.09673494845628738
                            ]
                        ],
                        [
                            [
                                0.019336028024554253,
                                0.0039869314059615135
                            ],
                            [
                                -0.026872528716921806,
                                0.030263571068644524
                            ]
                        ],
                        [
                            [
                                -0.12718701362609863,
                                -0.06605572253465652
                            ],
                            [
                                0.06757430732250214,
                                0.18036741018295288
                            ]
                        ],
                        [
                            [
                                0.6843441128730774,
                                0.8326127529144287
                            ],
                            [
                                0.2197892814874649,
                                0.0011459828820079565
                            ]
                        ]
                    ],
                    [
                        [
                            [
                                -0.6471129655838013,
                                0.25004878640174866
                            ],
                            [
                                -0.24138769507408142,
                                -0.1870679408311844
                            ]
                        ],
                        [
                            [
                                0.041356608271598816,
                                -0.04166411608457565
                            ],
                            [
                                0.004740257281810045,
                                0.009280789643526077
                            ]
                        ],
                        [
                            [
                                0.9701939225196838,
                                -0.7934331297874451
                            ],
                            [
                                0.2761073410511017,
                                -0.8527092933654785
                            ]
                        ],
                        [
                            [
                                0.044738106429576874,
                                -0.03665914386510849
                            ],
                            [
                                0.03228534385561943,
                                -0.005018854513764381
                            ]
                        ],
                        [
                            [
                                0.03765759989619255,
                                0.012869860976934433
                            ],
                            [
                                0.11907363682985306,
                                0.044260408729314804
                            ]
                        ],
                        [
                            [
                                0.02261311560869217,
                                -0.013179889880120754
                            ],
                            [
                                -0.010369447991251945,
                                0.022527627646923065
                            ]
                        ],
                        [
                            [
                                0.003170131705701351,
                                -0.06815632432699203
                            ],
                            [
                                0.10070427507162094,
                                0.04754973575472832
                            ]
                        ],
                        [
                            [
                                -0.285972535610199,
                                -0.2928755581378937
                            ],
                            [
                                -0.1364298313856125,
                                -0.14425191283226013
                            ]
                        ]
                    ],
                    [
                        [
                            [
                                0.6758503317832947,
                                0.588412880897522
                            ],
                            [
                                0.30685028433799744,
                                -0.050020407885313034
                            ]
                        ],
                        [
                            [
                                -0.19772851467132568,
                                -0.11315013468265533
                            ],
                            [
                                0.2432740032672882,
                                0.10049678385257721
                            ]
                        ],
                        [
                            [
                                0.35811328887939453,
                                0.6621701121330261
                            ],
                            [
                                0.6882144808769226,
                                -0.23627682030200958
                            ]
                        ],
                        [
                            [
                                0.21387401223182678,
                                0.09547960013151169
                            ],
                            [
                                0.008056622929871082,
                                0.03161691129207611
                            ]
                        ],
                        [
                            [
                                -0.026357293128967285,
                                0.08089462667703629
                            ],
                            [
                                -0.0594252273440361,
                                0.2085137516260147
                            ]
                        ],
                        [
                            [
                                -0.16340801119804382,
                                0.043034255504608154
                            ],
                            [
                                -0.06357380747795105,
                                0.03841298818588257
                            ]
                        ],
                        [
                            [
                                -0.009545917622745037,
                                0.001369204488582909
                            ],
                            [
                                0.14970694482326508,
                                -0.036395225673913956
                            ]
                        ],
                        [
                            [
                                0.2632875442504883,
                                0.5101199746131897
                            ],
                            [
                                -0.013838901184499264,
                                0.1578352451324463
                            ]
                        ]
                    ],
                    [
                        [
                            [
                                0.7720233201980591,
                                0.35910138487815857
                            ],
                            [
                                0.7134267687797546,
                                -0.3921109735965729
                            ]
                        ],
                        [
                            [
                                0.15941619873046875,
                                0.15558499097824097
                            ],
                            [
                                -0.28870439529418945,
                                -0.16583576798439026
                            ]
                        ],
                        [
                            [
                                -0.07761342823505402,
                                0.5562888383865356
                            ],
                            [
                                0.44494199752807617,
                                0.03860973194241524
                            ]
                        ],
                        [
                            [
                                -0.08331958204507828,
                                -0.0355130098760128
                            ],
                            [
                                -0.030105337500572205,
                                0.021234309300780296
                            ]
                        ],
                        [
                            [
                                -0.04836240038275719,
                                -0.10879121720790863
                            ],
                            [
                                0.01614152267575264,
                                0.018388928845524788
                            ]
                        ],
                        [
                            [
                                -0.04004867374897003,
                                0.041278399527072906
                            ],
                            [
                                -0.04613562673330307,
                                -0.04638035222887993
                            ]
                        ],
                        [
                            [
                                -0.15276935696601868,
                                -0.2304496169090271
                            ],
                            [
                                -0.03375479206442833,
                                0.026566896587610245
                            ]
                        ],
                        [
                            [
                                0.737263560295105,
                                0.16593873500823975
                            ],
                            [
                                0.041765935719013214,
                                0.7292162179946899
                            ]
                        ]
                    ],
                    [
                        [
                            [
                                0.14647597074508667,
                                -0.9682548642158508
                            ],
                            [
                                0.6031678318977356,
                                -1.0647441148757935
                            ]
                        ],
                        [
                            [
                                0.17029528319835663,
                                0.4070703387260437
                            ],
                            [
                                0.1818169504404068,
                                0.09449578076601028
                            ]
                        ],
                        [
                            [
                                -1.1032195091247559,
                                -0.9928256869316101
                            ],
                            [
                                -0.5353769659996033,
                                0.800995409488678
                            ]
                        ],
                        [
                            [
                                -0.3060264587402344,
                                -0.019966285675764084
                            ],
                            [
                                0.23543883860111237,
                                0.64555823802948
                            ]
                        ],
                        [
                            [
                                0.6199493408203125,
                                0.3766486644744873
                            ],
                            [
                                -0.4993170499801636,
                                -0.6979215741157532
                            ]
                        ],
                        [
                            [
                                0.2784828245639801,
                                0.2554752826690674
                            ],
                            [
                                -0.6809855103492737,
                                0.3719921410083771
                            ]
                        ],
                        [
                            [
                                -0.2576023042201996,
                                -0.404939740896225
                            ],
                            [
                                -0.15395236015319824,
                                -0.17298521101474762
                            ]
                        ],
                        [
                            [
                                1.339255928993225,
                                -1.4629261493682861
                            ],
                            [
                                0.36706528067588806,
                                -1.1769254207611084
                            ]
                        ]
                    ]
                ]
            }
        ],
        "MLP_stage_3": [
            {
                "b": [
                    -0.19699300825595856,
                    0.14940834045410156,
                    0.038696739822626114,
                    0.04750329256057739,
                    0.5599456429481506,
                    0.012075955048203468,
                    -0.39369097352027893,
                    0.2614138722419739,
                    0.1160508543252945,
                    1.2969216108322144,
                    -0.2045980542898178,
                    0.4806738793849945,
                    0.23448801040649414,
                    0.5239998698234558,
                    -0.31007254123687744,
                    -0.3611898720264435,
                    -0.6371146440505981,
                    0.15268775820732117,
                    -0.41666874289512634,
                    0.43416786193847656,
                    -0.2121645212173462,
                    0.6857473850250244,
                    0.39262035489082336,
                    0.4475313723087311,
                    -0.39260706305503845,
                    0.8726659417152405,
                    -0.9731613993644714,
                    0.4251805543899536,
                    -0.02952153980731964,
                    -0.6963639855384827,
                    -0.1943051815032959,
                    0.2716864049434662,
                    0.5674680471420288,
                    -0.0790802612900734,
                    0.528545081615448,
                    0.48127299547195435,
                    0.6349617838859558,
                    -0.07893030345439911,
                    0.5674298405647278,
                    0.1442139446735382,
                    0.5845022797584534,
                    0.3064269423484802,
                    0.36381885409355164,
                    -0.677269458770752,
                    -0.663212239742279,
                    0.03319074586033821,
                    -0.269819051027298,
                    -0.1975061446428299,
                    0.07736705988645554,
                    0.5759680867195129
                ],
                "w": [
                    [
                        -0.3500840961933136,
                        -2.6369879245758057,
                        0.03145848959684372,
                        -4.936158180236816,
                        0.9153276681900024,
                        0.8418370485305786,
                        -0.1981128454208374,
                        0.4954570233821869,
                        1.3215972185134888,
                        0.6852267980575562,
                        -0.3603540062904358,
                        1.0363689661026,
                        -0.5025718212127686,
                        0.796438992023468,
                        0.12032019346952438,
                        0.23846158385276794,
                        -1.785274624824524,
                        0.6777369976043701,
                        -2.015324592590332,
                        0.15982504189014435,
                        0.15581011772155762,
                        0.6255754828453064,
                        -0.6025547385215759,
                        0.516562283039093,
                        -0.09793654829263687,
                        0.6803838610649109,
                        -1.9081790447235107,
                        0.02444710023701191,
                        -0.520815908908844,
                        -2.277644157409668,
                        -4.46619176864624,
                        -0.6773977279663086,
                        0.9564931988716125,
                        0.035394638776779175,
                        0.7317038774490356,
                        0.38120579719543457,
                        0.9130122661590576,
                        -0.9401221871376038,
                        0.8263713717460632,
                        -1.6875584125518799,
                        0.5030686855316162,
                        0.4487297832965851,
                        -0.2570743262767792,
                        -2.6989071369171143,
                        -2.7638025283813477,
                        -0.46778663992881775,
                        0.4260252118110657,
                        0.03884492442011833,
                        -4.275264263153076,
                        0.3666757643222809
                    ],
                    [
                        -0.22582077980041504,
                        0.7160727381706238,
                        0.15530696511268616,
                        0.934948742389679,
                        -3.4799234867095947,
                        0.3554462790489197,
                        0.09773102402687073,
                        -2.2010767459869385,
                        -0.17747698724269867,
                        0.2827664911746979,
                        0.061924971640110016,
                        -2.848043918609619,
                        0.5560715198516846,
                        -3.0663046836853027,
                        -0.3747190535068512,
                        -0.3229326903820038,
                        0.12947484850883484,
                        -0.6974510550498962,
                        -0.31172963976860046,
                        0.8068191409111023,
                        -0.4163764417171478,
                        -0.11551759392023087,
                        0.46977606415748596,
                        -2.2771475315093994,
                        -0.3603428304195404,
                        0.8228638768196106,
                        0.04326556622982025,
                        -0.03215598315000534,
                        -0.6165547370910645,
                        0.20837099850177765,
                        0.8197104930877686,
                        -0.49980467557907104,
                        -3.072418689727783,
                        -0.022171782329678535,
                        -2.950296640396118,
                        -0.4010409414768219,
                        -3.9261474609375,
                        -0.1341986060142517,
                        -3.0702266693115234,
                        -0.0225650817155838,
                        0.2356887310743332,
                        0.017528917640447617,
                        -0.30124151706695557,
                        0.040565721690654755,
                        -0.21776534616947174,
                        0.06372714787721634,
                        -0.26343852281570435,
                        0.027186280116438866,
                        1.0353034734725952,
                        -3.253870964050293
                    ],
                    [
                        -0.2639610469341278,
                        0.007888196967542171,
                        -0.8431503772735596,
                        -0.5399020314216614,
                        -0.7559170126914978,
                        0.37036991119384766,
                        -0.048542577773332596,
                        -0.9731969237327576,
                        0.1999243050813675,
                        0.17639876902103424,
                        -0.2016027569770813,
                        -0.8402053117752075,
                        -0.2465589940547943,
                        -0.8737484812736511,
                        0.2339601367712021,
                        -0.16160258650779724,
                        -0.004572233185172081,
                        -0.688307523727417,
                        -0.18108026683330536,
                        0.0370229072868824,
                        -0.13169333338737488,
                        -0.5843234062194824,
                        -0.6270624399185181,
                        -0.43740957975387573,
                        0.109812431037426,
                        -0.32183828949928284,
                        -1.146955132484436,
                        -0.5378172993659973,
                        0.07644237577915192,
                        -0.7162702083587646,
                        -0.39831510186195374,
                        -0.09539210796356201,
                        -0.9253132343292236,
                        0.08728530257940292,
                        -1.1020021438598633,
                        -0.19559422135353088,
                        -0.8368654251098633,
                        -0.019589759409427643,
                        -1.0347590446472168,
                        -0.4650842249393463,
                        -0.5533469319343567,
                        -0.007036530412733555,
                        -0.443076491355896,
                        -0.6475885510444641,
                        0.08907867968082428,
                        -0.1521218866109848,
                        0.06412839144468307,
                        0.030181413516402245,
                        -0.25137412548065186,
                        -0.48484334349632263
                    ],
                    [
                        0.3811836540699005,
                        1.1579445600509644,
                        1.1619793176651,
                        2.949505567550659,
                        0.4573058784008026,
                        -1.6767606735229492,
                        0.3328399956226349,
                        0.6127041578292847,
                        -1.9544894695281982,
                        0.8165379166603088,
                        0.30750027298927307,
                        0.276062548160553,
                        0.4559422433376312,
                        -0.009250969626009464,
                        -1.1674467325210571,
                        -0.061003427952528,
                        0.4928486943244934,
                        0.14890575408935547,
                        0.43684473633766174,
                        -0.1484730988740921,
                        -0.3500608801841736,
                        1.060084581375122,
                        0.1353226900100708,
                        0.7099605202674866,
                        -0.38516050577163696,
                        -1.153957486152649,
                        2.227757453918457,
                        -0.11991661787033081,
                        -0.03913464769721031,
                        1.8591437339782715,
                        3.1565701961517334,
                        -1.7850971221923828,
                        0.4432724118232727,
                        -0.08019321411848068,
                        0.07485309988260269,
                        -0.28494155406951904,
                        0.34687522053718567,
                        0.3969039022922516,
                        0.19702161848545074,
                        0.5319789052009583,
                        1.1691635847091675,
                        -1.8666936159133911,
                        0.9414427280426025,
                        2.5502336025238037,
                        1.5571503639221191,
                        -0.19405421614646912,
                        -0.10055296123027802,
                        1.4596210718154907,
                        2.735044479370117,
                        0.6334626078605652
                    ],
                    [
                        0.24514614045619965,
                        0.4503576457500458,
                        1.1760157346725464,
                        -0.3788607716560364,
                        0.1669849157333374,
                        -3.0923802852630615,
                        -0.4904283881187439,
                        0.2606886029243469,
                        -3.4530835151672363,
                        1.7723363637924194,
                        0.15880639851093292,
                        0.17307184636592865,
                        -0.35333624482154846,
                        0.5341171622276306,
                        -0.6725623607635498,
                        0.035012759268283844,
                        -0.6210888624191284,
                        0.3110743463039398,
                        0.2602766752243042,
                        -0.2775147557258606,
                        -0.24571767449378967,
                        2.2919812202453613,
                        -0.11789482831954956,
                        -0.10559553653001785,
                        -0.25832274556159973,
                        2.0169637203216553,
                        -1.0479997396469116,
                        0.14514441788196564,
                        0.16240674257278442,
                        -0.6102835536003113,
                        -0.19627778232097626,
                        -0.1406179666519165,
                        -0.02812810428440571,
                        -0.794685423374176,
                        0.10785390436649323,
                        0.2705017626285553,
                        0.188458651304245,
                        -0.10830061137676239,
                        0.011278741993010044,
                        -0.14333637058734894,
                        1.322293996810913,
                        -3.914902687072754,
                        -0.5098703503608704,
                        -0.3532925546169281,
                        -0.446307510137558,
                        -0.23779547214508057,
                        -0.33143970370292664,
                        0.6414094567298889,
                        0.013860936276614666,
                        0.33335500955581665
                    ],
                    [
                        -0.014586154371500015,
                        0.914280891418457,
                        -0.9233472347259521,
                        0.6541045308113098,
                        -3.658914804458618,
                        -0.20330046117305756,
                        -0.24493102729320526,
                        -1.7459889650344849,
                        0.24492651224136353,
                        -0.5642468929290771,
                        -0.07454365491867065,
                        -3.447329044342041,
                        0.7571322321891785,
                        -2.6782822608947754,
                        0.07193543016910553,
                        0.1952252984046936,
                        -0.37083718180656433,
                        -1.4851148128509521,
                        0.27414652705192566,
                        0.7555142045021057,
                        -0.5247722864151001,
                        -0.5008202791213989,
                        0.4266858398914337,
                        -2.4162590503692627,
                        -0.8310239315032959,
                        -0.24033167958259583,
                        0.20392581820487976,
                        -0.542177677154541,
                        -0.08190581947565079,
                        -0.040059540420770645,
                        1.012410283088684,
                        -0.6389410495758057,
                        -3.357637643814087,
                        0.49373629689216614,
                        -3.3013155460357666,
                        -2.4479787349700928,
                        -3.3520710468292236,
                        -0.4441671073436737,
                        -2.63242769241333,
                        -0.1384427845478058,
                        -0.375995934009552,
                        -0.1777544468641281,
                        0.46279388666152954,
                        0.4612849950790405,
                        0.4295823276042938,
                        -0.23944878578186035,
                        0.04720228537917137,
                        0.37690529227256775,
                        1.0907716751098633,
                        -2.8948707580566406
                    ],
                    [
                        0.24622295796871185,
                        0.09759263694286346,
                        0.4879165291786194,
                        -0.07417268306016922,
                        -4.323874473571777,
                        0.6841409802436829,
                        0.4271824061870575,
                        -3.2643167972564697,
                        0.6269274353981018,
                        1.0627602338790894,
                        0.04405885562300682,
                        -4.248375415802002,
                        -0.12263105809688568,
                        -3.9149863719940186,
                        -0.03185572847723961,
                        0.011397106572985649,
                        -0.16155630350112915,
                        0.5091090798377991,
                        -0.06655159592628479,
                        -0.9779417514801025,
                        0.44930875301361084,
                        -0.6201707720756531,
                        0.17706821858882904,
                        -3.0621328353881836,
                        0.19604359567165375,
                        0.32698971033096313,
                        1.7080872058868408,
                        0.28432536125183105,
                        -0.1275695562362671,
                        1.4444926977157593,
                        -0.08967021107673645,
                        -0.03715983405709267,
                        -3.8372137546539307,
                        0.47165974974632263,
                        -4.913234233856201,
                        -0.23458130657672882,
                        -5.331021785736084,
                        -0.6282855868339539,
                        -3.827423095703125,
                        0.2589743435382843,
                        -1.1261730194091797,
                        1.0427417755126953,
                        -0.0951128676533699,
                        1.1262493133544922,
                        0.4425857365131378,
                        -0.160251647233963,
                        0.10706024616956711,
                        0.013311619870364666,
                        0.16030575335025787,
                        -4.528800964355469
                    ],
                    [
                        0.45925047993659973,
                        -0.3853817880153656,
                        0.7522618174552917,
                        -0.6901879906654358,
                        -0.3580890893936157,
                        0.3374009132385254,
                        -0.36017322540283203,
                        -0.3938625454902649,
                        0.26841679215431213,
                        1.0840445756912231,
                        -0.1918385773897171,
                        -0.25424593687057495,
                        -0.045439593493938446,
                        -0.3537692427635193,
                        0.07857797294855118,
                        -0.19421888887882233,
                        0.2861645519733429,
                        0.401790976524353,
                        -0.014600878581404686,
                        -0.6404057145118713,
                        -0.7306218147277832,
                        1.0594627857208252,
                        0.24462346732616425,
                        -0.3374781608581543,
                        -0.23975582420825958,
                        1.0844366550445557,
                        -0.3611312210559845,
                        -1.3251023292541504,
                        -0.06741595268249512,
                        -0.3995453119277954,
                        -0.5097737312316895,
                        0.802638590335846,
                        -0.45531171560287476,
                        -0.11562793701887131,
                        -0.08514665067195892,
                        -0.30428770184516907,
                        -0.5644049644470215,
                        0.5998190641403198,
                        -0.08359763771295547,
                        -0.34801870584487915,
                        1.2945295572280884,
                        0.6002836227416992,
                        -0.0735500380396843,
                        -0.48081034421920776,
                        0.5807560086250305,
                        -0.14072269201278687,
                        -0.32707664370536804,
                        1.0865119695663452,
                        -0.8665206432342529,
                        -0.5425989627838135
                    ],
                    [
                        0.1574002355337143,
                        -0.990610659122467,
                        2.611800193786621,
                        -0.6921289563179016,
                        0.005921829026192427,
                        0.820664644241333,
                        0.09860333800315857,
                        -0.5102152228355408,
                        0.5706555843353271,
                        0.5184946060180664,
                        -0.4028775095939636,
                        0.09220960736274719,
                        -1.1487067937850952,
                        0.5270169973373413,
                        -0.06872064620256424,
                        -0.19257239997386932,
                        -0.2858709990978241,
                        -0.06002257391810417,
                        -0.27740177512168884,
                        2.022934675216675,
                        -0.4608094096183777,
                        0.7123240828514099,
                        1.0938512086868286,
                        -0.31895697116851807,
                        -0.29350003600120544,
                        0.9595264792442322,
                        -1.3323750495910645,
                        -0.9699074029922485,
                        -0.050894301384687424,
                        -1.1600245237350464,
                        -0.49400344491004944,
                        0.920383870601654,
                        0.11647748202085495,
                        -1.0751025676727295,
                        0.739925742149353,
                        -0.8122292160987854,
                        0.17128245532512665,
                        1.413271427154541,
                        0.16228865087032318,
                        -0.9008694887161255,
                        2.8560943603515625,
                        0.9209253787994385,
                        2.2250757217407227,
                        -0.25270339846611023,
                        0.19197805225849152,
                        -0.00720504904165864,
                        -0.15661808848381042,
                        1.360197901725769,
                        -0.20508429408073425,
                        0.18065282702445984
                    ],
                    [
                        -0.4774090349674225,
                        0.12784694135189056,
                        0.6342552304267883,
                        1.4850577116012573,
                        -0.9233822822570801,
                        0.8666577935218811,
                        -0.18962499499320984,
                        -1.3523361682891846,
                        0.827020525932312,
                        1.206823706626892,
                        0.11616730690002441,
                        -1.1179934740066528,
                        -0.6900857090950012,
                        -1.1130121946334839,
                        0.013701384887099266,
                        -0.16261765360832214,
                        -0.32478809356689453,
                        2.5568034648895264,
                        0.741189181804657,
                        -0.6220423579216003,
                        -0.21707527339458466,
                        0.7468876838684082,
                        0.3472493588924408,
                        -0.901948094367981,
                        -0.31085205078125,
                        0.35351595282554626,
                        1.962928295135498,
                        0.2639910578727722,
                        0.02181902527809143,
                        1.6656272411346436,
                        1.5908472537994385,
                        -0.3077980875968933,
                        -1.0059479475021362,
                        -0.05740156024694443,
                        -0.8930933475494385,
                        0.4362773001194,
                        -0.9521782398223877,
                        0.4872019588947296,
                        -1.3285936117172241,
                        0.9927055835723877,
                        0.31325775384902954,
                        0.9893724322319031,
                        0.08351206034421921,
                        2.0548651218414307,
                        0.1672079712152481,
                        0.058006927371025085,
                        0.10025452077388763,
                        0.3838193714618683,
                        1.092620849609375,
                        -1.519457459449768
                    ],
                    [
                        0.8593363165855408,
                        1.8587504625320435,
                        -0.17784640192985535,
                        2.0456085205078125,
                        -0.2635031044483185,
                        -4.058444023132324,
                        -0.006277154665440321,
                        0.4274027347564697,
                        -4.056704521179199,
                        0.1275637447834015,
                        0.28603312373161316,
                        -0.1578214466571808,
                        0.5840909481048584,
                        -0.3259648382663727,
                        0.09370023012161255,
                        0.06649195402860641,
                        0.12720124423503876,
                        1.861237645149231,
                        0.7652156949043274,
                        0.05536281690001488,
                        0.3633263111114502,
                        -0.014077055267989635,
                        0.14762505888938904,
                        -0.024364903569221497,
                        -0.3280971944332123,
                        -0.5065926909446716,
                        2.881643295288086,
                        0.06728152930736542,
                        -0.1999693065881729,
                        2.4974000453948975,
                        1.951682686805725,
                        -0.521636962890625,
                        -0.0552736259996891,
                        0.4758375585079193,
                        -0.2728430926799774,
                        0.004330967552959919,
                        -0.09815145283937454,
                        -0.5561350584030151,
                        -0.27174508571624756,
                        -0.09699950367212296,
                        -0.5212807655334473,
                        -4.275266647338867,
                        -1.5365703105926514,
                        2.6057374477386475,
                        1.083125352859497,
                        -0.2580823004245758,
                        -0.26634150743484497,
                        0.04956065118312836,
                        1.8098677396774292,
                        -0.5348127484321594
                    ],
                    [
                        1.2344385385513306,
                        -0.9836456775665283,
                        1.1276710033416748,
                        -0.30596449971199036,
                        -2.0107033252716064,
                        -0.9977810978889465,
                        0.26371052861213684,
                        -0.8959360718727112,
                        -0.6992589831352234,
                        3.199338674545288,
                        0.01716153509914875,
                        -1.4711575508117676,
                        -0.9882009029388428,
                        -1.472115397453308,
                        -0.9095061421394348,
                        0.020258907228708267,
                        0.24691323935985565,
                        2.909944772720337,
                        0.049373652786016464,
                        0.4346122741699219,
                        -0.45433032512664795,
                        2.1984879970550537,
                        1.1618732213974,
                        -1.4758353233337402,
                        -0.538468062877655,
                        3.5792534351348877,
                        -0.5089372396469116,
                        1.868373990058899,
                        0.12289400398731232,
                        -0.9909147024154663,
                        -0.4112824499607086,
                        -0.936408281326294,
                        -1.9055925607681274,
                        -0.11922454088926315,
                        -1.2737514972686768,
                        2.9429612159729004,
                        -1.6678704023361206,
                        0.9205668568611145,
                        -1.8532088994979858,
                        -0.5579712986946106,
                        0.8846970200538635,
                        -0.778572142124176,
                        1.3546953201293945,
                        -0.7678461670875549,
                        0.0536394901573658,
                        -0.6893019080162048,
                        0.022607987746596336,
                        1.468666434288025,
                        -0.4844352900981903,
                        -1.119235634803772
                    ],
                    [
                        0.06483393162488937,
                        1.0611616373062134,
                        1.1716307401657104,
                        1.855928897857666,
                        -0.5187382102012634,
                        -1.7630587816238403,
                        -0.49263352155685425,
                        0.4966824948787689,
                        -1.2869014739990234,
                        0.5768080949783325,
                        0.07412591576576233,
                        -0.9276177883148193,
                        0.49081310629844666,
                        -0.43487876653671265,
                        -0.028377993032336235,
                        -0.3147701621055603,
                        0.7126219868659973,
                        -2.4609029293060303,
                        0.8984315395355225,
                        -0.24299003183841705,
                        0.09884384274482727,
                        1.4925352334976196,
                        0.871444821357727,
                        0.19262336194515228,
                        0.16485247015953064,
                        1.4110767841339111,
                        2.3777575492858887,
                        0.12840871512889862,
                        -0.23729859292507172,
                        2.211562156677246,
                        2.048886299133301,
                        -0.20964039862155914,
                        -0.5563596487045288,
                        0.3705431818962097,
                        -0.4817514717578888,
                        -1.5228265523910522,
                        -0.9168895483016968,
                        0.7157105803489685,
                        -0.652345597743988,
                        0.5163153409957886,
                        0.2896957993507385,
                        -0.7340877056121826,
                        -1.3507119417190552,
                        2.4895834922790527,
                        1.6554325819015503,
                        -0.29054152965545654,
                        -0.11072118580341339,
                        0.05988268181681633,
                        1.9904873371124268,
                        -0.5589837431907654
                    ],
                    [
                        0.6554251909255981,
                        -2.217285394668579,
                        0.31537196040153503,
                        -2.209521532058716,
                        0.43698999285697937,
                        1.991996169090271,
                        -0.6091903448104858,
                        0.2964065372943878,
                        1.692883849143982,
                        0.8899118900299072,
                        -0.2787712514400482,
                        0.5082491040229797,
                        -1.0124129056930542,
                        0.7055242657661438,
                        0.2237834632396698,
                        -0.6787508130073547,
                        -0.07801506668329239,
                        0.1961500644683838,
                        -0.5659684538841248,
                        -0.5454119443893433,
                        -0.3479790687561035,
                        -0.6918935179710388,
                        -1.548631191253662,
                        0.3184193968772888,
                        -0.14333300292491913,
                        -1.9622279405593872,
                        -0.8087322115898132,
                        0.8876752257347107,
                        0.0404897965490818,
                        -0.19707825779914856,
                        -1.6250126361846924,
                        0.1820533275604248,
                        0.7577472925186157,
                        1.1194090843200684,
                        0.7651110887527466,
                        0.3931264579296112,
                        0.37325483560562134,
                        -1.22506582736969,
                        0.9167497158050537,
                        -0.6540247797966003,
                        -0.8775306344032288,
                        2.1783618927001953,
                        -0.4611607789993286,
                        -0.5233911275863647,
                        0.8010470271110535,
                        -0.17474904656410217,
                        -0.15226535499095917,
                        0.40311360359191895,
                        -2.703524112701416,
                        0.08162104338407516
                    ],
                    [
                        0.3105833828449249,
                        1.963795781135559,
                        -0.4861939251422882,
                        2.7908737659454346,
                        -0.5342615842819214,
                        -5.212714195251465,
                        0.400577574968338,
                        0.07514028996229172,
                        -4.928445339202881,
                        0.36243948340415955,
                        -0.3662320375442505,
                        -0.23734816908836365,
                        0.1298593282699585,
                        0.026597073301672935,
                        -0.9098066687583923,
                        0.1131722629070282,
                        0.2793256938457489,
                        0.11114680022001266,
                        1.3034379482269287,
                        -0.9717194437980652,
                        0.402854323387146,
                        -0.13685600459575653,
                        0.5450504422187805,
                        -0.5600800514221191,
                        0.31833213567733765,
                        0.3634696304798126,
                        2.0357539653778076,
                        -0.5137091279029846,
                        0.05698288604617119,
                        1.7132291793823242,
                        2.8022921085357666,
                        -0.05534200370311737,
                        -0.2249055802822113,
                        0.5300127863883972,
                        0.08514842391014099,
                        -0.41948118805885315,
                        -0.19908539950847626,
                        0.5511801838874817,
                        -0.6110748648643494,
                        0.702931821346283,
                        -0.6356362700462341,
                        -5.686237812042236,
                        -1.1208065748214722,
                        2.5507452487945557,
                        0.4080908000469208,
                        0.2681601047515869,
                        0.06970333307981491,
                        0.7277728915214539,
                        2.7794697284698486,
                        -0.4224632680416107
                    ],
                    [
                        0.030713291838765144,
                        -0.5292800068855286,
                        -0.43648576736450195,
                        0.16166238486766815,
                        0.7491100430488586,
                        -0.18318593502044678,
                        -0.28406986594200134,
                        0.16968987882137299,
                        -0.40183672308921814,
                        0.7621806263923645,
                        -0.39289581775665283,
                        0.8106817007064819,
                        -0.6321029663085938,
                        0.549191951751709,
                        0.06190655380487442,
                        0.3780490756034851,
                        0.16034141182899475,
                        -0.2371993213891983,
                        -0.3124448359012604,
                        -1.0738675594329834,
                        0.03510171175003052,
                        -1.5345693826675415,
                        -1.55859375,
                        0.6507255434989929,
                        -0.038966767489910126,
                        0.8065387606620789,
                        -0.07044154405593872,
                        0.5766363143920898,
                        0.11722244322299957,
                        -0.049908943474292755,
                        0.7031381726264954,
                        0.05096641182899475,
                        1.0384019613265991,
                        0.8188186883926392,
                        0.9678643941879272,
                        0.005295841488987207,
                        0.9646880030632019,
                        0.29716700315475464,
                        0.5562984943389893,
                        0.06528601050376892,
                        -1.158974289894104,
                        -0.6557427048683167,
                        -0.410523384809494,
                        -0.26279619336128235,
                        0.35267484188079834,
                        -0.06329468637704849,
                        -0.3057270646095276,
                        -0.43697306513786316,
                        0.23152856528759003,
                        1.0064644813537598
                    ],
                    [
                        0.32982951402664185,
                        0.1984063982963562,
                        0.5052629709243774,
                        1.0833783149719238,
                        -4.896484851837158,
                        0.38642171025276184,
                        0.04270929470658302,
                        -2.2693207263946533,
                        0.3774411082267761,
                        1.0300655364990234,
                        -0.057993385940790176,
                        -4.286658763885498,
                        0.13624902069568634,
                        -4.035674571990967,
                        -0.4215579628944397,
                        0.22213900089263916,
                        0.0593109093606472,
                        0.7208633422851562,
                        -0.3646056056022644,
                        -0.5121738314628601,
                        -0.6553430557250977,
                        0.9182819128036499,
                        0.39055946469306946,
                        -3.352968215942383,
                        -0.403424471616745,
                        -0.2395257204771042,
                        1.3244768381118774,
                        0.530062735080719,
                        -0.430958092212677,
                        1.5687686204910278,
                        0.7472221851348877,
                        0.25375813245773315,
                        -4.317885398864746,
                        -0.6812064051628113,
                        -4.820489406585693,
                        0.45803606510162354,
                        -5.368948936462402,
                        0.3549152612686157,
                        -4.944806098937988,
                        1.1589463949203491,
                        -0.5045050978660583,
                        0.3623828887939453,
                        -0.18574586510658264,
                        0.7362470030784607,
                        0.674867570400238,
                        0.03158458694815636,
                        -0.0012400004779919982,
                        0.166083425283432,
                        1.4080071449279785,
                        -4.058406352996826
                    ],
                    [
                        0.12151184678077698,
                        -2.4781391620635986,
                        0.7031197547912598,
                        -1.5775552988052368,
                        0.5404189825057983,
                        1.5451031923294067,
                        0.23916158080101013,
                        1.0557464361190796,
                        2.222743034362793,
                        0.8638002872467041,
                        -0.2888668477535248,
                        0.33419936895370483,
                        0.7821429371833801,
                        -0.08052889257669449,
                        -0.17288029193878174,
                        -0.1691027283668518,
                        -0.06624358147382736,
                        -0.7142945528030396,
                        -0.9639368653297424,
                        1.7453219890594482,
                        -0.5770865678787231,
                        1.2913583517074585,
                        0.8778191208839417,
                        -0.4466240406036377,
                        -0.28503063321113586,
                        1.2401591539382935,
                        0.42946362495422363,
                        -0.8465747237205505,
                        -0.1918604075908661,
                        -0.02543775923550129,
                        -1.7050098180770874,
                        0.5640833377838135,
                        -0.46543022990226746,
                        -0.6741467714309692,
                        0.6952075362205505,
                        0.0880112498998642,
                        0.9318985939025879,
                        0.13764576613903046,
                        0.3639453053474426,
                        -1.2051060199737549,
                        1.5427615642547607,
                        1.9031264781951904,
                        1.2622182369232178,
                        -0.06919365376234055,
                        -1.137249231338501,
                        -0.6884445548057556,
                        -0.37385883927345276,
                        0.8109853267669678,
                        -1.6448173522949219,
                        0.44583654403686523
                    ],
                    [
                        0.22899560630321503,
                        1.0238431692123413,
                        0.8458347916603088,
                        0.7473544478416443,
                        0.87871915102005,
                        -3.961045026779175,
                        0.17723707854747772,
                        0.21683117747306824,
                        -3.5368404388427734,
                        1.2152341604232788,
                        -0.2222229689359665,
                        0.47042351961135864,
                        -0.03706720471382141,
                        0.3624447286128998,
                        0.3396665155887604,
                        0.025805369019508362,
                        -0.28595206141471863,
                        0.6379198431968689,
                        1.3201696872711182,
                        0.39768046140670776,
                        0.265349417924881,
                        -0.7027938365936279,
                        0.852327823638916,
                        0.01750076375901699,
                        0.37155115604400635,
                        0.3815360367298126,
                        0.5150203108787537,
                        -1.2637810707092285,
                        0.09493589401245117,
                        0.9261919856071472,
                        1.018669843673706,
                        0.028917450457811356,
                        0.40731602907180786,
                        0.26397836208343506,
                        0.9012368321418762,
                        0.3294324278831482,
                        0.9609964489936829,
                        0.8222878575325012,
                        0.780229389667511,
                        -0.06633372604846954,
                        1.2858842611312866,
                        -5.241200923919678,
                        1.3269096612930298,
                        0.9985873699188232,
                        0.5924410223960876,
                        -0.3531671464443207,
                        -0.43955689668655396,
                        0.8206254839897156,
                        0.9549872875213623,
                        1.0621037483215332
                    ],
                    [
                        -0.03946372866630554,
                        -0.021307263523340225,
                        0.44399294257164,
                        0.23354662954807281,
                        -0.7609934210777283,
                        0.1523459553718567,
                        -0.7018287777900696,
                        0.21918615698814392,
                        -0.20618881285190582,
                        0.8488807678222656,
                        -0.5354440808296204,
                        -0.22626714408397675,
                        0.07179784029722214,
                        0.00021706830011680722,
                        0.05795559659600258,
                        -0.0531097911298275,
                        0.05202905461192131,
                        -0.21613425016403198,
                        -0.1265941709280014,
                        0.4330511689186096,
                        -0.14771856367588043,
                        0.019379982724785805,
                        0.6572325825691223,
                        0.2774037718772888,
                        -0.33188584446907043,
                        0.9462735652923584,
                        1.750871181488037,
                        -0.14110110700130463,
                        -0.778998076915741,
                        1.2874038219451904,
                        -0.08271979540586472,
                        0.16939859092235565,
                        -0.13853326439857483,
                        -0.6077715158462524,
                        -0.2870500087738037,
                        0.40744492411613464,
                        -0.828700065612793,
                        0.06820234656333923,
                        -0.29157355427742004,
                        0.19209665060043335,
                        0.4974580705165863,
                        0.36980244517326355,
                        0.33645930886268616,
                        0.9587999582290649,
                        1.1022474765777588,
                        -0.06375198066234589,
                        -0.6030551195144653,
                        0.6461409330368042,
                        -0.17223335802555084,
                        -0.10671208798885345
                    ],
                    [
                        0.1318136751651764,
                        -0.3770901560783386,
                        0.34392669796943665,
                        0.5771293044090271,
                        -0.45372578501701355,
                        0.031378086656332016,
                        0.3776699900627136,
                        0.10264889895915985,
                        0.23058998584747314,
                        0.4769365191459656,
                        0.06062570959329605,
                        -0.34179824590682983,
                        -0.35909080505371094,
                        0.30235689878463745,
                        0.1195463240146637,
                        -0.13919486105442047,
                        -0.022409474477171898,
                        0.16196762025356293,
                        -0.4989028871059418,
                        -1.2504550218582153,
                        -0.2027539163827896,
                        -0.7531946897506714,
                        -0.8379355669021606,
                        0.09570374339818954,
                        -0.3461931347846985,
                        -0.3986269235610962,
                        1.3967829942703247,
                        -0.2126545011997223,
                        0.007548036985099316,
                        0.7341655492782593,
                        0.7892184257507324,
                        -0.6415257453918457,
                        -0.44463860988616943,
                        0.10612084716558456,
                        -0.3283739387989044,
                        0.007404023315757513,
                        -0.7102543711662292,
                        -0.7012349963188171,
                        -0.24406825006008148,
                        0.5631502866744995,
                        -1.0396329164505005,
                        0.4619900584220886,
                        -0.3568551540374756,
                        -0.04289652779698372,
                        0.8662042021751404,
                        -0.022214515134692192,
                        -0.13808216154575348,
                        -0.9367316365242004,
                        0.32890820503234863,
                        0.1895691156387329
                    ],
                    [
                        0.6113739013671875,
                        0.9948817491531372,
                        1.338570475578308,
                        3.188016176223755,
                        1.189879298210144,
                        3.454599380493164,
                        -0.7465822696685791,
                        1.020053744316101,
                        3.218768835067749,
                        1.1648647785186768,
                        0.47371089458465576,
                        0.600716233253479,
                        1.068223476409912,
                        0.11550609022378922,
                        -0.10932516306638718,
                        0.22969788312911987,
                        -0.01389977429062128,
                        1.4493106603622437,
                        1.0724971294403076,
                        1.9457300901412964,
                        0.2918010354042053,
                        1.8768690824508667,
                        1.6720126867294312,
                        -0.6662675142288208,
                        -0.34781336784362793,
                        0.21112050116062164,
                        1.8149077892303467,
                        -0.20153985917568207,
                        -0.2385522723197937,
                        2.348801612854004,
                        3.6926052570343018,
                        -0.7562330365180969,
                        0.8288214206695557,
                        -0.22325129806995392,
                        0.6913503408432007,
                        0.6615097522735596,
                        1.3420753479003906,
                        -0.12922070920467377,
                        -0.39170652627944946,
                        0.9835960268974304,
                        1.6473928689956665,
                        3.480762481689453,
                        2.6590709686279297,
                        1.1739507913589478,
                        0.29824113845825195,
                        0.04194750264286995,
                        0.05106091499328613,
                        0.5805032849311829,
                        2.689565658569336,
                        0.2014620453119278
                    ],
                    [
                        -1.0670336484909058,
                        -3.1262807846069336,
                        0.7020014524459839,
                        -4.5000901222229,
                        0.8420326709747314,
                        -3.124331474304199,
                        -0.35782769322395325,
                        0.6573593020439148,
                        -2.7461204528808594,
                        1.080479621887207,
                        -0.3501972556114197,
                        0.9149500727653503,
                        -1.677511215209961,
                        1.2693127393722534,
                        0.316423624753952,
                        -0.7935423851013184,
                        -1.4691283702850342,
                        -0.8278914093971252,
                        -1.5757697820663452,
                        -2.9799087047576904,
                        0.1609290987253189,
                        -1.1050046682357788,
                        -2.2372031211853027,
                        0.48477455973625183,
                        0.5530540347099304,
                        0.5430330634117126,
                        -0.75992351770401,
                        0.20979538559913635,
                        -0.17480134963989258,
                        -1.1505616903305054,
                        -4.118243217468262,
                        0.31556540727615356,
                        0.5929105281829834,
                        0.2723962068557739,
                        0.7313552498817444,
                        -0.11773025244474411,
                        0.8599172234535217,
                        0.6762863993644714,
                        1.2433555126190186,
                        -1.2519901990890503,
                        -0.18358096480369568,
                        -3.646826982498169,
                        -0.48737406730651855,
                        -1.9743083715438843,
                        -0.8160464763641357,
                        -0.08303854614496231,
                        0.0554581955075264,
                        0.13820135593414307,
                        -4.934926986694336,
                        0.34689220786094666
                    ],
                    [
                        0.871296226978302,
                        2.1878676414489746,
                        0.6165986061096191,
                        2.6419646739959717,
                        -0.3441753387451172,
                        -1.6586970090866089,
                        -0.48561713099479675,
                        -0.11369254440069199,
                        -1.1254940032958984,
                        -0.0795140266418457,
                        0.35303887724876404,
                        0.21138089895248413,
                        -0.11785002797842026,
                        -0.46832966804504395,
                        -0.2378428429365158,
                        -0.03973576799035072,
                        -0.27855798602104187,
                        -0.18952181935310364,
                        2.044520854949951,
                        -3.0257456302642822,
                        0.224651500582695,
                        -0.1668597161769867,
                        -0.2614029049873352,
                        -0.7466796040534973,
                        0.21274836361408234,
                        0.4710906147956848,
                        2.093036651611328,
                        -0.20812572538852692,
                        -0.4296264350414276,
                        1.879194736480713,
                        2.5109262466430664,
                        -0.18422263860702515,
                        -0.5631684064865112,
                        0.4950835406780243,
                        0.1098363995552063,
                        0.060252852737903595,
                        -0.2307739406824112,
                        0.3762032687664032,
                        -0.3190867602825165,
                        0.7814054489135742,
                        -0.07708718627691269,
                        -1.9991050958633423,
                        -2.5260446071624756,
                        2.6445653438568115,
                        0.573357880115509,
                        -0.07515216618776321,
                        0.5229776501655579,
                        0.06367021799087524,
                        2.5643086433410645,
                        0.006973630748689175
                    ],
                    [
                        -0.19416891038417816,
                        -0.7430725693702698,
                        -0.2969013452529907,
                        0.19835799932479858,
                        -0.2511208951473236,
                        -0.49435490369796753,
                        -0.14806732535362244,
                        -0.23860982060432434,
                        -0.08326847106218338,
                        -0.221418097615242,
                        0.04598967730998993,
                        -0.17816971242427826,
                        -0.37188342213630676,
                        -0.24076612293720245,
                        -0.21002942323684692,
                        -0.08797121793031693,
                        -0.20914754271507263,
                        -0.4060068726539612,
                        -0.5308266878128052,
                        -1.3985412120819092,
                        -0.3040432035923004,
                        -1.182816743850708,
                        -0.7949867248535156,
                        -0.3700188994407654,
                        -0.5830032229423523,
                        -0.17230398952960968,
                        -0.8029513359069824,
                        -0.3117806613445282,
                        -0.23637011647224426,
                        -1.3182287216186523,
                        0.21192286908626556,
                        -0.0649542585015297,
                        -0.16771529614925385,
                        0.7359089255332947,
                        -0.04099687933921814,
                        -0.31336280703544617,
                        -0.563849151134491,
                        0.021947991102933884,
                        -0.6203973293304443,
                        0.19685232639312744,
                        -1.0994831323623657,
                        0.08139252662658691,
                        -0.05854473263025284,
                        -0.530791699886322,
                        0.26187756657600403,
                        -0.2245400846004486,
                        0.02455400861799717,
                        -0.6566306352615356,
                        -0.46065330505371094,
                        -0.6492190361022949
                    ],
                    [
                        -0.4208696484565735,
                        0.4021763205528259,
                        1.346117615699768,
                        -1.44143545627594,
                        3.778846502304077,
                        0.5343419909477234,
                        0.6064210534095764,
                        1.452228307723999,
                        0.7626787424087524,
                        1.2779722213745117,
                        0.02222514897584915,
                        3.934171676635742,
                        0.3393574059009552,
                        3.79931902885437,
                        -0.25382867455482483,
                        -0.4606468379497528,
                        0.2956324517726898,
                        0.2839960753917694,
                        -0.3371107876300812,
                        1.064671277999878,
                        -1.4542324542999268,
                        2.7119481563568115,
                        0.7942796945571899,
                        2.72227144241333,
                        -0.6065216660499573,
                        1.869645118713379,
                        -0.498853862285614,
                        0.9867652654647827,
                        -0.48182734847068787,
                        -0.765227198600769,
                        -1.7844254970550537,
                        0.09132470935583115,
                        3.6336569786071777,
                        -1.4985722303390503,
                        3.916093349456787,
                        -0.81615149974823,
                        4.086691379547119,
                        1.4854758977890015,
                        3.6998424530029297,
