[
    {
        "TRAINING_BATCHES": 1000000,
        "BATCH_SIZE": 32,
        "SEED": 16,
        "INIT_LEARNING_RATE": 0,
        "LEARNING_RATE": 0.001,
        "WARMUP_STEPS": 2000,
        "TRANSITION_STEP": 50000,
        "DECAY_RATE": 0.95,
        "CODE_DISTANCE": 5,
        "ERROR_PROBS": [
            9.980039976653643e-06,
            9.980039976653643e-06,
            0.009980039671063423
        ],
        "CONV_LAYERS_INPUT_1": [
            [
                24,
                2,
                1,
                0
            ]
        ],
        "CONV_LAYERS_INPUT_2": [
            [
                24,
                1,
                1,
                0
            ]
        ],
        "CONV_LAYERS_STAGE_2": [
            [
                24,
                2,
                1,
                0
            ]
        ],
        "FC_LAYERS": [
            50,
            2
        ]
    },
    {
        "CNN_input_1": [
            {
                "b": [
                    -0.23390471935272217,
                    0.010139274410903454,
                    0.027225436642766,
                    -0.0033154732082039118,
                    -0.016460297629237175,
                    0.015028497204184532,
                    -0.7915010452270508,
                    -0.36994314193725586,
                    -0.87993323802948,
                    -0.4320228099822998,
                    0.012327299453318119,
                    -0.4966631233692169,
                    0.012317787855863571,
                    0.012504813261330128,
                    -0.004900503437966108,
                    -0.020999731495976448,
                    0.0171594750136137,
                    0.002842057030647993,
                    -0.14193640649318695,
                    -0.024390753358602524,
                    -0.40828415751457214,
                    -0.00037562462966889143,
                    -0.885006308555603,
                    0.8338262438774109
                ],
                "w": [
                    [
                        [
                            [
                                0.6324713230133057,
                                -0.39041537046432495
                            ],
                            [
                                -0.12014631927013397,
                                0.255895733833313
                            ]
                        ]
                    ],
                    [
                        [
                            [
                                -0.009252774529159069,
                                0.008113035932183266
                            ],
                            [
                                -0.010864020325243473,
                                -0.026756195351481438
                            ]
                        ]
                    ],
                    [
                        [
                            [
                                -0.005270758178085089,
                                0.001123551046475768
                            ],
                            [
                                -0.01780463382601738,
                                0.017736991867423058
                            ]
                        ]
                    ],
                    [
                        [
                            [
                                -0.011373821645975113,
                                0.044510215520858765
                            ],
                            [
                                0.04796455428004265,
                                -0.014050431549549103
                            ]
                        ]
                    ],
                    [
                        [
                            [
                                -0.026290860027074814,
                                0.0010145491687580943
                            ],
                            [
                                -0.01857205107808113,
                                0.021042000502347946
                            ]
                        ]
                    ],
                    [
                        [
                            [
                                -0.009919431060552597,
                                -0.036638010293245316
                            ],
                            [
                                0.010847634635865688,
                                -0.028700144961476326
                            ]
                        ]
                    ],
                    [
                        [
                            [
                                1.05548095703125,
                                0.2032703161239624
                            ],
                            [
                                -0.17962263524532318,
                                0.8053786754608154
                            ]
                        ]
                    ],
                    [
                        [
                            [
                                0.2943447232246399,
                                0.2733648419380188
                            ],
                            [
                                0.4515928626060486,
                                -0.18560361862182617
                            ]
                        ]
                    ],
                    [
                        [
                            [
                                0.260761022567749,
                                -0.045436251908540726
                            ],
                            [
                                0.325350284576416,
                                0.5087136030197144
                            ]
                        ]
                    ],
                    [
                        [
                            [
                                0.2428455650806427,
                                0.47118473052978516
                            ],
                            [
                                -0.1855349838733673,
                                -0.009308597072958946
                            ]
                        ]
                    ],
                    [
                        [
                            [
                                0.004792311228811741,
                                -0.01714923605322838
                            ],
                            [
                                -0.052979789674282074,
                                0.008820311166346073
                            ]
                        ]
                    ],
                    [
                        [
                            [
                                0.36418616771698,
                                0.12102794647216797
                            ],
                            [
                                0.09827853739261627,
                                -0.17851832509040833
                            ]
                        ]
                    ],
                    [
                        [
                            [
                                -0.015505151823163033,
                                -0.0607762448489666
                            ],
                            [
                                -0.020373884588479996,
                                -0.0021049147471785545
                            ]
                        ]
                    ],
                    [
                        [
                            [
                                -0.017064806073904037,
                                -0.030736347660422325
                            ],
                            [
                                0.02792207896709442,
                                0.04520989954471588
                            ]
                        ]
                    ],
                    [
                        [
                            [
                                0.024973930791020393,
                                0.030247004702687263
                            ],
                            [
                                0.014605347998440266,
                                0.02378827892243862
                            ]
                        ]
                    ],
                    [
                        [
                            [
                                -0.007454311475157738,
                                -0.006143222562968731
                            ],
                            [
                                -0.02136491797864437,
                                0.11037049442529678
                            ]
                        ]
                    ],
                    [
                        [
                            [
                                -0.030573658645153046,
                                -0.009916948154568672
                            ],
                            [
                                0.009473220445215702,
                                0.01707332767546177
                            ]
                        ]
                    ],
                    [
                        [
                            [
                                0.0036504436284303665,
                                -0.013619431294500828
                            ],
                            [
                                0.005814246833324432,
                                0.022353630512952805
                            ]
                        ]
                    ],
                    [
                        [
                            [
                                0.09492740780115128,
                                -0.1738218069076538
                            ],
                            [
                                0.2631053030490875,
                                -0.003300214186310768
                            ]
                        ]
                    ],
                    [
                        [
                            [
                                0.02444467879831791,
                                0.0045971036888659
                            ],
                            [
                                0.006054173689335585,
                                0.03650923818349838
                            ]
                        ]
                    ],
                    [
                        [
                            [
                                0.06202201172709465,
                                0.19368264079093933
                            ],
                            [
                                0.4983629584312439,
                                0.08551624417304993
                            ]
                        ]
                    ],
                    [
                        [
                            [
                                0.0069913784973323345,
                                -0.0146518899127841
                            ],
                            [
                                0.0054717278108000755,
                                0.01372749637812376
                            ]
                        ]
                    ],
                    [
                        [
                            [
                                -0.3147694170475006,
                                0.6576799750328064
                            ],
                            [
                                0.037631310522556305,
                                0.7874013781547546
                            ]
                        ]
                    ],
                    [
                        [
                            [
                                -0.12108030915260315,
                                -0.7120851278305054
                            ],
                            [
                                -0.08969151973724365,
                                -0.3458472490310669
                            ]
                        ]
                    ]
                ]
            }
        ],
        "CNN_input_2": [
            {
                "b": [
                    -0.05220387503504753,
                    -0.2514553666114807,
                    -0.30335843563079834,
                    0.5116150379180908,
                    0.15396429598331451,
                    -0.06494871526956558,
                    -0.4095141291618347,
                    -0.11199302226305008,
                    -0.23656561970710754,
                    -0.5365327596664429,
                    0.0006583677022717893,
                    0.12441200762987137,
                    0.2875118553638458,
                    0.26918208599090576,
                    -0.01294846460223198,
                    -0.1428900510072708,
                    0.29226335883140564,
                    0.09138173609972,
                    0.21000170707702637,
                    0.022371869534254074,
                    -0.32699480652809143,
                    -0.027155926451086998,
                    -0.183721125125885,
                    -0.42404794692993164
                ],
                "w": [
                    [
                        [
                            [
                                0.15861770510673523
                            ]
                        ],
                        [
                            [
                                -0.22129742801189423
                            ]
                        ],
                        [
                            [
                                -0.7444870471954346
                            ]
                        ],
                        [
                            [
                                -0.06346011906862259
                            ]
                        ],
                        [
                            [
                                0.5011692047119141
                            ]
                        ],
                        [
                            [
                                0.612005352973938
                            ]
                        ]
                    ],
                    [
                        [
                            [
                                0.2289329618215561
                            ]
                        ],
                        [
                            [
                                -0.8086554408073425
                            ]
                        ],
                        [
                            [
                                0.5275465250015259
                            ]
                        ],
                        [
                            [
                                0.24850080907344818
                            ]
                        ],
                        [
                            [
                                -0.6160134077072144
                            ]
                        ],
                        [
                            [
                                0.41421738266944885
                            ]
                        ]
                    ],
                    [
                        [
                            [
                                0.2895483374595642
                            ]
                        ],
                        [
                            [
                                -0.12305886298418045
                            ]
                        ],
                        [
                            [
                                0.11460522562265396
                            ]
                        ],
                        [
                            [
                                0.2847996950149536
                            ]
                        ],
                        [
                            [
                                -1.1551427841186523
                            ]
                        ],
                        [
                            [
                                -0.3223192095756531
                            ]
                        ]
                    ],
                    [
                        [
                            [
                                -0.49080491065979004
                            ]
                        ],
                        [
                            [
                                -0.21700911223888397
                            ]
                        ],
                        [
                            [
                                0.8757100105285645
                            ]
                        ],
                        [
                            [
                                -0.48043516278266907
                            ]
                        ],
                        [
                            [
                                0.28024694323539734
                            ]
                        ],
                        [
                            [
                                0.008742481470108032
                            ]
                        ]
                    ],
                    [
                        [
                            [
                                -0.1497405767440796
                            ]
                        ],
                        [
                            [
                                -0.3380590081214905
                            ]
                        ],
                        [
                            [
                                -0.01587655581533909
                            ]
                        ],
                        [
                            [
                                -0.17379646003246307
                            ]
                        ],
                        [
                            [
                                -0.684414803981781
                            ]
                        ],
                        [
                            [
                                -0.24688905477523804
                            ]
                        ]
                    ],
                    [
                        [
                            [
                                0.08825942128896713
                            ]
                        ],
                        [
                            [
                                -0.7401731014251709
                            ]
                        ],
                        [
                            [
                                0.9183512926101685
                            ]
                        ],
                        [
                            [
                                0.07590364664793015
                            ]
                        ],
                        [
                            [
                                0.45334693789482117
                            ]
                        ],
                        [
                            [
                                -0.4189065992832184
                            ]
                        ]
                    ],
                    [
                        [
                            [
                                0.508408784866333
                            ]
                        ],
                        [
                            [
                                -0.8817168474197388
                            ]
                        ],
                        [
                            [
                                0.39567795395851135
                            ]
                        ],
                        [
                            [
                                0.5754683613777161
                            ]
                        ],
                        [
                            [
                                -0.050309646874666214
                            ]
                        ],
                        [
                            [
                                0.008909155614674091
                            ]
                        ]
                    ],
                    [
                        [
                            [
                                0.21176348626613617
                            ]
                        ],
                        [
                            [
                                -0.057528119534254074
                            ]
                        ],
                        [
                            [
                                0.38921141624450684
                            ]
                        ],
                        [
                            [
                                -0.04059280827641487
                            ]
                        ],
                        [
                            [
                                0.5517398715019226
                            ]
                        ],
                        [
                            [
                                0.16449138522148132
                            ]
                        ]
                    ],
                    [
                        [
                            [
                                0.006989245768636465
                            ]
                        ],
                        [
                            [
                                -0.5867581963539124
                            ]
                        ],
                        [
                            [
                                0.34439149498939514
                            ]
                        ],
                        [
                            [
                                0.3695128262042999
                            ]
                        ],
                        [
                            [
                                1.0888031721115112
                            ]
                        ],
                        [
                            [
                                -0.8944309949874878
                            ]
                        ]
                    ],
                    [
                        [
                            [
                                0.7391983866691589
                            ]
                        ],
                        [
                            [
                                0.6195666193962097
                            ]
                        ],
                        [
                            [
                                0.33874496817588806
                            ]
                        ],
                        [
                            [
                                0.47358691692352295
                            ]
                        ],
                        [
                            [
                                0.6177293658256531
                            ]
                        ],
                        [
                            [
                                -0.10839875787496567
                            ]
                        ]
                    ],
                    [
                        [
                            [
                                0.015247323550283909
                            ]
                        ],
                        [
                            [
                                0.5555146336555481
                            ]
                        ],
                        [
                            [
                                -0.5496461391448975
                            ]
                        ],
                        [
                            [
                                0.040564991533756256
                            ]
                        ],
                        [
                            [
                                -0.19316503405570984
                            ]
                        ],
                        [
                            [
                                -0.15286540985107422
                            ]
                        ]
                    ],
                    [
                        [
                            [
                                0.02779626101255417
                            ]
                        ],
                        [
                            [
                                -0.6261405944824219
                            ]
                        ],
                        [
                            [
                                -0.3156340718269348
                            ]
                        ],
                        [
                            [
                                -0.24404838681221008
                            ]
                        ],
                        [
                            [
                                0.3606316149234772
                            ]
                        ],
                        [
                            [
                                -0.1996585875749588
                            ]
                        ]
                    ],
                    [
                        [
                            [
                                -0.3109210133552551
                            ]
                        ],
                        [
                            [
                                0.12836720049381256
                            ]
                        ],
                        [
                            [
                                0.22776450216770172
                            ]
                        ],
                        [
                            [
                                -0.3454758822917938
                            ]
                        ],
                        [
                            [
                                0.3875085413455963
                            ]
                        ],
                        [
                            [
                                -0.08309919387102127
                            ]
                        ]
                    ],
                    [
                        [
                            [
                                -0.3144909143447876
                            ]
                        ],
                        [
                            [
                                0.044137030839920044
                            ]
                        ],
                        [
                            [
                                0.08065836876630783
                            ]
                        ],
                        [
                            [
                                -0.3104957044124603
                            ]
                        ],
                        [
                            [
                                -0.5001567602157593
                            ]
                        ],
                        [
                            [
                                -0.5453810691833496
                            ]
                        ]
                    ],
                    [
                        [
                            [
                                0.02251320704817772
                            ]
                        ],
                        [
                            [
                                0.5024276375770569
                            ]
                        ],
                        [
                            [
                                -0.6273291707038879
                            ]
                        ],
                        [
                            [
                                0.036365870386362076
                            ]
                        ],
                        [
                            [
                                -0.2685593068599701
                            ]
                        ],
                        [
                            [
                                -0.29390159249305725
                            ]
                        ]
                    ],
                    [
                        [
                            [
                                0.05038061738014221
                            ]
                        ],
                        [
                            [
                                0.06995585560798645
                            ]
                        ],
                        [
                            [
                                -0.11027161777019501
                            ]
                        ],
                        [
                            [
                                0.075863316655159
                            ]
                        ],
                        [
                            [
                                -0.4206528663635254
                            ]
                        ],
                        [
                            [
                                -0.1147453635931015
                            ]
                        ]
                    ],
                    [
                        [
                            [
                                -0.3220907747745514
                            ]
                        ],
                        [
                            [
                                -1.0163263082504272
                            ]
                        ],
                        [
                            [
                                -0.035608384758234024
                            ]
                        ],
                        [
                            [
                                -0.28120073676109314
                            ]
                        ],
                        [
                            [
                                0.1565491408109665
                            ]
                        ],
                        [
                            [
                                0.3709774911403656
                            ]
                        ]
                    ],
                    [
                        [
                            [
                                -0.08268159627914429
                            ]
                        ],
                        [
                            [
                                0.09534943848848343
                            ]
                        ],
                        [
                            [
                                1.070281982421875
                            ]
                        ],
                        [
                            [
                                -0.08656950294971466
                            ]
                        ],
                        [
                            [
                                -0.5619511604309082
                            ]
                        ],
                        [
                            [
                                -0.21976344287395477
                            ]
                        ]
                    ],
                    [
                        [
                            [
                                -0.1814843714237213
                            ]
                        ],
                        [
                            [
                                0.40702787041664124
                            ]
                        ],
                        [
                            [
                                1.4413141012191772
                            ]
                        ],
                        [
                            [
                                -0.3902225196361542
                            ]
                        ],
                        [
                            [
                                -1.005738377571106
                            ]
                        ],
                        [
                            [
                                -0.9271833896636963
                            ]
                        ]
                    ],
                    [
                        [
                            [
                                -0.00451493076980114
                            ]
                        ],
                        [
                            [
                                -0.23535218834877014
                            ]
                        ],
                        [
                            [
                                -0.6614149808883667
                            ]
                        ],
                        [
                            [
                                -0.018320990726351738
                            ]
                        ],
                        [
                            [
                                -0.6069168448448181
                            ]
                        ],
                        [
                            [
                                0.08262936025857925
                            ]
                        ]
                    ],
                    [
                        [
                            [
                                0.4579709768295288
                            ]
                        ],
                        [
                            [
                                -0.148329958319664
                            ]
                        ],
                        [
                            [
                                0.2921283543109894
                            ]
                        ],
                        [
                            [
                                0.4310990273952484
                            ]
                        ],
                        [
                            [
                                1.2315562963485718
                            ]
                        ],
                        [
                            [
                                0.33086204528808594
                            ]
                        ]
                    ],
                    [
                        [
                            [
                                0.015550541691482067
                            ]
                        ],
                        [
                            [
                                0.02491188980638981
                            ]
                        ],
                        [
                            [
                                -0.7781175971031189
                            ]
                        ],
                        [
                            [
                                0.014991628006100655
                            ]
                        ],
                        [
                            [
                                -0.5389627814292908
                            ]
                        ],
                        [
                            [
                                -1.1540900468826294
                            ]
                        ]
                    ],
                    [
                        [
                            [
                                0.3158520758152008
                            ]
                        ],
                        [
                            [
                                0.8157437443733215
                            ]
                        ],
                        [
                            [
                                -0.10107386112213135
                            ]
                        ],
                        [
                            [
                                0.3532567322254181
                            ]
                        ],
                        [
                            [
                                0.6841656565666199
                            ]
                        ],
                        [
                            [
                                -0.15934531390666962
                            ]
                        ]
                    ],
                    [
                        [
                            [
                                0.5133786797523499
                            ]
                        ],
                        [
                            [
                                -0.48952725529670715
                            ]
                        ],
                        [
                            [
                                0.8192823529243469
                            ]
                        ],
                        [
                            [
                                0.5990510582923889
                            ]
                        ],
                        [
                            [
                                -0.9838415384292603
                            ]
                        ],
                        [
                            [
                                0.21797135472297668
                            ]
                        ]
                    ]
                ]
            }
        ],
        "CNN_stage_2": [
            {
                "b": [
                    -0.3056011199951172,
                    -0.8078426718711853,
                    -0.5867700576782227,
                    -0.35732778906822205,
                    -0.1505289077758789,
                    -0.6702717542648315,
                    -0.5600366592407227,
                    -0.4179953634738922,
                    -0.8491030931472778,
                    -0.06775061041116714,
                    -0.7326504588127136,
                    -0.39147183299064636,
                    -0.6884369254112244,
                    -0.6091131567955017,
                    -0.6219936013221741,
                    -0.9008123874664307,
                    -0.9778023362159729,
                    -0.7889844179153442,
                    -0.5845074653625488,
                    -0.18141429126262665,
                    -0.043784573674201965,
                    -0.437901109457016,
                    0.6918619871139526,
                    -0.17551854252815247
                ],
                "w": [
                    [
                        [
                            [
                                0.5177621841430664,
                                0.5195432305335999
                            ],
                            [
                                0.9020078182220459,
                                0.054236508905887604
                            ]
                        ],
                        [
                            [
                                -0.10232776403427124,
                                -0.11555638909339905
                            ],
                            [
                                -0.02672635391354561,
                                -0.006999665405601263
                            ]
                        ],
                        [
                            [
                                0.051578588783741,
                                0.2981959879398346
                            ],
                            [
                                -0.3873044550418854,
                                -0.08977776765823364
                            ]
                        ],
                        [
                            [
                                0.22437743842601776,
                                0.0932692438364029
                            ],
                            [
                                0.09674940258264542,
                                0.03820415586233139
                            ]
                        ],
                        [
                            [
                                -0.2838361859321594,
                                -0.05226460099220276
                            ],
                            [
                                -0.14035086333751678,
                                0.0316677950322628
                            ]
                        ],
                        [
                            [
                                0.08840055018663406,
                                -0.1256149411201477
                            ],
                            [
                                -0.17672038078308105,
                                -0.13092051446437836
                            ]
                        ],
                        [
                            [
                                0.055523257702589035,
                                0.3517366945743561
                            ],
                            [
                                0.30836495757102966,
                                -0.5313572883605957
                            ]
                        ],
                        [
                            [
                                -0.6247493624687195,
                                -0.019639883190393448
                            ],
                            [
                                -0.19487886130809784,
                                0.4598391652107239
                            ]
                        ],
                        [
                            [
                                0.330784410238266,
                                0.31145843863487244
                            ],
                            [
                                -0.1568172127008438,
                                -0.14112940430641174
                            ]
                        ],
                        [
                            [
                                0.8218143582344055,
                                0.5216917395591736
                            ],
                            [
                                -0.15950706601142883,
                                0.02743547037243843
                            ]
                        ],
                        [
                            [
                                -0.37090447545051575,
                                0.0779103934764862
                            ],
                            [
                                -0.14308346807956696,
                                0.13852959871292114
                            ]
                        ],
                        [
                            [
                                -0.3332144021987915,
                                -0.09345263242721558
                            ],
                            [
                                0.3373452126979828,
                                0.41989925503730774
                            ]
                        ],
                        [
                            [
                                0.09167361259460449,
                                -0.033250801265239716
                            ],
                            [
                                0.18401308357715607,
                                0.05097595974802971
                            ]
                        ],
                        [
                            [
                                -0.0077391937375068665,
                                -0.015023572370409966
                            ],
                            [
                                -0.08305520564317703,
                                0.06666405498981476
                            ]
                        ],
                        [
                            [
                                0.0482371561229229,
                                0.10693328827619553
                            ],
                            [
                                -0.028396250680088997,
                                -0.11722083389759064
                            ]
                        ],
                        [
                            [
                                -0.14778871834278107,
                                -0.03443099185824394
                            ],
                            [
                                0.196310892701149,
                                -0.1688886135816574
                            ]
                        ],
                        [
                            [
                                -0.02552611008286476,
                                -0.016992729157209396
                            ],
                            [
                                0.05362618342041969,
                                0.08435311913490295
                            ]
                        ],
                        [
                            [
                                -0.033604253083467484,
                                0.19421705603599548
                            ],
                            [
                                -0.09699022769927979,
                                -0.004183237440884113
                            ]
                        ],
                        [
                            [
                                -0.27425888180732727,
                                -0.2965526580810547
                            ],
                            [
                                0.4871579706668854,
                                0.5750501155853271
                            ]
                        ],
                        [
                            [
                                0.10304296761751175,
                                -0.011738317087292671
                            ],
                            [
                                -0.19006775319576263,
                                0.14262056350708008
                            ]
                        ],
                        [
                            [
                                -0.12584064900875092,
                                -0.15364299714565277
                            ],
                            [
                                0.44578927755355835,
                                0.57780921459198
                            ]
                        ],
                        [
                            [
                                -0.0016152940224856138,
                                0.1783817559480667
                            ],
                            [
                                0.08951964229345322,
                                0.21366967260837555
                            ]
                        ],
                        [
                            [
                                -0.40537092089653015,
                                0.6607607007026672
                            ],
                            [
                                0.2531489431858063,
                                0.4497503340244293
                            ]
                        ],
                        [
                            [
                                -0.2915976643562317,
                                -0.7744573950767517
                            ],
                            [
                                0.11338862776756287,
                                -0.4879344403743744
                            ]
                        ]
                    ],
                    [
                        [
                            [
                                0.40570327639579773,
                                0.05089496448636055
                            ],
                            [
                                0.5454769134521484,
                                0.26005473732948303
                            ]
                        ],
                        [
                            [
                                0.16896025836467743,
                                0.16619306802749634
                            ],
                            [
                                0.1459147036075592,
                                -0.32617542147636414
                            ]
                        ],
                        [
                            [
                                0.3032967150211334,
                                -0.33445605635643005
                            ],
                            [
                                0.057990577071905136,
                                -0.3027002215385437
                            ]
                        ],
                        [
                            [
                                -0.46888282895088196,
                                0.05569300428032875
                            ],
                            [
                                -0.6408011317253113,
                                0.23009158670902252
                            ]
                        ],
                        [
                            [
                                0.011988315731287003,
                                0.0932561606168747
                            ],
                            [
                                -0.2328721582889557,
                                0.42048516869544983
                            ]
                        ],
                        [
                            [
                                -0.15998706221580505,
                                -0.1649501770734787
                            ],
                            [
                                0.13882414996623993,
                                -0.3660360872745514
                            ]
                        ],
                        [
                            [
                                -0.888805091381073,
                                0.16736440360546112
                            ],
                            [
                                0.08350818604230881,
                                0.10844488441944122
                            ]
                        ],
                        [
                            [
                                0.25216424465179443,
                                -0.04827449843287468
                            ],
                            [
                                0.2758425772190094,
                                1.0452086925506592
                            ]
                        ],
                        [
                            [
                                -0.3899437487125397,
                                0.4054632782936096
                            ],
                            [
                                -0.2842641770839691,
                                0.4215647876262665
                            ]
                        ],
                        [
                            [
                                0.4939294457435608,
                                1.0620625019073486
                            ],
                            [
                                -0.46048471331596375,
                                0.488939493894577
                            ]
                        ],
                        [
                            [
                                0.3159780204296112,
                                -0.045692089945077896
                            ],
                            [
                                -0.164969339966774,
                                -0.33994555473327637
                            ]
                        ],
                        [
                            [
                                0.5292287468910217,
                                -0.13309752941131592
                            ],
                            [
                                -0.3050505220890045,
                                0.20172199606895447
                            ]
                        ],
                        [
                            [
                                -0.2136373221874237,
                                0.45425644516944885
                            ],
                            [
                                0.2738247811794281,
                                -0.024872252717614174
                            ]
                        ],
                        [
                            [
                                -0.01603420078754425,
                                1.066313624382019
                            ],
                            [
                                -0.07383537292480469,
                                0.10296283662319183
                            ]
                        ],
                        [
                            [
                                -0.03742104396224022,
                                -0.011952069588005543
                            ],
                            [
                                0.34207162261009216,
                                0.07953694462776184
                            ]
                        ],
                        [
                            [
                                -0.31697654724121094,
                                -0.4336261451244354
                            ],
                            [
                                -0.11253725737333298,
                                -0.4440312087535858
                            ]
                        ],
                        [
                            [
                                -0.46117591857910156,
                                0.05768531188368797
                            ],
                            [
                                -0.12283904105424881,
                                0.25068405270576477
                            ]
                        ],
                        [
                            [
                                -0.11202864348888397,
                                -0.20439253747463226
                            ],
                            [
                                -0.18436138331890106,
                                -0.007720105815678835
                            ]
                        ],
                        [
                            [
                                0.5778465270996094,
                                -0.6950798034667969
                            ],
                            [
                                0.1023409441113472,
                                -0.04801444709300995
                            ]
                        ],
                        [
                            [
                                -0.6352570652961731,
                                0.09323371201753616
                            ],
                            [
                                0.3041664958000183,
                                0.26368191838264465
                            ]
                        ],
                        [
                            [
                                0.2611368000507355,
                                0.13422420620918274
                            ],
                            [
                                0.21531786024570465,
                                0.31024330854415894
                            ]
                        ],
                        [
                            [
                                -0.11760834604501724,
                                -0.005279949400573969
                            ],
                            [
                                0.1381996124982834,
                                0.08218271285295486
                            ]
                        ],
                        [
                            [
                                0.34806498885154724,
                                0.13640698790550232
                            ],
                            [
                                -0.09704885631799698,
                                1.008533239364624
                            ]
                        ],
                        [
                            [
                                0.17109565436840057,
                                -1.070805311203003
                            ],
                            [
                                0.1602402776479721,
                                0.43967530131340027
                            ]
                        ]
                    ],
                    [
                        [
                            [
                                0.9578473567962646,
                                0.7340441346168518
                            ],
                            [
                                0.541356086730957,
                                0.2096301168203354
                            ]
                        ],
                        [
                            [
                                0.048820510506629944,
                                -0.1679345816373825
                            ],
                            [
                                -0.11677701771259308,
                                -0.13060468435287476
                            ]
                        ],
                        [
                            [
                                -0.24426963925361633,
                                0.4431893229484558
                            ],
                            [
                                0.5160186290740967,
                                0.6043148040771484
                            ]
                        ],
                        [
                            [
                                0.32138118147850037,
                                -0.40422940254211426
                            ],
                            [
                                0.10382597148418427,
                                0.05029216408729553
                            ]
                        ],
                        [
                            [
                                -0.08753802627325058,
                                0.144924595952034
                            ],
                            [
                                0.08354876190423965,
                                0.4236527979373932
                            ]
                        ],
                        [
                            [
                                0.08354417979717255,
                                0.08669447898864746
                            ],
                            [
                                0.06593143939971924,
                                0.6020531058311462
                            ]
                        ],
                        [
                            [
                                -1.058464527130127,
                                -0.45835909247398376
                            ],
                            [
                                0.3067280054092407,
                                0.7709519863128662
                            ]
                        ],
                        [
                            [
                                0.19685238599777222,
                                -0.07116930931806564
                            ],
                            [
                                -0.5142776966094971,
                                -0.11135807633399963
                            ]
                        ],
                        [
                            [
                                -0.02824322320520878,
                                -0.6823734641075134
                            ],
                            [
                                -0.1265193372964859,
                                -0.5717949271202087
                            ]
                        ],
                        [
                            [
                                -0.49777281284332275,
                                -0.5039262175559998
                            ],
                            [
                                -0.3098185062408447,
                                -0.3331834077835083
                            ]
                        ],
                        [
                            [
                                0.11396637558937073,
                                0.5656779408454895
                            ],
                            [
                                -0.13426700234413147,
                                -0.05914407968521118
                            ]
                        ],
                        [
                            [
                                -0.034315112978219986,
                                -0.15020611882209778
                            ],
                            [
                                0.01679738238453865,
                                0.3137343227863312
                            ]
                        ],
                        [
                            [
                                0.1660318523645401,
                                0.022815942764282227
                            ],
                            [
                                -0.19443263113498688,
                                -0.4180658757686615
                            ]
                        ],
                        [
                            [
                                0.5830943584442139,
                                -0.1100137010216713
                            ],
                            [
                                -0.026186440140008926,
                                -0.34471380710601807
                            ]
                        ],
                        [
                            [
                                -0.13543331623077393,
                                -0.07473575323820114
                            ],
                            [
                                -0.017849063500761986,
                                -0.12400785833597183
                            ]
                        ],
                        [
                            [
                                0.014420193620026112,
                                0.1490454226732254
                            ],
                            [
                                -0.04272649064660072,
                                0.26442790031433105
                            ]
                        ],
                        [
                            [
                                0.13750804960727692,
                                -0.1651427149772644
                            ],
                            [
                                0.22148418426513672,
                                0.24914045631885529
                            ]
                        ],
                        [
                            [
                                0.0007231541094370186,
                                0.12260241061449051
                            ],
                            [
                                0.21742098033428192,
                                -0.17444774508476257
                            ]
                        ],
                        [
                            [
                                0.6690284609794617,
                                0.6229696273803711
                            ],
                            [
                                0.15431050956249237,
                                0.4763742685317993
                            ]
                        ],
                        [
                            [
                                -0.2034892588853836,
                                -0.08310138434171677
                            ],
                            [
                                0.04348958283662796,
                                -0.13058950006961823
                            ]
                        ],
                        [
                            [
                                -0.46170493960380554,
                                -0.23865193128585815
                            ],
                            [
                                1.1744040250778198,
                                0.2782086730003357
                            ]
                        ],
                        [
                            [
                                -0.03948177769780159,
                                -0.02440648153424263
                            ],
                            [
                                -0.18204842507839203,
                                -0.2790667712688446
                            ]
                        ],
                        [
                            [
                                0.23830470442771912,
                                -0.2511979639530182
                            ],
                            [
                                0.07801931351423264,
                                0.40413323044776917
                            ]
                        ],
                        [
                            [
                                0.4014236629009247,
                                0.6462265849113464
                            ],
                            [
                                -0.24823254346847534,
                                -0.2750205397605896
                            ]
                        ]
                    ],
                    [
                        [
                            [
                                -0.4049340784549713,
                                -0.9111974835395813
                            ],
                            [
                                -0.10366836935281754,
                                -0.9984819293022156
                            ]
                        ],
                        [
                            [
                                0.06807385385036469,
                                -0.052861474454402924
                            ],
                            [
                                0.09736350923776627,
                                -0.040148284286260605
                            ]
                        ],
                        [
                            [
                                0.052687570452690125,
                                -0.0568837933242321
                            ],
                            [
                                -0.042572520673274994,
                                0.028405839577317238
                            ]
                        ],
                        [
                            [
                                -0.04832416772842407,
                                -0.05100613832473755
                            ],
                            [
                                0.018574552610516548,
                                -0.13043496012687683
                            ]
                        ],
                        [
                            [
                                0.013569996692240238,
                                -0.045482881367206573
                            ],
                            [
                                -0.10371202975511551,
                                0.11059524118900299
                            ]
                        ],
                        [
                            [
                                0.06027023121714592,
                                -0.023262612521648407
                            ],
                            [
                                -0.04317237809300423,
                                -0.10341481119394302
                            ]
                        ],
                        [
                            [
                                -0.07929682731628418,
                                -0.6791033744812012
                            ],
                            [
                                0.49591130018234253,
                                -0.5863078832626343
                            ]
                        ],
                        [
                            [
                                -0.708848237991333,
                                1.1088874340057373
                            ],
                            [
                                2.032442808151245,
                                0.6041290163993835
                            ]
                        ],
                        [
                            [
                                0.03306259214878082,
                                0.6058399677276611
                            ],
                            [
                                -1.1028622388839722,
                                0.48544955253601074
                            ]
                        ],
                        [
                            [
                                -0.22561989724636078,
                                0.1195107027888298
                            ],
                            [
                                0.04213190823793411,
                                0.2953503429889679
                            ]
                        ],
                        [
                            [
                                -0.1540323942899704,
                                -0.013270231895148754
                            ],
                            [
                                0.052530448883771896,
                                0.19895122945308685
                            ]
                        ],
                        [
                            [
                                0.3228495717048645,
                                0.5159258842468262
                            ],
                            [
                                0.1739460974931717,
                                0.594548761844635
                            ]
                        ],
                        [
                            [
                                -0.013687086291611195,
                                0.014675282873213291
                            ],
                            [
                                0.06253668665885925,
                                0.026449833065271378
                            ]
                        ],
                        [
                            [
                                0.06387962400913239,
                                -0.2419179081916809
                            ],
                            [
                                0.1254543513059616,
                                0.1090225800871849
                            ]
                        ],
                        [
                            [
                                -0.030840491876006126,
                                0.07389585673809052
                            ],
                            [
                                0.04597710445523262,
                                0.045698150992393494
                            ]
                        ],
                        [
                            [
                                -0.04710052162408829,
                                0.00357540650293231
                            ],
                            [
                                0.009536647237837315,
                                -0.010615657083690166
                            ]
                        ],
                        [
                            [
                                0.030941622331738472,
                                0.07255503535270691
                            ],
                            [
                                -0.14471563696861267,
                                -0.02550153248012066
                            ]
                        ],
                        [
                            [
                                -0.08029702305793762,
                                -0.1280079483985901
                            ],
                            [
                                0.1266305148601532,
                                -0.002760298317298293
                            ]
                        ],
                        [
                            [
                                0.18499545753002167,
                                -0.9829699993133545
                            ],
                            [
                                1.3050016164779663,
                                -0.5355868935585022
                            ]
                        ],
                        [
                            [
                                0.14355938136577606,
                                0.04949681833386421
                            ],
                            [
                                -0.09114184230566025,
                                -0.15139107406139374
                            ]
                        ],
                        [
                            [
                                0.236333429813385,
                                -0.2764376103878021
                            ],
                            [
                                -1.4498199224472046,
                                -0.5060188174247742
                            ]
                        ],
                        [
                            [
                                -0.08009202778339386,
                                0.03109312243759632
                            ],
                            [
                                0.017037387937307358,
                                -0.07688304036855698
                            ]
                        ],
                        [
                            [
                                0.4706478416919708,
                                -0.7348793148994446
                            ],
                            [
                                -0.5658939480781555,
                                -0.7693253755569458
                            ]
                        ],
                        [
                            [
                                -0.23202694952487946,
                                1.2401005029678345
                            ],
                            [
                                -0.4737904369831085,
                                0.4444687068462372
                            ]
                        ]
                    ],
                    [
                        [
                            [
                                0.8215504288673401,
                                0.5802746415138245
                            ],
                            [
                                -0.4233899712562561,
                                0.16940082609653473
                            ]
                        ],
                        [
                            [
                                -0.33767226338386536,
                                0.09981611371040344
                            ],
                            [
                                0.043554726988077164,
                                0.09949377924203873
                            ]
                        ],
                        [
                            [
                                -0.09606190770864487,
                                -0.010151510126888752
                            ],
                            [
                                -0.17660783231258392,
                                -0.1551927626132965
                            ]
                        ],
                        [
                            [
                                0.24269931018352509,
                                0.059432677924633026
                            ],
                            [
                                -0.2444252073764801,
                                -0.018800266087055206
                            ]
                        ],
                        [
                            [
                                0.13932454586029053,
                                -0.12644271552562714
                            ],
                            [
                                -0.0007177629158832133,
                                -0.1543932408094406
                            ]
                        ],
                        [
                            [
                                0.3311035633087158,
                                0.23317399621009827
                            ],
                            [
                                -0.19243411719799042,
                                -0.20205868780612946
                            ]
                        ],
                        [
                            [
                                0.1675391048192978,
                                -0.591805100440979
                            ],
                            [
                                0.3700792193412781,
                                0.6215309500694275
                            ]
                        ],
                        [
                            [
                                1.2109315395355225,
                                0.19725613296031952
                            ],
                            [
                                -1.2404675483703613,
                                0.06080516055226326
                            ]
                        ],
                        [
                            [
                                -0.5655286312103271,
                                0.29000699520111084
                            ],
                            [
                                -0.9804875254631042,
                                0.38147199153900146
                            ]
                        ],
                        [
                            [
                                -1.1954431533813477,
                                0.19425740838050842
                            ],
                            [
                                1.0267876386642456,
                                1.9355336427688599
                            ]
                        ],
                        [
                            [
                                -0.019396714866161346,
                                -0.23952950537204742
                            ],
                            [
                                0.3802708387374878,
                                0.1958884745836258
                            ]
                        ],
                        [
                            [
                                -0.6195226907730103,
                                1.733052372932434
                            ],
                            [
                                -0.4877505302429199,
                                -1.409188151359558
                            ]
                        ],
                        [
                            [
                                -0.08480383455753326,
                                -0.1737401783466339
                            ],
                            [
                                0.12675942480564117,
                                0.2467547208070755
                            ]
                        ],
                        [
                            [
                                -0.26701927185058594,
                                -0.402118057012558
                            ],
                            [
                                0.32404670119285583,
                                0.5162043571472168
                            ]
                        ],
                        [
                            [
                                0.09734567999839783,
                                0.048955466598272324
                            ],
                            [
                                -0.14854755997657776,
                                0.17018947005271912
                            ]
                        ],
                        [
                            [
                                -0.18573416769504547,
                                0.44949302077293396
                            ],
                            [
                                -0.49396440386772156,
                                -0.21963198482990265
                            ]
                        ],
                        [
                            [
                                -0.08677409589290619,
                                0.16093631088733673
                            ],
                            [
                                -0.2431759387254715,
                                -0.048296961933374405
                            ]
                        ],
                        [
                            [
                                0.1672702133655548,
                                0.06545749306678772
                            ],
                            [
                                -0.08535946160554886,
                                -0.04610230773687363
                            ]
                        ],
                        [
                            [
                                1.2079519033432007,
                                0.16266988217830658
                            ],
                            [
                                -0.47749894857406616,
                                -1.2071409225463867
                            ]
                        ],
                        [
                            [
                                0.14651666581630707,
                                -0.10181023180484772
                            ],
                            [
                                0.07080912590026855,
                                0.22522445023059845
                            ]
                        ],
                        [
                            [
                                0.20598585903644562,
                                -0.05975080654025078
                            ],
                            [
                                -0.43215784430503845,
                                -1.0776203870773315
                            ]
                        ],
                        [
                            [
                                -0.11810871958732605,
                                -0.09837121516466141
                            ],
                            [
                                0.1929946392774582,
                                -0.33069828152656555
                            ]
                        ],
                        [
                            [
                                -0.5753228068351746,
                                1.0609232187271118
                            ],
                            [
                                -1.7195254564285278,
                                0.13177822530269623
                            ]
                        ],
                        [
                            [
                                0.5013454556465149,
                                0.10972990095615387
                            ],
                            [
                                -0.17012353241443634,
                                -0.682141125202179
                            ]
                        ]
                    ],
                    [
                        [
                            [
                                0.04408237338066101,
                                0.9674665331840515
                            ],
                            [
                                -0.36870965361595154,
                                0.29439666867256165
                            ]
                        ],
                        [
                            [
                                -0.08821313828229904,
                                -0.3226141333580017
                            ],
                            [
                                -0.0565657839179039,
                                -0.047137558460235596
                            ]
                        ],
                        [
                            [
                                0.5548263192176819,
                                -0.24626679718494415
                            ],
                            [
                                0.23850062489509583,
                                0.19140785932540894
                            ]
                        ],
                        [
                            [
                                0.20479710400104523,
                                0.31416305899620056
                            ],
                            [
                                0.18591155111789703,
                                -0.2713475823402405
                            ]
                        ],
                        [
                            [
                                0.04869557172060013,
                                -0.2641230821609497
                            ],
                            [
                                0.23262597620487213,
                                0.12047699838876724
                            ]
                        ],
                        [
                            [
                                -0.10675425827503204,
                                -0.047135867178440094
                            ],
                            [
                                -0.047272805124521255,
                                -0.23399068415164948
                            ]
                        ],
                        [
                            [
                                0.15319080650806427,
                                0.2010449469089508
                            ],
                            [
                                -0.4535655379295349,
                                -0.24925975501537323
                            ]
                        ],
                        [
                            [
                                0.041644081473350525,
                                -0.3544274866580963
                            ],
                            [
                                -0.42286330461502075,
                                -0.06891599297523499
                            ]
                        ],
                        [
                            [
                                0.016473527997732162,
                                0.048009730875492096
                            ],
                            [
                                0.3201410174369812,
                                0.31426456570625305
                            ]
                        ],
                        [
                            [
                                -0.5435658097267151,
                                0.19827774167060852
                            ],
                            [
                                -0.3438480794429779,
                                0.3759181797504425
                            ]
                        ],
                        [
                            [
                                -0.025130372494459152,
                                0.2734694182872772
                            ],
                            [
                                -0.06149675324559212,
                                0.012163016013801098
                            ]
                        ],
                        [
                            [
                                -0.18599919974803925,
                                -0.14833788573741913
                            ],
                            [
                                -0.19578143954277039,
                                0.31009313464164734
                            ]
                        ],
                        [
                            [
                                0.1350312978029251,
                                0.40279126167297363
                            ],
                            [
                                0.31158724427223206,
                                -0.17581740021705627
                            ]
                        ],
                        [
                            [
                                -0.47628915309906006,
                                0.6189853549003601
                            ],
                            [
                                0.3429217040538788,
                                -0.29453080892562866
                            ]
                        ],
                        [
                            [
                                -0.1342310756444931,
                                0.2201453596353531
                            ],
                            [
                                -0.03557722643017769,
                                0.03337574750185013
                            ]
                        ],
                        [
                            [
                                0.19689589738845825,
                                0.11244365572929382
                            ],
                            [
                                -0.019589290022850037,
                                0.33912181854248047
                            ]
                        ],
                        [
                            [
                                -0.09198512881994247,
                                0.17001838982105255
                            ],
                            [
                                0.41339945793151855,
                                -0.018727529793977737
                            ]
                        ],
                        [
                            [
                                0.3086567521095276,
                                0.6218203902244568
                            ],
                            [
                                -0.2633100152015686,
                                -0.0721600353717804
                            ]
                        ],
                        [
                            [
                                0.5362669229507446,
                                0.23793375492095947
                            ],
                            [
                                0.19118620455265045,
                                0.4773360788822174
                            ]
                        ],
                        [
                            [
                                0.4272722601890564,
                                0.2709338963031769
                            ],
                            [
                                -0.006420885678380728,
                                -0.49794313311576843
                            ]
                        ],
                        [
                            [
                                -0.10802453756332397,
                                -0.14738251268863678
                            ],
                            [
                                -0.4228062629699707,
                                0.35463443398475647
                            ]
                        ],
                        [
                            [
                                0.06517484784126282,
                                0.3869180977344513
                            ],
                            [
                                -0.8819260001182556,
                                -0.15814143419265747
                            ]
                        ],
                        [
                            [
                                -0.4494611322879791,
                                -0.7269805073738098
                            ],
                            [
                                0.5120661854743958,
                                0.6634220480918884
                            ]
                        ],
                        [
                            [
                                -0.36684849858283997,
                                0.1784745156764984
                            ],
                            [
                                0.3151976764202118,
                                0.12828393280506134
                            ]
                        ]
                    ],
                    [
                        [
                            [
                                -0.6725825667381287,
                                -0.14939910173416138
                            ],
                            [
                                0.5111721158027649,
                                0.6437278389930725
                            ]
                        ],
                        [
                            [
                                0.3405401408672333,
                                -0.06716440618038177
                            ],
                            [
                                0.1576840728521347,
                                0.12631553411483765
                            ]
                        ],
                        [
                            [
                                0.12315970659255981,
                                0.853430986404419
                            ],
                            [
                                0.6024311780929565,
                                0.020745471119880676
                            ]
                        ],
                        [
                            [
                                -0.024281799793243408,
                                -0.01648915372788906
                            ],
                            [
                                -0.2704307436943054,
                                0.014329446479678154
                            ]
                        ],
                        [
                            [
                                0.1760764867067337,
                                0.18821468949317932
                            ],
                            [
                                0.4414474070072174,
                                0.3244257867336273
                            ]
                        ],
                        [
                            [
                                -0.029166987165808678,
                                -0.006434495095163584
                            ],
                            [
                                -0.1953374594449997,
                                -0.1416114866733551
                            ]
                        ],
                        [
                            [
                                -0.0718078762292862,
                                -0.0706954300403595
                            ],
                            [
                                -0.09578823298215866,
                                0.06756333261728287
                            ]
                        ],
                        [
                            [
                                0.6806560754776001,
                                -0.5902553200721741
                            ],
                            [
                                -0.5435382127761841,
                                -0.09411543607711792
                            ]
                        ],
                        [
                            [
                                -0.1023889109492302,
                                -0.2834787368774414
                            ],
                            [
                                -0.07421114295721054,
                                -0.4158064126968384
                            ]
                        ],
                        [
                            [
                                -0.6321846842765808,
                                0.12986913323402405
                            ],
                            [
                                0.8397842645645142,
                                0.3003160059452057
                            ]
                        ],
                        [
                            [
                                -0.29114192724227905,
                                -0.12561985850334167
                            ],
                            [
                                0.35496416687965393,
                                0.41799816489219666
                            ]
                        ],
                        [
                            [
                                -0.4867415428161621,
                                -0.3871411085128784
                            ],
                            [
                                -1.1491199731826782,
                                -0.6441618204116821
                            ]
                        ],
                        [
                            [
                                -0.08168073743581772,
                                -0.0445014126598835
                            ],
                            [
