[
    {
        "CODE_DISTANCE": 5,
        "DEFORMATION_OPTIONS": [
            0,
            1,
            2,
            3,
            4,
            5
        ],
        "ERROR_PROBS": [
            9.980039976653643e-06,
            9.980039976653643e-06,
            0.009980039671063423
        ],
        "CONV_LAYERS_INPUT_1": [
            [
                24,
                2,
                1,
                0
            ]
        ],
        "CONV_LAYERS_INPUT_2": [
            [
                24,
                1,
                1,
                0
            ]
        ],
        "CONV_LAYERS_STAGE_2": [
            [
                24,
                2,
                1,
                0
            ]
        ],
        "FC_LAYERS": [
            50,
            2
        ]
    },
    {
        "CNN_input_1": [
            {
                "b": [
                    0.6737038493156433,
                    0.005881075281649828,
                    0.030796164646744728,
                    -0.4620536267757416,
                    -0.4731801152229309,
                    -0.3159898817539215,
                    -0.3720017075538635,
                    -0.24529145658016205,
                    0.2813889980316162,
                    0.1776769459247589,
                    0.016816318035125732,
                    -0.09992112219333649,
                    -0.19643573462963104,
                    -0.2596782445907593,
                    0.08373838663101196,
                    0.490590363740921,
                    0.8162771463394165,
                    -0.45839181542396545,
                    0.07566240429878235,
                    0.1072196438908577,
                    0.2490968406200409,
                    0.5469909310340881,
                    0.5011042952537537,
                    -0.11426224559545517
                ],
                "w": [
                    [
                        [
                            [
                                -0.9037337899208069,
                                -0.012271035462617874
                            ],
                            [
                                0.32889822125434875,
                                -0.49436718225479126
                            ]
                        ]
                    ],
                    [
                        [
                            [
                                -0.876824140548706,
                                0.4588751792907715
                            ],
                            [
                                0.29003119468688965,
                                0.5097643136978149
                            ]
                        ]
                    ],
                    [
                        [
                            [
                                -0.03723670169711113,
                                0.12125120311975479
                            ],
                            [
                                -0.17229583859443665,
                                0.21959412097930908
                            ]
                        ]
                    ],
                    [
                        [
                            [
                                0.20613375306129456,
                                0.8808485865592957
                            ],
                            [
                                -0.08978094905614853,
                                -0.0278828926384449
                            ]
                        ]
                    ],
                    [
                        [
                            [
                                -0.9769909381866455,
                                -0.028875257819890976
                            ],
                            [
                                0.782490611076355,
                                0.3970056474208832
                            ]
                        ]
                    ],
                    [
                        [
                            [
                                -0.016413278877735138,
                                -0.07528587430715561
                            ],
                            [
                                0.5460585355758667,
                                0.29053613543510437
                            ]
                        ]
                    ],
                    [
                        [
                            [
                                0.11077509075403214,
                                0.005301665049046278
                            ],
                            [
                                0.3124290406703949,
                                0.1462661176919937
                            ]
                        ]
                    ],
                    [
                        [
                            [
                                -0.1756737232208252,
                                0.25374528765678406
                            ],
                            [
                                0.22835497558116913,
                                -0.058749619871377945
                            ]
                        ]
                    ],
                    [
                        [
                            [
                                -0.07128652185201645,
                                -0.055330026894807816
                            ],
                            [
                                -0.08493196964263916,
                                -0.971331000328064
                            ]
                        ]
                    ],
                    [
                        [
                            [
                                0.07040692865848541,
                                0.08759381622076035
                            ],
                            [
                                0.01618395373225212,
                                0.08342818915843964
                            ]
                        ]
                    ],
                    [
                        [
                            [
                                0.2049424648284912,
                                -0.05305628105998039
                            ],
                            [
                                -0.3223603367805481,
                                -0.18134647607803345
                            ]
                        ]
                    ],
                    [
                        [
                            [
                                -0.27687567472457886,
                                0.022215859964489937
                            ],
                            [
                                -0.20709507167339325,
                                0.5595031380653381
                            ]
                        ]
                    ],
                    [
                        [
                            [
                                -0.47768253087997437,
                                0.16196133196353912
                            ],
                            [
                                -0.8512556552886963,
                                0.21305210888385773
                            ]
                        ]
                    ],
                    [
                        [
                            [
                                0.18413689732551575,
                                0.8244776129722595
                            ],
                            [
                                0.32042866945266724,
                                0.10936367511749268
                            ]
                        ]
                    ],
                    [
                        [
                            [
                                0.14725472033023834,
                                -0.3684443533420563
                            ],
                            [
                                -0.305575966835022,
                                0.36135807633399963
                            ]
                        ]
                    ],
                    [
                        [
                            [
                                -0.3723585903644562,
                                -0.17860423028469086
                            ],
                            [
                                0.183427631855011,
                                -0.2711692452430725
                            ]
                        ]
                    ],
                    [
                        [
                            [
                                -0.28295421600341797,
                                0.08890298008918762
                            ],
                            [
                                -0.40751752257347107,
                                -0.2106606662273407
                            ]
                        ]
                    ],
                    [
                        [
                            [
                                0.19129247963428497,
                                0.11102565377950668
                            ],
                            [
                                -0.0013084920356050134,
                                0.15379555523395538
                            ]
                        ]
                    ],
                    [
                        [
                            [
                                0.12196727097034454,
                                0.0013877995079383254
                            ],
                            [
                                0.048190802335739136,
                                -0.054806407541036606
                            ]
                        ]
                    ],
                    [
                        [
                            [
                                -0.07911989837884903,
                                0.14868874847888947
                            ],
                            [
                                -0.1888027787208557,
                                0.014387943781912327
                            ]
                        ]
                    ],
                    [
                        [
                            [
                                0.32061684131622314,
                                0.019035816192626953
                            ],
                            [
                                0.15283215045928955,
                                0.015919731929898262
                            ]
                        ]
                    ],
                    [
                        [
                            [
                                -0.2898460626602173,
                                -0.7214767932891846
                            ],
                            [
                                -0.22100861370563507,
                                -0.264157235622406
                            ]
                        ]
                    ],
                    [
                        [
                            [
                                -0.30451127886772156,
                                0.23028899729251862
                            ],
                            [
                                -0.05793721228837967,
                                -0.25175219774246216
                            ]
                        ]
                    ],
                    [
                        [
                            [
                                0.010811785236001015,
                                -0.2533048391342163
                            ],
                            [
                                0.10377294570207596,
                                0.1715591549873352
                            ]
                        ]
                    ]
                ]
            }
        ],
        "CNN_input_2": [
            {
                "b": [
                    0.23686616122722626,
                    -0.11184471100568771,
                    -0.014913798309862614,
                    -0.009734264574944973,
                    0.04724682867527008,
                    -0.019340531900525093,
                    0.03559346869587898,
                    -0.16063351929187775,
                    -0.10726049542427063,
                    0.38907554745674133,
                    0.2207425981760025,
                    -0.1537903994321823,
                    0.14964650571346283,
                    0.1297987401485443,
                    0.04380284994840622,
                    0.0848422423005104,
                    0.2510291635990143,
                    0.20146377384662628,
                    0.19532030820846558,
                    -0.17212434113025665,
                    0.031698692589998245,
                    -0.02460421808063984,
                    -0.3554568290710449,
                    0.10928412526845932
                ],
                "w": [
                    [
                        [
                            [
                                0.4079890847206116
                            ]
                        ],
                        [
                            [
                                0.40855279564857483
                            ]
                        ],
                        [
                            [
                                0.3644905984401703
                            ]
                        ],
                        [
                            [
                                0.11758838593959808
                            ]
                        ],
                        [
                            [
                                0.10463805496692657
                            ]
                        ],
                        [
                            [
                                0.36627209186553955
                            ]
                        ]
                    ],
                    [
                        [
                            [
                                0.316729336977005
                            ]
                        ],
                        [
                            [
                                0.29935476183891296
                            ]
                        ],
                        [
                            [
                                0.44297176599502563
                            ]
                        ],
                        [
                            [
                                0.416555792093277
                            ]
                        ],
                        [
                            [
                                0.4150174856185913
                            ]
                        ],
                        [
                            [
                                0.4314579367637634
                            ]
                        ]
                    ],
                    [
                        [
                            [
                                0.04766208678483963
                            ]
                        ],
                        [
                            [
                                0.03053034469485283
                            ]
                        ],
                        [
                            [
                                -0.25851237773895264
                            ]
                        ],
                        [
                            [
                                -0.22951076924800873
                            ]
                        ],
                        [
                            [
                                -0.26358500123023987
                            ]
                        ],
                        [
                            [
                                -0.2432255744934082
                            ]
                        ]
                    ],
                    [
                        [
                            [
                                -0.07258773595094681
                            ]
                        ],
                        [
                            [
                                -0.05782514438033104
                            ]
                        ],
                        [
                            [
                                -0.3611855208873749
                            ]
                        ],
                        [
                            [
                                -0.3094281852245331
                            ]
                        ],
                        [
                            [
                                -0.30333057045936584
                            ]
                        ],
                        [
                            [
                                -0.3675343990325928
                            ]
                        ]
                    ],
                    [
                        [
                            [
                                -0.4281368553638458
                            ]
                        ],
                        [
                            [
                                -0.4520522356033325
                            ]
                        ],
                        [
                            [
                                -0.3454555571079254
                            ]
                        ],
                        [
                            [
                                -0.5421680212020874
                            ]
                        ],
                        [
                            [
                                -0.5517753958702087
                            ]
                        ],
                        [
                            [
                                -0.35209932923316956
                            ]
                        ]
                    ],
                    [
                        [
                            [
                                0.475167453289032
                            ]
                        ],
                        [
                            [
                                0.4161975383758545
                            ]
                        ],
                        [
                            [
                                0.3730584979057312
                            ]
                        ],
                        [
                            [
                                -0.005416080821305513
                            ]
                        ],
                        [
                            [
                                -0.015862977132201195
                            ]
                        ],
                        [
                            [
                                0.35242876410484314
                            ]
                        ]
                    ],
                    [
                        [
                            [
                                0.2527845799922943
                            ]
                        ],
                        [
                            [
                                0.23671185970306396
                            ]
                        ],
                        [
                            [
                                -0.030179953202605247
                            ]
                        ],
                        [
                            [
                                0.20003058016300201
                            ]
                        ],
                        [
                            [
                                0.2389068752527237
                            ]
                        ],
                        [
                            [
                                -0.008793173357844353
                            ]
                        ]
                    ],
                    [
                        [
                            [
                                -0.23739255964756012
                            ]
                        ],
                        [
                            [
                                -0.23248390853405
                            ]
                        ],
                        [
                            [
                                -0.14750880002975464
                            ]
                        ],
                        [
                            [
                                0.7329407334327698
                            ]
                        ],
                        [
                            [
                                0.7783531546592712
                            ]
                        ],
                        [
                            [
                                -0.15808117389678955
                            ]
                        ]
                    ],
                    [
                        [
                            [
                                -0.3119756877422333
                            ]
                        ],
                        [
                            [
                                -0.31607773900032043
                            ]
                        ],
                        [
                            [
                                -0.3461819291114807
                            ]
                        ],
                        [
                            [
                                -0.42205938696861267
                            ]
                        ],
                        [
                            [
                                -0.44596579670906067
                            ]
                        ],
                        [
                            [
                                -0.3577510416507721
                            ]
                        ]
                    ],
                    [
                        [
                            [
                                -0.13241472840309143
                            ]
                        ],
                        [
                            [
                                -0.09793040156364441
                            ]
                        ],
                        [
                            [
                                -0.19507932662963867
                            ]
                        ],
                        [
                            [
                                -0.2055039405822754
                            ]
                        ],
                        [
                            [
                                -0.18296030163764954
                            ]
                        ],
                        [
                            [
                                -0.1286906599998474
                            ]
                        ]
                    ],
                    [
                        [
                            [
                                0.2058996707201004
                            ]
                        ],
                        [
                            [
                                0.24792097508907318
                            ]
                        ],
                        [
                            [
                                -0.5626182556152344
                            ]
                        ],
                        [
                            [
                                -0.1804468184709549
                            ]
                        ],
                        [
                            [
                                -0.18546749651432037
                            ]
                        ],
                        [
                            [
                                -0.5521095395088196
                            ]
                        ]
                    ],
                    [
                        [
                            [
                                -0.27342572808265686
                            ]
                        ],
                        [
                            [
                                -0.25201216340065
                            ]
                        ],
                        [
                            [
                                -0.23541201651096344
                            ]
                        ],
                        [
                            [
                                0.3461991846561432
                            ]
                        ],
                        [
                            [
                                0.3461665213108063
                            ]
                        ],
                        [
                            [
                                -0.23862920701503754
                            ]
                        ]
                    ],
                    [
                        [
                            [
                                0.4271833002567291
                            ]
                        ],
                        [
                            [
                                0.4466117024421692
                            ]
                        ],
                        [
                            [
                                0.40353959798812866
                            ]
                        ],
                        [
                            [
                                0.5758227109909058
                            ]
                        ],
                        [
                            [
                                0.5795729160308838
                            ]
                        ],
                        [
                            [
                                0.4161774814128876
                            ]
                        ]
                    ],
                    [
                        [
                            [
                                0.4753231406211853
                            ]
                        ],
                        [
                            [
                                0.47546741366386414
                            ]
                        ],
                        [
                            [
                                0.3956100046634674
                            ]
                        ],
                        [
                            [
                                0.27699339389801025
                            ]
                        ],
                        [
                            [
                                0.25681111216545105
                            ]
                        ],
                        [
                            [
                                0.4076708257198334
                            ]
                        ]
                    ],
                    [
                        [
                            [
                                -0.5897663831710815
                            ]
                        ],
                        [
                            [
                                -0.5928841829299927
                            ]
                        ],
                        [
                            [
                                0.44888371229171753
                            ]
                        ],
                        [
                            [
                                -0.06789586693048477
                            ]
                        ],
                        [
                            [
                                -0.020128095522522926
                            ]
                        ],
                        [
                            [
                                0.46859249472618103
                            ]
                        ]
                    ],
                    [
                        [
                            [
                                -0.02174345962703228
                            ]
                        ],
                        [
                            [
                                -0.036427222192287445
                            ]
                        ],
                        [
                            [
                                0.4732635021209717
                            ]
                        ],
                        [
                            [
                                -0.07988645136356354
                            ]
                        ],
                        [
                            [
                                -0.058680418878793716
                            ]
                        ],
                        [
                            [
                                0.439589262008667
                            ]
                        ]
                    ],
                    [
                        [
                            [
                                0.1455615609884262
                            ]
                        ],
                        [
                            [
                                0.13092738389968872
                            ]
                        ],
                        [
                            [
                                0.5202725529670715
                            ]
                        ],
                        [
                            [
                                0.2655670642852783
                            ]
                        ],
                        [
                            [
                                0.27710869908332825
                            ]
                        ],
                        [
                            [
                                0.5377757549285889
                            ]
                        ]
                    ],
                    [
                        [
                            [
                                -0.40537258982658386
                            ]
                        ],
                        [
                            [
                                -0.3712010085582733
                            ]
                        ],
                        [
                            [
                                0.223906010389328
                            ]
                        ],
                        [
                            [
                                0.5131431221961975
                            ]
                        ],
                        [
                            [
                                0.4815356731414795
                            ]
                        ],
                        [
                            [
                                0.2279539853334427
                            ]
                        ]
                    ],
                    [
                        [
                            [
                                -0.43228742480278015
                            ]
                        ],
                        [
                            [
                                -0.40699222683906555
                            ]
                        ],
                        [
                            [
                                -0.21436060965061188
                            ]
                        ],
                        [
                            [
                                -0.12581077218055725
                            ]
                        ],
                        [
                            [
                                -0.21790438890457153
                            ]
                        ],
                        [
                            [
                                -0.2688244581222534
                            ]
                        ]
                    ],
                    [
                        [
                            [
                                0.4298855662345886
                            ]
                        ],
                        [
                            [
                                0.4594050347805023
                            ]
                        ],
                        [
                            [
                                0.061210859566926956
                            ]
                        ],
                        [
                            [
                                0.06726419925689697
                            ]
                        ],
                        [
                            [
                                0.0453813411295414
                            ]
                        ],
                        [
                            [
                                0.05526459589600563
                            ]
                        ]
                    ],
                    [
                        [
                            [
                                -0.13228420913219452
                            ]
                        ],
                        [
                            [
                                -0.13494229316711426
                            ]
                        ],
                        [
                            [
                                -0.544407308101654
                            ]
                        ],
                        [
                            [
                                -0.10465972870588303
                            ]
                        ],
                        [
                            [
                                -0.13789047300815582
                            ]
                        ],
                        [
                            [
                                -0.5126562714576721
                            ]
                        ]
                    ],
                    [
                        [
                            [
                                -0.19503900408744812
                            ]
                        ],
                        [
                            [
                                -0.19825103878974915
                            ]
                        ],
                        [
                            [
                                -0.07065435498952866
                            ]
                        ],
                        [
                            [
                                -0.4238152801990509
                            ]
                        ],
                        [
                            [
                                -0.4445796310901642
                            ]
                        ],
                        [
                            [
                                -0.04703279584646225
                            ]
                        ]
                    ],
                    [
                        [
                            [
                                0.019531454890966415
                            ]
                        ],
                        [
                            [
                                0.02763080596923828
                            ]
                        ],
                        [
                            [
                                0.24253709614276886
                            ]
                        ],
                        [
                            [
                                -0.4306904077529907
                            ]
                        ],
                        [
                            [
                                -0.46320945024490356
                            ]
                        ],
                        [
                            [
                                0.26433345675468445
                            ]
                        ]
                    ],
                    [
                        [
                            [
                                -0.34328338503837585
                            ]
                        ],
                        [
                            [
                                -0.31491267681121826
                            ]
                        ],
                        [
                            [
                                -0.17714932560920715
                            ]
                        ],
                        [
                            [
                                -0.02440214343369007
                            ]
                        ],
                        [
                            [
                                -0.04430202767252922
                            ]
                        ],
                        [
                            [
                                -0.20592284202575684
                            ]
                        ]
                    ]
                ]
            }
        ],
        "CNN_stage_2": [
            {
                "b": [
                    -1.0421282052993774,
                    -0.7380548119544983,
                    -0.15822014212608337,
                    -0.20188136398792267,
                    -0.26078060269355774,
                    -1.021061897277832,
                    0.3289639949798584,
                    -1.5839577913284302,
                    -0.01843119040131569,
                    0.6410230994224548,
                    0.8731200695037842,
                    -0.9054512977600098,
                    -0.6182987689971924,
                    0.2990945875644684,
                    -1.049285888671875,
                    -0.2278009057044983,
                    -0.7068881988525391,
                    -0.4430772662162781,
                    -0.4910721182823181,
                    -0.2937062084674835,
                    -0.5676489472389221,
                    -0.1587946116924286,
                    -1.1641933917999268,
                    -0.9116145372390747
                ],
                "w": [
                    [
                        [
                            [
                                -0.19435077905654907,
                                0.04330894351005554
                            ],
                            [
                                -0.4253634810447693,
                                0.17916391789913177
                            ]
                        ],
                        [
                            [
                                -0.14500108361244202,
                                0.027897236868739128
                            ],
                            [
                                -0.29365408420562744,
                                0.36176905035972595
                            ]
                        ],
                        [
                            [
                                0.6269892454147339,
                                0.13036492466926575
                            ],
                            [
                                0.260405033826828,
                                -0.13620522618293762
                            ]
                        ],
                        [
                            [
                                0.028195636346936226,
                                0.5302882790565491
                            ],
                            [
                                0.14862702786922455,
                                -0.17837443947792053
                            ]
                        ],
                        [
                            [
                                -0.49089038372039795,
                                0.0679040253162384
                            ],
                            [
                                -0.28777652978897095,
                                -0.2704788148403168
                            ]
                        ],
                        [
                            [
                                -0.4710235297679901,
                                -0.060448579490184784
                            ],
                            [
                                0.07991747558116913,
                                0.02356146089732647
                            ]
                        ],
                        [
                            [
                                1.0659370422363281,
                                -0.17697328329086304
                            ],
                            [
                                -0.16760724782943726,
                                -0.39378786087036133
                            ]
                        ],
                        [
                            [
                                1.0081206560134888,
                                -1.2775691747665405
                            ],
                            [
                                0.30473968386650085,
                                -0.6260544061660767
                            ]
                        ],
                        [
                            [
                                -0.6298172473907471,
                                0.07101444154977798
                            ],
                            [
                                -0.12918373942375183,
                                0.2510311007499695
                            ]
                        ],
                        [
                            [
                                0.14848996698856354,
                                -0.07423282414674759
                            ],
                            [
                                -0.2605920732021332,
                                -0.16973023116588593
                            ]
                        ],
                        [
                            [
                                -0.9877110719680786,
                                -0.11936967819929123
                            ],
                            [
                                0.40661707520484924,
                                0.40428802371025085
                            ]
                        ],
                        [
                            [
                                -0.10526880621910095,
                                -0.4974658191204071
                            ],
                            [
                                -0.03409776836633682,
                                -0.28832536935806274
                            ]
                        ],
                        [
                            [
                                -0.045934271067380905,
                                0.8139638304710388
                            ],
                            [
                                -0.3045744299888611,
                                0.4315605163574219
                            ]
                        ],
                        [
                            [
                                -0.1009366512298584,
                                0.14811156690120697
                            ],
                            [
                                -0.4982672333717346,
                                0.18760448694229126
                            ]
                        ],
                        [
                            [
                                0.7359252572059631,
                                0.28414544463157654
                            ],
                            [
                                -0.009152605198323727,
                                -0.7366971969604492
                            ]
                        ],
                        [
                            [
                                0.6062027812004089,
                                0.19863086938858032
                            ],
                            [
                                -0.6242143511772156,
                                -0.6581028699874878
                            ]
                        ],
                        [
                            [
                                0.7828778028488159,
                                0.28410768508911133
                            ],
                            [
                                -1.1310598850250244,
                                -0.46446412801742554
                            ]
                        ],
                        [
                            [
                                -0.7059953212738037,
                                -0.6193335652351379
                            ],
                            [
                                0.7210795283317566,
                                -0.00949330534785986
                            ]
                        ],
                        [
                            [
                                -0.47837215662002563,
                                0.2633639872074127
                            ],
                            [
                                0.4526415467262268,
                                0.43206608295440674
                            ]
                        ],
                        [
                            [
                                -0.3603796362876892,
                                0.6815249919891357
                            ],
                            [
                                0.17853617668151855,
                                0.35142776370048523
                            ]
                        ],
                        [
                            [
                                0.5836294293403625,
                                0.4036658704280853
                            ],
                            [
                                -0.3134657144546509,
                                0.657909631729126
                            ]
                        ],
                        [
                            [
                                0.11434738337993622,
                                -0.6636671423912048
                            ],
                            [
                                -0.4306783080101013,
                                -0.5181047916412354
                            ]
                        ],
                        [
                            [
                                -0.4061671495437622,
                                0.8905658721923828
                            ],
                            [
                                0.19516736268997192,
                                0.20870330929756165
                            ]
                        ],
                        [
                            [
                                -0.22906148433685303,
                                0.8101582527160645
                            ],
                            [
                                -0.17425642907619476,
                                0.5412077307701111
                            ]
                        ]
                    ],
                    [
                        [
                            [
                                0.05805949866771698,
                                -0.4938843548297882
                            ],
                            [
                                0.18008968234062195,
                                -0.04336119443178177
                            ]
                        ],
                        [
                            [
                                -0.2638516426086426,
                                0.01047501154243946
                            ],
                            [
                                -0.2800291180610657,
                                -0.18839368224143982
                            ]
                        ],
                        [
                            [
                                0.20325183868408203,
                                0.023653175681829453
                            ],
                            [
                                -0.9465463757514954,
                                0.6357080936431885
                            ]
                        ],
                        [
                            [
                                -0.5908531546592712,
                                -0.7441383600234985
                            ],
                            [
                                -0.26592227816581726,
                                0.511364758014679
                            ]
                        ],
                        [
                            [
                                0.4204033613204956,
                                0.11883735656738281
                            ],
                            [
                                0.19588133692741394,
                                -0.26501622796058655
                            ]
                        ],
                        [
                            [
                                0.11220560222864151,
                                -0.28980234265327454
                            ],
                            [
                                0.7945338487625122,
                                -0.31395965814590454
                            ]
                        ],
                        [
                            [
                                0.22705428302288055,
                                0.17301490902900696
                            ],
                            [
                                -0.5998771786689758,
                                0.5720568299293518
                            ]
                        ],
                        [
                            [
                                -0.3095369338989258,
                                0.6683105230331421
                            ],
                            [
                                -0.9576330780982971,
                                0.22566211223602295
                            ]
                        ],
                        [
                            [
                                -0.27005067467689514,
                                0.017749955877661705
                            ],
                            [
                                -0.13495491445064545,
                                -0.2808152437210083
                            ]
                        ],
                        [
                            [
                                0.345405250787735,
                                -0.017954645678400993
                            ],
                            [
                                0.0778050422668457,
                                -0.12383736670017242
                            ]
                        ],
                        [
                            [
                                -0.01540667749941349,
                                0.004753855522722006
                            ],
                            [
                                0.5009292960166931,
                                -0.3835567533969879
                            ]
                        ],
                        [
                            [
                                -0.19245018064975739,
                                0.17492833733558655
                            ],
                            [
                                0.9877933263778687,
                                0.006116486620157957
                            ]
                        ],
                        [
                            [
                                -0.19003206491470337,
                                0.26512080430984497
                            ],
                            [
                                0.08179977536201477,
                                0.13786934316158295
                            ]
                        ],
                        [
                            [
                                0.24819312989711761,
                                -0.15836267173290253
                            ],
                            [
                                -0.6078872084617615,
                                -0.20129594206809998
                            ]
                        ],
                        [
                            [
                                -0.5634869337081909,
                                -0.4942229092121124
                            ],
                            [
                                -0.13671207427978516,
                                0.8271347880363464
                            ]
                        ],
                        [
                            [
                                -0.23635108768939972,
                                -0.8663465976715088
                            ],
                            [
                                0.4081164598464966,
                                0.4153904616832733
                            ]
                        ],
                        [
                            [
                                -0.1345970779657364,
                                -0.4294232726097107
                            ],
                            [
                                0.042154282331466675,
                                0.3786774277687073
                            ]
                        ],
                        [
                            [
                                0.7333343029022217,
                                0.8072966933250427
                            ],
                            [
                                -0.6406405568122864,
                                -0.1767968088388443
                            ]
                        ],
                        [
                            [
                                -0.744186282157898,
                                -0.2265346497297287
                            ],
                            [
                                0.0920281857252121,
                                -0.10309550166130066
                            ]
                        ],
                        [
                            [
                                -0.597877562046051,
                                -0.3105076551437378
                            ],
                            [
                                -1.088381290435791,
                                0.1564262956380844
                            ]
                        ],
                        [
                            [
                                0.055876147001981735,
                                0.6070502400398254
                            ],
                            [
                                -0.2682374119758606,
                                1.0339597463607788
                            ]
                        ],
                        [
                            [
                                -0.33552980422973633,
                                0.6360495686531067
                            ],
                            [
                                -0.21477000415325165,
                                0.625991702079773
                            ]
                        ],
                        [
                            [
                                0.6862261891365051,
                                -0.36586475372314453
                            ],
                            [
                                0.5831612944602966,
                                -0.18299375474452972
                            ]
                        ],
                        [
                            [
                                0.2992428243160248,
                                -0.43142756819725037
                            ],
                            [
                                -0.5263367295265198,
                                -0.14241419732570648
                            ]
                        ]
                    ],
                    [
                        [
                            [
                                -0.2591452896595001,
                                0.4319285452365875
                            ],
                            [
                                -0.062081243842840195,
                                0.6605554223060608
                            ]
                        ],
                        [
                            [
                                -0.1239873468875885,
                                -0.3042544424533844
                            ],
                            [
                                0.03816252946853638,
                                -1.2047268152236938
                            ]
                        ],
                        [
                            [
                                -0.034084901213645935,
                                -0.3456282913684845
                            ],
                            [
                                -0.14262188971042633,
                                2.00652813911438
                            ]
                        ],
                        [
                            [
                                -0.057406406849622726,
                                -0.22756527364253998
                            ],
                            [
                                -0.09877994656562805,
                                0.8385190963745117
                            ]
                        ],
                        [
                            [
                                -0.15463078022003174,
                                0.595873236656189
                            ],
                            [
                                -0.27568289637565613,
                                0.6311206221580505
                            ]
                        ],
                        [
                            [
                                -0.20492959022521973,
                                -0.1358298659324646
                            ],
                            [
                                0.3217398524284363,
                                -0.22775539755821228
                            ]
                        ],
                        [
                            [
                                0.029350480064749718,
                                -0.41028568148612976
                            ],
                            [
                                -0.0985054075717926,
                                0.06791370362043381
                            ]
                        ],
                        [
                            [
                                -0.28862354159355164,
                                -0.17464810609817505
                            ],
                            [
                                -0.42052721977233887,
                                -0.4680614173412323
                            ]
                        ],
                        [
                            [
                                0.29228246212005615,
                                -0.8393638730049133
                            ],
                            [
                                0.021539120003581047,
                                -1.8131295442581177
                            ]
                        ],
                        [
                            [
                                0.0853065550327301,
                                0.013758747838437557
                            ],
                            [
                                -0.05617717653512955,
                                0.11296159774065018
                            ]
                        ],
                        [
                            [
                                -0.20745928585529327,
                                0.958961546421051
                            ],
                            [
                                -0.14803628623485565,
                                -0.5217882990837097
                            ]
                        ],
                        [
                            [
                                0.3697471618652344,
                                0.6513476967811584
                            ],
                            [
                                -0.05037811025977135,
                                -0.08595813065767288
                            ]
                        ],
                        [
                            [
                                0.177022784948349,
                                -0.14440160989761353
                            ],
                            [
                                0.22558462619781494,
                                -0.6772251725196838
                            ]
                        ],
                        [
                            [
                                0.2657037377357483,
                                -0.21227028965950012
                            ],
                            [
                                0.07015235722064972,
                                -1.3065757751464844
                            ]
                        ],
                        [
                            [
                                0.08358070254325867,
                                0.07860063761472702
                            ],
                            [
                                -0.06596937775611877,
                                0.09847847372293472
                            ]
                        ],
                        [
                            [
                                0.07218489795923233,
                                -0.09574037045240402
                            ],
                            [
                                -0.17138120532035828,
                                0.6311052441596985
                            ]
                        ],
                        [
                            [
                                0.06848999857902527,
                                -0.20896610617637634
                            ],
                            [
                                -0.044406864792108536,
                                0.5286447405815125
                            ]
                        ],
                        [
                            [
                                -0.5017737746238708,
                                -0.04119851812720299
                            ],
                            [
                                -0.1967652142047882,
                                -0.20653565227985382
                            ]
                        ],
                        [
                            [
                                0.03249902278184891,
                                0.20153355598449707
                            ],
                            [
                                0.1321118026971817,
                                0.29810765385627747
                            ]
                        ],
                        [
                            [
                                0.19196900725364685,
                                -0.016462739557027817
                            ],
                            [
                                0.09345104545354843,
                                0.5225030183792114
                            ]
                        ],
                        [
                            [
                                -0.08417218178510666,
                                0.5271396636962891
                            ],
                            [
                                0.14369849860668182,
                                0.3650129437446594
                            ]
                        ],
                        [
                            [
                                0.35773584246635437,
                                -0.36112338304519653
                            ],
                            [
                                0.10240545123815536,
                                -0.823799192905426
                            ]
                        ],
                        [
                            [
                                0.24065129458904266,
                                0.2870587110519409
                            ],
                            [
                                0.014498182572424412,
                                0.6055312156677246
                            ]
                        ],
                        [
                            [
                                0.28067323565483093,
                                0.43008407950401306
                            ],
                            [
                                0.09473157674074173,
                                0.14873312413692474
                            ]
                        ]
                    ],
                    [
                        [
                            [
                                -0.45886677503585815,
                                0.2296932488679886
                            ],
                            [
                                0.03271172195672989,
                                0.027253730222582817
                            ]
                        ],
                        [
                            [
                                -0.6727650165557861,
                                0.07406864315271378
                            ],
                            [
                                0.17385971546173096,
                                0.2830994129180908
                            ]
                        ],
                        [
                            [
                                0.21484093368053436,
                                0.048629678785800934
                            ],
                            [
                                0.15130384266376495,
                                -0.09020619094371796
                            ]
                        ],
                        [
                            [
                                0.28968697786331177,
                                0.3633234202861786
                            ],
                            [
                                0.21420170366764069,
                                -0.2887459099292755
                            ]
                        ],
                        [
                            [
                                0.32428404688835144,
                                -0.2293863296508789
                            ],
                            [
                                -0.522283673286438,
                                -0.04145583510398865
                            ]
                        ],
                        [
                            [
                                0.2855578362941742,
                                0.14994223415851593
                            ],
                            [
                                -0.043848663568496704,
                                0.12502264976501465
                            ]
                        ],
                        [
                            [
                                -0.11874277889728546,
                                -0.058061834424734116
                            ],
                            [
                                -0.3583909273147583,
                                0.05124294012784958
                            ]
                        ],
                        [
                            [
                                -1.0572224855422974,
                                -0.33128097653388977
                            ],
                            [
                                -0.19187772274017334,
                                -0.3605688810348511
                            ]
                        ],
                        [
                            [
                                -0.13393692672252655,
                                0.18606600165367126
                            ],
                            [
                                0.03320901840925217,
                                -0.16142642498016357
                            ]
                        ],
                        [
                            [
                                0.100068099796772,
                                0.12634819746017456
                            ],
                            [
                                0.49691134691238403,
                                -0.2531929910182953
                            ]
                        ],
                        [
                            [
                                -1.0265989303588867,
                                0.10115496814250946
                            ],
                            [
                                0.20696012675762177,
                                0.033821966499090195
                            ]
                        ],
                        [
                            [
                                0.8573455214500427,
                                -0.23893511295318604
                            ],
                            [
                                -0.3019709587097168,
                                -0.16790732741355896
                            ]
                        ],
                        [
                            [
                                1.0467529296875,
                                0.07919598370790482
                            ],
                            [
                                0.6940653920173645,
                                -0.14978761970996857
                            ]
                        ],
                        [
                            [
                                -0.16307052969932556,
                                -0.1894744634628296
                            ],
                            [
                                0.06864819675683975,
                                0.2411757856607437
                            ]
                        ],
                        [
                            [
                                0.4986891448497772,
                                0.0795549750328064
                            ],
                            [
                                -0.05193294212222099,
                                0.18365895748138428
                            ]
                        ],
                        [
                            [
                                0.2862301170825958,
                                -0.07542221993207932
                            ],
                            [
                                -0.2776458263397217,
                                -0.26813629269599915
                            ]
                        ],
                        [
                            [
                                0.1740819811820984,
                                -0.23013393580913544
                            ],
                            [
                                0.01505180262029171,
                                -0.14753858745098114
                            ]
                        ],
                        [
                            [
                                -0.13192708790302277,
                                0.1932065188884735
                            ],
                            [
                                -0.0007462896755896509,
                                -0.602959394454956
                            ]
                        ],
                        [
                            [
                                -0.004851845558732748,
                                0.1992942839860916
                            ],
                            [
                                0.3830384910106659,
                                0.027889978140592575
                            ]
                        ],
                        [
                            [
                                0.05315754935145378,
                                -0.10013015568256378
                            ],
                            [
                                0.5459073185920715,
                                -0.018960991874337196
                            ]
                        ],
                        [
                            [
                                -0.6016979813575745,
                                0.27927839756011963
                            ],
                            [
                                0.06451824307441711,
                                0.3771159052848816
                            ]
                        ],
                        [
                            [
                                -0.20952986180782318,
                                -0.00846725981682539
                            ],
                            [
                                -0.22761964797973633,
                                0.33197060227394104
                            ]
                        ],
                        [
                            [
                                0.4350597560405731,
                                0.08980794996023178
                            ],
                            [
                                -0.09410229325294495,
                                0.03681132197380066
                            ]
                        ],
                        [
                            [
                                0.3392634093761444,
                                -0.37257930636405945
                            ],
                            [
                                0.40962454676628113,
                                0.07311835139989853
                            ]
                        ]
                    ],
                    [
                        [
                            [
                                -0.1366141140460968,
                                0.734847903251648
                            ],
                            [
                                0.12889964878559113,
                                0.06104376167058945
                            ]
                        ],
                        [
                            [
                                -0.24308079481124878,
                                0.061952896416187286
                            ],
                            [
                                0.5482841730117798,
                                0.00011746921518351883
                            ]
                        ],
                        [
                            [
                                -0.32973143458366394,
                                0.08860941976308823
                            ],
                            [
                                0.0982782170176506,
                                0.19295591115951538
                            ]
                        ],
                        [
                            [
                                0.09159848839044571,
                                -0.06022193655371666
                            ],
                            [
                                0.20184722542762756,
                                0.3715674579143524
                            ]
                        ],
                        [
                            [
                                -0.0241012591868639,
                                -0.4195907413959503
                            ],
                            [
                                -0.17806115746498108,
                                0.04702804982662201
                            ]
                        ],
                        [
                            [
                                -0.04617604240775108,
                                -0.14089086651802063
                            ],
                            [
                                0.11296256631612778,
                                -0.04635854810476303
                            ]
                        ],
                        [
                            [
                                -0.5653803944587708,
                                0.018126752227544785
                            ],
                            [
                                -0.01057484745979309,
                                0.07746661454439163
                            ]
                        ],
                        [
                            [
                                0.6355831027030945,
                                -0.0006523453630506992
                            ],
                            [
                                0.15078958868980408,
                                0.3091955780982971
                            ]
                        ],
                        [
                            [
                                -0.3552664518356323,
                                -0.5501859188079834
                            ],
                            [
                                -0.0921090766787529,
                                0.07546649873256683
                            ]
                        ],
                        [
                            [
                                -0.15484899282455444,
                                -0.08501091599464417
                            ],
                            [
                                -0.24413497745990753,
                                0.24048873782157898
                            ]
                        ],
                        [
                            [
                                0.42276492714881897,
                                -0.18546552956104279
                            ],
                            [
                                0.029719211161136627,
                                0.17726629972457886
                            ]
                        ],
                        [
                            [
                                0.006652193143963814,
                                0.05784504860639572
                            ],
                            [
                                -0.13334764540195465,
                                0.23037858307361603
                            ]
                        ],
                        [
                            [
                                0.136816143989563,
                                -0.00976606272161007
                            ],
                            [
                                0.26947835087776184,
                                -0.059195224195718765
                            ]
                        ],
                        [
                            [
                                -1.2032901048660278,
                                -0.2636983394622803
                            ],
                            [
                                0.006186325568705797,
                                -0.31714513897895813
                            ]
                        ],
                        [
                            [
                                -0.46380171179771423,
                                0.07442989945411682
                            ],
                            [
                                0.11987707018852234,
                                -0.04730638489127159
                            ]
                        ],
                        [
                            [
                                -0.20184703171253204,
                                -0.19893519580364227
                            ],
                            [
                                -0.04854797571897507,
                                -0.2147301882505417
                            ]
                        ],
                        [
                            [
                                -0.10145069658756256,
                                0.09644515067338943
                            ],
                            [
                                0.10324595868587494,
                                -0.2685127854347229
                            ]
                        ],
                        [
                            [
                                0.16373983025550842,
                                0.07992149144411087
                            ],
                            [
                                -0.13818883895874023,
                                0.32601532340049744
                            ]
                        ],
                        [
                            [
                                0.4454535245895386,
                                0.6001421213150024
                            ],
                            [
                                -0.12914824485778809,
                                -0.4963240325450897
                            ]
                        ],
                        [
                            [
                                -0.016823673620820045,
                                0.12664830684661865
                            ],
                            [
                                0.17428076267242432,
                                -0.1431649923324585
                            ]
                        ],
                        [
                            [
                                0.05382351949810982,
                                0.26674383878707886
                            ],
                            [
                                0.071890689432621,
                                0.25250646471977234
                            ]
                        ],
                        [
                            [
                                -0.3456684350967407,
                                -0.47739237546920776
                            ],
                            [
                                0.10850553959608078,
                                -0.13613198697566986
                            ]
                        ],
                        [
                            [
                                -0.2850855886936188,
                                -0.2641678750514984
                            ],
                            [
                                -0.19280047714710236,
                                0.4493568539619446
                            ]
                        ],
                        [
                            [
                                -0.20880430936813354,
                                0.03579571843147278
                            ],
                            [
                                -0.11668635159730911,
                                0.16162808239459991
                            ]
                        ]
                    ],
                    [
                        [
                            [
                                -0.5643796324729919,
                                -0.2873089611530304
                            ],
                            [
                                -0.4771263897418976,
                                0.2450166791677475
                            ]
                        ],
                        [
                            [
                                0.22159147262573242,
                                -0.1528797596693039
                            ],
                            [
                                -0.34342771768569946,
                                0.23934265971183777
                            ]
                        ],
                        [
                            [
                                -0.01611718349158764,
                                0.09889351576566696
                            ],
                            [
                                0.1595398485660553,
                                -0.30687785148620605
                            ]
                        ],
                        [
                            [
                                -0.33968496322631836,
                                0.01445537619292736
                            ],
                            [
                                0.23072318732738495,
                                0.49456509947776794
                            ]
                        ],
                        [
                            [
                                -0.24648208916187286,
                                0.3966834545135498
                            ],
                            [
                                -0.44287893176078796,
                                -0.6069674491882324
                            ]
                        ],
                        [
                            [
                                0.3506191074848175,
                                -0.18814700841903687
                            ],
                            [
                                0.1425894796848297,
                                -0.04031156376004219
                            ]
                        ],
                        [
                            [
                                -0.6659010052680969,
                                0.028988322243094444
                            ],
                            [
                                0.8295758962631226,
                                -0.6452309489250183
                            ]
                        ],
                        [
                            [
                                0.4337857663631439,
                                -0.26015806198120117
                            ],
                            [
                                0.0008240038878284395,
                                -0.05889229103922844
                            ]
                        ],
                        [
                            [
                                -0.2856212258338928,
                                -0.1560322642326355
                            ],
                            [
                                0.05868550017476082,
                                0.33884337544441223
                            ]
                        ],
                        [
                            [
                                -0.03285674378275871,
                                0.08780569583177567
                            ],
                            [
                                -0.47479474544525146,
                                -0.3619353175163269
                            ]
                        ],
                        [
                            [
                                1.0420728921890259,
                                0.12635332345962524
                            ],
                            [
                                -0.09867805987596512,
                                0.604469895362854
                            ]
                        ],
                        [
                            [
                                0.4946235120296478,
                                -0.44235387444496155
                            ],
                            [
                                -0.026659008115530014,
                                0.5458473563194275
                            ]
                        ],
                        [
                            [
                                0.2670476734638214,
                                0.28909844160079956
                            ],
                            [
                                -0.23627084493637085,
                                0.3950435221195221
                            ]
                        ],
                        [
                            [
                                0.3109171986579895,
                                -0.617413341999054
                            ],
                            [
                                -0.3865816295146942,
                                0.029885699972510338
                            ]
                        ],
                        [
                            [
                                -0.75159752368927,
                                -0.43515655398368835
                            ],
                            [
                                0.5989171862602234,
                                0.7053561210632324
                            ]
                        ],
                        [
                            [
                                -0.5646065473556519,
                                1.1251221895217896
                            ],
                            [
                                -0.7906679511070251,
                                -0.06183704361319542
                            ]
                        ],
                        [
                            [
                                -0.42103689908981323,
                                0.6787533164024353
                            ],
                            [
                                -0.7475230693817139,
                                -0.22771689295768738
                            ]
                        ],
                        [
                            [
                                -0.6041900515556335,
                                0.012935889884829521
                            ],
                            [
                                0.3496420085430145,
                                0.7075587511062622
                            ]
                        ],
                        [
                            [
                                -0.2685404419898987,
                                -0.2391662448644638
                            ],
                            [
                                -0.02888462506234646,
                                0.1821271926164627
                            ]
                        ],
                        [
                            [
                                -0.34494295716285706,
                                0.006730746943503618
                            ],
                            [
                                -0.22729775309562683,
                                0.4006233215332031
                            ]
                        ],
                        [
                            [
                                -0.2713495194911957,
                                0.8512752056121826
                            ],
                            [
                                0.5251712203025818,
                                0.2836141884326935
                            ]
                        ],
                        [
                            [
                                -0.5443698167800903,
                                0.09792648255825043
                            ],
                            [
                                -0.2583315372467041,
                                -0.4757540225982666
                            ]
                        ],
                        [
                            [
                                -0.7998971939086914,
                                0.7181396484375
                            ],
                            [
                                -0.14421777427196503,
                                0.49808380007743835
                            ]
                        ],
                        [
                            [
                                -0.010487482883036137,
                                -0.1401696652173996
                            ],
                            [
                                -0.3165511190891266,
                                0.27546530961990356
                            ]
                        ]
                    ],
                    [
                        [
                            [
                                -0.04181554540991783,
                                0.1367320418357849
                            ],
                            [
                                0.8244956731796265,
                                -0.5151572823524475
                            ]
                        ],
                        [
                            [
                                0.14505453407764435,
                                0.23799613118171692
                            ],
                            [
                                0.13448204100131989,
                                -0.2616971731185913
                            ]
                        ],
                        [
                            [
                                0.2734536826610565,
                                0.17367671430110931
                            ],
                            [
                                0.1012534573674202,
                                -0.48597776889801025
                            ]
                        ],
                        [
                            [
                                0.2680357098579407,
                                -0.1366996020078659
                            ],
                            [
                                -0.08724700659513474,
                                0.2010779231786728
                            ]
                        ],
                        [
                            [
                                0.12666693329811096,
                                -0.059446271508932114
                            ],
                            [
                                -0.27401962876319885,
                                0.18862995505332947
                            ]
                        ],
                        [
                            [
                                -0.07153893262147903,
                                0.1281086653470993
                            ],
                            [
                                -0.35223180055618286,
                                -0.259227991104126
                            ]
                        ],
                        [
                            [
                                0.25061410665512085,
                                -0.06287036836147308
                            ],
                            [
                                -0.3491711914539337,
                                0.09752286225557327
                            ]
                        ],
                        [
                            [
                                -0.03816557303071022,
                                -0.09498482197523117
                            ],
                            [
                                0.012113921344280243,
                                -0.061005137860774994
                            ]
                        ],
                        [
                            [
                                0.1369720697402954,
                                -0.424773633480072
                            ],
                            [
                                -0.811647891998291,
                                0.26450037956237793
                            ]
                        ],
                        [
                            [
                                -0.015459987334907055,
                                0.13501417636871338
                            ],
                            [
                                0.05359463766217232,
                                0.09289298206567764
                            ]
                        ],
                        [
                            [
                                -0.15872427821159363,
                                0.06026286631822586
                            ],
                            [
                                0.05670570954680443,
                                -0.03273802623152733
                            ]
                        ],
                        [
                            [
                                0.019803259521722794,
                                -0.3813231885433197
                            ],
                            [
                                0.18063893914222717,
                                -0.2296692281961441
                            ]
                        ],
                        [
                            [
                                0.8413423299789429,
                                -0.3470538854598999
                            ],
                            [
                                0.10025834292173386,
                                0.5513833165168762
                            ]
                        ],
                        [
