[
    {
        "CODE_DISTANCE": 3,
        "ERROR_PROBS": [
            9.980039976653643e-06,
            9.980039976653643e-06,
            0.009980039671063423
        ],
        "CONV_LAYERS_INPUT_1": [
            [
                8,
                2,
                1,
                0
            ]
        ],
        "CONV_LAYERS_INPUT_2": [
            [
                8,
                1,
                1,
                0
            ]
        ],
        "CONV_LAYERS_STAGE_2": [
            [
                8,
                2,
                1,
                0
            ]
        ],
        "FC_LAYERS": [
            50,
            2
        ]
    },
    {
        "CNN_input_1": [
            {
                "b": [
                    -0.772964596748352,
                    0.11552736163139343,
                    -0.12505686283111572,
                    0.22359155118465424,
                    -0.01468138862401247,
                    0.08345447480678558,
                    -0.39404842257499695,
                    -0.31007063388824463
                ],
                "w": [
                    [
                        [
                            [
                                0.22847865521907806,
                                0.028789566829800606
                            ],
                            [
                                -0.07783067971467972,
                                0.23589691519737244
                            ]
                        ]
                    ],
                    [
                        [
                            [
                                -0.23538337647914886,
                                -0.08154518157243729
                            ],
                            [
                                -0.03337142989039421,
                                0.02139008603990078
                            ]
                        ]
                    ],
                    [
                        [
                            [
                                -0.057901348918676376,
                                0.12085845321416855
                            ],
                            [
                                0.004040346015244722,
                                0.3471522331237793
                            ]
                        ]
                    ],
                    [
                        [
                            [
                                -0.08781811594963074,
                                -0.2277134209871292
                            ],
                            [
                                -0.1412077695131302,
                                0.04843801259994507
                            ]
                        ]
                    ],
                    [
                        [
                            [
                                -0.14969857037067413,
                                0.14963306486606598
                            ],
                            [
                                0.05353730544447899,
                                0.13697107136249542
                            ]
                        ]
                    ],
                    [
                        [
                            [
                                0.020367862656712532,
                                -0.14796096086502075
                            ],
                            [
                                -0.12611618638038635,
                                0.0859995111823082
                            ]
                        ]
                    ],
                    [
                        [
                            [
                                0.47490695118904114,
                                0.1635056734085083
                            ],
                            [
                                -0.1886335015296936,
                                -0.07193206250667572
                            ]
                        ]
                    ],
                    [
                        [
                            [
                                0.1768941879272461,
                                0.06824952363967896
                            ],
                            [
                                0.3041269779205322,
                                0.11782950162887573
                            ]
                        ]
                    ]
                ]
            }
        ],
        "CNN_input_2": [
            {
                "b": [
                    3.5469047361402772e-06,
                    -0.2879701852798462,
                    -0.16544580459594727,
                    0.3895663619041443,
                    0.22503922879695892,
                    0.05767740681767464,
                    -0.4634990990161896,
                    -0.0346711166203022
                ],
                "w": [
                    [
                        [
                            [
                                0.11756747215986252
                            ]
                        ],
                        [
                            [
                                -0.22129742801189423
                            ]
                        ],
                        [
                            [
                                -0.7444870471954346
                            ]
                        ],
                        [
                            [
                                0.150460883975029
                            ]
                        ],
                        [
                            [
                                0.5011692047119141
                            ]
                        ],
                        [
                            [
                                0.612005352973938
                            ]
                        ]
                    ],
                    [
                        [
                            [
                                0.3783068060874939
                            ]
                        ],
                        [
                            [
                                -0.8086554408073425
                            ]
                        ],
                        [
                            [
                                0.5275465250015259
                            ]
                        ],
                        [
                            [
                                0.3482568562030792
                            ]
                        ],
                        [
                            [
                                -0.6160134077072144
                            ]
                        ],
                        [
                            [
                                0.41421738266944885
                            ]
                        ]
                    ],
                    [
                        [
                            [
                                0.26559674739837646
                            ]
                        ],
                        [
                            [
                                -0.12305886298418045
                            ]
                        ],
                        [
                            [
                                0.11460522562265396
                            ]
                        ],
                        [
                            [
                                0.17466561496257782
                            ]
                        ],
                        [
                            [
                                -1.1551427841186523
                            ]
                        ],
                        [
                            [
                                -0.3223192095756531
                            ]
                        ]
                    ],
                    [
                        [
                            [
                                -0.425263375043869
                            ]
                        ],
                        [
                            [
                                -0.21700911223888397
                            ]
                        ],
                        [
                            [
                                0.8757100105285645
                            ]
                        ],
                        [
                            [
                                -0.4641544818878174
                            ]
                        ],
                        [
                            [
                                0.28024694323539734
                            ]
                        ],
                        [
                            [
                                0.008742481470108032
                            ]
                        ]
                    ],
                    [
                        [
                            [
                                -0.09234927594661713
                            ]
                        ],
                        [
                            [
                                -0.3380590081214905
                            ]
                        ],
                        [
                            [
                                -0.01587655581533909
                            ]
                        ],
                        [
                            [
                                -0.39100316166877747
                            ]
                        ],
                        [
                            [
                                -0.684414803981781
                            ]
                        ],
                        [
                            [
                                -0.24688905477523804
                            ]
                        ]
                    ],
                    [
                        [
                            [
                                0.11042152345180511
                            ]
                        ],
                        [
                            [
                                -0.7401731014251709
                            ]
                        ],
                        [
                            [
                                0.9183512926101685
                            ]
                        ],
                        [
                            [
                                0.10950835049152374
                            ]
                        ],
                        [
                            [
                                0.45334693789482117
                            ]
                        ],
                        [
                            [
                                -0.4189065992832184
                            ]
                        ]
                    ],
                    [
                        [
                            [
                                0.42092183232307434
                            ]
                        ],
                        [
                            [
                                -0.8817168474197388
                            ]
                        ],
                        [
                            [
                                0.39567795395851135
                            ]
                        ],
                        [
                            [
                                0.5831450819969177
                            ]
                        ],
                        [
                            [
                                -0.050309646874666214
                            ]
                        ],
                        [
                            [
                                0.008909155614674091
                            ]
                        ]
                    ],
                    [
                        [
                            [
                                0.11342655122280121
                            ]
                        ],
                        [
                            [
                                -0.057528119534254074
                            ]
                        ],
                        [
                            [
                                0.38921141624450684
                            ]
                        ],
                        [
                            [
                                -0.04325813055038452
                            ]
                        ],
                        [
                            [
                                0.5517398715019226
                            ]
                        ],
                        [
                            [
                                0.16449138522148132
                            ]
                        ]
                    ]
                ]
            }
        ],
        "CNN_stage_2": [
            {
                "b": [
                    -0.030182311311364174,
                    -0.1982651948928833,
                    -0.14432501792907715,
                    0.047077517956495285,
                    -0.05991276353597641,
                    -0.04614945128560066,
                    -0.2624454200267792,
                    -0.12349114567041397
                ],
                "w": [
                    [
                        [
                            [
                                0.9344314336776733,
                                -0.1147613376379013
                            ],
                            [
                                -0.017002660781145096,
                                -0.8181147575378418
                            ]
                        ],
                        [
                            [
                                -1.5682406425476074,
                                -0.03727031499147415
                            ],
                            [
                                -0.0427909679710865,
                                0.9767182469367981
                            ]
                        ],
                        [
                            [
                                -0.25265833735466003,
                                -0.21615871787071228
                            ],
                            [
                                -0.11476695537567139,
                                0.3084073066711426
                            ]
                        ],
                        [
                            [
                                0.07382220774888992,
                                0.3686656951904297
                            ],
                            [
                                -0.16914601624011993,
                                0.7082136273384094
                            ]
                        ],
                        [
                            [
                                -0.5308133363723755,
                                -0.6474776864051819
                            ],
                            [
                                -0.0071665458381175995,
                                0.32530462741851807
                            ]
                        ],
                        [
                            [
                                0.13555629551410675,
                                0.08013585209846497
                            ],
                            [
                                0.20798124372959137,
                                -0.31089991331100464
                            ]
                        ],
                        [
                            [
                                0.6691156029701233,
                                -1.0443205833435059
                            ],
                            [
                                -0.6165902614593506,
                                0.07782420516014099
                            ]
                        ],
                        [
                            [
                                -0.4784761965274811,
                                -0.004632799886167049
                            ],
                            [
                                -1.2408660650253296,
                                0.9350535273551941
                            ]
                        ]
                    ],
                    [
                        [
                            [
                                -0.6187275052070618,
                                -0.5444269776344299
                            ],
                            [
                                -0.22834058105945587,
                                0.26801303029060364
                            ]
                        ],
                        [
                            [
                                0.7973795533180237,
                                0.7429231405258179
                            ],
                            [
                                1.0544589757919312,
                                -0.09062276780605316
                            ]
                        ],
                        [
                            [
                                0.5954938530921936,
                                -1.2080373764038086
                            ],
                            [
                                0.5868489742279053,
                                0.8613549470901489
                            ]
                        ],
                        [
                            [
                                -0.3926095962524414,
                                1.430863857269287
                            ],
                            [
                                0.9950734376907349,
                                -1.2456793785095215
                            ]
                        ],
                        [
                            [
                                0.21038156747817993,
                                0.28945767879486084
                            ],
                            [
                                0.6224303841590881,
                                0.3568720519542694
                            ]
                        ],
                        [
                            [
                                -0.05554025247693062,
                                -0.22987951338291168
                            ],
                            [
                                0.08398639410734177,
                                0.12321490049362183
                            ]
                        ],
                        [
                            [
                                -0.021396081894636154,
                                0.10038769990205765
                            ],
                            [
                                -0.20904621481895447,
                                -0.8167194724082947
                            ]
                        ],
                        [
                            [
                                0.05772198364138603,
                                -0.00410126568749547
                            ],
                            [
                                -0.6674748063087463,
                                0.20623475313186646
                            ]
                        ]
                    ],
                    [
                        [
                            [
                                0.08006983995437622,
                                0.5904925465583801
                            ],
                            [
                                -0.4150870442390442,
                                0.8861169219017029
                            ]
                        ],
                        [
                            [
                                -0.9617287516593933,
                                0.39891621470451355
                            ],
                            [
                                0.5130220651626587,
                                0.5321465134620667
                            ]
                        ],
                        [
                            [
                                0.6524391770362854,
                                -0.28829425573349
                            ],
                            [
                                0.269175261259079,
                                0.007879975251853466
                            ]
                        ],
                        [
                            [
                                0.17800003290176392,
                                -1.2397050857543945
                            ],
                            [
                                1.4562822580337524,
                                -0.6328752636909485
                            ]
                        ],
                        [
                            [
                                0.44025707244873047,
                                0.34914758801460266
                            ],
                            [
                                -0.6619313955307007,
                                -0.5168855786323547
                            ]
                        ],
                        [
                            [
                                -0.20218941569328308,
                                -0.14762994647026062
                            ],
                            [
                                -0.25297218561172485,
                                0.059328872710466385
                            ]
                        ],
                        [
                            [
                                0.34429824352264404,
                                -0.8913153409957886
                            ],
                            [
                                -0.6693386435508728,
                                1.9720655679702759
                            ]
                        ],
                        [
                            [
                                -0.6695515513420105,
                                -0.032097235321998596
                            ],
                            [
                                0.2852587401866913,
                                1.441274881362915
                            ]
                        ]
                    ],
                    [
                        [
                            [
                                -0.25418052077293396,
                                0.5480199456214905
                            ],
                            [
                                -0.2479243278503418,
                                0.45644816756248474
                            ]
                        ],
                        [
                            [
                                1.0217338800430298,
                                1.2858538627624512
                            ],
                            [
                                0.5024862885475159,
                                0.06501951813697815
                            ]
                        ],
                        [
                            [
                                -0.37241166830062866,
                                0.7298775315284729
                            ],
                            [
                                0.9463578462600708,
                                1.8526756763458252
                            ]
                        ],
                        [
                            [
                                -0.96784508228302,
                                0.31764867901802063
                            ],
                            [
                                -0.4201066195964813,
                                0.9398902654647827
                            ]
                        ],
                        [
                            [
                                -0.38121289014816284,
                                -0.47078803181648254
                            ],
                            [
                                0.29166892170906067,
                                -0.23259060084819794
                            ]
                        ],
                        [
                            [
                                0.09778615832328796,
                                0.03488043323159218
                            ],
                            [
                                -0.01595371775329113,
                                -0.11763425916433334
                            ]
                        ],
                        [
                            [
                                0.8014176487922668,
                                -2.5478599071502686
                            ],
                            [
                                0.8798824548721313,
                                0.08457082509994507
                            ]
                        ],
                        [
                            [
                                0.23625507950782776,
                                0.27957987785339355
                            ],
                            [
                                0.49194779992103577,
                                -1.151504397392273
                            ]
                        ]
                    ],
                    [
                        [
                            [
                                -0.7334828972816467,
                                -0.1571890115737915
                            ],
                            [
                                0.145204097032547,
                                0.037230610847473145
                            ]
                        ],
                        [
                            [
                                1.3410724401474,
                                0.3746289908885956
                            ],
                            [
                                0.8281168341636658,
                                0.3011535704135895
                            ]
                        ],
                        [
                            [
                                -0.22964046895503998,
                                0.27422842383384705
                            ],
                            [
                                -0.3354775607585907,
                                -2.589613437652588
                            ]
                        ],
                        [
                            [
                                -0.2673797309398651,
                                -0.28297677636146545
                            ],
                            [
                                -0.1405465304851532,
                                -0.07233230769634247
                            ]
                        ],
                        [
                            [
                                0.31388336420059204,
                                0.25458353757858276
                            ],
                            [
                                -0.2804187536239624,
                                -0.19115091860294342
                            ]
                        ],
                        [
                            [
                                -0.06885240972042084,
                                -0.05083832889795303
                            ],
                            [
                                0.0629846379160881,
                                -0.11031056195497513
                            ]
                        ],
                        [
                            [
                                1.835148811340332,
                                0.031078506261110306
                            ],
                            [
                                -0.34027767181396484,
                                -0.4378812611103058
                            ]
                        ],
                        [
                            [
                                -1.3231090307235718,
                                -0.5179688930511475
                            ],
                            [
                                0.31922248005867004,
                                0.327125608921051
                            ]
                        ]
                    ],
                    [
                        [
                            [
                                0.3616962432861328,
                                0.5676811933517456
                            ],
                            [
                                0.9640687108039856,
                                -0.7290946245193481
                            ]
                        ],
                        [
                            [
                                0.6190155148506165,
                                0.38506442308425903
                            ],
                            [
                                -1.9526187181472778,
                                0.5817301273345947
                            ]
                        ],
                        [
                            [
                                0.16410045325756073,
                                1.1354299783706665
                            ],
                            [
                                1.9221270084381104,
                                -2.630347490310669
                            ]
                        ],
                        [
                            [
                                -0.031970880925655365,
                                -0.389627069234848
                            ],
                            [
                                -0.540286660194397,
                                0.8142386078834534
                            ]
                        ],
                        [
                            [
                                0.3259553015232086,
                                0.20020996034145355
                            ],
                            [
                                -0.2730976939201355,
                                -0.8092862963676453
                            ]
                        ],
                        [
                            [
                                -0.06764854490756989,
                                -0.028826214373111725
                            ],
                            [
                                0.1960189789533615,
                                -0.23519542813301086
                            ]
                        ],
                        [
                            [
                                -0.4856167733669281,
                                0.08821288496255875
                            ],
                            [
                                -0.20496122539043427,
                                -0.25529181957244873
                            ]
                        ],
                        [
                            [
                                -0.3203844726085663,
                                0.49553319811820984
                            ],
                            [
                                0.32722315192222595,
                                -0.6241844892501831
                            ]
                        ]
                    ],
                    [
                        [
                            [
                                0.8245682120323181,
                                0.8519308567047119
                            ],
                            [
                                0.6662611961364746,
                                -0.5513079762458801
                            ]
                        ],
                        [
                            [
                                -0.8608518242835999,
                                -1.2765182256698608
                            ],
                            [
                                -1.4732340574264526,
                                1.1135679483413696
                            ]
                        ],
                        [
                            [
                                0.2296762317419052,
                                2.613926649093628
                            ],
                            [
                                -2.8332760334014893,
                                -2.2208657264709473
                            ]
                        ],
                        [
                            [
                                -0.6141205430030823,
                                0.06126299127936363
                            ],
                            [
                                -1.227107048034668,
                                -0.40502142906188965
                            ]
                        ],
                        [
                            [
                                -0.4172469973564148,
                                0.0923861712217331
                            ],
                            [
                                -0.3747807741165161,
                                -0.18364496529102325
                            ]
                        ],
                        [
                            [
                                0.04673086479306221,
                                0.10176554322242737
                            ],
                            [
                                -0.5568495988845825,
                                0.7373986840248108
                            ]
                        ],
                        [
                            [
                                -0.4081382155418396,
                                -2.442540407180786
                            ],
                            [
                                -1.6431280374526978,
                                -2.2828681468963623
                            ]
                        ],
                        [
                            [
                                -2.0682148933410645,
                                -1.4114035367965698
                            ],
                            [
                                -0.4124641418457031,
                                0.22307485342025757
                            ]
                        ]
                    ],
                    [
                        [
                            [
                                -0.0651155561208725,
                                0.053503625094890594
                            ],
                            [
                                0.5556450486183167,
                                -0.5259674191474915
                            ]
                        ],
                        [
                            [
                                0.8415383696556091,
                                -1.0865905284881592
                            ],
                            [
                                -0.0009323004633188248,
                                0.01762714609503746
                            ]
                        ],
                        [
                            [
                                1.3780310153961182,
                                0.20810943841934204
                            ],
                            [
                                -0.8113716244697571,
                                -2.1938958168029785
                            ]
                        ],
                        [
                            [
                                -0.2158653736114502,
                                -0.38440319895744324
                            ],
                            [
                                0.9976122379302979,
                                -0.12943688035011292
                            ]
                        ],
                        [
                            [
                                -0.07353340089321136,
                                0.03190052509307861
                            ],
                            [
                                -0.3341597616672516,
                                -0.25783780217170715
                            ]
                        ],
                        [
                            [
                                0.06998791545629501,
                                0.09516061097383499
                            ],
                            [
                                -0.5242778658866882,
                                0.10154709219932556
                            ]
                        ],
                        [
                            [
                                -1.457943081855774,
                                -0.46379321813583374
                            ],
                            [
                                -0.3645666837692261,
                                -0.9550713896751404
                            ]
                        ],
                        [
                            [
                                0.06418416649103165,
                                -0.14175981283187866
                            ],
                            [
                                -2.3974835872650146,
                                -0.49392226338386536
                            ]
                        ]
                    ]
                ]
            }
        ],
        "MLP_stage_3": [
            {
                "b": [
                    -0.08870230615139008,
                    -0.23663192987442017,
                    -0.6043582558631897,
                    0.14857074618339539,
                    0.611595869064331,
                    0.41567960381507874,
                    -0.29436710476875305,
                    -0.10028806328773499,
                    -0.041436322033405304,
                    1.0957369804382324,
                    -0.1789618283510208,
                    -0.25936198234558105,
                    -0.010654721409082413,
                    -0.00017970651970244944,
                    0.12237416207790375,
                    -0.3813195526599884,
                    -0.03312159702181816,
                    -0.6167441606521606,
                    -0.07983063906431198,
                    0.7861655950546265,
                    -0.22911196947097778,
                    -0.9340803623199463,
                    0.04335520789027214,
                    -0.018434351310133934,
                    -0.05600897967815399,
                    0.45131394267082214,
                    -0.27991724014282227,
                    0.11483914405107498,
                    -0.09294724464416504,
                    -0.8311429023742676,
                    -0.07397998869419098,
                    -0.06503934413194656,
                    -0.19668257236480713,
                    0.13606497645378113,
                    0.5190852284431458,
                    -0.16623994708061218,
                    0.13187500834465027,
                    0.19445274770259857,
                    -0.23788033425807953,
                    -0.06415199488401413,
                    -0.0772310122847557,
                    -0.056455448269844055,
                    -0.15186958014965057,
                    -0.8496608138084412,
                    -0.12299493700265884,
                    -0.24590767920017242,
                    0.1098574548959732,
                    0.061960265040397644,
                    -1.0073801279067993,
                    0.23441794514656067
                ],
                "w": [
                    [
                        0.02426963672041893,
                        3.8011085987091064,
                        3.266494035720825,
                        -3.0219645500183105,
                        1.2910182476043701,
                        1.75673508644104,
                        0.3958452343940735,
                        2.190373659133911,
                        0.23759816586971283,
                        1.346785545349121,
                        1.0627418756484985,
                        1.297216773033142,
                        1.2725696563720703,
                        -0.44602787494659424,
                        -3.814610481262207,
                        -0.5876972675323486,
                        1.4952430725097656,
                        3.135850667953491,
                        1.2206484079360962,
                        2.4029784202575684,
                        1.6248143911361694,
                        4.469681262969971,
                        -1.378898024559021,
                        0.9105561375617981,
                        -0.18161799013614655,
                        1.6645475625991821,
                        1.9476149082183838,
                        -3.3988044261932373,
                        1.149722933769226,
                        2.7858760356903076,
                        -0.19258610904216766,
                        -0.2898481488227844,
                        0.34699657559394836,
                        -3.707195520401001,
                        1.3569120168685913,
                        1.0627163648605347,
                        1.5179040431976318,
                        1.0274555683135986,
                        1.7976408004760742,
                        0.38933369517326355,
                        0.5728572607040405,
                        0.055070389062166214,
                        1.0767412185668945,
                        2.3268017768859863,
                        -0.6342892646789551,
                        1.1791590452194214,
                        -2.8113813400268555,
                        1.354463815689087,
                        3.074446201324463,
                        2.216308832168579
                    ],
                    [
                        0.8542198538780212,
                        0.6094990968704224,
                        1.5736924409866333,
                        1.02173912525177,
                        -0.10915153473615646,
                        0.052957773208618164,
                        0.6550031900405884,
                        -2.3059895038604736,
                        0.20495571196079254,
                        1.5993506908416748,
                        1.6685664653778076,
                        -0.8063802123069763,
                        1.2213019132614136,
                        0.4510381817817688,
                        1.3133021593093872,
                        1.0304906368255615,
                        1.0229638814926147,
                        0.9113702178001404,
                        1.1288334131240845,
                        1.3493801355361938,
                        2.3453493118286133,
                        1.5198131799697876,
                        0.587640106678009,
                        0.8508917093276978,
                        0.7515008449554443,
                        0.42919838428497314,
                        -3.884420394897461,
                        1.0727483034133911,
                        -0.9726369976997375,
                        1.7242932319641113,
                        1.0663257837295532,
                        0.6309487223625183,
                        0.001303567667491734,
                        1.2832543849945068,
                        1.1981505155563354,
                        1.0677188634872437,
                        0.03229065611958504,
                        0.40575921535491943,
                        0.9887621402740479,
                        1.5242807865142822,
                        1.1353392601013184,
                        0.6958507895469666,
                        1.254733681678772,
                        -0.1568583995103836,
                        -1.0854803323745728,
                        1.6562594175338745,
                        0.4633338153362274,
                        0.06573029607534409,
                        0.3109283447265625,
                        0.41709065437316895
                    ],
                    [
                        0.062136080116033554,
                        1.5263224840164185,
                        0.2625523805618286,
                        0.0017168496269732714,
                        -0.45883142948150635,
                        0.5948634743690491,
                        -1.570015549659729,
                        0.03716469183564186,
                        -0.22566962242126465,
                        0.04750922694802284,
                        0.7835948467254639,
                        5.218388557434082,
                        0.8586961627006531,
                        -1.1007213592529297,
                        0.10101534426212311,
                        0.4150788486003876,
                        1.0663284063339233,
                        -1.136365294456482,
                        0.38918086886405945,
                        0.19129064679145813,
                        0.8313007950782776,
                        0.2013222724199295,
                        -1.5571154356002808,
                        -0.5686157941818237,
                        -1.8675353527069092,
                        -0.7464383244514465,
                        0.013156474567949772,
                        0.04855682700872421,
                        2.9343395233154297,
                        1.1307629346847534,
                        -2.3787455558776855,
                        -1.6024655103683472,
                        -0.7942432165145874,
                        -0.02990032359957695,
                        -0.232095867395401,
                        0.7862340807914734,
                        1.0003527402877808,
                        -1.0460551977157593,
                        -0.8232380747795105,
                        -2.4121086597442627,
                        0.5420219898223877,
                        -1.8380581140518188,
                        0.814454972743988,
                        -1.0636250972747803,
                        -0.23532380163669586,
                        1.0469086170196533,
                        0.10714887082576752,
                        -0.46061405539512634,
                        -0.013277769088745117,
                        0.044860146939754486
                    ],
                    [
                        0.15187887847423553,
                        -0.5359251499176025,
                        1.4342421293258667,
                        -0.5400762557983398,
                        0.04048275575041771,
                        -0.5472860932350159,
                        -0.4844871759414673,
                        1.1542185544967651,
                        0.350149005651474,
                        0.6857655048370361,
                        -2.851471424102783,
                        -0.649905800819397,
                        1.82230544090271,
                        -0.9362738728523254,
                        -0.362766832113266,
                        1.447330117225647,
                        1.9898536205291748,
                        1.82511305809021,
                        0.2532159090042114,
                        1.1537963151931763,
                        -3.116701364517212,
                        3.32729434967041,
                        -1.4632689952850342,
                        1.4862302541732788,
                        0.3022004961967468,
                        -0.4090653955936432,
                        1.260280966758728,
                        -0.2935872972011566,
                        -0.089983731508255,
                        4.152968406677246,
                        0.25015953183174133,
                        0.18539001047611237,
                        -0.22213520109653473,
                        -0.4263949394226074,
                        -0.450428307056427,
                        0.6593366265296936,
                        -0.5450743436813354,
                        -0.031016375869512558,
                        1.2973530292510986,
                        0.6705674529075623,
                        1.671218752861023,
                        0.10338462144136429,
                        0.6074686646461487,
                        1.941050410270691,
                        0.19615641236305237,
                        -2.473491668701172,
                        -0.4372827708721161,
                        1.3379768133163452,
                        3.3362619876861572,
                        -0.06358662247657776
                    ],
                    [
                        0.8966414928436279,
                        -0.1281803399324417,
                        1.618534803390503,
                        -4.8596601486206055,
                        0.3816338777542114,
                        0.01053706556558609,
                        2.632890462875366,
                        0.9941098093986511,
                        -0.6909470558166504,
                        1.0441442728042603,
                        0.8748031258583069,
                        2.9675774574279785,
                        -1.397515058517456,
                        -1.3607105016708374,
                        -4.736170291900635,
                        -2.039947032928467,
                        -1.1659305095672607,
                        0.18866437673568726,
                        0.44640687108039856,
                        0.3090118169784546,
                        0.7893179059028625,
                        2.524954319000244,
                        -1.5008187294006348,
                        -0.13843874633312225,
                        1.4835689067840576,
                        -0.10805127024650574,
                        1.6214045286178589,
                        -4.052829265594482,
                        2.4694442749023438,
                        1.9836885929107666,
                        1.6520119905471802,
                        1.24574875831604,
                        -1.092983603477478,
                        -4.713415622711182,
                        -0.2658599019050598,
                        1.1418156623840332,
                        0.8093458414077759,
                        -0.34295397996902466,
                        -0.2142828404903412,
                        1.6045628786087036,
                        0.28509819507598877,
                        1.2573885917663574,
                        1.1153886318206787,
                        1.46998131275177,
                        -0.7412069439888,
                        0.7832168936729431,
                        -3.8015449047088623,
                        0.29879704117774963,
                        1.3795201778411865,
                        0.04739077389240265
                    ],
                    [
                        2.0119853019714355,
                        2.8934061527252197,
                        3.2834954261779785,
                        2.0474278926849365,
                        -0.3426268994808197,
                        0.3937278985977173,
                        -10.230477333068848,
                        3.5125696659088135,
                        -7.002979755401611,
                        1.1681092977523804,
                        1.572029948234558,
                        4.924030780792236,
                        -4.075764179229736,
                        1.2905508279800415,
                        3.57783579826355,
                        1.539406180381775,
                        -4.484010219573975,
                        1.5731581449508667,
                        1.3608593940734863,
                        -0.018357478082180023,
                        3.2786262035369873,
                        0.5849575400352478,
                        1.5148227214813232,
                        1.1252912282943726,
                        -8.698629379272461,
                        -0.1798868179321289,
                        2.9506754875183105,
                        3.6293585300445557,
                        3.1413683891296387,
                        1.0323492288589478,
                        -10.423507690429688,
                        -10.286150932312012,
                        1.059022307395935,
                        3.6752641201019287,
                        -0.18840239942073822,
                        0.7004764676094055,
                        1.703758716583252,
                        -0.043631672859191895,
                        1.5990431308746338,
                        -9.678030967712402,
                        1.4757269620895386,
                        -10.834234237670898,
                        1.6021404266357422,
                        2.2750678062438965,
                        1.169680118560791,
                        2.4790565967559814,
                        1.8317694664001465,
                        1.3490564823150635,
                        2.8347384929656982,
                        0.14839738607406616
                    ],
                    [
                        1.6418449878692627,
                        3.4292516708374023,
                        6.7485809326171875,
                        -0.6117390990257263,
                        4.987685680389404,
                        5.021928787231445,
                        5.382786750793457,
                        3.607022762298584,
                        0.6928288340568542,
                        2.0861527919769287,
                        1.1917963027954102,
                        1.1283708810806274,
                        2.7612435817718506,
                        3.797954559326172,
                        -0.1675504446029663,
                        0.8358638286590576,
                        2.4651355743408203,
                        2.683014392852783,
                        1.6308183670043945,
                        2.846237897872925,
                        -0.20056557655334473,
                        -4.707874298095703,
                        4.190883636474609,
                        -0.19573870301246643,
                        -3.220773935317993,
                        2.5338375568389893,
                        3.3206231594085693,
                        -0.58562833070755,
                        2.540611743927002,
                        -3.681723117828369,
                        0.2905040979385376,
                        0.2770475745201111,
                        0.43476712703704834,
                        0.2676566243171692,
                        2.985175371170044,
                        1.8428893089294434,
                        3.6071584224700928,
                        -4.183170795440674,
                        5.526142597198486,
                        0.5623315572738647,
                        0.1511353999376297,
                        2.3795228004455566,
                        0.8890541195869446,
                        2.800562858581543,
                        -1.6938244104385376,
                        0.3191891610622406,
                        -0.6839366555213928,
                        0.0036581174936145544,
                        10.68720817565918,
                        3.767636775970459
                    ],
                    [
                        0.5955646634101868,
                        -0.3719760477542877,
                        2.132192611694336,
                        -4.245556354522705,
                        -0.2337804138660431,
                        -0.8892669081687927,
                        -0.8146020770072937,
                        0.30044031143188477,
                        0.7939634919166565,
                        0.23316596448421478,
                        0.41522425413131714,
                        0.5326253771781921,
                        1.782353401184082,
                        0.2541618347167969,
                        -5.860742568969727,
                        -1.0973217487335205,
                        1.9995591640472412,
                        0.7363068461418152,
                        -0.02393757365643978,
                        -2.1018667221069336,
                        -0.827165424823761,
                        -0.29305142164230347,
                        0.2384462058544159,
                        -0.7399972677230835,
                        -1.8137506246566772,
                        -0.6351127624511719,
                        0.5569449067115784,
                        -5.369218826293945,
                        -1.3069173097610474,
                        -0.5009657144546509,
                        -2.240976572036743,
                        -1.8114687204360962,
                        0.28970563411712646,
                        -5.658285617828369,
                        -1.7741564512252808,
                        0.08710876107215881,
                        -1.7318627834320068,
                        0.3075052499771118,
                        0.5729193687438965,
                        -2.0652642250061035,
                        0.12679970264434814,
                        -1.6695629358291626,
                        0.16738738119602203,
                        0.4570830762386322,
                        1.3530404567718506,
                        -0.1364324539899826,
                        -4.1354875564575195,
                        -0.6764962673187256,
                        -0.20884551107883453,
                        -0.8064610362052917
                    ],
                    [
                        0.0639304667711258,
                        0.7361114621162415,
                        1.1305088996887207,
                        0.45721352100372314,
                        0.9081775546073914,
                        1.0363640785217285,
                        -0.6284959316253662,
                        0.586835503578186,
                        -1.94232177734375,
                        1.0330817699432373,
                        -1.8265955448150635,
                        0.5572441220283508,
                        -1.908544898033142,
                        -0.07944884151220322,
                        0.440080851316452,
                        0.3554747402667999,
                        -2.446164846420288,
                        1.3447434902191162,
                        2.946666955947876,
                        1.4013164043426514,
                        -0.036810945719480515,
                        1.265028476715088,
                        -0.3906635046005249,
                        -1.5494827032089233,
                        -0.7423145771026611,
                        1.2989170551300049,
                        1.3299628496170044,
                        0.6878422498703003,
                        0.3676057457923889,
                        0.7922061085700989,
                        -1.4557644128799438,
                        -1.231286644935608,
                        -0.34472084045410156,
                        0.5990477204322815,
                        1.1672643423080444,
                        0.9270504117012024,
                        0.32636556029319763,
                        -0.395742267370224,
                        1.1454588174819946,
                        -2.0944790840148926,
                        -0.40315189957618713,
                        -1.377537727355957,
                        0.505954921245575,
                        1.4345378875732422,
                        -0.31451690196990967,
                        -0.4597858786582947,
                        0.1936366856098175,
                        0.13095255196094513,
                        2.013857841491699,
                        1.3814011812210083
                    ],
                    [
                        4.92230224609375,
                        -1.5794812440872192,
                        4.521439075469971,
                        3.2805635929107666,
                        3.407540798187256,
                        2.899615526199341,
                        -1.641066551208496,
                        0.9320383667945862,
                        -2.1350650787353516,
                        3.3825206756591797,
                        5.089354515075684,
                        -4.953725337982178,
                        -1.4204319715499878,
                        2.859036445617676,
                        3.3590617179870605,
                        -0.8041402697563171,
                        -1.8455969095230103,
                        2.4325473308563232,
                        4.3647871017456055,
                        3.8102023601531982,
                        4.691239356994629,
                        4.706480026245117,
                        3.294890880584717,
                        0.22250083088874817,
                        -1.6349074840545654,
                        3.0699338912963867,
                        0.4064881503582001,
                        3.463712453842163,
                        -4.564565658569336,
                        3.9049875736236572,
                        -1.6062291860580444,
                        -2.0483458042144775,
                        -1.2245787382125854,
                        3.884045362472534,
                        1.7209957838058472,
                        2.4664013385772705,
                        -1.3370448350906372,
                        2.6090571880340576,
                        2.7973415851593018,
                        -1.6077098846435547,
                        1.7325762510299683,
                        -1.4591072797775269,
                        4.574623107910156,
                        2.659693956375122,
                        -2.189253091812134,
                        5.025880336761475,
                        2.6763501167297363,
                        -0.6550580859184265,
                        2.6163008213043213,
                        -4.07524299621582
                    ],
                    [
                        -0.5632709860801697,
                        2.0816731452941895,
                        2.694338321685791,
                        2.069014072418213,
                        2.551340341567993,
                        3.147308588027954,
                        -1.3389607667922974,
                        4.222620010375977,
                        -2.434377908706665,
                        3.3688242435455322,
                        -3.1880855560302734,
                        0.6903108358383179,
                        -2.199457883834839,
                        2.082932233810425,
                        1.236572027206421,
                        0.46945974230766296,
                        -2.4140784740448,
                        2.9783735275268555,
                        -0.8732527494430542,
                        4.390854835510254,
                        -1.3193145990371704,
                        3.5741238594055176,
                        3.1106061935424805,
                        -1.5699899196624756,
                        -1.275015950202942,
                        2.6266276836395264,
                        4.712316513061523,
                        0.9595502018928528,
                        0.5289170145988464,
                        2.5459580421447754,
                        -2.3857438564300537,
                        -1.6866014003753662,
                        1.5813905000686646,
                        0.9972329139709473,
                        3.757291316986084,
                        -1.4860011339187622,
                        1.399311900138855,
                        1.98141348361969,
                        2.871858835220337,
                        -1.9380861520767212,
                        -1.5379257202148438,
                        -2.887927293777466,
                        -2.3671841621398926,
                        3.0691964626312256,
                        -1.3586887121200562,
                        -1.9789842367172241,
                        1.794825792312622,
                        2.4325876235961914,
                        2.3370776176452637,
                        2.1084461212158203
                    ],
                    [
                        -0.8450080156326294,
                        2.0291101932525635,
                        1.4262605905532837,
                        3.5122227668762207,
                        1.6549582481384277,
                        1.9751750230789185,
                        -6.322300910949707,
                        -0.8641460537910461,
                        -8.387311935424805,
                        -0.16097331047058105,
                        -0.9437500834465027,
                        3.9138429164886475,
                        -3.3010573387145996,
                        1.0732711553573608,
                        4.121373653411865,
                        1.2267106771469116,
                        -3.8360579013824463,
                        1.9304025173187256,
                        -2.0276310443878174,
                        0.19347652792930603,
                        -1.0294722318649292,
                        -0.30642324686050415,
                        1.272652506828308,
                        -5.185758590698242,
                        -7.04967737197876,
                        0.9358094334602356,
                        -1.8365086317062378,
                        3.7637665271759033,
                        2.9813807010650635,
                        0.5833230018615723,
                        -10.619695663452148,
                        -10.393421173095703,
                        0.7435327172279358,
                        4.616344928741455,
                        1.1727855205535889,
                        -3.026721477508545,
                        2.1763477325439453,
                        1.612954020500183,
                        1.3309954404830933,
                        -7.670105934143066,
                        -3.235765218734741,
                        -10.59420108795166,
                        -1.8603014945983887,
                        1.666967749595642,
                        2.2291488647460938,
                        -1.3883483409881592,
                        3.4628398418426514,
                        -4.0667877197265625,
                        3.3741374015808105,
                        1.9981358051300049
                    ],
                    [
                        -0.013872846029698849,
                        3.067169666290283,
                        7.102843284606934,
                        -0.5114585757255554,
                        2.956282138824463,
                        3.4112257957458496,
                        1.0706912279129028,
                        1.382729172706604,
                        -0.6472538709640503,
                        1.7991822957992554,
                        1.0002110004425049,
                        3.905198335647583,
                        3.3776237964630127,
                        3.358846426010132,
                        0.4852312207221985,
                        -0.5202112197875977,
                        4.657149314880371,
                        0.5498896241188049,
                        -0.04473740980029106,
                        4.159337997436523,
                        -0.6815181970596313,
                        -1.0651956796646118,
                        4.3600850105285645,
                        0.24461302161216736,
                        -1.4553004503250122,
                        2.6259260177612305,
                        1.3131166696548462,
                        0.3278200626373291,
                        2.12703275680542,
                        -0.9913427829742432,
                        -1.3006553649902344,
                        -1.691117525100708,
                        -0.7400002479553223,
                        0.8519219756126404,
                        2.478609800338745,
                        -0.235539972782135,
                        4.168004989624023,
                        -1.4895637035369873,
                        4.601900100708008,
                        -1.302935242652893,
                        -0.22679291665554047,
                        -1.5627883672714233,
                        -0.14775511622428894,
                        1.5325095653533936,
                        0.24899016320705414,
                        -0.6249827742576599,
                        -0.14421607553958893,
                        -0.6139599084854126,
                        6.496431350708008,
                        3.196274518966675
                    ],
                    [
                        -0.1813032329082489,
                        0.17395435273647308,
                        -0.18202951550483704,
                        -0.27405405044555664,
                        0.033232469111680984,
                        -0.7627242207527161,
                        -0.9136277437210083,
                        0.3202621340751648,
                        -0.18996044993400574,
                        0.07993581891059875,
                        -0.35868650674819946,
                        -1.216479778289795,
                        -1.79633629322052,
                        -0.5545423030853271,
                        -0.48058372735977173,
                        1.1628855466842651,
                        -1.7079824209213257,
                        2.21528959274292,
                        -0.4500426948070526,
                        0.45641276240348816,
                        -0.27466529607772827,
                        1.1489278078079224,
                        -0.7265835404396057,
                        -0.14862149953842163,
                        0.026775959879159927,
                        -0.5059371590614319,
                        0.49782025814056396,
                        -0.389424592256546,
                        -0.9744657874107361,
                        0.007367372512817383,
                        -0.07010462880134583,
                        0.02065722458064556,
                        1.898553490638733,
                        -0.44632020592689514,
                        -0.1605633795261383,
                        -0.46436581015586853,
                        -0.3682090938091278,
                        -0.2607816159725189,
                        0.2745295464992523,
                        0.015666328370571136,
                        -0.3022518754005432,
                        0.0030043006408959627,
                        -0.5457398891448975,
                        2.392665386199951,
                        1.4077870845794678,
                        -0.16492709517478943,
                        -0.022997573018074036,
                        0.21104030311107635,
                        1.5491372346878052,
                        -0.08217376470565796
                    ],
                    [
                        0.8041651844978333,
                        -3.1056089401245117,
                        0.14852747321128845,
                        -0.3167904317378998,
                        0.23863376677036285,
                        -0.011678986251354218,
                        0.8052526116371155,
                        -4.686626434326172,
                        -0.1346951127052307,
                        0.6920734643936157,
                        0.9529469609260559,
                        -6.04036808013916,
                        -0.7957813143730164,
                        0.3863120675086975,
                        0.03950919955968857,
                        -1.3133009672164917,
                        -0.5228545069694519,
                        0.6360102891921997,
                        0.7165880799293518,
                        0.9288570284843445,
                        0.5108456015586853,
                        1.0683457851409912,
                        0.5569428205490112,
                        -0.04498571902513504,
                        0.10841785371303558,
                        0.2939934730529785,
                        -5.125973701477051,
                        -0.0882948562502861,
                        -3.829622983932495,
                        1.3124257326126099,
                        0.09536021947860718,
                        0.19216501712799072,
                        0.9326329231262207,
                        0.0025350216310471296,
                        0.8462073802947998,
                        0.6464606523513794,
                        -3.2436606884002686,
                        0.0695330798625946,
                        0.3261246979236603,
                        0.08096218854188919,
                        0.5184748768806458,
                        0.3987460732460022,
                        0.5641587972640991,
                        0.8372668027877808,
                        -0.08084308356046677,
                        1.016281008720398,
                        -0.4202739894390106,
                        -3.4439618587493896,
                        0.763788640499115,
                        -1.5909868478775024
                    ],
                    [
                        1.4591796398162842,
                        0.9692561030387878,
                        3.1095643043518066,
                        -2.239973783493042,
                        0.1646607369184494,
                        0.21928277611732483,
                        -0.0380631685256958,
                        1.5411382913589478,
                        0.38470494747161865,
                        0.49628210067749023,
                        1.4352002143859863,
                        4.04693603515625,
                        -5.47192907333374,
                        -1.3862872123718262,
                        -2.3799662590026855,
                        -0.035481393337249756,
                        -5.003053188323975,
                        0.5633127689361572,
                        0.4009799659252167,
                        0.034490250051021576,
                        2.130070447921753,
                        4.4365410804748535,
                        -1.9255272150039673,
                        -0.5715844035148621,
                        1.3719520568847656,
                        0.19154103100299835,
                        1.5486754179000854,
                        -2.267226219177246,
                        1.8201457262039185,
                        3.292426586151123,
                        1.9733179807662964,
                        1.3616992235183716,
                        -0.6493813991546631,
                        -2.362391471862793,
                        0.36387619376182556,
                        0.8140328526496887,
                        0.4716634452342987,
                        -0.10163965076208115,
                        0.8530135154724121,
                        1.880695104598999,
                        -0.13657088577747345,
                        1.4652528762817383,
                        0.7773729562759399,
                        0.8948853015899658,
                        -3.0404396057128906,
                        1.853334665298462,
                        -1.9988576173782349,
                        -0.4588903486728668,
                        2.6313929557800293,
                        0.31734755635261536
                    ],
                    [
                        0.37402546405792236,
                        -2.6726934909820557,
                        1.2209526300430298,
                        1.205355167388916,
                        2.176152229309082,
                        0.689492404460907,
                        0.13831163942813873,
                        -3.485074520111084,
                        -0.587599515914917,
                        1.836190938949585,
                        0.2390516698360443,
                        -5.3925347328186035,
                        -1.423596978187561,
                        0.4804055094718933,
                        0.5023437738418579,
                        0.24481113255023956,
                        -1.1803350448608398,
                        1.7456060647964478,
                        -0.049483321607112885,
                        2.7424564361572266,
                        0.24851331114768982,
                        2.060502767562866,
                        0.4950532019138336,
                        0.5549204349517822,
                        0.619456946849823,
                        1.5652574300765991,
                        -4.576382160186768,
                        0.4295578598976135,
                        -4.32700777053833,
                        1.136084794998169,
                        0.6788068413734436,
                        0.5296036005020142,
                        1.5977416038513184,
                        0.5759828090667725,
                        1.9790899753570557,
                        -0.6447691321372986,
                        -1.9748952388763428,
                        1.4203470945358276,
                        1.518791913986206,
                        0.5751516819000244,
                        0.1625487357378006,
                        0.17729069292545319,
                        -0.3114190399646759,
                        2.4348411560058594,
                        0.6486440300941467,
                        0.41448643803596497,
                        0.907535970211029,
                        -2.611708402633667,
                        2.919893741607666,
                        -0.3277440369129181
                    ],
                    [
                        -0.16841472685337067,
                        -0.035496581345796585,
                        -2.003424644470215,
                        -0.6670264601707458,
                        -1.7068394422531128,
                        -1.2120801210403442,
                        0.7024727463722229,
                        -0.02783316746354103,
                        1.8658198118209839,
                        -0.5240329504013062,
                        0.1963520050048828,
                        0.6277574300765991,
                        2.0493345260620117,
                        0.3068884611129761,
                        -0.759829044342041,
                        0.8810946345329285,
                        1.9218159914016724,
                        0.6303656101226807,
                        0.0680636465549469,
                        -2.3222436904907227,
                        0.4219970405101776,
                        0.49999797344207764,
                        0.5243220925331116,
                        0.34319886565208435,
                        -1.6039071083068848,
                        -0.7679110169410706,
                        0.18460582196712494,
                        -0.357815682888031,
                        -1.0977437496185303,
                        -0.3714962601661682,
                        -0.16409030556678772,
                        -0.05240241810679436,
                        1.2065149545669556,
                        -0.7459774017333984,
                        -1.46327543258667,
                        -0.053811654448509216,
                        -0.4749722480773926,
                        -0.5188249349594116,
                        -1.377172589302063,
                        -0.6229391098022461,
                        0.3200751841068268,
                        -0.09312590956687927,
                        -0.04906628280878067,
                        0.6534778475761414,
                        1.206680178642273,
                        0.24230487644672394,
                        -0.38879382610321045,
                        0.4827718734741211,
                        -0.3603697121143341,
                        -0.3353699743747711
                    ],
                    [
                        0.058358948677778244,
                        0.7446253299713135,
                        0.07132740318775177,
                        -1.6915892362594604,
                        -1.947962760925293,
                        -2.137042760848999,
                        1.267293095588684,
                        -1.1296422481536865,
                        1.6976269483566284,
                        -0.911047637462616,
                        -0.5381585955619812,
                        1.8377243280410767,
                        -2.097275972366333,
                        0.8071833252906799,
                        -2.0733933448791504,
                        0.27367281913757324,
                        -2.866786241531372,
                        0.007132850121706724,
                        -0.12780694663524628,
                        -4.786654949188232,
                        -0.6059600710868835,
                        -2.5187504291534424,
                        0.7158315181732178,
                        -0.3299095332622528,
                        1.7750470638275146,
                        -2.2117061614990234,
                        -0.5385107398033142,
                        -1.8267908096313477,
                        0.9677415490150452,
                        -2.12943172454834,
                        1.9496897459030151,
                        1.9776463508605957,
                        0.9733109474182129,
                        -2.202518939971924,
                        -2.8188276290893555,
                        0.31715458631515503,
                        -0.6815074682235718,
                        -1.2073466777801514,
                        -0.25020328164100647,
                        1.6202518939971924,
                        -0.01722308062016964,
                        1.488084077835083,
                        0.21296365559101105,
                        -0.39333459734916687,
                        -2.0475478172302246,
                        -0.2531687319278717,
                        -0.9791069030761719,
                        -0.23224909603595734,
                        -0.1351478546857834,
                        -1.4443837404251099
                    ],
                    [
                        3.0051286220550537,
                        -3.3233377933502197,
                        2.7058498859405518,
                        -0.02523656375706196,
                        0.9525396227836609,
                        1.2709808349609375,
                        0.48765334486961365,
                        3.572291612625122,
                        -0.2941409647464752,
                        0.792025089263916,
                        -2.386465072631836,
                        -4.876164436340332,
                        -0.35350075364112854,
                        -0.35527828335762024,
                        0.33785223960876465,
                        -2.326652765274048,
                        -0.22969979047775269,
                        0.9572250247001648,
                        3.5834975242614746,
                        1.8311688899993896,
                        0.7874400615692139,
                        2.4637885093688965,
                        0.14337913691997528,
                        3.341555595397949,
                        -1.6515206098556519,
                        1.2131937742233276,
                        4.720695495605469,
                        0.2255839705467224,
                        -6.0775580406188965,
                        3.017932891845703,
                        -1.176108956336975,
                        -1.0657850503921509,
                        0.6085748672485352,
                        0.22176381945610046,
                        1.5994433164596558,
                        3.524970054626465,
                        -4.022177219390869,
                        1.250923752784729,
                        1.1881935596466064,
                        -1.3302057981491089,
                        4.070601463317871,
                        -0.9530666470527649,
                        4.072780609130859,
                        2.4243762493133545,
                        -0.10464592278003693,
                        -2.1283230781555176,
                        -0.1785937249660492,
                        4.962785720825195,
                        2.9809625148773193,
                        0.6548043489456177
                    ],
                    [
                        0.7498502135276794,
                        2.091756582260132,
                        1.9942396879196167,
                        3.3814516067504883,
                        0.03472458943724632,
                        0.3142373561859131,
                        -14.166041374206543,
                        0.5021136999130249,
                        -16.434967041015625,
                        0.6516958475112915,
                        -0.6103469729423523,
                        2.46492862701416,
                        -15.277608871459961,
                        2.4148855209350586,
                        4.777718544006348,
                        0.8955162763595581,
                        -14.758594512939453,
                        1.2448668479919434,
                        -0.1699528694152832,
                        -0.4113718271255493,
                        -0.6075474619865417,
                        2.3590922355651855,
                        2.2505834102630615,
                        -1.7138715982437134,
                        -0.7569031715393066,
                        0.7200025916099548,
                        1.594489336013794,
                        4.248968601226807,
                        1.702718734741211,
                        1.327708125114441,
                        -12.010461807250977,
                        -11.573846817016602,
                        0.45812323689460754,
                        4.955680847167969,
                        0.11467929929494858,
                        0.4341234266757965,
                        1.538206696510315,
                        0.6230512261390686,
                        -0.09400179982185364,
                        -7.050993919372559,
                        -1.582144856452942,
                        -14.092658042907715,
                        0.03905386105179787,
                        1.7085627317428589,
                        0.4818985164165497,
                        0.05083858594298363,
                        3.1014962196350098,
                        -1.9350992441177368,
                        1.4181816577911377,
                        1.298939824104309
                    ],
                    [
                        0.18596231937408447,
                        -0.34964779019355774,
                        -2.2082366943359375,
                        -1.0393420457839966,
                        -3.1428215503692627,
                        -2.4326326847076416,
                        -2.1644203662872314,
                        -0.1458737552165985,
                        0.950008749961853,
                        -1.0634851455688477,
                        -0.2932187020778656,
                        1.160148024559021,
                        1.4878028631210327,
                        0.3869018256664276,
                        -1.963395118713379,
                        -0.5658840537071228,
                        1.9689348936080933,
                        -1.2147456407546997,
                        0.3031809628009796,
                        -4.449182987213135,
                        -0.4019821286201477,
                        -0.28289052844047546,
                        -0.006629776209592819,
                        -0.6937363147735596,
                        -1.3226597309112549,
                        -2.5152997970581055,
                        0.1410333514213562,
                        -2.2086002826690674,
                        -1.5097707509994507,
                        -0.765557587146759,
                        -2.1653711795806885,
                        -2.499722957611084,
                        -0.5210933089256287,
                        -2.5368361473083496,
                        -2.363182544708252,
                        0.04266226664185524,
                        -0.9742844104766846,
                        -1.494654893875122,
                        -1.2361042499542236,
                        -1.0100895166397095,
                        -0.38612768054008484,
                        -1.6298837661743164,
                        0.506891131401062,
                        -1.453299880027771,
                        2.1133971214294434,
                        -0.31677624583244324,
                        -1.2684557437896729,
                        -0.8516179323196411,
                        -4.998276710510254,
                        -2.1085004806518555
                    ],
                    [
                        -0.8628740906715393,
                        2.9996893405914307,
                        4.897672176361084,
                        -0.17708459496498108,
                        2.8501510620117188,
                        4.758275985717773,
                        0.6334831714630127,
                        4.691664695739746,
                        -0.12111984938383102,
                        3.677273988723755,
                        0.8158548474311829,
                        1.7368243932724,
                        1.7306337356567383,
                        -1.385671854019165,
                        0.07090885937213898,
                        -0.8096669912338257,
                        1.6958216428756714,
                        2.870481014251709,
                        -0.46962085366249084,
                        4.543808460235596,
                        2.8109705448150635,
                        4.5862135887146,
                        -1.7038662433624268,
                        1.0421885251998901,
                        -0.8069221377372742,
                        3.035951614379883,
                        4.064080715179443,
                        -0.1377631574869156,
                        1.7043635845184326,
                        5.454544544219971,
                        -0.63567715883255,
                        -0.5481894016265869,
                        -2.400796890258789,
                        -0.4575355648994446,
                        3.3015925884246826,
                        -0.8500871062278748,
                        1.8208566904067993,
                        4.456265926361084,
                        4.061071395874023,
                        -0.5279174447059631,
                        -0.4446921944618225,
                        -0.8173678517341614,
                        0.02946152538061142,
                        2.727586030960083,
                        -0.2730628550052643,
                        2.0444881916046143,
                        -0.40714526176452637,
                        0.965156078338623,
                        3.370850086212158,
                        3.657512664794922
                    ],
                    [
                        1.7327439785003662,
                        1.2269648313522339,
                        0.7503176331520081,
                        3.218824863433838,
                        2.6346917152404785,
                        3.0660688877105713,
                        -4.708398342132568,
                        3.1291580200195312,
                        -6.305481910705566,
                        0.888130784034729,
                        1.7413156032562256,
                        0.8608821630477905,
                        -5.970493316650391,
                        2.7592365741729736,
                        3.4383158683776855,
                        0.6925377249717712,
                        -6.5448431968688965,
                        2.2013771533966064,
                        0.5246764421463013,
                        0.6262831091880798,
                        3.68276309967041,
                        0.10557126998901367,
                        4.557835578918457,
                        -5.0976243019104,
                        -4.685124397277832,
                        2.2245607376098633,
                        2.7794172763824463,
                        3.0057826042175293,
                        0.4226718246936798,
                        0.8752387166023254,
                        -7.836137294769287,
                        -6.675745964050293,
                        0.8679081201553345,
                        3.755802869796753,
                        2.5790913105010986,
                        -0.8731632232666016,
                        1.5612601041793823,
                        1.3126399517059326,
                        2.41843843460083,
                        -6.372032165527344,
                        -2.9553205966949463,
                        -6.641433238983154,
                        0.03646267205476761,
                        2.7169888019561768,
                        1.2264775037765503,
                        2.095828056335449,
                        2.7287564277648926,
                        2.19545841217041,
                        1.9629321098327637,
                        3.0646567344665527
                    ],
                    [
                        -0.056399017572402954,
                        -0.7340505719184875,
                        2.869596004486084,
                        1.1932982206344604,
                        6.238067150115967,
                        3.6101322174072266,
                        -2.3127644062042236,
                        -1.4901491403579712,
                        -1.2675949335098267,
                        4.411383152008057,
                        2.733656167984009,
                        -2.0503885746002197,
                        -1.1677014827728271,
                        0.6177996397018433,
                        1.336187720298767,
                        0.20638589560985565,
                        0.07293282449245453,
                        3.234876871109009,
                        0.05641426518559456,
                        5.293637752532959,
                        5.1734137535095215,
                        5.427329063415527,
                        0.6294180154800415,
                        -0.6515275239944458,
                        -0.30565744638442993,
                        4.516274452209473,
                        -1.5131930112838745,
                        1.211289644241333,
                        -1.2981659173965454,
                        3.1575546264648438,
                        -0.3297060430049896,
                        -0.6289764642715454,
                        0.0968385711312294,
                        1.282056450843811,
                        6.353322982788086,
                        -1.4226847887039185,
                        -0.8041636347770691,
                        4.094004154205322,
                        4.081844329833984,
                        0.16159524023532867,
                        -2.232710838317871,
                        -1.190510869026184,
                        1.5024478435516357,
                        3.575664520263672,
                        0.9412893056869507,
                        5.266477108001709,
                        1.0366861820220947,
                        -2.1455447673797607,
                        3.7252614498138428,
                        0.08561472594738007
                    ],
                    [
                        1.1050732135772705,
                        0.026929136365652084,
                        1.1486680507659912,
                        0.5929054021835327,
                        2.52270245552063,
                        2.9054741859436035,
                        1.6603405475616455,
                        -0.3576730787754059,
                        2.5472564697265625,
                        -0.9968223571777344,
                        0.6748536825180054,
                        -0.0076288566924631596,
                        3.5315768718719482,
                        1.419819951057434,
                        -0.03735813498497009,
                        0.1727469116449356,
                        3.6940011978149414,
                        1.9532133340835571,
                        1.007082223892212,
                        0.9506260752677917,
                        0.28379297256469727,
                        1.764636516571045,
                        1.3863617181777954,
                        1.1067445278167725,
                        -0.4001944363117218,
                        2.0829451084136963,
                        0.3195204436779022,
                        -0.048928938806056976,
                        0.12381742894649506,
                        0.4274498224258423,
                        0.9244903922080994,
                        1.569441318511963,
                        1.7885925769805908,
                        0.010819637216627598,
                        0.5022357702255249,
                        0.03330346569418907,
                        -0.0344792976975441,
                        2.3243916034698486,
                        0.7975630760192871,
                        0.9264271855354309,
                        1.959049940109253,
                        0.5829705595970154,
                        0.4381175637245178,
                        2.3412721157073975,
                        1.3641308546066284,
                        -0.0688399001955986,
                        0.5116009712219238,
                        -0.1069820448756218,
                        2.7806379795074463,
                        3.1131811141967773
                    ],
                    [
                        0.5692451000213623,
                        -0.26454275846481323,
                        5.007008075714111,
                        2.581986665725708,
                        5.127562999725342,
                        3.511882781982422,
                        -0.7138411402702332,
