[
    {
        "CODE_DISTANCE": 5,
        "ERROR_PROBS": [
            9.980039976653643e-06,
            9.980039976653643e-06,
            0.009980039671063423
        ],
        "CONV_LAYERS_INPUT_1": [
            [
                24,
                2,
                1,
                0
            ]
        ],
        "CONV_LAYERS_INPUT_2": [
            [
                24,
                1,
                1,
                0
            ]
        ],
        "CONV_LAYERS_STAGE_2": [
            [
                24,
                2,
                1,
                0
            ]
        ],
        "FC_LAYERS": [
            50,
            2
        ]
    },
    {
        "CNN_input_1": [
            {
                "b": [
                    0.10836666077375412,
                    -0.044434670358896255,
                    -0.19312217831611633,
                    0.3107120096683502,
                    -0.6284105777740479,
                    -0.40257805585861206,
                    -0.23891419172286987,
                    -0.17432621121406555,
                    -0.21020986139774323,
                    0.40932098031044006,
                    0.42673638463020325,
                    -0.259218692779541,
                    -0.009849544614553452,
                    0.29662227630615234,
                    0.024116160348057747,
                    -0.003063862444832921,
                    0.33358728885650635,
                    -0.7746120691299438,
                    -0.22160938382148743,
                    -0.0012513432884588838,
                    0.020741961896419525,
                    -0.2137770801782608,
                    -0.17445534467697144,
                    -0.006636825390160084
                ],
                "w": [
                    [
                        [
                            [
                                0.7521868348121643,
                                -0.7701643705368042
                            ],
                            [
                                -0.26852142810821533,
                                0.21014189720153809
                            ]
                        ]
                    ],
                    [
                        [
                            [
                                -0.5169075727462769,
                                0.400447279214859
                            ],
                            [
                                0.1789676398038864,
                                0.014678068459033966
                            ]
                        ]
                    ],
                    [
                        [
                            [
                                -0.1269795298576355,
                                -0.34677553176879883
                            ],
                            [
                                -0.022603457793593407,
                                0.48875075578689575
                            ]
                        ]
                    ],
                    [
                        [
                            [
                                -0.08080285787582397,
                                -0.23804262280464172
                            ],
                            [
                                -0.09249500185251236,
                                -0.34933918714523315
                            ]
                        ]
                    ],
                    [
                        [
                            [
                                0.1329793930053711,
                                0.14161881804466248
                            ],
                            [
                                0.24396979808807373,
                                0.4670078456401825
                            ]
                        ]
                    ],
                    [
                        [
                            [
                                0.3168798089027405,
                                0.48417580127716064
                            ],
                            [
                                -0.004372379742562771,
                                0.5056524276733398
                            ]
                        ]
                    ],
                    [
                        [
                            [
                                1.1777114868164062,
                                0.44521409273147583
                            ],
                            [
                                -0.49370720982551575,
                                0.5359432697296143
                            ]
                        ]
                    ],
                    [
                        [
                            [
                                0.4506988525390625,
                                0.421232670545578
                            ],
                            [
                                0.500924289226532,
                                -0.03388705104589462
                            ]
                        ]
                    ],
                    [
                        [
                            [
                                -0.0633959174156189,
                                -0.13493527472019196
                            ],
                            [
                                0.3399161398410797,
                                0.8077458143234253
                            ]
                        ]
                    ],
                    [
                        [
                            [
                                0.3655405044555664,
                                0.16892682015895844
                            ],
                            [
                                -0.5614110827445984,
                                0.1654885709285736
                            ]
                        ]
                    ],
                    [
                        [
                            [
                                -0.0663858950138092,
                                0.25602367520332336
                            ],
                            [
                                -0.18319204449653625,
                                -0.8333636522293091
                            ]
                        ]
                    ],
                    [
                        [
                            [
                                0.3764324486255646,
                                0.2461412400007248
                            ],
                            [
                                0.048760175704956055,
                                -0.2235746532678604
                            ]
                        ]
                    ],
                    [
                        [
                            [
                                -0.02808981016278267,
                                -0.01038216520100832
                            ],
                            [
                                0.009269369766116142,
                                0.015099870972335339
                            ]
                        ]
                    ],
                    [
                        [
                            [
                                -0.033887140452861786,
                                -0.5038068294525146
                            ],
                            [
                                0.5583771467208862,
                                -0.06575485318899155
                            ]
                        ]
                    ],
                    [
                        [
                            [
                                -0.009252010844647884,
                                -0.027974065393209457
                            ],
                            [
                                0.0030505224131047726,
                                0.017068814486265182
                            ]
                        ]
                    ],
                    [
                        [
                            [
                                0.022820796817541122,
                                -0.0068622492253780365
                            ],
                            [
                                0.0014489932218566537,
                                0.008887366391718388
                            ]
                        ]
                    ],
                    [
                        [
                            [
                                0.37153488397598267,
                                -0.10242568701505661
                            ],
                            [
                                0.27004456520080566,
                                -0.3178118169307709
                            ]
                        ]
                    ],
                    [
                        [
                            [
                                0.4783242642879486,
                                0.2348557710647583
                            ],
                            [
                                -0.07985043525695801,
                                -0.059274155646562576
                            ]
                        ]
                    ],
                    [
                        [
                            [
                                0.3346977233886719,
                                -0.14212021231651306
                            ],
                            [
                                0.6392548084259033,
                                -0.008921991102397442
                            ]
                        ]
                    ],
                    [
                        [
                            [
                                -0.01345609687268734,
                                -0.0017089389730244875
                            ],
                            [
                                0.0067225731909275055,
                                0.017825614660978317
                            ]
                        ]
                    ],
                    [
                        [
                            [
                                0.028718270361423492,
                                0.34917452931404114
                            ],
                            [
                                0.45896804332733154,
                                -0.20560258626937866
                            ]
                        ]
                    ],
                    [
                        [
                            [
                                0.16088099777698517,
                                0.11406154930591583
                            ],
                            [
                                0.7317215800285339,
                                0.08227436989545822
                            ]
                        ]
                    ],
                    [
                        [
                            [
                                -0.252036988735199,
                                0.22994130849838257
                            ],
                            [
                                0.1661539375782013,
                                0.4136750400066376
                            ]
                        ]
                    ],
                    [
                        [
                            [
                                -0.034367408603429794,
                                0.025446899235248566
                            ],
                            [
                                0.00012917470303364098,
                                0.0014127516187727451
                            ]
                        ]
                    ]
                ]
            }
        ],
        "CNN_input_2": [
            {
                "b": [
                    0.024018315598368645,
                    -0.2261486053466797,
                    -0.1485009342432022,
                    -0.024838315322995186,
                    0.043920498341321945,
                    -0.23000307381153107,
                    -0.30467885732650757,
                    0.04047495126724243,
                    -0.041748907417058945,
                    -0.25673672556877136,
                    0.14282019436359406,
                    0.06211530789732933,
                    0.10284020006656647,
                    0.0977303609251976,
                    0.163151815533638,
                    0.03651951253414154,
                    0.03176099807024002,
                    -0.17686662077903748,
                    -0.16461457312107086,
                    0.1366681009531021,
                    -0.168867290019989,
                    0.11833525449037552,
                    -0.06448446214199066,
                    -0.5096292495727539
                ],
                "w": [
                    [
                        [
                            [
                                0.3563978970050812
                            ]
                        ],
                        [
                            [
                                -0.22129742801189423
                            ]
                        ],
                        [
                            [
                                -0.33573126792907715
                            ]
                        ],
                        [
                            [
                                -0.19278250634670258
                            ]
                        ],
                        [
                            [
                                0.5011692047119141
                            ]
                        ],
                        [
                            [
                                0.612005352973938
                            ]
                        ]
                    ],
                    [
                        [
                            [
                                0.5874629020690918
                            ]
                        ],
                        [
                            [
                                -0.8086554408073425
                            ]
                        ],
                        [
                            [
                                0.42108142375946045
                            ]
                        ],
                        [
                            [
                                -0.12488105148077011
                            ]
                        ],
                        [
                            [
                                -0.6160134077072144
                            ]
                        ],
                        [
                            [
                                0.41421738266944885
                            ]
                        ]
                    ],
                    [
                        [
                            [
                                0.5685651898384094
                            ]
                        ],
                        [
                            [
                                -0.12305886298418045
                            ]
                        ],
                        [
                            [
                                0.24163220822811127
                            ]
                        ],
                        [
                            [
                                0.1418108195066452
                            ]
                        ],
                        [
                            [
                                -1.1551427841186523
                            ]
                        ],
                        [
                            [
                                -0.3223192095756531
                            ]
                        ]
                    ],
                    [
                        [
                            [
                                -0.10004401206970215
                            ]
                        ],
                        [
                            [
                                -0.21700911223888397
                            ]
                        ],
                        [
                            [
                                0.12940286099910736
                            ]
                        ],
                        [
                            [
                                -0.18161402642726898
                            ]
                        ],
                        [
                            [
                                0.28024694323539734
                            ]
                        ],
                        [
                            [
                                0.008742481470108032
                            ]
                        ]
                    ],
                    [
                        [
                            [
                                -0.5317718386650085
                            ]
                        ],
                        [
                            [
                                -0.3380590081214905
                            ]
                        ],
                        [
                            [
                                -0.00315120373852551
                            ]
                        ],
                        [
                            [
                                0.03505919501185417
                            ]
                        ],
                        [
                            [
                                -0.684414803981781
                            ]
                        ],
                        [
                            [
                                -0.24688905477523804
                            ]
                        ]
                    ],
                    [
                        [
                            [
                                0.12165486812591553
                            ]
                        ],
                        [
                            [
                                -0.7401731014251709
                            ]
                        ],
                        [
                            [
                                0.5203887820243835
                            ]
                        ],
                        [
                            [
                                0.19944815337657928
                            ]
                        ],
                        [
                            [
                                0.45334693789482117
                            ]
                        ],
                        [
                            [
                                -0.4189065992832184
                            ]
                        ]
                    ],
                    [
                        [
                            [
                                0.37266865372657776
                            ]
                        ],
                        [
                            [
                                -0.8817168474197388
                            ]
                        ],
                        [
                            [
                                0.49061864614486694
                            ]
                        ],
                        [
                            [
                                0.6696563363075256
                            ]
                        ],
                        [
                            [
                                -0.050309646874666214
                            ]
                        ],
                        [
                            [
                                0.008909155614674091
                            ]
                        ]
                    ],
                    [
                        [
                            [
                                0.35763096809387207
                            ]
                        ],
                        [
                            [
                                -0.057528119534254074
                            ]
                        ],
                        [
                            [
                                0.1339063048362732
                            ]
                        ],
                        [
                            [
                                -0.07042196393013
                            ]
                        ],
                        [
                            [
                                0.5517398715019226
                            ]
                        ],
                        [
                            [
                                0.16449138522148132
                            ]
                        ]
                    ],
                    [
                        [
                            [
                                -0.15935559570789337
                            ]
                        ],
                        [
                            [
                                -0.5867581963539124
                            ]
                        ],
                        [
                            [
                                0.25957274436950684
                            ]
                        ],
                        [
                            [
                                0.49508294463157654
                            ]
                        ],
                        [
                            [
                                1.0888031721115112
                            ]
                        ],
                        [
                            [
                                -0.8944309949874878
                            ]
                        ]
                    ],
                    [
                        [
                            [
                                0.9007695913314819
                            ]
                        ],
                        [
                            [
                                0.6195666193962097
                            ]
                        ],
                        [
                            [
                                0.39701977372169495
                            ]
                        ],
                        [
                            [
                                -0.0005537847755476832
                            ]
                        ],
                        [
                            [
                                0.6177293658256531
                            ]
                        ],
                        [
                            [
                                -0.10839875787496567
                            ]
                        ]
                    ],
                    [
                        [
                            [
                                -0.2888495922088623
                            ]
                        ],
                        [
                            [
                                0.5555146336555481
                            ]
                        ],
                        [
                            [
                                -0.41969427466392517
                            ]
                        ],
                        [
                            [
                                0.19013796746730804
                            ]
                        ],
                        [
                            [
                                -0.19316503405570984
                            ]
                        ],
                        [
                            [
                                -0.15286540985107422
                            ]
                        ]
                    ],
                    [
                        [
                            [
                                0.285432904958725
                            ]
                        ],
                        [
                            [
                                -0.6261405944824219
                            ]
                        ],
                        [
                            [
                                -0.23441730439662933
                            ]
                        ],
                        [
                            [
                                -0.42955896258354187
                            ]
                        ],
                        [
                            [
                                0.3606316149234772
                            ]
                        ],
                        [
                            [
                                -0.1996585875749588
                            ]
                        ]
                    ],
                    [
                        [
                            [
                                -0.13044482469558716
                            ]
                        ],
                        [
                            [
                                0.12836720049381256
                            ]
                        ],
                        [
                            [
                                -0.11364452540874481
                            ]
                        ],
                        [
                            [
                                -0.10418833792209625
                            ]
                        ],
                        [
                            [
                                0.3875085413455963
                            ]
                        ],
                        [
                            [
                                -0.08309919387102127
                            ]
                        ]
                    ],
                    [
                        [
                            [
                                -0.7245496511459351
                            ]
                        ],
                        [
                            [
                                0.044137030839920044
                            ]
                        ],
                        [
                            [
                                -0.14287994801998138
                            ]
                        ],
                        [
                            [
                                -0.06891877204179764
                            ]
                        ],
                        [
                            [
                                -0.5001567602157593
                            ]
                        ],
                        [
                            [
                                -0.5453810691833496
                            ]
                        ]
                    ],
                    [
                        [
                            [
                                -0.14538899064064026
                            ]
                        ],
                        [
                            [
                                0.5024276375770569
                            ]
                        ],
                        [
                            [
                                -0.1431940495967865
                            ]
                        ],
                        [
                            [
                                -0.1541675627231598
                            ]
                        ],
                        [
                            [
                                -0.2685593068599701
                            ]
                        ],
                        [
                            [
                                -0.29390159249305725
                            ]
                        ]
                    ],
                    [
                        [
                            [
                                -0.040337081998586655
                            ]
                        ],
                        [
                            [
                                0.06995585560798645
                            ]
                        ],
                        [
                            [
                                -0.0338372066617012
                            ]
                        ],
                        [
                            [
                                -0.020369576290249825
                            ]
                        ],
                        [
                            [
                                -0.4206528663635254
                            ]
                        ],
                        [
                            [
                                -0.1147453635931015
                            ]
                        ]
                    ],
                    [
                        [
                            [
                                -0.004061365500092506
                            ]
                        ],
                        [
                            [
                                -1.0163263082504272
                            ]
                        ],
                        [
                            [
                                -0.2118360996246338
                            ]
                        ],
                        [
                            [
                                -0.5640589594841003
                            ]
                        ],
                        [
                            [
                                0.1565491408109665
                            ]
                        ],
                        [
                            [
                                0.3709774911403656
                            ]
                        ]
                    ],
                    [
                        [
                            [
                                0.25982338190078735
                            ]
                        ],
                        [
                            [
                                0.09534943848848343
                            ]
                        ],
                        [
                            [
                                0.7155149579048157
                            ]
                        ],
                        [
                            [
                                -0.3095560371875763
                            ]
                        ],
                        [
                            [
                                -0.5619511604309082
                            ]
                        ],
                        [
                            [
                                -0.21976344287395477
                            ]
                        ]
                    ],
                    [
                        [
                            [
                                0.19008298218250275
                            ]
                        ],
                        [
                            [
                                0.40702787041664124
                            ]
                        ],
                        [
                            [
                                0.6313962340354919
                            ]
                        ],
                        [
                            [
                                -0.20508410036563873
                            ]
                        ],
                        [
                            [
                                -1.005738377571106
                            ]
                        ],
                        [
                            [
                                -0.9271833896636963
                            ]
                        ]
                    ],
                    [
                        [
                            [
                                -0.12239108234643936
                            ]
                        ],
                        [
                            [
                                -0.23535218834877014
                            ]
                        ],
                        [
                            [
                                -0.13097769021987915
                            ]
                        ],
                        [
                            [
                                -0.15110820531845093
                            ]
                        ],
                        [
                            [
                                -0.6069168448448181
                            ]
                        ],
                        [
                            [
                                0.08262936025857925
                            ]
                        ]
                    ],
                    [
                        [
                            [
                                0.24061016738414764
                            ]
                        ],
                        [
                            [
                                -0.148329958319664
                            ]
                        ],
                        [
                            [
                                0.19751398265361786
                            ]
                        ],
                        [
                            [
                                0.5457362532615662
                            ]
                        ],
                        [
                            [
                                1.2315562963485718
                            ]
                        ],
                        [
                            [
                                0.33086204528808594
                            ]
                        ]
                    ],
                    [
                        [
                            [
                                0.3495780825614929
                            ]
                        ],
                        [
                            [
                                0.02491188980638981
                            ]
                        ],
                        [
                            [
                                -0.34140661358833313
                            ]
                        ],
                        [
                            [
                                -0.21933619678020477
                            ]
                        ],
                        [
                            [
                                -0.5389627814292908
                            ]
                        ],
                        [
                            [
                                -1.1540900468826294
                            ]
                        ]
                    ],
                    [
                        [
                            [
                                0.239448681473732
                            ]
                        ],
                        [
                            [
                                0.8157437443733215
                            ]
                        ],
                        [
                            [
                                0.0050837816670536995
                            ]
                        ],
                        [
                            [
                                0.3967383801937103
                            ]
                        ],
                        [
                            [
                                0.6841656565666199
                            ]
                        ],
                        [
                            [
                                -0.15934531390666962
                            ]
                        ]
                    ],
                    [
                        [
                            [
                                0.47053879499435425
                            ]
                        ],
                        [
                            [
                                -0.48952725529670715
                            ]
                        ],
                        [
                            [
                                0.4973754584789276
                            ]
                        ],
                        [
                            [
                                0.48840564489364624
                            ]
                        ],
                        [
                            [
                                -0.9838415384292603
                            ]
                        ],
                        [
                            [
                                0.21797135472297668
                            ]
                        ]
                    ]
                ]
            }
        ],
        "CNN_stage_2": [
            {
                "b": [
                    -0.9572780728340149,
                    -0.2314835637807846,
                    -0.7454670667648315,
                    -0.14873482286930084,
                    -0.38217034935951233,
                    -0.2775058150291443,
                    -1.3462884426116943,
                    -1.5695301294326782,
                    -1.6614669561386108,
                    -0.4413241744041443,
                    -0.6262065768241882,
                    -1.8162039518356323,
                    0.09240344166755676,
                    -0.9607070684432983,
                    -1.110481858253479,
                    -0.6992484927177429,
                    -0.3829621970653534,
                    -0.7643201351165771,
                    -0.927688479423523,
                    -0.2902067005634308,
                    -0.8879700899124146,
                    -0.03798844292759895,
                    -0.4446197748184204,
                    -0.9541768431663513
                ],
                "w": [
                    [
                        [
                            [
                                0.6087443828582764,
                                -0.6709958910942078
                            ],
                            [
                                -0.0880994126200676,
                                0.6840031147003174
                            ]
                        ],
                        [
                            [
                                -0.3446127772331238,
                                0.18518798053264618
                            ],
                            [
                                0.2113122045993805,
                                0.41897544264793396
                            ]
                        ],
                        [
                            [
                                -0.2773139178752899,
                                -0.1556350290775299
                            ],
                            [
                                1.2262378931045532,
                                0.14418429136276245
                            ]
                        ],
                        [
                            [
                                0.014779358170926571,
                                0.5592048168182373
                            ],
                            [
                                0.29157403111457825,
                                0.3625575304031372
                            ]
                        ],
                        [
                            [
                                0.13770845532417297,
                                -0.2527220845222473
                            ],
                            [
                                -0.9743536710739136,
                                0.036285027861595154
                            ]
                        ],
                        [
                            [
                                -0.2559281587600708,
                                0.7951533794403076
                            ],
                            [
                                -0.6585862040519714,
                                0.4983064532279968
                            ]
                        ],
                        [
                            [
                                -0.4676201343536377,
                                1.1821891069412231
                            ],
                            [
                                0.12133638560771942,
                                -0.6185164451599121
                            ]
                        ],
                        [
                            [
                                -0.10226227343082428,
                                -0.1992705911397934
                            ],
                            [
                                0.12513481080532074,
                                0.04636344686150551
                            ]
                        ],
                        [
                            [
                                -0.4130256175994873,
                                0.6124163269996643
                            ],
                            [
                                -0.3346601724624634,
                                0.7014403939247131
                            ]
                        ],
                        [
                            [
                                0.17795728147029877,
                                0.0801003947854042
                            ],
                            [
                                -0.5782216191291809,
                                0.012222674675285816
                            ]
                        ],
                        [
                            [
                                -0.19506195187568665,
                                -0.5277107954025269
                            ],
                            [
                                0.4365200400352478,
                                0.02227216400206089
                            ]
                        ],
                        [
                            [
                                -0.3849929869174957,
                                -0.24086549878120422
                            ],
                            [
                                -0.9760307669639587,
                                0.015118778683245182
                            ]
                        ],
                        [
                            [
                                -0.2233770489692688,
                                0.06746096909046173
                            ],
                            [
                                -0.12059187889099121,
                                0.10307252407073975
                            ]
                        ],
                        [
                            [
                                0.21988731622695923,
                                0.6918458938598633
                            ],
                            [
                                -0.3170645236968994,
                                0.3522912561893463
                            ]
                        ],
                        [
                            [
                                -0.09074709564447403,
                                -0.051741909235715866
                            ],
                            [
                                0.007709082216024399,
                                -0.07958834618330002
                            ]
                        ],
                        [
                            [
                                0.07897619158029556,
                                -0.11426184326410294
                            ],
                            [
                                -0.14058347046375275,
                                -0.17039816081523895
                            ]
                        ],
                        [
                            [
                                0.3127760887145996,
                                0.10839536041021347
                            ],
                            [
                                -0.2501594126224518,
                                1.0834932327270508
                            ]
                        ],
                        [
                            [
                                0.16891761124134064,
                                0.5995073318481445
                            ],
                            [
                                0.0037567077670246363,
                                -0.16518369317054749
                            ]
                        ],
                        [
                            [
                                0.5459446310997009,
                                -0.533137321472168
                            ],
                            [
                                0.17947262525558472,
                                0.26854610443115234
                            ]
                        ],
                        [
                            [
                                0.10264552384614944,
                                0.006017282139509916
                            ],
                            [
                                0.06038806214928627,
                                -0.08864184468984604
                            ]
                        ],
                        [
                            [
                                0.3443484306335449,
                                -0.473427414894104
                            ],
                            [
                                -0.6509662866592407,
                                0.2262037843465805
                            ]
                        ],
                        [
                            [
                                -0.5199517607688904,
                                0.10567127913236618
                            ],
                            [
                                0.39103156328201294,
                                -0.6719834208488464
                            ]
                        ],
                        [
                            [
                                -0.1427101045846939,
                                0.7353306412696838
                            ],
                            [
                                -0.01883021555840969,
                                1.2206858396530151
                            ]
                        ],
                        [
                            [
                                0.1392468512058258,
                                -0.1795063316822052
                            ],
                            [
                                -0.10572538524866104,
                                -0.08492645621299744
                            ]
                        ]
                    ],
                    [
                        [
                            [
                                0.09363339096307755,
                                1.4797053337097168
                            ],
                            [
                                -0.21631166338920593,
                                0.08876115083694458
                            ]
                        ],
                        [
                            [
                                -0.5455948710441589,
                                -0.12764675915241241
                            ],
                            [
                                -0.27003422379493713,
                                -0.11148357391357422
                            ]
                        ],
                        [
                            [
                                0.23151320219039917,
                                1.2662092447280884
                            ],
                            [
                                -0.6206247806549072,
                                0.25003206729888916
                            ]
                        ],
                        [
                            [
                                -0.05197087302803993,
                                -0.019660983234643936
                            ],
                            [
                                -0.6198109984397888,
                                0.5895561575889587
                            ]
                        ],
                        [
                            [
                                0.16127103567123413,
                                -0.09448617696762085
                            ],
                            [
                                0.25646620988845825,
                                -0.33528342843055725
                            ]
                        ],
                        [
                            [
                                -0.7040697336196899,
                                -0.09176471084356308
                            ],
                            [
                                -0.06860272586345673,
                                -0.5052902102470398
                            ]
                        ],
                        [
                            [
                                -0.3440404534339905,
                                -1.626785159111023
                            ],
                            [
                                -1.3862615823745728,
                                -0.04625224322080612
                            ]
                        ],
                        [
                            [
                                -0.8027275204658508,
                                -1.5235515832901
                            ],
                            [
                                0.9422905445098877,
                                -0.7470420598983765
                            ]
                        ],
                        [
                            [
                                -0.40230822563171387,
                                -0.5137607455253601
                            ],
                            [
                                0.31570103764533997,
                                0.09168802201747894
                            ]
                        ],
                        [
                            [
                                0.057096146047115326,
                                -0.20961950719356537
                            ],
                            [
                                0.014881723560392857,
                                0.2137211561203003
                            ]
                        ],
                        [
                            [
                                -0.04642176628112793,
                                0.07998597621917725
                            ],
                            [
                                -0.011807559989392757,
                                -0.5135440826416016
                            ]
                        ],
                        [
                            [
                                -0.45285648107528687,
                                0.06920800358057022
                            ],
                            [
                                0.5923858284950256,
                                0.2548004388809204
                            ]
                        ],
                        [
                            [
                                0.034379858523607254,
                                -0.024574901908636093
                            ],
                            [
                                -0.006000332999974489,
                                0.0462665893137455
                            ]
                        ],
                        [
                            [
                                -0.7986716628074646,
                                -0.34696245193481445
                            ],
                            [
                                0.19352304935455322,
                                0.2559422254562378
                            ]
                        ],
                        [
                            [
                                -0.0455767884850502,
                                -0.09978827089071274
                            ],
                            [
                                -0.11069224774837494,
                                0.016514431685209274
                            ]
                        ],
                        [
                            [
                                -0.133209690451622,
                                -0.039994072169065475
                            ],
                            [
                                0.1223021000623703,
                                -0.00301970518194139
                            ]
                        ],
                        [
                            [
                                -0.07727112621068954,
                                0.421822190284729
                            ],
                            [
                                0.14812828600406647,
                                0.3979599177837372
                            ]
                        ],
                        [
                            [
                                0.20432668924331665,
                                -0.42710644006729126
                            ],
                            [
                                -0.3393309414386749,
                                0.485376238822937
                            ]
                        ],
                        [
                            [
                                -0.15272998809814453,
                                -0.22934824228286743
                            ],
                            [
                                0.11226904392242432,
                                -0.7020373344421387
                            ]
                        ],
                        [
                            [
                                -0.13673900067806244,
                                0.1355588436126709
                            ],
                            [
                                -0.03640693053603172,
                                -0.23757697641849518
                            ]
                        ],
                        [
                            [
                                -0.10991428792476654,
                                -0.48080962896347046
                            ],
                            [
                                0.1976911872625351,
                                -0.36572912335395813
                            ]
                        ],
                        [
                            [
                                0.32392027974128723,
                                -0.45244693756103516
                            ],
                            [
                                0.20480582118034363,
                                0.7521493434906006
                            ]
                        ],
                        [
                            [
                                -0.382414847612381,
                                -0.29485875368118286
                            ],
                            [
                                -0.4180668592453003,
                                0.43964913487434387
                            ]
                        ],
                        [
                            [
                                0.03534264117479324,
                                0.017413102090358734
                            ],
                            [
                                0.27672022581100464,
                                -0.06966076791286469
                            ]
                        ]
                    ],
                    [
                        [
                            [
                                0.4193994998931885,
                                -0.10479167848825455
                            ],
                            [
                                0.783198893070221,
                                -0.07693244516849518
                            ]
                        ],
                        [
                            [
                                0.48326370120048523,
                                -0.7710757851600647
                            ],
                            [
                                0.40053361654281616,
                                0.33611056208610535
                            ]
                        ],
                        [
                            [
                                0.121034637093544,
                                0.9118525981903076
                            ],
                            [
                                0.16504411399364471,
                                0.2122187614440918
                            ]
                        ],
                        [
                            [
                                0.21807728707790375,
                                0.013566791079938412
                            ],
                            [
                                -0.5199970602989197,
                                0.18035130202770233
                            ]
                        ],
                        [
                            [
                                0.4452795088291168,
                                -0.5594638586044312
                            ],
                            [
                                -0.35918858647346497,
                                -0.026118692010641098
                            ]
                        ],
                        [
                            [
                                -0.5253937244415283,
                                -0.685001790523529
                            ],
                            [
                                -0.030140036717057228,
                                0.08617282658815384
                            ]
                        ],
                        [
                            [
                                -1.0725955963134766,
                                -0.6936259269714355
                            ],
                            [
                                0.3684418797492981,
                                0.5608158111572266
                            ]
                        ],
                        [
                            [
                                0.4631495773792267,
                                -0.15049977600574493
                            ],
                            [
                                0.5385920405387878,
                                -0.418038934469223
                            ]
                        ],
                        [
                            [
                                -0.4268690049648285,
                                -0.46077489852905273
                            ],
                            [
                                -0.5854957699775696,
                                0.6055744290351868
                            ]
                        ],
                        [
                            [
                                0.1058877483010292,
                                0.02972407080233097
                            ],
                            [
                                -0.47130855917930603,
                                0.13320700824260712
                            ]
                        ],
                        [
                            [
                                0.19530250132083893,
                                0.5963834524154663
                            ],
                            [
                                0.8082631230354309,
                                -0.6945905089378357
                            ]
                        ],
                        [
                            [
                                -0.6717695593833923,
                                0.22225171327590942
                            ],
                            [
                                -0.7880923748016357,
                                0.7757325768470764
                            ]
                        ],
                        [
                            [
                                0.06620800495147705,
                                -0.039861880242824554
                            ],
                            [
                                -0.10838297009468079,
                                0.06163861230015755
                            ]
                        ],
                        [
                            [
                                -0.1142372190952301,
                                -0.4901384711265564
                            ],
                            [
                                -0.2825683057308197,
                                -0.2595997154712677
                            ]
                        ],
                        [
                            [
                                0.14110799133777618,
                                0.04094383493065834
                            ],
                            [
                                0.04980248957872391,
                                0.033106300979852676
                            ]
                        ],
                        [
                            [
                                -0.04450974985957146,
                                -0.12311632186174393
                            ],
                            [
                                0.023188486695289612,
                                0.11077219992876053
                            ]
                        ],
                        [
                            [
                                0.2458438128232956,
                                0.4037957191467285
                            ],
                            [
                                -1.2154756784439087,
                                0.13765013217926025
                            ]
                        ],
                        [
                            [
                                0.11294552683830261,
                                -0.1547369807958603
                            ],
                            [
                                -0.6319952607154846,
                                0.40673378109931946
                            ]
                        ],
                        [
                            [
                                1.1269900798797607,
                                1.0388753414154053
                            ],
                            [
                                1.1570029258728027,
                                -0.36981022357940674
                            ]
                        ],
                        [
                            [
                                -0.03785812854766846,
                                -0.12081673741340637
                            ],
                            [
                                -0.018697572872042656,
                                0.043153923004865646
                            ]
                        ],
                        [
                            [
                                0.5299884080886841,
                                -0.8428529500961304
                            ],
                            [
                                0.6121445298194885,
                                -0.473648339509964
                            ]
                        ],
                        [
                            [
                                -0.08696187287569046,
                                0.04866717755794525
                            ],
                            [
                                -1.2478935718536377,
                                0.2505638599395752
                            ]
                        ],
                        [
                            [
                                0.6346073746681213,
                                -0.21698352694511414
                            ],
                            [
                                -0.927577018737793,
                                0.4780745506286621
                            ]
                        ],
                        [
                            [
                                0.2571888267993927,
                                0.1098252683877945
                            ],
                            [
                                -0.035370834171772,
                                -0.010662926360964775
                            ]
                        ]
                    ],
                    [
                        [
                            [
                                0.8256726861000061,
                                1.1649729013442993
                            ],
                            [
                                0.15114054083824158,
                                0.30235689878463745
                            ]
                        ],
                        [
                            [
                                1.6354659795761108,
                                -0.36046698689460754
                            ],
                            [
                                0.5789069533348083,
                                -0.3352228105068207
                            ]
                        ],
                        [
                            [
                                0.22297532856464386,
                                0.7465671896934509
                            ],
                            [
                                -0.16528315842151642,
                                -1.1143534183502197
                            ]
                        ],
                        [
                            [
                                -0.3526689410209656,
                                -0.10412616282701492
                            ],
                            [
                                0.16215534508228302,
                                1.080026388168335
                            ]
                        ],
                        [
                            [
                                -0.3090049624443054,
                                0.5898600816726685
                            ],
                            [
                                -0.9638385772705078,
                                0.07479305565357208
                            ]
                        ],
                        [
                            [
                                -0.7128090262413025,
                                0.022341430187225342
                            ],
                            [
                                -0.5123425126075745,
                                -1.2464408874511719
                            ]
                        ],
                        [
                            [
                                0.2632025480270386,
                                -1.2577593326568604
                            ],
                            [
                                0.34424570202827454,
                                -0.526318371295929
                            ]
                        ],
                        [
                            [
                                -0.8845174908638,
                                -0.8553709983825684
                            ],
                            [
                                0.23628802597522736,
                                0.24899446964263916
                            ]
                        ],
                        [
                            [
                                0.35899871587753296,
                                0.759914755821228
                            ],
                            [
                                -0.5378355979919434,
                                -1.5030632019042969
                            ]
                        ],
                        [
                            [
                                -0.5008918046951294,
                                -0.28559020161628723
                            ],
                            [
                                -0.9827330708503723,
                                0.7465124726295471
                            ]
                        ],
                        [
                            [
                                0.09462504833936691,
                                0.22324909269809723
                            ],
                            [
                                -0.11972622573375702,
                                -1.2304003238677979
                            ]
                        ],
                        [
                            [
                                0.44419634342193604,
                                -0.0604865588247776
                            ],
                            [
                                0.37498217821121216,
                                -1.1669944524765015
                            ]
                        ],
                        [
                            [
                                -0.005010176450014114,
                                -0.03591682389378548
                            ],
                            [
                                -0.07837221026420593,
                                0.15792176127433777
                            ]
                        ],
                        [
                            [
                                0.666120171546936,
                                -1.3440196514129639
                            ],
                            [
                                0.9396198391914368,
                                0.6093705892562866
                            ]
                        ],
                        [
                            [
                                -0.11542326211929321,
                                0.025282226502895355
                            ],
                            [
                                -0.03740784898400307,
                                0.0008763152873143554
                            ]
                        ],
                        [
                            [
                                0.18715420365333557,
                                0.022052984684705734
                            ],
                            [
                                -0.10005446523427963,
                                -0.05413967743515968
                            ]
                        ],
                        [
                            [
                                -0.7014055848121643,
                                1.1788737773895264
                            ],
                            [
                                0.6932247877120972,
                                -0.5451547503471375
                            ]
                        ],
                        [
                            [
                                -1.1887389421463013,
                                -0.7215622663497925
                            ],
                            [
                                0.6489753723144531,
                                0.659102737903595
                            ]
                        ],
                        [
                            [
                                -0.8561500906944275,
                                -0.1448799967765808
                            ],
                            [
                                0.5345297455787659,
                                0.022147977724671364
                            ]
                        ],
                        [
                            [
                                0.08323123306035995,
                                0.071305051445961
                            ],
                            [
                                0.052988551557064056,
                                0.03742862492799759
                            ]
                        ],
                        [
                            [
                                -0.9669447541236877,
                                -0.33223986625671387
                            ],
                            [
                                -1.1560840606689453,
                                0.8920362591743469
                            ]
                        ],
                        [
                            [
                                -0.4999275803565979,
                                -0.3277899920940399
                            ],
                            [
                                0.34125199913978577,
                                -0.12556402385234833
                            ]
                        ],
                        [
                            [
                                -0.7220699191093445,
                                -0.2431003302335739
                            ],
                            [
                                -0.1278081089258194,
                                -0.4125858247280121
                            ]
                        ],
                        [
                            [
                                -0.08615501970052719,
                                0.09572730958461761
                            ],
                            [
                                -0.010041973553597927,
                                0.10201501101255417
                            ]
                        ]
                    ],
                    [
                        [
                            [
                                -0.5190683007240295,
                                0.3777081370353699
                            ],
                            [
                                -0.8472678065299988,
                                -0.26867109537124634
                            ]
                        ],
                        [
                            [
                                0.6493120789527893,
                                0.06872135400772095
                            ],
                            [
                                0.41048306226730347,
                                1.0030052661895752
                            ]
                        ],
                        [
                            [
                                0.040405090898275375,
                                0.8768658638000488
                            ],
                            [
                                -0.10052326321601868,
                                -1.054136037826538
                            ]
                        ],
                        [
                            [
                                -0.2287270426750183,
                                0.784763514995575
                            ],
                            [
                                0.8875591158866882,
                                -0.9495695233345032
                            ]
                        ],
                        [
                            [
                                -0.015054957941174507,
                                -0.435361385345459
                            ],
                            [
                                0.19301769137382507,
                                0.5582532286643982
                            ]
                        ],
                        [
                            [
                                -0.5073318481445312,
                                -0.16211159527301788
                            ],
                            [
                                -0.814876914024353,
                                0.34242913126945496
                            ]
                        ],
                        [
                            [
                                -0.020925503224134445,
                                0.3051358759403229
                            ],
                            [
                                -0.19319330155849457,
                                -0.2954450249671936
                            ]
                        ],
                        [
                            [
                                -0.30107349157333374,
                                -0.8897542953491211
                            ],
                            [
                                -0.34228837490081787,
                                -0.21161381900310516
                            ]
                        ],
                        [
                            [
                                -0.7965656518936157,
                                0.25706207752227783
                            ],
                            [
                                -0.1540137380361557,
                                0.9791443943977356
                            ]
                        ],
                        [
                            [
                                -0.5792425870895386,
                                0.36891889572143555
                            ],
                            [
                                -0.5455160140991211,
                                0.6259816288948059
                            ]
                        ],
                        [
                            [
                                -0.2007329910993576,
                                -0.009421748109161854
                            ],
                            [
                                -1.198026418685913,
                                -1.2176142930984497
                            ]
                        ],
                        [
                            [
                                -1.2101445198059082,
                                0.40003126859664917
                            ],
                            [
                                -0.7895301580429077,
                                0.03747910261154175
                            ]
                        ],
                        [
                            [
                                -0.03302852809429169,
                                -0.12609922885894775
                            ],
                            [
                                -0.04994942992925644,
                                0.058873165398836136
                            ]
                        ],
                        [
                            [
                                -0.33463552594184875,
                                0.1503990739583969
                            ],
                            [
                                -0.4676757752895355,
                                1.553963303565979
                            ]
                        ],
                        [
                            [
                                -0.019147386774420738,
                                -0.10326474905014038
                            ],
                            [
                                -0.0056314533576369286,
                                0.16559863090515137
                            ]
                        ],
                        [
                            [
                                -0.15386778116226196,
                                0.028808893635869026
                            ],
                            [
                                0.05878301337361336,
                                0.01187712699174881
                            ]
                        ],
                        [
                            [
                                -1.0443471670150757,
                                1.3049883842468262
                            ],
                            [
                                0.011633746325969696,
                                -0.16056473553180695
                            ]
                        ],
                        [
                            [
                                0.3130837082862854,
                                -0.7340095043182373
                            ],
                            [
                                -0.19775615632534027,
                                0.08965040743350983
                            ]
                        ],
                        [
                            [
                                -0.8071391582489014,
                                -0.6655150055885315
                            ],
                            [
                                0.2703591287136078,
                                -0.20160315930843353
                            ]
                        ],
                        [
                            [
                                0.07245318591594696,
                                0.11014492809772491
                            ],
                            [
                                -0.15003159642219543,
                                0.048094529658555984
                            ]
                        ],
                        [
                            [
                                0.2753128409385681,
                                -0.4697189927101135
                            ],
                            [
                                -0.7390920519828796,
                                -0.32335734367370605
                            ]
                        ],
                        [
                            [
                                0.5764599442481995,
                                0.009683465585112572
                            ],
                            [
                                -0.3729700446128845,
                                -1.1831763982772827
                            ]
                        ],
                        [
                            [
                                -0.6949107050895691,
                                1.0160126686096191
                            ],
                            [
                                0.2768714129924774,
                                -0.43728145956993103
                            ]
                        ],
                        [
                            [
                                -0.05523958057165146,
                                -0.2702955901622772
                            ],
                            [
                                0.16583338379859924,
                                0.09433455020189285
                            ]
                        ]
                    ],
                    [
                        [
                            [
                                -0.22770483791828156,
                                -0.4060889780521393
                            ],
                            [
                                -0.9935627579689026,
                                -0.48970767855644226
                            ]
                        ],
                        [
                            [
                                0.1378401815891266,
                                0.20852677524089813
                            ],
                            [
                                0.692162811756134,
                                -0.3313022553920746
                            ]
                        ],
                        [
                            [
                                0.08380112051963806,
                                -0.2755177617073059
                            ],
                            [
                                -0.2692606747150421,
                                0.007948908023536205
                            ]
                        ],
                        [
                            [
                                -0.2717869281768799,
                                -0.43605101108551025
                            ],
                            [
                                0.3435499370098114,
                                0.6976622939109802
                            ]
                        ],
                        [
                            [
                                0.3832346200942993,
                                0.07200297713279724
                            ],
                            [
                                0.5527124404907227,
                                -0.4540194571018219
                            ]
                        ],
                        [
                            [
                                0.3247963488101959,
                                0.022699765861034393
                            ],
                            [
                                0.021070308983325958,
                                -0.5391154289245605
                            ]
                        ],
                        [
                            [
                                0.6364765167236328,
                                0.42090821266174316
                            ],
                            [
                                0.3619500398635864,
                                -0.3852168619632721
                            ]
                        ],
                        [
                            [
                                0.583132266998291,
                                -0.11954109370708466
                            ],
                            [
                                0.7791250944137573,
                                0.03749258443713188
                            ]
                        ],
                        [
                            [
                                0.22851794958114624,
                                -0.43792054057121277
                            ],
                            [
                                0.8616070747375488,
                                -0.331697553396225
                            ]
                        ],
                        [
                            [
                                0.2539597749710083,
                                0.6966583728790283
                            ],
                            [
                                -0.6113748550415039,
                                0.8848200440406799
                            ]
                        ],
                        [
                            [
                                0.35769984126091003,
                                0.36141106486320496
                            ],
                            [
                                -0.6765499114990234,
                                -0.06194649264216423
                            ]
                        ],
                        [
                            [
                                -0.0077551319263875484,
                                -0.22048690915107727
                            ],
                            [
                                0.2141597419977188,
                                -0.3721461296081543
                            ]
                        ],
                        [
                            [
                                0.08784940093755722,
                                -0.016171704977750778
                            ],
                            [
                                -0.02402545139193535,
                                -0.13138040900230408
                            ]
                        ],
                        [
                            [
                                -0.2545798122882843,
                                1.2259553670883179
                            ],
                            [
                                -0.7214395403862,
                                0.6135621666908264
                            ]
                        ],
                        [
                            [
                                -0.053404223173856735,
                                0.01493776310235262
                            ],
                            [
                                -0.0524996779859066,
                                -0.036888379603624344
                            ]
                        ],
                        [
                            [
                                -0.16694097220897675,
                                0.011513782665133476
                            ],
                            [
                                0.05551399290561676,
                                0.07211489975452423
                            ]
                        ],
                        [
                            [
                                -0.7122332453727722,
                                -0.48780062794685364
                            ],
                            [
                                -0.2522128224372864,
                                -0.5849140286445618
                            ]
                        ],
                        [
                            [
                                -0.2514656186103821,
                                0.11709142476320267
                            ],
                            [
                                -0.0038355651777237654,
                                -0.38067522644996643
                            ]
                        ],
                        [
                            [
                                -0.08515889942646027,
                                -0.6442649364471436
                            ],
                            [
                                0.44817835092544556,
                                0.11131634563207626
                            ]
                        ],
                        [
                            [
                                0.010074594989418983,
                                0.010368582792580128
                            ],
                            [
                                0.020263392478227615,
                                -0.000485827709781006
                            ]
                        ],
                        [
                            [
                                0.22897613048553467,
                                0.8449374437332153
                            ],
                            [
                                0.41321244835853577,
                                -0.011190641671419144
                            ]
                        ],
                        [
                            [
                                -0.32464656233787537,
                                0.06280932575464249
                            ],
                            [
                                0.5981696844100952,
                                -0.5615143179893494
                            ]
                        ],
                        [
                            [
                                -0.28139984607696533,
                                -0.15202344954013824
                            ],
                            [
                                0.5768893361091614,
                                0.08123839646577835
                            ]
                        ],
                        [
                            [
                                0.0803723931312561,
                                0.060503002256155014
                            ],
                            [
                                0.07313088327646255,
                                0.07977183908224106
                            ]
                        ]
                    ],
                    [
                        [
                            [
                                0.7513140439987183,
                                -0.22921080887317657
                            ],
                            [
                                -0.22472278773784637,
                                0.15792013704776764
                            ]
                        ],
                        [
                            [
                                -0.7720498442649841,
                                -1.0535660982131958
                            ],
                            [
                                -0.06815948337316513,
                                0.6876179575920105
                            ]
                        ],
                        [
                            [
                                0.5199079513549805,
                                1.7362737655639648
                            ],
                            [
                                0.363172322511673,
                                -0.0027085430920124054
                            ]
                        ],
                        [
                            [
                                0.28057125210762024,
                                0.0027716909535229206
                            ],
                            [
                                -0.34790199995040894,
                                0.853083610534668
                            ]
                        ],
                        [
                            [
                                0.7955197691917419,
                                0.14201925694942474
                            ],
                            [
                                0.2314193844795227,
                                -0.5033480525016785
                            ]
                        ],
                        [
                            [
                                -0.8502312898635864,
                                0.9858790636062622
                            ],
                            [
                                0.6013587713241577,
                                0.2888140082359314
                            ]
                        ],
                        [
                            [
                                0.3524126708507538,
                                0.1111159399151802
                            ],
                            [
                                -0.1854737401008606,
                                -0.2424621731042862
                            ]
                        ],
                        [
                            [
                                -1.1051965951919556,
                                -0.41820403933525085
                            ],
                            [
                                -0.46527808904647827,
                                0.8805847764015198
                            ]
                        ],
                        [
                            [
                                -0.17881253361701965,
                                0.9848325252532959
                            ],
                            [
                                0.6006638407707214,
                                0.15863493084907532
                            ]
                        ],
                        [
                            [
                                -1.4699267148971558,
                                0.22321519255638123
                            ],
                            [
                                -0.3282841444015503,
                                0.17307394742965698
                            ]
                        ],
                        [
                            [
                                0.7804314494132996,
                                0.39391475915908813
                            ],
                            [
                                0.6311487555503845,
                                -0.5545968413352966
                            ]
                        ],
                        [
                            [
                                0.2994633615016937,
                                0.7783750891685486
                            ],
                            [
                                -0.5653820633888245,
                                0.37528494000434875
                            ]
                        ],
                        [
                            [
                                0.05891257897019386,
                                -0.07625728845596313
                            ],
                            [
                                0.06582067906856537,
                                -0.010444954968988895
                            ]
                        ],
                        [
                            [
                                -1.1255147457122803,
                                -0.48094642162323
                            ],
