[
    {
        "CODE_DISTANCE": 3,
        "ERROR_PROBS": [
            9.980039976653643e-06,
            9.980039976653643e-06,
            0.009980039671063423
        ],
        "CONV_LAYERS_INPUT_1": [
            [
                8,
                2,
                1,
                0
            ]
        ],
        "CONV_LAYERS_INPUT_2": [
            [
                8,
                1,
                1,
                0
            ]
        ],
        "CONV_LAYERS_STAGE_2": [
            [
                8,
                2,
                1,
                0
            ]
        ],
        "FC_LAYERS": [
            50,
            2
        ]
    },
    {
        "CNN_input_1": [
            {
                "b": [
                    0.0313921757042408,
                    -0.009422705508768559,
                    0.024300284683704376,
                    -0.013306874781847,
                    -0.027912501245737076,
                    0.043836962431669235,
                    0.05717230960726738,
                    -0.049773767590522766
                ],
                "w": [
                    [
                        [
                            [
                                1.726347804069519,
                                -1.275567650794983
                            ],
                            [
                                -0.5823714733123779,
                                1.1664612293243408
                            ]
                        ]
                    ],
                    [
                        [
                            [
                                -1.3655872344970703,
                                0.6002961993217468
                            ],
                            [
                                0.7611657977104187,
                                -0.10175111889839172
                            ]
                        ]
                    ],
                    [
                        [
                            [
                                -0.3095795512199402,
                                -0.7733948826789856
                            ],
                            [
                                -0.12451931834220886,
                                1.2991092205047607
                            ]
                        ]
                    ],
                    [
                        [
                            [
                                0.13087953627109528,
                                -0.31970539689064026
                            ],
                            [
                                0.046614669263362885,
                                -0.407379686832428
                            ]
                        ]
                    ],
                    [
                        [
                            [
                                0.047636616975069046,
                                0.2846267521381378
                            ],
                            [
                                0.2353455126285553,
                                0.3244237005710602
                            ]
                        ]
                    ],
                    [
                        [
                            [
                                0.6348577737808228,
                                0.16730040311813354
                            ],
                            [
                                -0.37513071298599243,
                                0.7710794806480408
                            ]
                        ]
                    ],
                    [
                        [
                            [
                                1.9556912183761597,
                                0.6360065340995789
                            ],
                            [
                                -0.5743190050125122,
                                0.8246758580207825
                            ]
                        ]
                    ],
                    [
                        [
                            [
                                0.7068188190460205,
                                0.637108325958252
                            ],
                            [
                                1.15911066532135,
                                -0.22624361515045166
                            ]
                        ]
                    ]
                ]
            }
        ],
        "CNN_input_2": [
            {
                "b": [
                    0.19046549499034882,
                    0.0792749673128128,
                    -0.06031984090805054,
                    -0.008177030831575394,
                    -0.22239160537719727,
                    0.007770497351884842,
                    -0.017816729843616486,
                    0.2038363367319107
                ],
                "w": [
                    [
                        [
                            [
                                0.9178850054740906
                            ]
                        ],
                        [
                            [
                                -0.09319990873336792
                            ]
                        ],
                        [
                            [
                                -0.579262912273407
                            ]
                        ],
                        [
                            [
                                -0.21215622127056122
                            ]
                        ],
                        [
                            [
                                0.527424156665802
                            ]
                        ],
                        [
                            [
                                0.6869770288467407
                            ]
                        ]
                    ],
                    [
                        [
                            [
                                0.894726037979126
                            ]
                        ],
                        [
                            [
                                -0.7552540302276611
                            ]
                        ],
                        [
                            [
                                0.5560427904129028
                            ]
                        ],
                        [
                            [
                                -0.10504753142595291
                            ]
                        ],
                        [
                            [
                                -0.537474513053894
                            ]
                        ],
                        [
                            [
                                0.40346503257751465
                            ]
                        ]
                    ],
                    [
                        [
                            [
                                0.8492252826690674
                            ]
                        ],
                        [
                            [
                                -0.18619182705879211
                            ]
                        ],
                        [
                            [
                                0.08656447380781174
                            ]
                        ],
                        [
                            [
                                0.0005746445967815816
                            ]
                        ],
                        [
                            [
                                -1.1015479564666748
                            ]
                        ],
                        [
                            [
                                -0.34275925159454346
                            ]
                        ]
                    ],
                    [
                        [
                            [
                                -0.40354716777801514
                            ]
                        ],
                        [
                            [
                                -0.15494786202907562
                            ]
                        ],
                        [
                            [
                                0.836280882358551
                            ]
                        ],
                        [
                            [
                                -0.9473241567611694
                            ]
                        ],
                        [
                            [
                                0.24887585639953613
                            ]
                        ],
                        [
                            [
                                0.030832253396511078
                            ]
                        ]
                    ],
                    [
                        [
                            [
                                -0.6508897542953491
                            ]
                        ],
                        [
                            [
                                -0.5391564965248108
                            ]
                        ],
                        [
                            [
                                -0.15584777295589447
                            ]
                        ],
                        [
                            [
                                0.01659763976931572
                            ]
                        ],
                        [
                            [
                                -0.7581495642662048
                            ]
                        ],
                        [
                            [
                                -0.38032880425453186
                            ]
                        ]
                    ],
                    [
                        [
                            [
                                0.12716037034988403
                            ]
                        ],
                        [
                            [
                                -0.7293882369995117
                            ]
                        ],
                        [
                            [
                                0.8949772119522095
                            ]
                        ],
                        [
                            [
                                0.09745125472545624
                            ]
                        ],
                        [
                            [
                                0.42436549067497253
                            ]
                        ],
                        [
                            [
                                -0.40183696150779724
                            ]
                        ]
                    ],
                    [
                        [
                            [
                                0.1442604511976242
                            ]
                        ],
                        [
                            [
                                -0.8834893703460693
                            ]
                        ],
                        [
                            [
                                0.3758842647075653
                            ]
                        ],
                        [
                            [
                                1.1044977903366089
                            ]
                        ],
                        [
                            [
                                -0.08075346797704697
                            ]
                        ],
                        [
                            [
                                -0.01146755926311016
                            ]
                        ]
                    ],
                    [
                        [
                            [
                                0.6713884472846985
                            ]
                        ],
                        [
                            [
                                0.1413690745830536
                            ]
                        ],
                        [
                            [
                                0.5165443420410156
                            ]
                        ],
                        [
                            [
                                -0.32287243008613586
                            ]
                        ],
                        [
                            [
                                0.6019708514213562
                            ]
                        ],
                        [
                            [
                                0.33660468459129333
                            ]
                        ]
                    ]
                ]
            }
        ],
        "CNN_stage_2": [
            {
                "b": [
                    0.016897154971957207,
                    -0.008072690106928349,
                    0.048626504838466644,
                    -0.01053109485656023,
                    0.01884666457772255,
                    0.019850831478834152,
                    0.0033372952602803707,
                    -0.01554254349321127
                ],
                "w": [
                    [
                        [
                            [
                                0.12260928750038147,
                                -0.29193851351737976
                            ],
                            [
                                -0.07490584999322891,
                                0.15611779689788818
                            ]
                        ],
                        [
                            [
                                -0.11676507443189621,
                                -0.2776404619216919
                            ],
                            [
                                -0.3914577066898346,
                                0.15449976921081543
                            ]
                        ],
                        [
                            [
                                -0.011001458391547203,
                                0.008571013808250427
                            ],
                            [
                                -0.12370338290929794,
                                0.1299472600221634
                            ]
                        ],
                        [
                            [
                                0.013939395546913147,
                                -0.0801268145442009
                            ],
                            [
                                0.10662063211202621,
                                0.038165122270584106
                            ]
                        ],
                        [
                            [
                                -0.5523198246955872,
                                0.018879123032093048
                            ],
                            [
                                -0.3497597277164459,
                                0.5240540504455566
                            ]
                        ],
                        [
                            [
                                -0.0729311853647232,
                                0.11512225866317749
                            ],
                            [
                                -0.509377121925354,
                                -0.09930317848920822
                            ]
                        ],
                        [
                            [
                                -0.21000221371650696,
                                0.10433527082204819
                            ],
                            [
                                -0.0587269626557827,
                                -0.446808397769928
                            ]
                        ],
                        [
                            [
                                0.13490407168865204,
                                0.27859747409820557
                            ],
                            [
                                -0.2378038465976715,
                                0.17676307260990143
                            ]
                        ]
                    ],
                    [
                        [
                            [
                                0.4364541471004486,
                                -0.07455103099346161
                            ],
                            [
                                -0.25835034251213074,
                                -0.00502408342435956
                            ]
                        ],
                        [
                            [
                                0.18609900772571564,
                                0.2698919475078583
                            ],
                            [
                                -0.06080595776438713,
                                0.0029929925221949816
                            ]
                        ],
                        [
                            [
                                -0.14848987758159637,
                                0.1592576801776886
                            ],
                            [
                                -0.2746127247810364,
                                0.10348156839609146
                            ]
                        ],
                        [
                            [
                                -0.11295215040445328,
                                0.12148302048444748
                            ],
                            [
                                0.13096874952316284,
                                -0.4986586272716522
                            ]
                        ],
                        [
                            [
                                -0.03492860123515129,
                                -0.03094210848212242
                            ],
                            [
                                0.2091437131166458,
                                0.15200422704219818
                            ]
                        ],
                        [
                            [
                                0.2018526941537857,
                                0.12208814173936844
                            ],
                            [
                                -0.08912433683872223,
                                -0.20721347630023956
                            ]
                        ],
                        [
                            [
                                0.38886332511901855,
                                0.061076000332832336
                            ],
                            [
                                -0.0967542976140976,
                                0.1278417706489563
                            ]
                        ],
                        [
                            [
                                -0.2835519313812256,
                                0.19539117813110352
                            ],
                            [
                                -0.2234235405921936,
                                0.4376662075519562
                            ]
                        ]
                    ],
                    [
                        [
                            [
                                0.17592042684555054,
                                0.21944403648376465
                            ],
                            [
                                0.09132914245128632,
                                0.18644843995571136
                            ]
                        ],
                        [
                            [
                                -0.33529600501060486,
                                0.006801343988627195
                            ],
                            [
                                0.06389183551073074,
                                -0.04121064767241478
                            ]
                        ],
                        [
                            [
                                -0.2649729251861572,
                                -0.24916447699069977
                            ],
                            [
                                0.3268207013607025,
                                0.19920068979263306
                            ]
                        ],
                        [
                            [
                                -0.3369424045085907,
                                0.021905161440372467
                            ],
                            [
                                0.2378634661436081,
                                -0.03042409010231495
                            ]
                        ],
                        [
                            [
                                -0.23518259823322296,
                                -0.011333100497722626
                            ],
                            [
                                -0.17160768806934357,
                                0.11917845159769058
                            ]
                        ],
                        [
                            [
                                0.0864316076040268,
                                -0.07881347090005875
                            ],
                            [
                                0.2357136309146881,
                                -0.015633510425686836
                            ]
                        ],
                        [
                            [
                                -0.4236149191856384,
                                0.5072826743125916
                            ],
                            [
                                -0.282387912273407,
                                0.37709054350852966
                            ]
                        ],
                        [
                            [
                                -0.20309261977672577,
                                -0.3883039355278015
                            ],
                            [
                                -0.004109203815460205,
                                0.047626230865716934
                            ]
                        ]
                    ],
                    [
                        [
                            [
                                -0.04608019441366196,
                                0.45486095547676086
                            ],
                            [
                                0.08546671271324158,
                                0.045408837497234344
                            ]
                        ],
                        [
                            [
                                -0.308692991733551,
                                0.22897444665431976
                            ],
                            [
                                0.028537150472402573,
                                0.03465789556503296
                            ]
                        ],
                        [
                            [
                                -0.08417358994483948,
                                -0.15538452565670013
                            ],
                            [
                                -0.16367582976818085,
                                -0.036154989153146744
                            ]
                        ],
                        [
                            [
                                -0.3870331645011902,
                                0.3638455867767334
                            ],
                            [
                                -0.5230605006217957,
                                0.4337981939315796
                            ]
                        ],
                        [
                            [
                                -0.2807612717151642,
                                -0.09065865725278854
                            ],
                            [
                                -0.4014996886253357,
                                0.010115978308022022
                            ]
                        ],
                        [
                            [
                                -0.3029666244983673,
                                0.014641438610851765
                            ],
                            [
                                -0.02665451169013977,
                                -0.37671396136283875
                            ]
                        ],
                        [
                            [
                                -0.27202311158180237,
                                -0.38433292508125305
                            ],
                            [
                                -0.32056161761283875,
                                0.5208017826080322
                            ]
                        ],
                        [
                            [
                                0.14096646010875702,
                                0.029261993244290352
                            ],
                            [
                                0.4972837567329407,
                                0.4727943539619446
                            ]
                        ]
                    ],
                    [
                        [
                            [
                                -0.1332414448261261,
                                0.2035513073205948
                            ],
                            [
                                0.15951113402843475,
                                -0.05697495862841606
                            ]
                        ],
                        [
                            [
                                0.3286036252975464,
                                0.09140410274267197
                            ],
                            [
                                -0.08758722245693207,
                                -0.019892938435077667
                            ]
                        ],
                        [
                            [
                                -0.05559186637401581,
                                -0.06667344272136688
                            ],
                            [
                                0.08645366877317429,
                                -0.1322706788778305
                            ]
                        ],
                        [
                            [
                                -0.03630942851305008,
                                0.11690440028905869
                            ],
                            [
                                -0.05352601781487465,
                                0.06638336926698685
                            ]
                        ],
                        [
                            [
                                0.18324968218803406,
                                0.18490546941757202
                            ],
                            [
                                0.04312378540635109,
                                -0.580580472946167
                            ]
                        ],
                        [
                            [
                                -0.7822116613388062,
                                0.25478288531303406
                            ],
                            [
                                0.1707466095685959,
                                -0.5468805432319641
                            ]
                        ],
                        [
                            [
                                -0.2170809805393219,
                                -0.20880615711212158
                            ],
                            [
                                -0.1038091704249382,
                                -0.14380644261837006
                            ]
                        ],
                        [
                            [
                                -0.5161505937576294,
                                -0.3425959348678589
                            ],
                            [
                                0.03867276385426521,
                                0.13719043135643005
                            ]
                        ]
                    ],
                    [
                        [
                            [
                                0.028621645644307137,
                                0.5140950679779053
                            ],
                            [
                                0.1631602793931961,
                                -0.1329207420349121
                            ]
                        ],
                        [
                            [
                                -0.051928240805864334,
                                -0.008368035778403282
                            ],
                            [
                                0.1323874592781067,
                                0.034503672271966934
                            ]
                        ],
                        [
                            [
                                -0.17933951318264008,
                                0.14913660287857056
                            ],
                            [
                                0.08694634586572647,
                                -0.007477206643670797
                            ]
                        ],
                        [
                            [
                                0.06611130386590958,
                                -0.04956842213869095
                            ],
                            [
                                0.12919224798679352,
                                -0.06985152512788773
                            ]
                        ],
                        [
                            [
                                0.17844082415103912,
                                -0.15815138816833496
                            ],
                            [
                                0.12831491231918335,
                                -0.43436676263809204
                            ]
                        ],
                        [
                            [
                                0.14217625558376312,
                                0.41315674781799316
                            ],
                            [
                                0.188871368765831,
                                0.41739901900291443
                            ]
                        ],
                        [
                            [
                                -0.1734248846769333,
                                0.1595938354730606
                            ],
                            [
                                0.4338756799697876,
                                0.15409672260284424
                            ]
                        ],
                        [
                            [
                                0.2557181417942047,
                                0.49142229557037354
                            ],
                            [
                                0.613126814365387,
                                0.15482991933822632
                            ]
                        ]
                    ],
                    [
                        [
                            [
                                0.5185874700546265,
                                -0.028668701648712158
                            ],
                            [
                                0.18198755383491516,
                                -0.31038764119148254
                            ]
                        ],
                        [
                            [
                                -0.08717931807041168,
                                -0.22596490383148193
                            ],
                            [
                                -0.2671010494232178,
                                -0.12386642396450043
                            ]
                        ],
                        [
                            [
                                0.03636682778596878,
                                -0.13242171704769135
                            ],
                            [
                                0.24201461672782898,
                                0.2985073924064636
                            ]
                        ],
                        [
                            [
                                -0.09209442138671875,
                                0.21454265713691711
                            ],
                            [
                                0.10210096091032028,
                                0.16664297878742218
                            ]
                        ],
                        [
                            [
                                -0.020757995545864105,
                                -0.16000473499298096
                            ],
                            [
                                -0.209337055683136,
                                -0.15692518651485443
                            ]
                        ],
                        [
                            [
                                -0.5720034241676331,
                                -0.06018637493252754
                            ],
                            [
                                -0.02018236368894577,
                                0.1861206591129303
                            ]
                        ],
                        [
                            [
                                -0.21357397735118866,
                                0.05221496894955635
                            ],
                            [
                                0.2631143629550934,
                                0.09834235906600952
                            ]
                        ],
                        [
                            [
                                0.22183170914649963,
                                0.10981125384569168
                            ],
                            [
                                0.16299393773078918,
                                0.18736425042152405
                            ]
                        ]
                    ],
                    [
                        [
                            [
                                0.35142436623573303,
                                -0.13102734088897705
                            ],
                            [
                                0.03677574172616005,
                                0.11683918535709381
                            ]
                        ],
                        [
                            [
                                -0.13241688907146454,
                                0.020696450024843216
                            ],
                            [
                                0.03628800809383392,
                                -0.03476281836628914
                            ]
                        ],
                        [
                            [
                                0.09871644526720047,
                                0.1458299160003662
                            ],
                            [
                                0.08385463804006577,
                                -0.40116095542907715
                            ]
                        ],
                        [
                            [
                                -0.4482957720756531,
                                0.44707149267196655
                            ],
                            [
                                0.33915621042251587,
                                -0.24751590192317963
                            ]
                        ],
                        [
                            [
                                -0.018759019672870636,
                                -0.296794593334198
                            ],
                            [
                                -0.601622998714447,
                                -0.16057206690311432
                            ]
                        ],
                        [
                            [
                                0.6529865264892578,
                                -0.3927380442619324
                            ],
                            [
                                -0.05154987797141075,
                                -0.509814977645874
                            ]
                        ],
                        [
                            [
                                -0.3945159614086151,
                                0.3425067961215973
                            ],
                            [
                                -0.11930252611637115,
                                -0.24214860796928406
                            ]
                        ],
                        [
                            [
                                0.46980196237564087,
                                0.18558663129806519
                            ],
                            [
                                0.33877241611480713,
                                0.0014397412305697799
                            ]
                        ]
                    ]
                ]
            }
        ],
        "MLP_stage_3": [
            {
                "b": [
                    -0.028923505917191505,
                    0.03794240951538086,
                    -0.021995963528752327,
                    -0.017126519232988358,
                    -0.006249225698411465,
                    -0.030460987240076065,
                    -0.010952917858958244,
                    -0.026661429554224014,
                    -0.036504846066236496,
                    0.01516864076256752,
                    0.04683490842580795,
                    0.002881907857954502,
                    -0.02806815691292286,
                    -0.0025307161267846823,
                    -0.04201668128371239,
                    -0.003855273127555847,
                    -0.01007791142910719,
                    0.0035296843852847815,
                    0.06245163455605507,
                    0.050159551203250885,
                    -0.02267543412744999,
                    0.0019610864110291004,
                    0.013343414291739464,
                    -0.01006444450467825,
                    -0.012149148620665073,
                    0.05646191164851189,
                    -0.035112544894218445,
                    -0.03648390620946884,
                    -0.009191740304231644,
                    -0.011577289551496506,
                    0.016723744571208954,
                    -0.04553190991282463,
                    -0.01055762730538845,
                    -0.03541800007224083,
                    0.024406597018241882,
                    0.07366371899843216,
                    0.043788306415081024,
                    0.05993141233921051,
                    -0.000325536064337939,
                    -0.031453270465135574,
                    0.05864749848842621,
                    0.00030632957350462675,
                    0.0759645402431488,
                    -0.017970291897654533,
                    -0.013857031241059303,
                    -0.023499570786952972,
                    -0.0014619282446801662,
                    -0.019012905657291412,
                    -0.04048021137714386,
                    0.019435474649071693
                ],
                "w": [
                    [
                        -0.04594148322939873,
                        -0.1372389793395996,
                        0.11024238169193268,
                        0.14348728954792023,
                        0.20424702763557434,
                        -0.2809225916862488,
                        0.637778639793396,
                        0.20527251064777374,
                        0.27218618988990784,
                        0.11816795915365219,
                        -0.16784785687923431,
                        0.20281623303890228,
                        -0.07066594064235687,
                        -0.22298060357570648,
                        -0.09738442301750183,
                        0.16657306253910065,
                        -0.4958399534225464,
                        0.6185274124145508,
                        -0.06759722530841827,
                        0.5062220692634583,
                        -0.04796148091554642,
                        0.3079989552497864,
                        -0.2427436262369156,
                        0.27047231793403625,
                        -0.2786896228790283,
                        0.08374727517366409,
                        0.33908581733703613,
                        -0.11345364898443222,
                        -0.5275476574897766,
                        0.11886244267225266,
                        -0.13943226635456085,
                        -0.48241305351257324,
                        0.04826134443283081,
                        -0.14644230902194977,
                        -0.04137049987912178,
                        0.20572318136692047,
                        -0.02200598269701004,
                        0.1018223911523819,
                        -0.0377926230430603,
                        -0.054623935371637344,
                        0.3534575402736664,
                        -0.13559456169605255,
                        0.3034631311893463,
                        -0.008102286607027054,
                        -0.4170536398887634,
                        -0.09158308804035187,
                        0.07643028348684311,
                        -0.08888618648052216,
                        0.056845299899578094,
                        -0.13855351507663727
                    ],
                    [
                        0.25686097145080566,
                        0.14847037196159363,
                        -0.20809128880500793,
                        0.014587764628231525,
                        0.026148339733481407,
                        0.10458538681268692,
                        0.059780094772577286,
                        0.08696097880601883,
                        -0.3761642575263977,
                        -0.2589513957500458,
                        0.14413756132125854,
                        0.3387407660484314,
                        -0.15538136661052704,
                        -0.3483736515045166,
                        -0.16099311411380768,
                        -0.08513084799051285,
                        0.018686434254050255,
                        0.3286297619342804,
                        -0.15355077385902405,
                        0.07127054035663605,
                        0.3512546122074127,
                        -0.17984426021575928,
                        -0.25455671548843384,
                        0.02417071908712387,
                        -0.21722684800624847,
                        0.18603304028511047,
                        -0.11757391691207886,
                        0.09206753224134445,
                        -0.6171712875366211,
                        -0.16165144741535187,
                        0.3651873767375946,
                        -0.20647850632667542,
                        0.2601011097431183,
                        -0.07128830254077911,
                        0.12215877324342728,
                        -0.058641787618398666,
                        -0.009124789386987686,
                        -0.036577947437763214,
                        -0.021699972450733185,
                        0.137221559882164,
                        0.34680482745170593,
                        -0.10479255765676498,
                        0.32221031188964844,
                        0.08298052102327347,
                        -0.36676251888275146,
                        0.2077934592962265,
                        -0.13149493932724,
                        0.15885958075523376,
                        -0.060100845992565155,
                        -0.1144007071852684
                    ],
                    [
                        -0.05996914952993393,
                        0.32789841294288635,
                        0.11210159957408905,
                        -0.32189375162124634,
                        0.0035762919578701258,
                        0.49531090259552,
                        0.2170393168926239,
                        -0.5004873275756836,
                        0.02894875407218933,
                        0.0722484141588211,
                        -0.11235827952623367,
                        0.17512355744838715,
                        0.027951980009675026,
                        -0.2950921058654785,
                        0.10668668895959854,
                        0.026730097830295563,
                        0.24768951535224915,
                        -0.3131100833415985,
                        0.30397850275039673,
                        0.47236427664756775,
                        -0.0492948517203331,
                        0.28420430421829224,
                        -0.1894705444574356,
                        -0.24373553693294525,
                        0.20891444385051727,
                        -0.25536489486694336,
                        -0.3620133399963379,
                        -0.11524160206317902,
                        0.10508355498313904,
                        0.05445035919547081,
                        -0.2616254687309265,
                        -0.35965317487716675,
                        -0.125520259141922,
                        -0.24866551160812378,
                        -0.38326820731163025,
                        0.14897817373275757,
                        0.03628883510828018,
                        0.07814921438694,
                        -0.16818857192993164,
                        -0.20075632631778717,
                        0.0080723250284791,
                        -0.3071134090423584,
                        0.18030446767807007,
                        -0.0041734990663826466,
                        0.3512239456176758,
                        0.1690683215856552,
                        0.2722857892513275,
                        0.11268363893032074,
                        0.06948865205049515,
                        0.3273022174835205
                    ],
                    [
                        -0.046666085720062256,
                        0.0041372282430529594,
                        -0.10991214960813522,
                        -0.2741534113883972,
                        0.41220009326934814,
                        -0.13065093755722046,
                        -0.35529205203056335,
                        -0.05202392861247063,
                        -0.32592281699180603,
                        0.24610285460948944,
                        0.2025902271270752,
                        0.07957876473665237,
                        0.43224576115608215,
                        0.0016952138394117355,
                        -0.002998081501573324,
                        -0.00832347758114338,
                        0.11625410616397858,
                        0.16148272156715393,
                        -0.2434617578983307,
                        -0.2042531669139862,
                        -0.013942612335085869,
                        0.5392230153083801,
                        -0.06507255882024765,
                        0.16151310503482819,
                        0.20680205523967743,
                        -0.09623824059963226,
                        0.08905523270368576,
                        0.381419837474823,
                        -0.049209147691726685,
                        0.23329471051692963,
                        -0.05267459899187088,
                        -0.12877768278121948,
                        0.3056802749633789,
                        0.20119987428188324,
                        -0.1760750412940979,
                        0.367744117975235,
                        -0.18867045640945435,
                        -0.20065400004386902,
                        -0.14994893968105316,
                        -0.061516910791397095,
                        0.27313196659088135,
                        -0.1690760999917984,
                        -0.35327205061912537,
                        0.00680395495146513,
                        0.4210019111633301,
                        -0.10427054017782211,
                        0.273542195558548,
                        -0.009357976727187634,
                        0.26312148571014404,
                        0.44805899262428284
                    ],
                    [
                        0.20482996106147766,
                        0.04832552745938301,
                        0.07570698857307434,
                        -0.45340612530708313,
                        0.3369278311729431,
                        0.09466788917779922,
                        0.036923959851264954,
                        -0.14173978567123413,
                        -0.08815609663724899,
                        0.2587118148803711,
                        0.16271936893463135,
                        -0.23340171575546265,
                        0.1414908617734909,
                        0.10401900857686996,
                        -0.35276123881340027,
                        -0.11981435120105743,
                        -0.27873095870018005,
                        -0.5169842839241028,
                        0.1317531317472458,
                        0.3368471562862396,
                        -0.09262289106845856,
                        -0.04253964126110077,
                        0.042027320712804794,
                        -0.21935749053955078,
                        0.05634909123182297,
                        -0.011757519096136093,
                        -0.23545265197753906,
                        0.23735888302326202,
                        0.1689397543668747,
                        -0.10469520837068558,
                        0.19137553870677948,
                        -0.36016860604286194,
                        0.3738372027873993,
                        -0.24660654366016388,
                        -0.44412076473236084,
                        -0.06796684861183167,
                        0.28952866792678833,
                        0.05665472522377968,
                        0.02728128246963024,
                        0.5182969570159912,
                        -0.3379858434200287,
                        0.043363627046346664,
                        0.16702976822853088,
                        0.11734657734632492,
                        -0.16700905561447144,
                        -0.10109733045101166,
                        -0.3507108986377716,
                        -0.30216869711875916,
                        -0.3345596492290497,
                        0.15833061933517456
                    ],
                    [
                        -0.16848833858966827,
                        0.4850318133831024,
                        -0.4010877311229706,
                        -0.16052131354808807,
                        -0.4020339846611023,
                        -0.1354832947254181,
                        -0.21305041015148163,
                        -0.3888782560825348,
                        0.06288085877895355,
                        0.0768456757068634,
                        -0.21184398233890533,
                        -0.22380974888801575,
                        0.2517436146736145,
                        0.06223776936531067,
                        0.10174483060836792,
                        0.28032180666923523,
                        -0.05617035925388336,
                        0.1342301070690155,
                        0.4256449341773987,
                        0.05985777825117111,
                        -0.24941079318523407,
                        -0.34226077795028687,
                        -0.27130135893821716,
                        -0.061643023043870926,
                        -0.22572264075279236,
                        -0.09530618041753769,
                        -0.24440288543701172,
                        0.31483206152915955,
                        -0.09218794107437134,
                        -0.3030356168746948,
                        0.3019601106643677,
                        -0.04147179052233696,
                        -0.2893516421318054,
                        -0.023375730961561203,
                        -0.3051072955131531,
                        -0.5072585940361023,
                        0.03998280316591263,
                        0.025723425671458244,
                        0.5777782201766968,
                        0.09566757827997208,
                        -0.43301355838775635,
                        -0.33533790707588196,
                        -0.15924003720283508,
                        -0.3898353576660156,
                        -0.1304050236940384,
                        0.20185595750808716,
                        0.08052396029233932,
                        0.327122300863266,
                        0.28762879967689514,
                        0.08209279179573059
                    ],
                    [
                        -0.3877432942390442,
                        0.09377188980579376,
                        0.5475986003875732,
                        -0.276486337184906,
                        0.3077675402164459,
                        0.3304240107536316,
                        0.5990990996360779,
                        -0.11742158234119415,
                        0.0496036671102047,
                        0.1997494250535965,
                        -0.03155018016695976,
                        -0.33066245913505554,
                        -0.4189387559890747,
                        -0.12559010088443756,
                        0.05104326829314232,
                        0.004444137215614319,
                        0.029722005128860474,
                        0.05306170508265495,
                        0.12605658173561096,
                        -0.5035841464996338,
                        0.4286348521709442,
                        -0.11437325924634933,
                        0.18598110973834991,
                        0.010178218595683575,
                        0.28856492042541504,
                        -0.045721303671598434,
                        0.3292027413845062,
                        0.22499720752239227,
                        -0.09646134823560715,
                        0.3159342408180237,
                        -0.2371365875005722,
                        -0.05135227367281914,
                        -0.028227120637893677,
                        0.28344467282295227,
                        -0.2172447144985199,
                        0.052638109773397446,
                        -0.03167293965816498,
                        0.14687632024288177,
                        0.28420954942703247,
                        0.17335309088230133,
                        -0.5273751616477966,
                        0.433470219373703,
                        -0.33679696917533875,
                        0.17021775245666504,
                        -0.08412305265665054,
                        0.035712432116270065,
                        0.29227229952812195,
                        -0.13056816160678864,
                        -0.0485827811062336,
                        0.030373092740774155
                    ],
                    [
                        0.22437472641468048,
                        -0.03201313689351082,
                        0.11867273598909378,
                        0.0015405515441671014,
                        -0.06020108237862587,
                        0.14305716753005981,
                        -0.40652531385421753,
                        0.2118811309337616,
                        0.2704430818557739,
                        0.5649204254150391,
                        -0.13135741651058197,
                        0.07298781722784042,
                        0.09740971028804779,
                        0.25298747420310974,
                        -0.5513684749603271,
                        0.06354448944330215,
                        0.2481263428926468,
                        -0.03637406975030899,
                        -0.4747716784477234,
                        -0.0699370726943016,
                        -0.3226704001426697,
                        -0.30199915170669556,
                        0.10665957629680634,
                        -0.02188018336892128,
                        -0.1752803921699524,
                        0.37618717551231384,
                        -0.13884656131267548,
                        -0.6655030250549316,
                        -0.07864586263895035,
                        -0.2357577085494995,
                        -0.2826762795448303,
                        0.15398626029491425,
                        0.1253281682729721,
                        0.10575953125953674,
                        -0.14307941496372223,
                        -0.09637558460235596,
                        -0.28752583265304565,
                        0.015450837090611458,
                        -0.06784854084253311,
                        -0.385698139667511,
                        0.163850799202919,
                        0.05444102734327316,
                        -0.06381575763225555,
                        -0.297020822763443,
                        -0.1301845759153366,
                        0.15180669724941254,
                        -0.09036314487457275,
                        -0.03083224967122078,
                        -0.3557930588722229,
                        0.21746690571308136
                    ],
                    [
                        0.07081189751625061,
                        0.1713373363018036,
                        0.03821729123592377,
                        0.03038828633725643,
                        -0.07204095274209976,
                        -0.22156479954719543,
                        0.17911095917224884,
                        -0.2305915653705597,
                        -0.4422025680541992,
                        0.42736414074897766,
                        -0.3987378478050232,
                        -0.22677288949489594,
                        -0.10064348578453064,
                        0.2671385705471039,
                        -0.032425474375486374,
                        0.00039305249811150134,
                        0.13643701374530792,
                        0.1803785115480423,
                        -0.24809931218624115,
                        0.332304984331131,
                        0.15179654955863953,
                        0.29104185104370117,
                        -0.2128513902425766,
                        -0.1791694015264511,
                        0.26006436347961426,
                        0.18513697385787964,
                        -0.12151040881872177,
                        0.40721356868743896,
                        -0.060602933168411255,
                        -0.0024093003012239933,
                        -0.16401012241840363,
                        0.039166320115327835,
                        -0.1050603985786438,
                        -0.19161517918109894,
                        -0.172234445810318,
                        0.15770487487316132,
                        0.11018852889537811,
                        0.04810086265206337,
                        0.2044028341770172,
                        -0.5351481437683105,
                        -0.06964059174060822,
                        -0.13624751567840576,
                        0.4141909182071686,
                        0.12320907413959503,
                        0.14276160299777985,
                        0.3673914074897766,
                        0.15432573854923248,
                        -0.2264387160539627,
                        0.5091284513473511,
                        0.4539673328399658
                    ],
                    [
                        0.13045811653137207,
                        0.17018476128578186,
                        0.14009696245193481,
                        0.14596207439899445,
                        -0.06491205096244812,
                        -0.04837201163172722,
                        -0.10049696266651154,
                        0.3661019206047058,
                        -0.0013515042373910546,
                        0.367130845785141,
                        0.06668168306350708,
                        -0.06950485706329346,
                        -0.03490183502435684,
                        -0.27465391159057617,
                        -0.012565338052809238,
                        -0.023825576528906822,
                        -0.2992381751537323,
                        0.05815843865275383,
                        0.5933319330215454,
                        -0.6700846552848816,
                        0.1095690205693245,
                        0.16365912556648254,
                        -0.05078936740756035,
                        0.18932221829891205,
                        -0.07392983883619308,
                        -0.23225465416908264,
                        -0.0804281011223793,
                        -0.06598491966724396,
                        0.012010319158434868,
                        0.2275325506925583,
                        0.13063697516918182,
                        -0.3033061921596527,
                        0.3348619341850281,
                        0.13678333163261414,
                        0.04460108280181885,
                        0.13294734060764313,
                        0.07008481025695801,
                        0.03146856278181076,
                        -0.6249357461929321,
                        0.07271163165569305,
                        0.3956659436225891,
                        0.007528289221227169,
                        -0.1687755435705185,
                        -0.018987396731972694,
                        -0.5712558627128601,
                        0.14035287499427795,
                        0.17186938226222992,
                        -0.11894471198320389,
                        -0.4318149983882904,
                        -0.23636668920516968
                    ],
                    [
                        0.13234156370162964,
                        0.34066975116729736,
                        -0.5810932517051697,
                        -0.04109162837266922,
                        -0.4613865613937378,
                        -0.3440096080303192,
                        0.09646774083375931,
                        0.019947437569499016,
                        -0.3484896123409271,
                        0.15014179050922394,
                        0.31699252128601074,
                        0.37257644534111023,
                        0.15649104118347168,
                        0.10251980274915695,
                        0.2941769063472748,
                        0.1457366943359375,
                        0.1717483550310135,
                        0.38512858748435974,
                        0.08765769004821777,
                        0.3734896183013916,
                        -0.15576286613941193,
                        0.004847623873502016,
                        0.46491169929504395,
                        0.06187736615538597,
                        -0.013501775451004505,
                        -0.30493390560150146,
                        0.15642468631267548,
                        0.2316576987504959,
                        -0.17626915872097015,
                        0.4697769582271576,
                        0.22293762862682343,
                        0.2163037657737732,
                        0.31195807456970215,
                        -0.16262802481651306,
                        0.07476210594177246,
                        -0.26129069924354553,
                        0.2900489866733551,
                        -0.23275047540664673,
                        -0.30991682410240173,
                        -0.07391372323036194,
                        0.12055391818284988,
                        -0.2849898040294647,
                        -0.139343723654747,
                        0.14697374403476715,
                        -0.09091112017631531,
                        -0.08292511850595474,
                        -0.016822179779410362,
                        0.14539939165115356,
                        0.08899687975645065,
                        -0.8015353679656982
                    ],
                    [
                        0.053829193115234375,
                        -0.07904677838087082,
                        -0.3560168445110321,
                        -0.17461317777633667,
                        0.23611609637737274,
                        0.1421274095773697,
                        0.31902530789375305,
                        0.17899154126644135,
                        0.12034262716770172,
                        0.16313783824443817,
                        -0.22971610724925995,
                        -0.124775730073452,
                        -0.0888383537530899,
                        0.2220943719148636,
                        -0.201358824968338,
                        0.29178428649902344,
                        -0.06067045032978058,
                        0.013933672569692135,
                        0.1276240348815918,
                        0.0926286056637764,
                        0.22073298692703247,
                        -0.09195055812597275,
                        0.37779366970062256,
                        -0.2841266095638275,
                        -0.34281691908836365,
                        -0.2205180823802948,
                        0.2965812087059021,
                        -0.1341569423675537,
                        0.11114883422851562,
                        -0.12230747938156128,
                        0.1932734251022339,
                        -0.18676865100860596,
                        -0.43233126401901245,
                        0.2609550654888153,
                        -0.008826795034110546,
                        0.24963030219078064,
                        -0.15881671011447906,
                        0.09993539750576019,
                        0.2885943353176117,
                        -0.35517317056655884,
                        0.008830041624605656,
                        0.22924625873565674,
                        0.22142548859119415,
                        0.05177486687898636,
                        0.2953938841819763,
                        -0.4802923798561096,
                        0.30321627855300903,
                        0.5946700572967529,
                        0.060065120458602905,
                        0.2851203680038452
                    ],
                    [
                        0.5833337306976318,
                        -0.06093230098485947,
                        0.5311456322669983,
                        -0.05159592628479004,
                        0.1440817415714264,
                        -0.1336313784122467,
                        -0.35517752170562744,
                        0.008453959599137306,
                        0.07852814346551895,
                        -0.43878936767578125,
                        0.13413694500923157,
                        -0.09695270657539368,
                        -0.5508254170417786,
                        0.011215555481612682,
                        0.36917153000831604,
                        -0.07928650826215744,
                        0.6173688173294067,
                        -0.05142148211598396,
                        -0.05339803174138069,
                        0.6715539693832397,
                        0.326736181974411,
                        0.3154315650463104,
                        -0.47561827301979065,
                        0.11274606734514236,
                        0.34551551938056946,
                        0.22743815183639526,
                        -0.0960005521774292,
                        -0.16787821054458618,
                        -0.22359821200370789,
                        -0.20907828211784363,
                        0.2987043559551239,
                        0.19870072603225708,
                        -0.1578693836927414,
                        0.16671960055828094,
                        -0.08242473006248474,
                        -0.2386600226163864,
                        -0.04764058068394661,
                        -0.03504311665892601,
                        0.12695777416229248,
                        0.19084563851356506,
                        0.08428304642438889,
                        -0.16366934776306152,
                        -0.1778153032064438,
                        0.29998379945755005,
                        0.3358018398284912,
                        -0.18061287701129913,
                        -0.02919856272637844,
                        0.10665043443441391,
                        -0.14268182218074799,
                        0.25817129015922546
                    ],
                    [
                        0.4579022526741028,
                        -0.18748004734516144,
                        -0.024701839312911034,
                        -0.36838647723197937,
                        0.10038162022829056,
                        -0.04528738558292389,
                        -0.1877712607383728,
                        0.3238890469074249,
                        -0.022683478891849518,
                        0.26256924867630005,
                        0.011321155354380608,
                        -0.012720618396997452,
                        -0.12098053097724915,
                        0.14189238846302032,
                        0.2276042252779007,
                        -0.5522652268409729,
                        0.09954488277435303,
                        0.14293739199638367,
                        0.040097132325172424,
                        0.4736625850200653,
                        -0.2926349341869354,
                        0.17504265904426575,
                        -0.1514626145362854,
                        0.07812831550836563,
                        -0.004397212993353605,
                        -0.3260456323623657,
                        -0.20978176593780518,
                        0.6014398336410522,
                        0.06475664675235748,
                        -0.005354628432542086,
                        -0.2809584438800812,
                        -0.5712178349494934,
                        0.1640215814113617,
                        -0.11602522432804108,
                        0.1691426783800125,
                        -0.043513961136341095,
                        -0.17055846750736237,
                        -0.5576986074447632,
                        0.552455723285675,
                        0.03785555809736252,
                        0.2930775284767151,
                        0.02753465436398983,
                        0.08488444983959198,
                        0.3276474177837372,
                        0.18713364005088806,
                        -0.12451284378767014,
                        -0.013440269976854324,
                        -0.15494300425052643,
                        -0.23762008547782898,
                        -0.3557518422603607
                    ],
                    [
                        -0.09891387820243835,
                        0.11438381671905518,
                        -0.6071416735649109,
                        -0.03776537626981735,
                        -0.16958992183208466,
                        -0.25645020604133606,
                        0.11502040922641754,
                        -0.2724338471889496,
                        0.1314101219177246,
                        0.0752241313457489,
                        -0.12363181263208389,
                        -0.1220804899930954,
                        -0.430397629737854,
                        0.13420087099075317,
                        0.14517678320407867,
                        0.08897431939840317,
                        0.3865611255168915,
                        0.10745666921138763,
                        -0.15427757799625397,
                        0.46883898973464966,
                        0.2886626720428467,
                        0.13579559326171875,
                        0.39509886503219604,
                        -0.2910268008708954,
                        0.2972223162651062,
                        0.0644228458404541,
                        -0.30955392122268677,
                        -0.4127902090549469,
                        0.05106209218502045,
                        0.03544187545776367,
                        -0.022860392928123474,
                        -0.025549087673425674,
                        0.014016633853316307,
                        0.004619877319782972,
                        0.28515318036079407,
                        -0.00436140364035964,
                        -0.10477866977453232,
                        0.17894817888736725,
                        -0.24942396581172943,
                        -0.04921632260084152,
                        -0.21515434980392456,
                        -0.401040643453598,
                        -0.23894397914409637,
                        0.10202726721763611,
                        0.24691243469715118,
                        0.43364667892456055,
                        0.07078701257705688,
                        0.020157190039753914,
                        0.17646048963069916,
                        -0.0665915235877037
                    ],
                    [
                        0.08833590149879456,
                        -0.1711614429950714,
                        -0.3068428039550781,
                        -0.4774431586265564,
                        0.19204235076904297,
                        -0.3391639292240143,
                        0.004232225473970175,
                        -0.19068370759487152,
                        -0.37730467319488525,
                        0.20081505179405212,
                        -0.22333969175815582,
                        0.2598746120929718,
                        -0.43757903575897217,
                        -0.0783773809671402,
                        0.01883699744939804,
                        0.5382254719734192,
                        0.20726945996284485,
                        -0.3852323591709137,
                        0.09551520645618439,
                        0.23412051796913147,
                        -0.004020067863166332,
                        -0.4893336892127991,
                        -0.405407190322876,
                        0.2877894937992096,
                        -0.21305255591869354,
                        0.2671576142311096,
                        -0.05127396062016487,
                        0.3318178951740265,
                        0.1473967432975769,
                        -0.006065160967409611,
                        0.2239963263273239,
                        -0.12712131440639496,
                        0.44372251629829407,
                        0.2168082743883133,
                        0.1904064118862152,
                        -0.19948722422122955,
                        0.3263542354106903,
                        0.13978196680545807,
                        0.11609555780887604,
                        0.18194283545017242,
                        -0.39448082447052,
                        -0.31271326541900635,
                        0.051342856138944626,
                        -0.45601513981819153,
                        0.0663401335477829,
                        -0.0329427607357502,
                        -0.2434762716293335,
                        0.1724272519350052,
                        -0.10641730576753616,
                        0.4233556091785431
                    ],
                    [
                        -0.33705374598503113,
                        -0.31172212958335876,
                        -0.17768102884292603,
                        0.17611011862754822,
                        -0.05420843884348869,
                        -0.054317448288202286,
                        0.1806897521018982,
                        -0.08748520910739899,
                        0.1470356583595276,
                        -0.05842088907957077,
                        -0.07348021864891052,
                        -0.1668062061071396,
                        -0.6302192807197571,
                        -0.1861872673034668,
                        -0.01497635804116726,
                        0.2804924547672272,
                        0.14575497806072235,
                        0.020298505201935768,
                        -0.2084522247314453,
                        0.2008666843175888,
                        -0.2548232674598694,
                        -0.21655768156051636,
                        -0.013721197843551636,
                        0.16563104093074799,
                        0.05841455236077309,
                        0.01661876030266285,
                        -0.41593044996261597,
                        0.3835289180278778,
                        -0.4435025155544281,
                        -0.10381273180246353,
                        0.11907188594341278,
                        0.15955615043640137,
                        -0.004482335411012173,
                        -0.04311510547995567,
                        -0.17329756915569305,
                        0.13213390111923218,
                        0.007703541778028011,
                        0.4860084056854248,
                        -0.5423539280891418,
                        0.07730785757303238,
                        -0.20365653932094574,
                        0.037127044051885605,
                        0.4356614351272583,
                        0.1989506185054779,
                        0.5443727970123291,
                        0.2853926718235016,
                        0.12488532066345215,
                        0.10386733710765839,
                        0.4241717457771301,
                        0.013952569104731083
                    ],
                    [
                        0.27259254455566406,
                        -0.3246343433856964,
                        -0.386581152677536,
                        0.08030657470226288,
                        0.0691160336136818,
                        -0.3265141546726227,
                        0.22368289530277252,
                        0.037057194858789444,
                        0.4696894884109497,
                        0.5146220922470093,
                        -0.24385464191436768,
                        0.3622260093688965,
                        0.20313045382499695,
                        -0.06455501914024353,
                        -0.26401466131210327,
                        0.08033402264118195,
                        -0.1536635458469391,
                        -0.5239851474761963,
                        0.1981421858072281,
                        0.00176147255115211,
                        -0.12901602685451508,
                        0.35943442583084106,
                        -0.06110941246151924,
                        0.35412684082984924,
                        -0.19375821948051453,
                        -0.09372436255216599,
                        -0.001890104846097529,
                        -0.12178222835063934,
                        -0.16466017067432404,
                        -0.20418913662433624,
                        -0.10747577995061874,
                        0.07316069304943085,
                        -0.6250444650650024,
                        -0.5940980911254883,
                        0.003133130958303809,
                        0.4206441640853882,
                        0.43123388290405273,
                        -0.14786258339881897,
                        -0.2689938247203827,
                        -0.044871289283037186,
                        0.1491186022758484,
                        -0.1365533024072647,
                        0.07960016280412674,
                        -0.045884087681770325,
                        -0.16753444075584412,
                        -0.44784078001976013,
                        -0.012129902839660645,
                        0.43151915073394775,
                        0.18877162039279938,
                        0.0761895477771759
                    ],
                    [
                        -0.15308229625225067,
                        -0.3726319968700409,
                        -0.11653843522071838,
                        0.010577058419585228,
                        0.1411898136138916,
                        -0.3312251567840576,
                        0.3170410096645355,
                        -0.39590585231781006,
                        0.07597764581441879,
                        0.08460138738155365,
                        -0.2412063330411911,
                        -0.2154482752084732,
                        -0.4248729348182678,
                        0.1570383757352829,
                        0.05245982110500336,
                        -0.07183904945850372,
                        -0.24542665481567383,
                        -0.2532852590084076,
                        0.4440581798553467,
                        0.10625126957893372,
                        0.30302947759628296,
                        -0.4341180622577667,
                        0.17890603840351105,
                        0.29310905933380127,
                        0.4221841096878052,
                        -0.10321056097745895,
                        -0.2783734202384949,
                        -0.2448679804801941,
                        0.11021562665700912,
                        -0.08607236295938492,
                        0.11935005336999893,
                        0.04920985922217369,
                        -0.06144317612051964,
                        -0.1942557543516159,
                        0.06887127459049225,
                        0.17495161294937134,
                        -0.07523264735937119,
                        0.2687869071960449,
                        0.023758118972182274,
                        0.2322409451007843,
                        0.1425529271364212,
                        -0.09620514512062073,
                        0.13364335894584656,
                        -0.09843654930591583,
                        0.33162814378738403,
                        0.08969938009977341,
                        -0.07645690441131592,
                        0.29475197196006775,
                        -0.09936315566301346,
                        0.15821842849254608
                    ],
                    [
                        0.07417792081832886,
                        -0.001541019999422133,
                        0.22926610708236694,
                        0.24542634189128876,
                        -0.00520238745957613,
                        0.11333844810724258,
                        -0.550072431564331,
                        0.2027069330215454,
                        -0.4605867564678192,
                        0.017830004915595055,
                        -0.6765432953834534,
                        -0.019715214148163795,
                        0.03730937838554382,
                        0.2688295543193817,
                        0.4339165985584259,
                        0.010616866871714592,
                        0.37359610199928284,
                        -0.3894578516483307,
                        0.342853844165802,
                        -0.13867489993572235,
                        0.10879208147525787,
                        -0.29566192626953125,
                        0.405150443315506,
                        0.28083714842796326,
                        -0.44838348031044006,
                        0.07792001217603683,
                        0.22076621651649475,
                        -0.32698121666908264,
                        -0.7865636348724365,
                        -0.3393380641937256,
                        -0.4824202358722687,
                        0.18883751332759857,
                        0.17601412534713745,
                        0.10608240962028503,
                        0.2754743993282318,
                        0.1642570197582245,
                        0.1422070413827896,
                        0.3668535053730011,
                        0.10843191295862198,
                        -0.1021733283996582,
                        0.3017990291118622,
                        0.250491738319397,
                        0.17555248737335205,
                        0.03044133447110653,
                        0.30183443427085876,
                        0.2304723709821701,
                        -0.5973847508430481,
                        0.12374266237020493,
                        -0.3053419589996338,
                        -0.22186140716075897
                    ],
                    [
                        -0.28161370754241943,
                        -0.15691733360290527,
                        0.25646212697029114,
                        -0.17832432687282562,
                        -0.0967545360326767,
                        -0.5981581807136536,
                        0.5876215696334839,
                        -0.26101553440093994,
                        -0.30033940076828003,
                        0.08572475612163544,
                        0.31054049730300903,
                        -0.10765331983566284,
                        -0.48522865772247314,
                        0.256687730550766,
                        0.15190742909908295,
                        0.060903385281562805,
                        -0.31868475675582886,
                        -0.09537998586893082,
                        -0.29690152406692505,
                        -0.1195678859949112,
                        -0.20531058311462402,
                        0.2571149170398712,
                        -0.23442545533180237,
                        0.04790975898504257,
                        -0.10402832180261612,
                        0.06468965113162994,
                        0.311065673828125,
                        -0.04709828644990921,
                        0.03562178835272789,
                        -0.2997693419456482,
                        0.27877119183540344,
                        -0.08465924113988876,
                        -0.40851008892059326,
                        -0.1568828672170639,
                        -0.0013300181599333882,
                        0.10513712465763092,
                        -0.07283294200897217,
                        -0.19397900998592377,
                        0.17377176880836487,
                        -0.009816872887313366,
                        -0.1633005142211914,
                        0.16978396475315094,
                        0.11082473397254944,
                        -0.27256086468696594,
                        0.25836479663848877,
                        0.21584542095661163,
                        0.10587063431739807,
                        -0.7294902801513672,
                        -0.34913259744644165,
                        0.5274717211723328
                    ],
                    [
                        0.4257243275642395,
                        0.2910517752170563,
                        0.2337607741355896,
                        0.014999263919889927,
                        -0.016153503209352493,
                        -0.1002863273024559,
                        -0.5136117339134216,
                        0.23215769231319427,
                        -0.08141038566827774,
                        -0.19417846202850342,
                        0.3529229760169983,
                        0.3889269232749939,
                        -0.23261815309524536,
                        0.3042531907558441,
                        0.06508003175258636,
                        0.32357117533683777,
                        0.10808027535676956,
                        0.1018628403544426,
                        0.17453627288341522,
                        -0.0900505930185318,
                        0.30825474858283997,
                        -0.18089544773101807,
                        -0.21052220463752747,
                        0.046503763645887375,
                        -0.2531288266181946,
                        -0.4917825162410736,
                        -0.28775110840797424,
                        -0.14923647046089172,
                        -0.24120600521564484,
                        0.039098914712667465,
                        0.1896822154521942,
                        -0.15999391674995422,
                        -0.4767661690711975,
                        -0.06809166073799133,
                        -0.11339283734560013,
                        0.16544125974178314,
                        0.5765855312347412,
                        -0.21195030212402344,
                        0.15134383738040924,
                        0.4668715000152588,
                        0.3215952217578888,
                        0.21779592335224152,
                        0.32403266429901123,
                        -0.39308035373687744,
                        0.18268227577209473,
                        0.08215370029211044,
                        0.1292688548564911,
                        -0.1661706268787384,
                        -0.09604135155677795,
                        0.24443753063678741
                    ],
                    [
                        -0.166445791721344,
                        0.20252950489521027,
                        0.2575802206993103,
                        0.12348228693008423,
                        0.14900609850883484,
                        -0.18488337099552155,
                        -0.11987420171499252,
                        0.11019567400217056,
                        0.02751273661851883,
                        0.49351993203163147,
                        0.10157135874032974,
                        0.21218475699424744,
                        -0.18850727379322052,
                        0.5712661743164062,
                        0.07719064503908157,
                        -0.236018568277359,
                        -0.2891515791416168,
                        -0.07672744989395142,
                        -0.4364519417285919,
                        0.0004893803270533681,
                        0.18237873911857605,
                        -0.09287504851818085,
                        -0.1528797298669815,
                        0.1750979870557785,
                        0.5009805560112,
                        0.10106711834669113,
                        0.23559816181659698,
                        -0.14733058214187622,
                        -0.17974980175495148,
                        -0.19308951497077942,
                        -0.005262361373752356,
                        0.43189120292663574,
                        -0.20288914442062378,
                        -0.10781976580619812,
                        -0.08836754411458969,
                        -0.4352574944496155,
                        -0.08137839287519455,
                        0.4980364143848419,
                        0.600109338760376,
                        -0.059492822736501694,
                        -0.1151471734046936,
                        -0.1376362442970276,
                        -0.04249662905931473,
                        -0.27063775062561035,
                        -0.1571483314037323,
                        -0.06196727603673935,
                        0.055021271109580994,
                        0.20657232403755188,
                        -0.08708226680755615,
                        -0.17913587391376495
                    ],
                    [
                        0.08725004643201828,
                        0.12238213419914246,
                        0.03144492208957672,
                        0.2262117713689804,
                        0.005049222614616156,
                        -0.4167904853820801,
                        -0.24407300353050232,
                        -0.22230322659015656,
                        -0.24159850180149078,
                        -0.3980691134929657,
                        0.1868259310722351,
                        0.5340498685836792,
                        -0.07512560486793518,
                        -0.24343463778495789,
                        0.2540324926376343,
                        0.019738946110010147,
                        -0.383451908826828,
                        -0.19066056609153748,
                        0.38793084025382996,
                        -0.34388694167137146,
                        0.01125019509345293,
                        0.006549800746142864,
                        0.3178309500217438,
                        -0.2897323966026306,
                        -0.026793334633111954,
                        0.05778680741786957,
                        0.16864125430583954,
                        0.0635022297501564,
                        -0.43342867493629456,
                        -0.42803245782852173,
                        -0.3800641596317291,
                        -0.36670196056365967,
                        -0.25245243310928345,
                        0.27931901812553406,
                        0.41785746812820435,
                        0.02429419569671154,
                        0.11649803817272186,
                        -0.35130295157432556,
                        0.04792618006467819,
                        0.5491883754730225,
                        0.16694097220897675,
                        -0.17513804137706757,
                        -0.1446778029203415,
                        -0.06338486820459366,
                        -0.019191967323422432,
                        -0.08550244569778442,
                        0.529560387134552,
                        -0.1333608627319336,
                        -0.14457584917545319,
                        0.3809705376625061
                    ],
                    [
                        -0.042073238641023636,
                        -0.08653511852025986,
                        0.16458137333393097,
                        0.18088369071483612,
                        0.18939918279647827,
                        -0.053029194474220276,
                        0.1614616960287094,
                        0.08083628863096237,
                        0.2776705026626587,
                        -0.10057691484689713,
                        0.14435109496116638,
                        0.20366737246513367,
                        -0.12649451196193695,
                        0.10917086899280548,
                        -0.12548595666885376,
                        0.09601595252752304,
                        -0.13037531077861786,
                        -0.20805583894252777,
                        -0.15546397864818573,
                        -0.38544413447380066,
                        -0.3665601909160614,
                        -0.003172604599967599,
                        0.24261803925037384,
                        -0.13706985116004944,
                        -0.4180751144886017,
                        -0.029327522963285446,
                        -0.030972780659794807,
                        0.09421390295028687,
                        -0.206919863820076,
                        -0.5652899146080017,
                        0.1616351455450058,
                        0.06802478432655334,
                        -0.015114324167370796,
                        0.0819336324930191,
                        0.0837830901145935,
                        0.05924820527434349,
                        -0.16627414524555206,
                        0.20527707040309906,
                        -0.12671881914138794,
                        0.3191072642803192,
                        0.2792952358722687,
                        0.30299699306488037,
                        0.5180556774139404,
                        0.047978419810533524,
                        0.3709988594055176,
                        0.0005740399938076735,
                        0.24939654767513275,
                        0.10210025310516357,
                        -0.3787124752998352,
                        -0.517084538936615
                    ],
                    [
                        -0.05123620107769966,
                        0.04980001226067543,
                        0.17436686158180237,
                        0.14820919930934906,
                        -0.09950960427522659,
                        -0.18575482070446014,
                        -0.15214131772518158,
                        -0.20829030871391296,
                        0.2461928278207779,
                        -0.3399754762649536,
                        -0.024798965081572533,
                        0.10798656195402145,
                        -0.12790167331695557,
                        -0.07514672726392746,
                        0.17170406877994537,
                        0.07630065083503723,
                        -0.22008782625198364,
                        0.06864366680383682,
                        -0.20184503495693207,
                        0.571484386920929,
                        -0.7448838353157043,
                        0.4607487618923187,
                        0.5223361253738403,
                        0.2374691665172577,
                        -0.046463340520858765,
                        0.05695950612425804,
                        0.20424067974090576,
                        -0.0049484651535749435,
                        -0.485282301902771,
