[
    {
        "CODE_DISTANCE": 3,
        "ERROR_PROBS": [
            9.980039976653643e-06,
            9.980039976653643e-06,
            0.009980039671063423
        ],
        "CONV_LAYERS": [
            [
                8,
                2,
                1,
                0
            ],
            [
                8,
                2,
                1,
                0
            ]
        ],
        "FC_LAYERS": [
            50,
            2
        ]
    },
    {
        "CNN": [
            {
                "b": [
                    -0.11589121073484421,
                    0.25675973296165466,
                    -0.21300141513347626,
                    0.3888512849807739,
                    0.2352244257926941,
                    0.04960334300994873,
                    -0.2672939896583557,
                    0.13739338517189026
                ],
                "w": [
                    [
                        [
                            [
                                -1.631653070449829,
                                0.27739453315734863
                            ],
                            [
                                -0.8339242935180664,
                                -0.40998396277427673
                            ]
                        ]
                    ],
                    [
                        [
                            [
                                0.5726977586746216,
                                0.7893373966217041
                            ],
                            [
                                0.9688341617584229,
                                -1.399355173110962
                            ]
                        ]
                    ],
                    [
                        [
                            [
                                -0.28190726041793823,
                                1.237136960029602
                            ],
                            [
                                0.15840771794319153,
                                0.07336007803678513
                            ]
                        ]
                    ],
                    [
                        [
                            [
                                -0.1521570384502411,
                                -1.9229638576507568
                            ],
                            [
                                0.4466032385826111,
                                -1.7591767311096191
                            ]
                        ]
                    ],
                    [
                        [
                            [
                                -1.4744001626968384,
                                -1.1222844123840332
                            ],
                            [
                                1.132951021194458,
                                0.05779271572828293
                            ]
                        ]
                    ],
                    [
                        [
                            [
                                0.01900801993906498,
                                0.10192933678627014
                            ],
                            [
                                -1.2889927625656128,
                                0.1495160311460495
                            ]
                        ]
                    ],
                    [
                        [
                            [
                                -0.0059364610351622105,
                                1.0431931018829346
                            ],
                            [
                                0.0729837641119957,
                                -0.5404831767082214
                            ]
                        ]
                    ],
                    [
                        [
                            [
                                -1.6553436517715454,
                                0.16330741345882416
                            ],
                            [
                                -1.6841429471969604,
                                -0.286436527967453
                            ]
                        ]
                    ]
                ]
            },
            {
                "b": [
                    0.008825509808957577,
                    -0.1558603048324585,
                    0.0684175118803978,
                    0.24690385162830353,
                    0.03824160620570183,
                    -0.0018245724495500326,
                    0.02432038076221943,
                    0.3047305941581726
                ],
                "w": [
                    [
                        [
                            [
                                0.3570210337638855,
                                0.17482611536979675
                            ],
                            [
                                0.6113322377204895,
                                0.16138136386871338
                            ]
                        ],
                        [
                            [
                                -0.8586857914924622,
                                -0.09047248214483261
                            ],
                            [
                                -0.4031544327735901,
                                -0.2533511519432068
                            ]
                        ],
                        [
                            [
                                0.0035564200952649117,
                                -0.22449161112308502
                            ],
                            [
                                -0.17626234889030457,
                                0.0928753912448883
                            ]
                        ],
                        [
                            [
                                0.1726789027452469,
                                0.4267882704734802
                            ],
                            [
                                0.20291629433631897,
                                0.2747056186199188
                            ]
                        ],
                        [
                            [
                                0.7898629903793335,
                                0.0182932298630476
                            ],
                            [
                                -0.7788203358650208,
                                -0.9241418838500977
                            ]
                        ],
                        [
                            [
                                0.19454731047153473,
                                -0.5476758480072021
                            ],
                            [
                                0.8397765159606934,
                                -0.10790325701236725
                            ]
                        ],
                        [
                            [
                                0.09076463431119919,
                                -0.4995432198047638
                            ],
                            [
                                0.12445016205310822,
                                -0.008203315548598766
                            ]
                        ],
                        [
                            [
                                -0.18425320088863373,
                                -0.047203969210386276
                            ],
                            [
                                0.32051679491996765,
                                0.31760919094085693
                            ]
                        ]
                    ],
                    [
                        [
                            [
                                -0.32813289761543274,
                                0.15270312130451202
                            ],
                            [
                                -0.09516475349664688,
                                0.12622959911823273
                            ]
                        ],
                        [
                            [
                                0.4015563130378723,
                                0.019243892282247543
                            ],
                            [
                                0.16347217559814453,
                                0.7105010151863098
                            ]
                        ],
                        [
                            [
                                0.3542507588863373,
                                0.0682268813252449
                            ],
                            [
                                -0.048530012369155884,
                                0.15664182603359222
                            ]
                        ],
                        [
                            [
                                -0.7020630240440369,
                                -0.5457430481910706
                            ],
                            [
                                -0.3727046847343445,
                                0.5729048848152161
                            ]
                        ],
                        [
                            [
                                -0.1814734935760498,
                                -0.6399356722831726
                            ],
                            [
                                0.6427281498908997,
                                -0.4710613787174225
                            ]
                        ],
                        [
                            [
                                0.02381807006895542,
                                -0.39906081557273865
                            ],
                            [
                                0.26379185914993286,
                                -0.34163370728492737
                            ]
                        ],
                        [
                            [
                                0.16621729731559753,
                                0.13892431557178497
                            ],
                            [
                                -0.11985243856906891,
                                0.06470748037099838
                            ]
                        ],
                        [
                            [
                                -0.10987783223390579,
                                -0.9392615556716919
                            ],
                            [
                                -0.3440578877925873,
                                -0.39570868015289307
                            ]
                        ]
                    ],
                    [
                        [
                            [
                                -0.01923641934990883,
                                -0.7906173467636108
                            ],
                            [
                                0.28810158371925354,
                                -0.3035130798816681
                            ]
                        ],
                        [
                            [
                                -0.11058369278907776,
                                0.04450533166527748
                            ],
                            [
                                -0.6871857643127441,
                                -0.5139124989509583
                            ]
                        ],
                        [
                            [
                                0.4123629331588745,
                                0.17895692586898804
                            ],
                            [
                                0.13755445182323456,
                                0.6633439660072327
                            ]
                        ],
                        [
                            [
                                -0.5280706286430359,
                                -0.5813145041465759
                            ],
                            [
                                -0.1154635101556778,
                                -0.5846773982048035
                            ]
                        ],
                        [
                            [
                                0.5989562273025513,
                                -0.19746637344360352
                            ],
                            [
                                0.258237361907959,
                                -0.33639705181121826
                            ]
                        ],
                        [
                            [
                                0.6454536318778992,
                                -0.025396127253770828
                            ],
                            [
                                1.0418999195098877,
                                0.11030108481645584
                            ]
                        ],
                        [
                            [
                                0.3101291358470917,
                                0.507029116153717
                            ],
                            [
                                -0.07564393430948257,
                                -0.30463525652885437
                            ]
                        ],
                        [
                            [
                                0.10946367681026459,
                                -0.8635503649711609
                            ],
                            [
                                0.42280811071395874,
                                0.29775625467300415
                            ]
                        ]
                    ],
                    [
                        [
                            [
                                0.8722898364067078,
                                0.19335928559303284
                            ],
                            [
                                -0.3607102036476135,
                                0.17521274089813232
                            ]
                        ],
                        [
                            [
                                -0.22565023601055145,
                                0.01593654602766037
                            ],
                            [
                                -1.0819414854049683,
                                0.13235065340995789
                            ]
                        ],
                        [
                            [
                                0.024444017559289932,
                                0.3432033360004425
                            ],
                            [
                                0.23302380740642548,
                                -0.2090481072664261
                            ]
                        ],
                        [
                            [
                                0.43049120903015137,
                                0.5659303069114685
                            ],
                            [
                                0.26570963859558105,
                                -0.21574626863002777
                            ]
                        ],
                        [
                            [
                                -0.35390332341194153,
                                0.23396353423595428
                            ],
                            [
                                0.5231859683990479,
                                0.48358169198036194
                            ]
                        ],
                        [
                            [
                                0.30052077770233154,
                                0.39364948868751526
                            ],
                            [
                                -0.25055888295173645,
                                -0.5592917203903198
                            ]
                        ],
                        [
                            [
                                -0.3535750210285187,
                                0.10835643112659454
                            ],
                            [
                                -0.2929486036300659,
                                -0.36678457260131836
                            ]
                        ],
                        [
                            [
                                0.9251524209976196,
                                -0.045489683747291565
                            ],
                            [
                                0.7208987474441528,
                                0.22349366545677185
                            ]
                        ]
                    ],
                    [
                        [
                            [
                                0.20021019876003265,
                                0.14301049709320068
                            ],
                            [
                                0.41691768169403076,
                                -0.1238347664475441
                            ]
                        ],
                        [
                            [
                                -0.06765912473201752,
                                0.09495965391397476
                            ],
                            [
                                -0.037759993225336075,
                                -0.05199703201651573
                            ]
                        ],
                        [
                            [
                                -0.1383460909128189,
                                -0.15842895209789276
                            ],
                            [
                                0.2532312870025635,
                                -0.6637021899223328
                            ]
                        ],
                        [
                            [
                                -0.38894981145858765,
                                0.5413492321968079
                            ],
                            [
                                0.2546297013759613,
                                0.4425026476383209
                            ]
                        ],
                        [
                            [
                                0.5741004347801208,
                                0.04718098044395447
                            ],
                            [
                                -0.48570069670677185,
                                0.04288475587964058
                            ]
                        ],
                        [
                            [
                                0.3600160777568817,
                                -0.6687973141670227
                            ],
                            [
                                0.23467938601970673,
                                -0.45687028765678406
                            ]
                        ],
                        [
                            [
                                0.1608615517616272,
                                0.16551950573921204
                            ],
                            [
                                -0.4611729681491852,
                                -0.14035047590732574
                            ]
                        ],
                        [
                            [
                                0.3988681137561798,
                                -0.30709540843963623
                            ],
                            [
                                0.39403024315834045,
                                0.8477042317390442
                            ]
                        ]
                    ],
                    [
                        [
                            [
                                -0.8651002049446106,
                                0.403413325548172
                            ],
                            [
                                -0.24975676834583282,
                                -0.11976402252912521
                            ]
                        ],
                        [
                            [
                                -0.6136931777000427,
                                -0.3598653972148895
                            ],
                            [
                                0.11600331217050552,
                                0.6335828900337219
                            ]
                        ],
                        [
                            [
                                -0.12413468211889267,
                                0.15539681911468506
                            ],
                            [
                                0.1184597834944725,
                                0.16741017997264862
                            ]
                        ],
                        [
                            [
                                0.054216980934143066,
                                -0.4303632080554962
                            ],
                            [
                                0.044422294944524765,
                                -0.6224058866500854
                            ]
                        ],
                        [
                            [
                                -1.11971914768219,
                                0.7897768616676331
                            ],
                            [
                                0.60026615858078,
                                -0.2840082347393036
                            ]
                        ],
                        [
                            [
                                0.39073383808135986,
                                -0.09560459107160568
                            ],
                            [
                                0.5379600524902344,
                                -0.17656266689300537
                            ]
                        ],
                        [
                            [
                                -0.18213173747062683,
                                0.17713166773319244
                            ],
                            [
                                0.28623947501182556,
                                0.5909168124198914
                            ]
                        ],
                        [
                            [
                                -0.34778037667274475,
                                0.21194438636302948
                            ],
                            [
                                -0.08421695977449417,
                                0.048080526292324066
                            ]
                        ]
                    ],
                    [
                        [
                            [
                                0.20355431735515594,
                                -0.015752103179693222
                            ],
                            [
                                -0.7328778505325317,
                                -0.5498976111412048
                            ]
                        ],
                        [
                            [
                                0.15170475840568542,
                                0.014716312289237976
                            ],
                            [
                                -0.6144188046455383,
                                -0.16748079657554626
                            ]
                        ],
                        [
                            [
                                -0.14234702289104462,
                                -0.6679359674453735
                            ],
                            [
                                0.4307421147823334,
                                -0.4186779260635376
                            ]
                        ],
                        [
                            [
                                -0.06124322861433029,
                                0.6124011278152466
                            ],
                            [
                                -0.660926342010498,
                                0.09686721116304398
                            ]
                        ],
                        [
                            [
                                -0.0639626681804657,
                                0.32100436091423035
                            ],
                            [
                                0.05226202681660652,
                                0.042987219989299774
                            ]
                        ],
                        [
                            [
                                -0.22257497906684875,
                                -0.1473269760608673
                            ],
                            [
                                0.21767155826091766,
                                -0.5702119469642639
                            ]
                        ],
                        [
                            [
                                -0.4554762542247772,
                                -0.2893039882183075
                            ],
                            [
                                -0.14062193036079407,
                                -0.5311394333839417
                            ]
                        ],
                        [
                            [
                                0.698760986328125,
                                -0.2147333174943924
                            ],
                            [
                                -0.8475642204284668,
                                0.1496027708053589
                            ]
                        ]
                    ],
                    [
                        [
                            [
                                -0.9486088752746582,
                                0.21680520474910736
                            ],
                            [
                                0.1866815686225891,
                                0.7117375135421753
                            ]
                        ],
                        [
                            [
                                -0.3974325358867645,
                                0.2550296187400818
                            ],
                            [
                                0.337943434715271,
                                0.11237936466932297
                            ]
                        ],
                        [
                            [
                                0.266722172498703,
                                0.7181705832481384
                            ],
                            [
                                0.3522561192512512,
                                0.13106200098991394
                            ]
                        ],
                        [
                            [
                                0.2602445185184479,
                                -0.7966583967208862
                            ],
                            [
                                -0.07268524914979935,
                                -0.8706579208374023
                            ]
                        ],
                        [
                            [
                                -0.24311073124408722,
                                -0.12069983035326004
                            ],
                            [
                                0.21526102721691132,
                                0.10175201296806335
                            ]
                        ],
                        [
                            [
                                0.2866641879081726,
                                0.0040832930244505405
                            ],
                            [
                                -0.4932091534137726,
                                0.5098500847816467
                            ]
                        ],
                        [
                            [
                                0.47304821014404297,
                                0.7044374942779541
                            ],
                            [
                                0.13064579665660858,
                                -0.1929214745759964
                            ]
                        ],
                        [
                            [
                                -0.322172611951828,
                                0.49088871479034424
                            ],
                            [
                                -0.6258190274238586,
                                -0.17964278161525726
                            ]
                        ]
                    ]
                ]
            }
        ],
        "MLP": [
            {
                "b": [
                    -0.08050241321325302,
                    0.13805358111858368,
                    -0.05611114948987961,
                    -0.06284202635288239,
                    -0.12489667534828186,
                    0.06909776479005814,
                    -0.05587812885642052,
                    -0.3013262450695038,
                    -0.21578915417194366,
                    -0.23160701990127563,
                    0.1931951642036438,
                    -0.041544895619153976,
                    -0.35153958201408386,
                    -0.12741760909557343,
                    -0.22055509686470032,
                    0.11331035941839218,
                    0.44638901948928833,
                    -0.2113366276025772,
                    -0.14222249388694763,
                    -0.06878962367773056,
                    -0.30139729380607605,
                    -0.2852165699005127,
                    0.029906999319791794,
                    0.19625279307365417,
                    0.23397685587406158,
                    0.020203934982419014,
                    -0.10091724246740341,
                    -0.045870110392570496,
                    -0.3324420154094696,
                    0.23208779096603394,
                    0.12216472625732422,
                    -0.2735045552253723,
                    -0.1775699108839035,
                    -0.16266688704490662,
                    -0.1453177034854889,
                    -0.2028494030237198,
                    -0.6163938045501709,
                    -0.04058508574962616,
                    -0.23840190470218658,
                    0.19629909098148346,
                    -0.029202468693256378,
                    -0.11565612256526947,
                    -0.14801616966724396,
                    -0.210796058177948,
                    -0.03088054619729519,
                    -0.16334541141986847,
                    -0.10144730657339096,
                    0.028807902708649635,
                    -0.008154110983014107,
                    -0.2146550565958023
                ],
                "w": [
                    [
                        -0.354272723197937,
                        0.6603022813796997,
                        0.14502963423728943,
                        0.050223104655742645,
                        0.22812870144844055,
                        0.3648620545864105,
                        -0.27662497758865356,
                        0.27267056703567505,
                        0.07069473713636398,
                        0.7687004804611206,
                        0.24874207377433777,
                        0.18468527495861053,
                        0.5856349468231201,
                        0.014484045095741749,
                        0.05370156839489937,
                        0.8241035342216492,
                        -0.8034793138504028,
                        -0.3752508759498596,
                        0.008911116048693657,
                        -0.153469517827034,
                        -0.061080705374479294,
                        0.47905465960502625,
                        -0.8524923920631409,
                        0.19657668471336365,
                        0.31870976090431213,
                        0.36414432525634766,
                        -0.019939815625548363,
                        0.3241943120956421,
                        -0.4594641923904419,
                        0.27797701954841614,
                        -0.530186116695404,
                        0.5290426015853882,
                        -0.9199195504188538,
                        -0.07201481610536575,
                        -0.01609881967306137,
                        0.46743616461753845,
                        0.0785750299692154,
                        0.8489115238189697,
                        0.3731630742549896,
                        -0.7764336466789246,
                        -0.5818026065826416,
                        0.27164262533187866,
                        0.41689714789390564,
                        0.25285232067108154,
                        1.0532060861587524,
                        0.5178983211517334,
                        0.02196577750146389,
                        0.1599847972393036,
                        -0.5725839138031006,
                        0.29981404542922974
                    ],
                    [
                        -1.0281530618667603,
                        -0.9107933640480042,
                        -0.06469077616930008,
                        -1.5042215585708618,
                        0.13072770833969116,
                        0.2360566258430481,
                        0.4780276119709015,
                        -0.07344526052474976,
                        0.3516654372215271,
                        -0.378953218460083,
                        -0.25461816787719727,
                        0.4293197691440582,
                        0.4782527983188629,
                        -0.5577327013015747,
                        -0.08606357127428055,
                        0.18148963153362274,
                        0.28787052631378174,
                        -0.11516955494880676,
                        0.18609438836574554,
                        -0.13219527900218964,
                        -0.18269172310829163,
                        -0.16327409446239471,
                        0.5323874950408936,
                        -0.3183121383190155,
                        -0.27467167377471924,
                        -0.5418590903282166,
                        -0.0806058868765831,
                        0.5540005564689636,
                        -0.20598745346069336,
                        -0.8060308694839478,
                        -0.1820255070924759,
                        0.42830732464790344,
                        0.6919410228729248,
                        -0.18793025612831116,
                        -0.6215499639511108,
                        0.1512228101491928,
                        -0.5957003831863403,
                        -0.4575878381729126,
                        0.06659016013145447,
                        0.2580517530441284,
                        -0.43130677938461304,
                        -0.056308306753635406,
                        -0.007936437614262104,
                        0.986294686794281,
                        0.7208382487297058,
                        -0.16890902817249298,
                        -0.3907366991043091,
                        0.7359101176261902,
                        -0.5377082824707031,
                        0.006437904667109251
                    ],
                    [
                        -0.5102681517601013,
                        0.19234922528266907,
                        -0.4537442922592163,
                        0.1796364188194275,
                        -0.33014366030693054,
                        -0.6116853952407837,
                        -0.7952437996864319,
                        -0.979454517364502,
                        0.597115695476532,
                        -1.0606220960617065,
                        -0.32491469383239746,
                        -0.5676591396331787,
                        -0.01633552461862564,
                        0.4402494728565216,
                        -0.5230104923248291,
                        0.660552442073822,
                        0.12088058888912201,
                        -0.14630135893821716,
                        0.006189022213220596,
                        0.25199854373931885,
                        0.13742442429065704,
                        0.015432747080922127,
                        -0.26114290952682495,
                        0.46244391798973083,
                        -0.30442342162132263,
                        0.49082010984420776,
                        0.9992343187332153,
                        0.2988940179347992,
                        0.10972415655851364,
                        0.5145799517631531,
                        0.24641244113445282,
                        0.7928182482719421,
                        0.32931989431381226,
                        -0.39254721999168396,
                        -0.3638833165168762,
                        0.20970430970191956,
                        -0.09311244636774063,
                        -0.7353752255439758,
                        -0.07214418798685074,
                        0.9571245908737183,
                        -0.09189095348119736,
                        -0.03570880740880966,
                        -1.108129620552063,
                        0.14255280792713165,
                        0.035044074058532715,
                        -0.43256112933158875,
                        0.514670729637146,
                        0.42035338282585144,
                        0.065917007625103,
                        -0.5371440649032593
                    ],
                    [
                        0.9282517433166504,
                        -0.01945120468735695,
                        0.248933807015419,
                        0.5752890110015869,
                        -0.18464890122413635,
                        -0.9969385266304016,
                        0.48012763261795044,
                        -1.1089926958084106,
                        0.7217386960983276,
                        -0.9217894673347473,
                        -0.09362830966711044,
                        -0.8574426174163818,
                        -0.7743924260139465,
                        0.46659716963768005,
                        -0.6901096105575562,
                        0.3107365071773529,
                        -2.1391515731811523,
                        -0.6665953397750854,
                        0.3323093056678772,
                        -0.03927011415362358,
                        -0.46532756090164185,
                        -0.5881330370903015,
                        0.5640308260917664,
                        0.5020284652709961,
                        -0.179421067237854,
                        -0.18348631262779236,
                        -0.19363459944725037,
                        0.8649111986160278,
                        0.2589607238769531,
                        0.018305450677871704,
                        0.8895071744918823,
                        0.9315915107727051,
                        0.18060268461704254,
                        -0.1928500384092331,
                        -0.29089629650115967,
                        0.774355947971344,
                        -0.13425031304359436,
                        -0.8770090937614441,
                        -0.261428564786911,
                        0.08185090869665146,
                        -0.7318751811981201,
                        0.12092041224241257,
                        0.363064706325531,
                        -0.002162921940907836,
                        -0.4186219274997711,
                        -0.29419541358947754,
                        0.25546395778656006,
                        0.12575717270374298,
                        -0.017280245199799538,
                        0.9476803541183472
                    ],
                    [
                        0.08064760267734528,
                        0.6459697484970093,
                        0.07377199083566666,
                        0.2016211301088333,
                        -0.5153823494911194,
                        0.4096783995628357,
                        -0.5097286105155945,
                        -2.8964734077453613,
                        -0.10049320012331009,
                        -1.3221349716186523,
                        0.7513881921768188,
                        -0.2661696672439575,
                        0.5412588119506836,
                        0.43506336212158203,
                        0.3252079486846924,
                        -0.33344972133636475,
                        -0.3975446820259094,
                        1.0127274990081787,
                        0.18608888983726501,
                        1.1590180397033691,
                        0.5041567087173462,
                        0.6018490195274353,
                        -0.5573104619979858,
                        0.6269893646240234,
                        -0.13480573892593384,
                        0.8882279396057129,
                        0.571134626865387,
                        -0.09042934328317642,
                        0.21325069665908813,
                        0.9419803023338318,
                        -0.4254651963710785,
                        -0.19042667746543884,
                        0.8537935018539429,
                        0.6116722822189331,
                        0.579827070236206,
                        -0.02162257209420204,
                        -0.7715629935264587,
                        -2.7272675037384033,
                        -0.6984735727310181,
                        0.4242337942123413,
                        0.6521605849266052,
                        -0.3974577784538269,
                        -1.3361032009124756,
                        -0.18635907769203186,
                        -0.4609048664569855,
                        0.921421468257904,
                        0.2780516743659973,
                        -0.3456050157546997,
                        -0.35944849252700806,
                        -0.4415834844112396
                    ],
                    [
                        0.11120227724313736,
                        0.11416321247816086,
                        -0.2903929650783539,
                        0.1694665402173996,
                        0.27698251605033875,
                        -0.4083739221096039,
                        -0.7067752480506897,
                        0.37645167112350464,
                        0.883597731590271,
                        0.317115843296051,
                        -0.3984054923057556,
                        -0.0516999214887619,
                        1.1308696269989014,
                        0.681746244430542,
                        -0.5587894916534424,
                        0.621871292591095,
                        0.21658723056316376,
                        -0.2180602103471756,
                        -0.7857128381729126,
                        0.021548880264163017,
                        -0.4996422231197357,
                        0.03790515661239624,
                        0.4831094741821289,
                        0.8931742310523987,
                        -1.1083803176879883,
                        -0.34808897972106934,
                        -0.1885233074426651,
                        0.9438934922218323,
                        -0.3252742886543274,
                        -0.6552872061729431,
                        1.0832518339157104,
                        0.8376895785331726,
                        -0.21315041184425354,
                        -0.3468253016471863,
                        -0.3812483251094818,
                        0.07497193664312363,
                        1.001429796218872,
                        -0.3058214783668518,
                        1.1284822225570679,
                        -0.06454858928918839,
                        -0.3914634883403778,
                        -0.9804785847663879,
                        -0.5817735195159912,
                        0.36693617701530457,
                        0.615475594997406,
                        0.19900985062122345,
                        -0.6532668471336365,
                        0.8262859582901001,
                        0.10028423368930817,
                        0.6018633246421814
                    ],
                    [
                        0.29295530915260315,
                        0.4811323285102844,
                        0.3571610450744629,
                        0.2169509381055832,
                        0.24960240721702576,
                        -0.1271960288286209,
                        -0.4083991050720215,
                        0.61259925365448,
                        -1.049459457397461,
                        -0.03379340097308159,
                        -1.0856925249099731,
                        -0.05424267426133156,
                        0.20531122386455536,
                        0.6105101108551025,
                        -0.3490200936794281,
                        -1.5170780420303345,
                        0.504827618598938,
                        -0.35521364212036133,
                        -0.17000989615917206,
                        0.24498121440410614,
                        1.2177854776382446,
                        0.05711585283279419,
                        -0.27780792117118835,
                        0.8856939673423767,
                        0.44168779253959656,
                        0.06346401572227478,
                        0.008104250766336918,
                        -0.4440992474555969,
                        -0.17828740179538727,
                        -0.17823854088783264,
                        -1.147814154624939,
                        -0.8445320129394531,
                        0.38625648617744446,
                        -0.18314561247825623,
                        0.08122608065605164,
                        0.10322003066539764,
                        0.15919354557991028,
                        0.37097683548927307,
                        0.3323127329349518,
                        0.5421482920646667,
                        0.6104369163513184,
                        -0.5241788625717163,
                        -0.13073194026947021,
                        0.3281106650829315,
                        0.12531933188438416,
                        0.9329895973205566,
                        -0.06521621346473694,
                        -0.9942203164100647,
                        -0.4426935911178589,
                        0.7300997376441956
                    ],
                    [
                        0.12708230316638947,
                        -0.8508995771408081,
                        -0.7124975919723511,
                        -0.24000218510627747,
                        0.5651463866233826,
                        0.5793702006340027,
                        0.7431617379188538,
                        -0.10102789103984833,
                        -0.41128697991371155,
                        0.5889101624488831,
                        0.7336901426315308,
                        0.33969736099243164,
                        -0.9022196531295776,
                        0.15722018480300903,
                        0.09680970758199692,
                        -1.273964285850525,
                        0.35558855533599854,
                        0.06724197417497635,
                        -0.23267143964767456,
                        -0.31942668557167053,
                        0.6002733707427979,
                        0.49737152457237244,
                        0.6077057123184204,
                        -1.0509653091430664,
                        -0.16932663321495056,
                        0.11738325655460358,
                        -0.5865398645401001,
                        -0.2114710807800293,
                        -0.10617443919181824,
                        -0.009800368919968605,
                        -0.7260138392448425,
                        -0.6827287673950195,
                        0.0869118943810463,
                        0.7477338910102844,
                        -0.09342402964830399,
                        0.49367228150367737,
                        0.17471401393413544,
                        0.5393508672714233,
                        0.40793943405151367,
                        0.49715012311935425,
                        0.1373274177312851,
                        -0.36010444164276123,
                        -0.7328042984008789,
                        0.27646946907043457,
                        -0.461492657661438,
                        0.5400592684745789,
                        -0.7605701088905334,
                        -1.341446042060852,
                        -0.08856873214244843,
                        0.41051629185676575
                    ],
                    [
                        0.4396715760231018,
                        0.1851956844329834,
                        0.1279004067182541,
                        0.7649758458137512,
                        -2.289865255355835,
                        -1.0169577598571777,
                        -0.4007859230041504,
                        -0.7722455263137817,
                        0.0590537004172802,
                        -2.0795726776123047,
                        0.47464117407798767,
                        -0.03572418540716171,
                        0.07806997746229172,
                        -0.03780696913599968,
                        -0.12734438478946686,
                        -0.3379545211791992,
                        -0.16433198750019073,
                        -0.44588494300842285,
                        -0.1579282134771347,
                        0.47390803694725037,
                        -0.7060369849205017,
                        0.1937515288591385,
                        -2.267895221710205,
                        -1.5919992923736572,
                        -0.2888399660587311,
                        0.42631784081459045,
                        -0.42184320092201233,
                        0.5273908376693726,
                        0.4407116770744324,
                        0.8147952556610107,
                        -0.883573055267334,
                        0.630737841129303,
                        -0.015261086635291576,
                        -0.9102691411972046,
                        0.16779828071594238,
                        0.5945227742195129,
                        0.13841718435287476,
                        -1.4929319620132446,
                        0.32431331276893616,
                        0.6721346378326416,
                        0.47260886430740356,
                        -0.8219508528709412,
                        -0.6775328516960144,
                        0.29396986961364746,
                        0.7722949981689453,
                        -2.8256492614746094,
                        -0.32932010293006897,
                        0.027218887582421303,
                        -0.17671141028404236,
                        1.6825796365737915
                    ],
                    [
                        0.8303497433662415,
                        0.6342567205429077,
                        -0.3160693645477295,
                        0.7412912249565125,
                        0.5128605961799622,
                        0.44701728224754333,
                        0.8315355181694031,
                        0.964225709438324,
                        -0.49811631441116333,
                        0.33071598410606384,
                        0.3618326187133789,
                        0.5482693910598755,
                        1.8083611726760864,
                        1.1702979803085327,
                        0.42013466358184814,
                        -0.4985738694667816,
                        0.3586488962173462,
                        0.5545411705970764,
                        0.024993127211928368,
                        -0.42620399594306946,
                        0.620181143283844,
                        0.4960082471370697,
                        0.3038387894630432,
                        -2.238044261932373,
                        0.5125299692153931,
                        0.002425095299258828,
                        -0.48978191614151,
                        -0.34724554419517517,
                        0.7158554792404175,
                        -0.06546445935964584,
                        0.25743430852890015,
                        -0.5384852290153503,
                        0.25968343019485474,
                        0.6445422768592834,
                        1.1634095907211304,
                        0.1911916583776474,
                        0.6651179790496826,
                        0.4327743649482727,
                        1.197802186012268,
                        -0.09250802546739578,
                        0.5834975838661194,
                        0.095798060297966,
                        0.7215965390205383,
                        1.1806120872497559,
                        -1.4055593013763428,
                        0.03611814230680466,
                        -0.4186202883720398,
                        -0.5902795195579529,
                        -0.16559846699237823,
                        0.36324355006217957
                    ],
                    [
                        0.2181583195924759,
                        1.0792205333709717,
                        0.2116841971874237,
                        -0.09611418843269348,
                        0.18927627801895142,
                        0.11123581230640411,
                        0.18205438554286957,
                        -0.6001200079917908,
                        -0.29038333892822266,
                        -0.03793228790163994,
                        0.7078127264976501,
                        0.40963563323020935,
                        0.7687413692474365,
                        0.9689554572105408,
                        0.30641403794288635,
                        -0.5233420729637146,
                        -0.3611963093280792,
                        1.2154791355133057,
                        -0.19031114876270294,
                        0.5259536504745483,
                        1.0139548778533936,
                        -0.4623759984970093,
                        1.3118329048156738,
                        0.36331066489219666,
                        1.169605016708374,
                        0.015993459150195122,
                        -0.6123286485671997,
                        -0.5862452387809753,
                        0.8437776565551758,
                        0.5256458520889282,
                        0.3762749433517456,
                        -0.3733641803264618,
                        0.00501571549102664,
                        0.6396092176437378,
                        0.11809062212705612,
                        -0.003111513564363122,
                        -0.09380019456148148,
                        -0.05420560762286186,
                        0.6342418193817139,
                        0.3128167986869812,
                        0.12782105803489685,
                        0.34987467527389526,
                        0.22204704582691193,
                        0.6262139678001404,
                        -0.33830708265304565,
                        0.7384944558143616,
                        -0.3537898659706116,
                        -0.6416762471199036,
                        0.08401420712471008,
                        0.7145962119102478
                    ],
                    [
                        -0.2054266631603241,
                        0.4543949067592621,
                        0.4535103738307953,
                        -0.6768300533294678,
                        -0.3856005072593689,
                        0.05892324075102806,
                        0.6777387261390686,
                        -0.7129579186439514,
                        -0.10445477068424225,
                        -0.1954135298728943,
                        0.7755218148231506,
                        0.5861813426017761,
                        -0.7198060750961304,
                        0.5977017879486084,
                        0.7175459265708923,
                        0.3010604679584503,
                        -0.3945596516132355,
                        -0.5742069482803345,
                        0.6585283279418945,
                        0.03387974202632904,
                        -1.1006968021392822,
                        -1.0159807205200195,
                        -0.7484694719314575,
                        -1.43523108959198,
                        -0.454636812210083,
                        0.0811067521572113,
                        -0.35129815340042114,
                        -0.14411813020706177,
                        -0.0027768875006586313,
                        0.45159590244293213,
                        -1.0773826837539673,
                        0.05310749262571335,
                        0.004610218107700348,
                        -0.16869449615478516,
                        -0.9493143558502197,
                        -0.5876181721687317,
                        0.5838766098022461,
                        -0.3468054533004761,
                        0.5254551768302917,
                        0.03863895311951637,
                        -0.5464237332344055,
                        0.017294885590672493,
                        -0.8825438022613525,
                        0.6709634065628052,
                        0.7076684832572937,
                        -0.11787217855453491,
                        0.8664233088493347,
                        0.7637152671813965,
                        -0.3489631712436676,
                        -0.40349504351615906
                    ],
                    [
                        -0.3033885657787323,
                        0.2802889943122864,
                        -0.7113152742385864,
                        -0.5481554865837097,
                        -0.2387518286705017,
                        -0.17489038407802582,
                        -0.6482009291648865,
                        0.5188133120536804,
                        0.39933961629867554,
                        0.22025233507156372,
                        0.18134979903697968,
                        0.36173951625823975,
                        -0.10333604365587234,
                        -0.06088415905833244,
                        -0.2624984383583069,
                        0.37280699610710144,
                        -0.5661301016807556,
                        -0.25207746028900146,
                        0.10406944155693054,
                        0.15935088694095612,
                        0.5698460340499878,
                        0.10715487599372864,
                        0.1318945288658142,
                        -0.30406972765922546,
                        -0.07085534930229187,
                        -0.8127164244651794,
                        0.3901452124118805,
                        0.2730845510959625,
                        0.26289838552474976,
                        -0.37059295177459717,
                        0.3471759557723999,
                        0.5639277100563049,
                        -0.35852912068367004,
                        -0.1779976785182953,
                        -0.4173800051212311,
                        -0.6565151214599609,
                        0.392532080411911,
                        0.21664561331272125,
                        0.14921934902668,
                        -0.10612715780735016,
                        -0.054433856159448624,
                        -0.7023327350616455,
                        0.0281105637550354,
                        -0.46164217591285706,
                        0.027211403474211693,
                        -0.19074440002441406,
                        -0.2807924449443817,
                        0.12399102747440338,
                        -0.18494129180908203,
                        -0.6905887126922607
                    ],
                    [
                        -0.2716415226459503,
                        0.13047346472740173,
                        0.4225254952907562,
                        -0.03619444742798805,
                        -0.0925050601363182,
                        0.2559469938278198,
                        -0.6363199949264526,
                        0.18950779736042023,
                        0.10034283995628357,
                        0.3780663311481476,
                        -0.6952784657478333,
                        0.11307056248188019,
                        0.37809041142463684,
                        -0.40071240067481995,
                        0.07650479674339294,
                        0.5154064297676086,
                        -0.07850296795368195,
                        0.29119277000427246,
                        0.09544166922569275,
                        -0.5943403244018555,
                        -0.324661523103714,
                        0.22258032858371735,
                        -0.0720735639333725,
                        0.30583298206329346,
                        -0.6877020001411438,
                        -0.9109925031661987,
                        -0.6220893859863281,
                        0.2876144051551819,
                        -0.36819908022880554,
                        -0.8237221240997314,
                        -0.13032490015029907,
                        0.24465559422969818,
                        -0.1355302631855011,
                        -0.16644269227981567,
                        -1.0716654062271118,
                        0.33403298258781433,
                        -0.05217945948243141,
                        0.4239790141582489,
                        0.04142342135310173,
                        -0.1918998807668686,
                        -0.8293313384056091,
                        0.42637723684310913,
                        -0.04328559711575508,
                        0.31031256914138794,
                        0.1969061940908432,
                        0.23805367946624756,
                        0.40157127380371094,
                        0.3369427025318146,
                        0.16519230604171753,
                        -0.001984428148716688
                    ],
                    [
                        0.3829037845134735,
                        -0.5061968564987183,
                        0.036765288561582565,
                        -0.318183958530426,
                        -0.4656382203102112,
                        -0.672110378742218,
                        0.152043879032135,
                        0.019986333325505257,
                        -0.10422466695308685,
                        -0.050343360751867294,
                        -0.9256714582443237,
                        -0.31790152192115784,
                        -0.7502092123031616,
                        -0.22328151762485504,
                        -0.07185523211956024,
                        -0.46559858322143555,
                        0.2669994533061981,
                        0.9786266684532166,
                        -0.38200196623802185,
                        0.0459178127348423,
                        -0.04030448943376541,
                        0.1560000777244568,
                        -0.11638902127742767,
                        -0.9866337180137634,
                        -0.24543461203575134,
                        0.3155687153339386,
                        -0.5867845416069031,
                        0.10032624006271362,
                        0.1997433751821518,
                        -0.12168540060520172,
                        -0.04878426715731621,
                        0.18726438283920288,
                        0.7383519411087036,
                        0.08848460018634796,
                        -0.3268952965736389,
                        -0.06338872015476227,
                        -0.49788421392440796,
                        -0.32382652163505554,
                        -0.5459092855453491,
                        -0.2224583923816681,
                        -0.7389699220657349,
                        -0.00032490817829966545,
                        -0.13447058200836182,
                        -0.41442644596099854,
                        -0.9079021215438843,
                        -0.42778700590133667,
                        0.12486578524112701,
                        -0.0982174277305603,
                        -0.031067783012986183,
                        0.3104158639907837
                    ],
                    [
                        0.19311553239822388,
                        0.2822856903076172,
                        0.16242803633213043,
                        0.2344132363796234,
                        0.4874821901321411,
                        -0.42917415499687195,
                        -0.5162690877914429,
                        -0.14771008491516113,
                        -0.14360685646533966,
                        -1.2910194396972656,
                        -1.2953885793685913,
                        -0.010540848597884178,
                        0.024778705090284348,
                        -0.656798243522644,
                        -0.14735813438892365,
                        -0.025780215859413147,
                        0.6414799690246582,
                        0.2470916211605072,
                        0.38451212644577026,
                        -0.2924661338329315,
                        0.41726070642471313,
                        -0.24112258851528168,
                        -0.09984564781188965,
                        0.013306600041687489,
                        -0.8616873621940613,
                        0.4253655672073364,
                        0.5268570780754089,
                        0.21594958007335663,
                        -0.6802622079849243,
                        0.19873516261577606,
                        0.15726114809513092,
                        -0.18161650002002716,
                        0.1682053953409195,
                        -0.08182711899280548,
                        -0.9591913819313049,
                        -0.16033373773097992,
                        -0.9308580160140991,
                        -0.5158385038375854,
                        -0.053772952407598495,
                        0.21338969469070435,
                        -1.6683202981948853,
                        0.5337523221969604,
                        0.46374982595443726,
                        0.13074152171611786,
                        0.2842154800891876,
                        -0.13076277077198029,
                        0.043908167630434036,
                        0.5671563744544983,
                        -0.7913657426834106,
                        -0.38443610072135925
                    ],
                    [
                        0.5364169478416443,
                        0.7055413126945496,
                        0.11875423043966293,
                        -0.24813298881053925,
                        -0.6003862619400024,
                        -0.7530897259712219,
                        -0.5030378103256226,
                        -0.42656853795051575,
                        -0.00032004169770516455,
                        0.21300366520881653,
                        0.3653210699558258,
                        0.2678597867488861,
                        -0.14942046999931335,
                        -0.41890913248062134,
                        -0.11305605620145798,
                        -0.40789732336997986,
                        -0.4379403293132782,
                        0.43203234672546387,
                        0.3388744592666626,
                        -0.2441037893295288,
                        -0.04311105236411095,
                        0.1604234129190445,
                        -0.2992061674594879,
                        0.06474845856428146,
                        0.15523214638233185,
                        0.14985357224941254,
                        -0.3824610114097595,
                        0.16221274435520172,
                        -0.15131187438964844,
                        -0.08486929535865784,
                        -0.40308356285095215,
                        0.20675070583820343,
                        -0.4062994718551636,
                        -0.03608109429478645,
                        0.11169981956481934,
                        -0.22995635867118835,
                        -0.3379528224468231,
                        0.13206131756305695,
                        -0.6927762031555176,
                        -0.18404224514961243,
                        -0.11423348635435104,
                        0.1288444548845291,
                        -0.01377557497471571,
                        -0.5457724928855896,
                        -0.056888777762651443,
                        0.15445353090763092,
                        -0.7060868144035339,
                        -0.3946865499019623,
                        0.3920210599899292,
                        -0.6103296279907227
                    ],
                    [
                        -0.3297915756702423,
                        0.36927860975265503,
                        0.2189619094133377,
                        0.427054762840271,
                        0.6417908668518066,
                        -0.08586706966161728,
                        -0.3039601147174835,
                        0.8224348425865173,
                        -0.14501824975013733,
                        -0.20620287954807281,
                        -0.7935028076171875,
                        -0.00469896150752902,
                        0.0875995010137558,
                        -0.559914231300354,
                        0.3914714753627777,
                        0.1507214903831482,
                        -0.29985296726226807,
                        -0.21540237963199615,
                        0.20628668367862701,
                        0.663822591304779,
                        0.3255400061607361,
                        0.6153349876403809,
                        0.1063389703631401,
                        0.2694004476070404,
                        -0.11528117209672928,
                        -0.28635409474372864,
                        -0.12923486530780792,
                        -0.09805551916360855,
                        -1.0474172830581665,
                        -0.3962739109992981,
                        0.21517224609851837,
                        -0.6463838815689087,
                        -0.05297081172466278,
                        0.053640466183423996,
                        -0.6747641563415527,
                        0.31239035725593567,
                        0.30715158581733704,
                        0.04728386178612709,
                        -0.6493469476699829,
                        -0.11579862982034683,
                        -1.1619219779968262,
                        0.22983531653881073,
                        -0.21643412113189697,
                        -0.6926112174987793,
                        0.04694467782974243,
                        -0.05844312161207199,
                        -0.3238182067871094,
                        0.0976017639040947,
                        -0.1358632594347,
                        -0.1229914054274559
                    ],
                    [
                        -0.8830271363258362,
                        0.031311191618442535,
                        -0.2976665198802948,
                        -0.19891205430030823,
                        0.19710487127304077,
                        -0.4616352319717407,
                        0.304462194442749,
                        -0.5045469403266907,
                        -0.03645739704370499,
                        -1.1437323093414307,
                        -0.41956502199172974,
                        0.4703556001186371,
                        -0.2533937096595764,
                        0.34750375151634216,
                        0.3095858693122864,
                        0.27913570404052734,
                        -0.2982085347175598,
                        -0.27419766783714294,
                        0.21952931582927704,
                        -0.07789093255996704,
                        0.04664933308959007,
                        -0.7850956320762634,
                        0.10780051350593567,
                        -0.24323315918445587,
                        0.20781521499156952,
                        0.037496715784072876,
                        -0.00014403385284822434,
                        0.43513259291648865,
                        0.042888570576906204,
                        0.45382970571517944,
                        0.0814816802740097,
                        0.3879162669181824,
                        -1.187233328819275,
                        0.09730762243270874,
                        -0.21120087802410126,
                        0.0766868069767952,
                        0.148213192820549,
                        -1.1018790006637573,
                        0.5013598203659058,
                        -0.12199913710355759,
                        -0.46208927035331726,
                        0.19718150794506073,
                        -0.5324761271476746,
                        -0.08838476240634918,
                        0.13146059215068817,
                        0.07144919782876968,
                        -0.1223267987370491,
                        0.0629492700099945,
                        0.18329721689224243,
                        -0.53797847032547
                    ],
                    [
                        -0.39323991537094116,
                        -0.16675497591495514,
                        0.15272869169712067,
                        -0.8184015154838562,
                        0.146382674574852,
                        -0.7152422070503235,
                        0.18350425362586975,
                        -0.452149361371994,
                        0.3027017116546631,
                        -0.6442829370498657,
                        -0.5918995141983032,
                        -0.4349671006202698,
                        -0.18785429000854492,
                        0.13899071514606476,
                        0.16585619747638702,
                        0.6516317129135132,
                        0.2815890908241272,
                        -0.3126853406429291,
                        -0.04494549706578255,
                        0.32153114676475525,
                        0.21749252080917358,
                        -0.16698473691940308,
                        0.16572754085063934,
                        0.7362143993377686,
                        -0.8582332134246826,
                        -0.16509151458740234,
                        0.420305073261261,
                        -0.08270704001188278,
                        0.35854166746139526,
                        -0.12392650544643402,
                        0.31058210134506226,
                        0.4413648843765259,
                        -0.2396681010723114,
                        -0.21851812303066254,
                        -0.6890067458152771,
                        -0.7516080737113953,
                        -0.5170493125915527,
                        0.05164692550897598,
                        -0.372758150100708,
                        0.24481552839279175,
                        -0.46773430705070496,
                        0.35712435841560364,
                        0.43963977694511414,
                        -1.276064157485962,
                        0.07959014177322388,
                        0.04470324143767357,
                        0.35652369260787964,
                        0.04002516716718674,
                        -0.8201581239700317,
                        -0.8328072428703308
                    ],
                    [
                        -0.12282173335552216,
                        0.6167962551116943,
                        -0.31119203567504883,
                        -0.14770066738128662,
                        -0.003744774032384157,
                        0.41405314207077026,
                        0.4692058563232422,
                        -0.470939576625824,
                        0.0577709898352623,
                        0.03553922101855278,
                        0.356101930141449,
                        0.46820536255836487,
                        0.5808772444725037,
                        0.7693302035331726,
                        0.06564080715179443,
                        -0.09454359859228134,
                        0.23384444415569305,
                        0.12995727360248566,
                        0.26432737708091736,
                        0.24978980422019958,
                        -0.4545184373855591,
                        -0.12803204357624054,
                        -0.3075099289417267,
                        0.6246314644813538,
                        0.558618426322937,
                        0.692153811454773,
                        0.7141152620315552,
                        -0.4104938805103302,
                        -0.12185939401388168,
                        0.10453183948993683,
                        -1.315049171447754,
                        0.1516360193490982,
                        -0.514340877532959,
                        -0.16675932705402374,
                        0.31058186292648315,
                        0.5894358158111572,
                        0.11260555684566498,
                        -0.1933126598596573,
                        0.3233678936958313,
                        0.9407773017883301,
                        0.045696936547756195,
                        -0.2494351863861084,
                        0.07508392632007599,
                        0.26031896471977234,
                        0.09329160302877426,
                        0.6026055216789246,
                        0.12324006110429764,
                        0.09628567099571228,
                        -0.27516603469848633,
                        0.38045474886894226
                    ],
                    [
                        -0.8174493312835693,
                        0.15563099086284637,
                        1.226266860961914,
                        -0.8200552463531494,
                        -0.9807528853416443,
                        0.2101711630821228,
                        0.2534216344356537,
                        -0.5528530478477478,
                        -0.3567761480808258,
                        0.05359918996691704,
                        -0.13624003529548645,
                        0.38190382719039917,
                        -0.14232918620109558,
                        -0.003044990822672844,
                        0.8913976550102234,
                        0.32708680629730225,
                        -0.4598105847835541,
                        0.09705023467540741,
                        1.3619283437728882,
                        0.5562301278114319,
                        0.6528428792953491,
                        0.4274350106716156,
                        -0.42295923829078674,
                        1.0045411586761475,
                        1.567495584487915,
                        -0.29015475511550903,
                        0.7309800982475281,
                        -1.0945591926574707,
                        0.6065208315849304,
                        -0.7096680402755737,
                        -1.0546060800552368,
                        -0.8818179965019226,
                        -0.4842377305030823,
                        0.13686123490333557,
                        0.1785813719034195,
                        -0.5757618546485901,
                        -0.7958240509033203,
                        -0.17705722153186798,
                        0.16506217420101166,
                        0.8788519501686096,
                        -0.234918475151062,
                        1.0392502546310425,
                        -0.9598727226257324,
                        0.46397411823272705,
                        0.7200007438659668,
                        0.4085899889469147,
                        1.1729648113250732,
                        -0.0003848861961159855,
                        -0.000810058496426791,
                        -1.0969245433807373
                    ],
                    [
                        1.4198485612869263,
                        0.09323760867118835,
                        0.9815664291381836,
                        0.7005329728126526,
                        0.47496312856674194,
                        0.6561134457588196,
                        0.6174435019493103,
                        0.09040959179401398,
                        -1.2750191688537598,
                        0.5748571157455444,
                        -0.7570057511329651,
                        -0.4746389389038086,
                        -0.2309047430753708,
                        0.43440842628479004,
                        0.5054166913032532,
                        -1.082649827003479,
                        0.3646497130393982,
                        -0.42413008213043213,
                        -0.3034512996673584,
                        0.5340927839279175,
                        -0.09117583185434341,
                        0.3271624743938446,
                        -0.03960380330681801,
                        0.6002569794654846,
                        0.3273971974849701,
                        -0.014245875179767609,
                        0.12321991473436356,
                        -1.262833595275879,
                        0.7172494530677795,
                        -0.4004027843475342,
                        -0.8487437963485718,
                        -1.4535106420516968,
                        0.42537543177604675,
                        0.510129451751709,
                        0.6891842484474182,
                        0.1358974575996399,
                        -0.15036603808403015,
                        0.6473731398582458,
                        -0.18868988752365112,
                        -0.17396581172943115,
                        0.40836185216903687,
                        0.11930031329393387,
                        -0.2726341784000397,
                        0.12247107177972794,
                        -0.6059303283691406,
                        0.40372565388679504,
                        0.5264554619789124,
                        -0.6624971628189087,
                        0.5720313787460327,
                        0.7437366843223572
                    ],
                    [
                        -0.08165939152240753,
                        -0.7284898161888123,
                        0.1512230783700943,
                        0.07019013911485672,
                        -0.8236659169197083,
                        0.07024498283863068,
                        -0.20834606885910034,
                        -0.015538163483142853,
                        0.15643346309661865,
                        0.7774490714073181,
                        0.7426342368125916,
                        -0.11960074305534363,
                        0.20219214260578156,
                        0.04307758808135986,
                        -0.4578198194503784,
                        0.11095696687698364,
                        -1.0315454006195068,
                        -1.961531639099121,
                        0.13138888776302338,
                        -0.7665537595748901,
                        -0.834842324256897,
                        0.02525446005165577,
                        -0.13531091809272766,
                        0.13856180012226105,
                        -0.18787305057048798,
                        -1.0281875133514404,
                        -0.21488283574581146,
                        0.5027074813842773,
                        0.3885051906108856,
                        -0.22459714114665985,
                        -0.19627559185028076,
                        0.5963575839996338,
                        -0.7045031785964966,
                        -0.519799530506134,
                        -0.5082520842552185,
                        0.761033833026886,
                        0.22352607548236847,
                        0.3314264416694641,
                        0.19673781096935272,
                        -0.7514901161193848,
                        -0.6468666195869446,
                        0.13619868457317352,
                        -0.3011614680290222,
                        0.38277751207351685,
                        -0.38753101229667664,
                        -0.9010663032531738,
                        -0.12392406165599823,
                        0.540195882320404,
                        0.11664454638957977,
                        -0.008773444220423698
                    ],
                    [
                        -1.9006471633911133,
                        0.7854611277580261,
                        0.4232639670372009,
                        -1.0491982698440552,
                        0.9417106509208679,
                        -0.698262631893158,
                        -0.7027798295021057,
                        0.408326119184494,
                        1.1609596014022827,
                        0.6120778918266296,
                        -1.1060893535614014,
                        0.46873506903648376,
                        0.49310076236724854,
                        -1.4773919582366943,
                        0.33127740025520325,
                        1.0953739881515503,
                        0.26766228675842285,
                        -0.6266985535621643,
                        0.29407817125320435,
                        0.36452001333236694,
                        -0.6096571087837219,
                        0.27079468965530396,
                        1.0376195907592773,
                        0.24695540964603424,
                        -0.27727237343788147,
                        -0.25193265080451965,
                        -0.16280977427959442,
                        -0.046106234192848206,
                        -0.5484321713447571,
                        -0.41759830713272095,
                        -0.7404641509056091,
                        0.48086056113243103,
                        0.23325879871845245,
                        -0.14965134859085083,
                        -0.18163515627384186,
                        -1.0562645196914673,
                        0.7190993428230286,
                        -0.0284697525203228,
                        0.8493676781654358,
                        -0.21652066707611084,
                        0.3033141791820526,
                        0.24704432487487793,
                        0.07266736775636673,
                        1.1054089069366455,
                        -0.09770987927913666,
                        0.8034201264381409,
                        -0.3486129343509674,
                        0.5534334778785706,
                        0.04841899499297142,
                        -1.1863739490509033
                    ],
                    [
                        -1.0602099895477295,
                        -0.39851146936416626,
                        -0.4325912892818451,
                        -0.9898243546485901,
                        0.7718802690505981,
                        1.8381739854812622,
                        0.5359975099563599,
                        0.03468913212418556,
                        -2.303929090499878,
                        1.574750304222107,
                        0.2991083860397339,
                        0.5877181887626648,
                        -0.11024367809295654,
                        0.6474817395210266,
                        0.07425850629806519,
                        -1.660994529724121,
                        1.191972017288208,
                        -1.6348319053649902,
                        -0.2075541913509369,
                        0.8331488966941833,
                        1.419965386390686,
                        0.39254674315452576,
                        0.7003220319747925,
                        0.15395013988018036,
                        0.4351952075958252,
                        -0.5704208016395569,
                        0.18109914660453796,
                        -2.40265154838562,
                        0.27716606855392456,
                        -0.6162331104278564,
                        0.5087659358978271,
                        -2.1700100898742676,
                        0.3815569281578064,
                        0.4854887127876282,
                        -0.39873266220092773,
                        -0.1063762679696083,
                        1.376895546913147,
                        1.0149179697036743,
                        -0.23643319308757782,
                        0.07147148996591568,
                        0.10313660651445389,
                        -0.4351167678833008,
                        -0.4912331700325012,
                        0.0900593027472496,
                        0.323438823223114,
                        1.0119671821594238,
                        -0.7554382085800171,
                        -0.6428295969963074,
                        -0.8030109405517578,
                        0.1688385307788849
                    ],
                    [
                        -0.1404629349708557,
                        -0.8917678594589233,
                        -0.15753987431526184,
                        0.38214659690856934,
                        -3.1411335468292236,
                        -0.781706690788269,
                        -0.1914551705121994,
                        -0.11483470350503922,
                        0.20710650086402893,
                        -0.20494423806667328,
                        0.4736466109752655,
                        -1.1835169792175293,
                        -0.03202046826481819,
                        0.33202993869781494,
                        -0.35517802834510803,
                        -0.36559560894966125,
                        -1.5654751062393188,
                        0.391980916261673,
                        -0.592181921005249,
                        -0.03212950751185417,
                        0.1606043130159378,
                        -0.5148845911026001,
                        -0.43364450335502625,
                        0.05930860713124275,
                        -0.048517752438783646,
                        -0.2897471785545349,
                        0.243209570646286,
                        1.0915836095809937,
                        0.004007515963166952,
                        -0.14954479038715363,
                        0.7621036171913147,
                        0.24348433315753937,
                        -2.389708995819092,
                        0.5019446015357971,
                        -0.3850969672203064,
                        0.08299940079450607,
                        -0.01662447676062584,
                        -0.009772082790732384,
                        -0.3852231502532959,
                        -0.2355664223432541,
                        -0.31544381380081177,
                        -0.3826783299446106,
                        0.39368703961372375,
                        0.14326845109462738,
                        0.44700831174850464,
                        -0.39894312620162964,
                        -0.42337965965270996,
                        -0.030840985476970673,
                        0.4238622486591339,
                        0.741687536239624
                    ],
                    [
                        1.8196712732315063,
                        -0.7214592099189758,
                        -0.6585289835929871,
                        2.2873475551605225,
                        0.801342248916626,
                        -0.19541242718696594,
                        -0.3911789357662201,
                        -0.11235171556472778,
                        0.1147947907447815,
                        0.1067652702331543,
                        -0.11243235319852829,
                        0.15507028996944427,
                        0.028808651491999626,
                        1.9588145017623901,
                        0.3617335259914398,
                        0.010907781310379505,
                        -1.3687026500701904,
                        -0.03344881907105446,
                        -1.2961262464523315,
                        0.5348912477493286,
                        0.11928330361843109,
                        -0.1994549185037613,
                        0.3482851982116699,
                        -0.054577335715293884,
                        -0.4856182932853699,
                        0.04507162421941757,
                        -0.6985754370689392,
                        0.7929996848106384,
                        0.6017178893089294,
                        -0.0592212975025177,
                        0.9396677017211914,
                        -0.5597638487815857,
                        1.0068167448043823,
                        0.7030636072158813,
                        0.018917199224233627,
                        1.9625606536865234,
                        0.4309290647506714,
                        0.1385856568813324,
                        1.7951923608779907,
                        0.8819141387939453,
                        -0.47821637988090515,
                        -1.2369903326034546,
                        -0.39783287048339844,
                        3.041600465774536,
                        0.9893753528594971,
                        0.16796459257602692,
                        -1.4218045473098755,
                        0.4199223220348358,
                        -0.3828302025794983,
                        3.042511224746704
                    ],
                    [
                        1.077731966972351,
                        0.5550042390823364,
                        0.1801508218050003,
                        0.4680667221546173,
                        0.18506649136543274,
                        -0.5753785967826843,
                        0.17641544342041016,
                        0.07944390922784805,
                        -0.013399071991443634,
                        -0.618614137172699,
                        0.011094249784946442,
                        -0.08787080645561218,
                        0.28131288290023804,
                        -0.46436312794685364,
                        -0.17826823890209198,
                        -0.4342263340950012,
                        0.210038959980011,
                        -0.3050471842288971,
                        -0.33428412675857544,
                        0.012066183611750603,
                        -0.15727870166301727,
                        -0.4528399407863617,
                        0.14350639283657074,
                        -0.7381690144538879,
                        -0.13243412971496582,
                        -0.7915018200874329,
                        -0.2658820152282715,
                        0.17614097893238068,
                        0.7388553023338318,
                        -0.30322641134262085,
                        0.9608510732650757,
                        -0.23560000956058502,
                        0.6242024302482605,
                        -0.015432027168571949,
                        0.4084342420101166,
                        0.1957133412361145,
                        0.5853003859519958,
                        -1.1598145961761475,
                        -0.0716429278254509,
                        -0.4151870906352997,
                        0.2601798176765442,
                        -0.4324647784233093,
                        0.7875931859016418,
                        0.6734912395477295,
                        -0.06510277837514877,
                        -0.8556654453277588,
                        0.04108354449272156,
                        -0.591385543346405,
                        0.6661375164985657,
                        0.033742859959602356
                    ],
                    [
                        -0.7539201378822327,
                        -0.2858174741268158,
                        -0.21190744638442993,
                        0.1216946691274643,
                        0.09867916256189346,
                        0.7506579160690308,
                        0.10856667160987854,
                        0.7182708382606506,
                        0.3753124475479126,
                        0.6238592267036438,
                        0.43683362007141113,
                        0.35129594802856445,
                        -0.27308398485183716,
                        -0.20058198273181915,
                        -0.23422926664352417,
                        0.07304176688194275,
                        0.8367227911949158,
                        -0.6411838531494141,
                        0.18948395550251007,
                        0.11589894443750381,
                        -0.8339942097663879,
                        -0.1323796659708023,
                        0.3375447690486908,
                        -0.5032864212989807,
                        0.3694804012775421,
                        0.12409321963787079,
                        -0.037275280803442,
                        -0.20018963515758514,
                        -0.19955340027809143,
                        0.6737988591194153,
                        -0.02120220847427845,
                        -0.38769087195396423,
                        -0.8235679864883423,
                        0.058861151337623596,
                        0.3474718928337097,
                        -0.18878665566444397,
                        -0.027195239439606667,
