{
    "biases": [
        [
            -0.2756052613258362,
            -0.7299376726150513,
            0.19639237225055695,
            -0.4769892692565918,
            -0.6146143674850464,
            -0.8282129168510437,
            -1.1959744691848755,
            -1.2918453216552734,
            -0.9029062390327454,
            0.39381489157676697,
            -0.3930915892124176,
            -0.2813238501548767,
            -0.8389706611633301,
            0.6051858067512512,
            1.5535778999328613,
            0.13071885704994202,
            -0.03300824016332626,
            -0.05710580199956894,
            -0.3400324583053589,
            -0.604933500289917,
            -1.0558665990829468,
            0.3135843873023987,
            -0.9544378519058228,
            0.24339285492897034,
            0.07679586857557297,
            0.6755338311195374,
            -0.40847548842430115,
            -0.5608307123184204,
            -1.0306777954101562,
            -1.7293915748596191,
            -1.031920075416565,
            1.1431950330734253
        ],
        [
            0.1007990911602974,
            0.41802412271499634,
            0.639377772808075,
            -0.05620276555418968,
            -1.522526502609253,
            -0.4640386998653412,
            0.49475789070129395,
            -0.22924265265464783,
            0.8123512864112854,
            0.46010664105415344,
            -0.5363244414329529,
            1.7232376337051392,
            0.36040589213371277,
            -0.1180427223443985,
            0.7458434700965881,
            -0.4317767024040222
        ],
        [
            -0.3718106746673584,
            -0.5979756712913513,
            0.10516802221536636,
            -0.47269588708877563,
            -0.2976287007331848,
            -0.14724117517471313,
            0.9676128029823303,
            0.20700383186340332
        ],
        [
            0.6817670464515686,
            0.10392610728740692,
            -0.4381815493106842,
            0.6475574374198914
        ],
        [
            -2.619243860244751,
            4.56928014755249
        ]
    ],
    "weights": [
        [
            [
                0.562354564666748,
                -0.03402763605117798,
                -0.05655089020729065,
                -0.5310457944869995,
                -0.05816827714443207,
                0.1898273080587387,
                -0.08310937881469727,
                0.01644209958612919,
                1.150820016860962,
                -0.5018002390861511,
                -0.42584800720214844,
                0.18924061954021454,
                0.08887879550457001,
                -1.3062714338302612,
                -0.5156264901161194,
                0.47814884781837463,
                -0.18247993290424347,
                0.06152490898966789,
                1.1271357536315918,
                -0.42191195487976074,
                -0.9850496649742126,
                0.06216596066951752,
                -1.3435336351394653,
                0.41372719407081604,
                -0.7029356956481934,
                -0.3074497878551483,
                -0.6697381734848022
            ],
            [
                -0.9525648355484009,
                0.40384021401405334,
                -0.4865439832210541,
                -0.5761353373527527,
                0.015131775289773941,
                -0.07729711383581161,
                0.08399809151887894,
                -0.6963534355163574,
                0.6962573528289795,
                0.41851672530174255,
                0.13387742638587952,
                0.04116257280111313,
                -0.42234018445014954,
                -0.5699710845947266,
                0.00987689197063446,
                0.11232950538396835,
                -0.042891763150691986,
                0.9035069346427917,
                -0.9949783682823181,
                -0.3733009696006775,
                -0.01852690987288952,
                -0.010904706083238125,
                -1.1216826438903809,
                -0.03810364007949829,
                -0.2939490079879761,
                -1.1288528442382812,
                -0.1104821190237999
            ],
            [
                -0.10210786014795303,
                0.35091882944107056,
                -0.4296918213367462,
                0.01610911265015602,
                -0.7430813908576965,
                -0.9361350536346436,
                -1.80912184715271,
                0.413880854845047,
                0.17242150008678436,
                0.3760930895805359,
                0.30887559056282043,
                -1.1154789924621582,
                -0.0847124308347702,
                -0.1998847872018814,
                0.039268992841243744,
                0.17624834179878235,
                0.5559875965118408,
                0.34947043657302856,
                0.15090139210224152,
                0.05496124550700188,
                -0.036440592259168625,
                0.17876890301704407,
                -0.2324332296848297,
                -0.4900149703025818,
                -0.21103110909461975,
                0.2852400541305542,
                -0.18623262643814087
            ],
            [
                -0.3972257971763611,
                -0.15961918234825134,
                1.3402323722839355,
                -0.27781057357788086,
                0.8263419270515442,
                0.13509012758731842,
                0.8607180714607239,
                -1.5410012006759644,
                -0.7935933470726013,
                -0.7703879475593567,
                0.4075981080532074,
                -0.5605708956718445,
                -1.6992683410644531,
                -0.32598817348480225,
                -0.14675018191337585,
                -0.03064948320388794,
                0.05119849741458893,
                0.8231379985809326,
                -0.022151976823806763,
                -0.11132017523050308,
                -0.17028048634529114,
                -0.16584691405296326,
                0.06955266743898392,
                -0.1846456676721573,
                -0.27377331256866455,
                -0.7609947323799133,
                -0.1821819394826889
            ],
            [
                -1.2530834674835205,
                0.5465686321258545,
                -0.38397035002708435,
                -1.3594835996627808,
                0.049031469970941544,
                -0.14832378923892975,
                0.24878308176994324,
                0.8030032515525818,
                -1.1992160081863403,
                -0.400184690952301,
                0.3771902322769165,
                0.028990235179662704,
                -0.26766812801361084,
                -0.5880226492881775,
                0.09937736392021179,
                0.050520434975624084,
                0.030971147119998932,
                -0.5824353098869324,
                0.5000545382499695,
                0.21749761700630188,
                0.19641344249248505,
                -0.025352105498313904,
                -0.44350287318229675,
                0.20588791370391846,
                0.005553051829338074,
                -0.6860610246658325,
                -0.21990779042243958
            ],
            [
                0.008372659794986248,
                0.026341749355196953,
                -1.0862400531768799,
                -0.02178606018424034,
                -1.0514750480651855,
                0.006582232657819986,
                -1.069183588027954,
                -1.1635363101959229,
                -0.05448143184185028,
                -1.2132365703582764,
                -0.019422220066189766,
                1.1312205791473389,
                0.7099076509475708,
                -0.0019105024402961135,
                1.2187435626983643,
                -0.02276490442454815,
                -1.158426284790039,
                -0.67283034324646,
                0.02117924951016903,
                -1.3141118288040161,
                0.009142211638391018,
                -1.3597842454910278,
                1.4107052087783813,
                1.3976691961288452,
                -0.07900015264749527,
                -1.2124319076538086,
                -0.17289651930332184
            ],
            [
                -0.6807013154029846,
                -0.40250164270401,
                -0.05904126912355423,
                0.7917602062225342,
                0.2650066018104553,
                1.2556172609329224,
                -1.7599753141403198,
                0.06463463604450226,
                -0.7862908840179443,
                -0.0020453098695725203,
                -0.8585389852523804,
                0.25997263193130493,
                -0.03781793266534805,
                0.9831005930900574,
                0.176150843501091,
                0.609397828578949,
                -0.9120975732803345,
                0.2488604635000229,
                -1.0684350728988647,
                0.32748299837112427,
                -1.40428626537323,
                0.0641808807849884,
                0.9854418039321899,
                -0.09353788942098618,
                0.29641830921173096,
                -1.3608890771865845,
                0.10573048889636993
            ],
            [
                -0.7300593852996826,
                -1.2253918647766113,
                0.09795018285512924,
                -1.0291168689727783,
                0.6675782799720764,
                -0.04870712384581566,
                -0.7267993688583374,
                -0.20499426126480103,
                0.15447795391082764,
                -0.09632901102304459,
                0.5674265027046204,
                -1.1239778995513916,
                0.1698804646730423,
                -0.33409661054611206,
                0.6691759824752808,
                -0.4525381922721863,
                -1.059748649597168,
                0.049401331692934036,
                0.15261416137218475,
                -0.0621989481151104,
                -0.05919245630502701,
                0.21493974328041077,
                -0.17066596448421478,
                -0.3078728914260864,
                -0.4236965775489807,
                -1.1626982688903809,
                -0.08212194591760635
            ],
            [
                0.009118634276092052,
                -1.4674912691116333,
                -0.6884319186210632,
                0.040660347789525986,
                0.6458598971366882,
                -0.10262182354927063,
                0.558077335357666,
                0.7924582362174988,
                -0.11906585097312927,
                0.8941174745559692,
                0.02276224084198475,
                1.0243940353393555,
                -0.6231193542480469,
                0.0031529858242720366,
                -1.021263599395752,
                -0.34615060687065125,
                -0.5599094033241272,
                0.28587958216667175,
                -0.02627011202275753,
                0.6406599879264832,
                0.12633517384529114,
                1.1202329397201538,
                -0.4396228492259979,
                -1.2331773042678833,
                -0.12994158267974854,
                -0.7210630774497986,
                -0.26037725806236267
            ],
            [
                1.207118034362793,
                -0.8831302523612976,
                0.17705409228801727,
                -0.8288879990577698,
                0.03717075288295746,
                0.2937644124031067,
                -0.02751591056585312,
                1.425230860710144,
                -0.6087353825569153,
                -0.1036100909113884,
                -0.12229016423225403,
                -0.028341257944703102,
                0.5330159664154053,
                0.008696495555341244,
                0.019483866170048714,
                -0.038622595369815826,
                0.000485438562463969,
                1.9205923080444336,
                -0.36390402913093567,
                0.004647680092602968,
                0.15093182027339935,
                0.020262746140360832,
                0.05375462770462036,
                -0.170473113656044,
                0.08878643810749054,
                0.31675899028778076,
                0.20725058019161224
            ],
            [
                0.1736770123243332,
                -0.15979541838169098,
                -0.05083407461643219,
                -0.12389170378446579,
                0.06534983217716217,
                -0.08537241071462631,
                -0.012536648660898209,
                -1.4719971418380737,
                -0.3002389073371887,
                -1.4527837038040161,
                0.002680424368008971,
                0.24569587409496307,
                0.7607612609863281,
                0.08220173418521881,
                1.4730058908462524,
                0.21278494596481323,
                -0.40401825308799744,
                -0.557445228099823,
                -0.0406627357006073,
                -1.3343231678009033,
                -0.049195848405361176,
                -1.5101842880249023,
                1.3989346027374268,
                1.4589937925338745,
                0.07935253530740738,
                -0.5063473582267761,
                -0.18316131830215454
            ],
            [
                -2.5388805866241455,
                0.2377987951040268,
                -1.0896413326263428,
                -0.2905663549900055,
                0.15161120891571045,
                0.04114338383078575,
                -0.0455765575170517,
                1.0589110851287842,
                1.0025641918182373,
                0.10861902683973312,
                0.04808996617794037,
                0.045269958674907684,
                -1.029805064201355,
                -0.03603297844529152,
                0.0831606462597847,
                0.026648838073015213,
                -0.024868961423635483,
                1.0786219835281372,
                0.7798802256584167,
                0.037197295576334,
                -0.041859280318021774,
                0.056263502687215805,
                -0.285089910030365,
                0.05257869511842728,
                -0.06261494010686874,
                -0.3409441113471985,
                -0.11678105592727661
            ],
            [
                -1.351375937461853,
                0.4130820035934448,
                -0.26139259338378906,
                -0.3604006767272949,
                0.24430860579013824,
                0.007456280756741762,
                0.08347724378108978,
                -0.9321466088294983,
                0.701603889465332,
                0.37858185172080994,
                0.03516583889722824,
                0.13212016224861145,
                -0.4345968961715698,
                0.8655133843421936,
                0.07965903729200363,
                0.05607067421078682,
                0.16609740257263184,
                -0.8711532950401306,
                0.5666793584823608,
                0.10122938454151154,
                -0.4795709550380707,
                0.24942152202129364,
                0.7298097610473633,
                0.5635347366333008,
                0.2186441570520401,
                -0.7352702021598816,
                0.17256540060043335
            ],
            [
                -0.1778210550546646,
                -0.5307969450950623,
                0.07958859205245972,
                0.08610554784536362,
                -0.5427104234695435,
                -0.2961665689945221,
                -0.17804789543151855,
                -0.2528502345085144,
                0.7876878976821899,
                -0.012246429920196533,
                0.865160346031189,
                1.3682631254196167,
                -0.3414975106716156,
                -0.6130852699279785,
                -0.21664732694625854,
                -0.5576310753822327,
                -0.505644679069519,
                -0.27635449171066284,
                0.5604531168937683,
                0.02824976295232773,
                0.16946209967136383,
                -0.640237033367157,
                -0.156757190823555,
                -0.5847723484039307,
                0.31098031997680664,
                0.7215057015419006,
                0.35661447048187256
            ],
            [
                1.5089327096939087,
                0.5233767628669739,
                0.09935398399829865,
                0.35365375876426697,
                0.5709878206253052,
                -0.3706184923648834,
                1.4272595643997192,
                0.040053654462099075,
                0.2060183435678482,
                0.009691434912383556,
                0.7719807028770447,
                -1.1654393672943115,
                0.03076447919011116,
                0.14546829462051392,
                0.11227823793888092,
                0.3095298409461975,
                0.038254328072071075,
                0.08351821452379227,
                -0.02452537603676319,
                -0.2823313772678375,
                -0.23131276667118073,
                0.01513658743351698,
                0.029482463374733925,
                0.05923691391944885,
                0.4050087630748749,
                1.6331225633621216,
                0.059312108904123306
            ],
            [
                -0.6990689635276794,
                -0.7587147951126099,
                0.3804542124271393,
                -0.019351741299033165,
                0.39660733938217163,
                -0.0026829324197024107,
                1.106643557548523,
                -0.7470786571502686,
                0.30736541748046875,
                -0.792262613773346,
                0.16588671505451202,
                1.4238457679748535,
                0.1693284660577774,
                -0.3739807903766632,
                0.9474015831947327,
                0.19271741807460785,
                1.2491759061813354,
                -0.19607220590114594,
                0.15181389451026917,
                -0.4939969778060913,
                -0.11076780408620834,
                -1.0690855979919434,
                0.5010321736335754,
                1.2670674324035645,
                0.1689504086971283,
                0.15927548706531525,
                0.025193210691213608
            ],
            [
                -0.08231235295534134,
                -0.05710370093584061,
                1.3257936239242554,
                0.04352819174528122,
                1.3096702098846436,
                0.04024805501103401,
                1.2744536399841309,
                -1.4062881469726562,
                -0.013550495728850365,
                -1.3598268032073975,
                -0.005656947381794453,
                -1.4144858121871948,
                -1.1754448413848877,
                -0.19078141450881958,
                -1.113172173500061,
                -0.1870553344488144,
                1.0148870944976807,
                0.44490155577659607,
                -0.29142069816589355,
                -0.6340577602386475,
                -0.31651070713996887,
                -0.6158758997917175,
                0.6755293011665344,
                0.37754154205322266,
                0.0026664691977202892,
                -0.2123843878507614,
                -0.09001068025827408
            ],
            [
                0.05761779472231865,
                -0.2829214036464691,
                1.0377460718154907,
                -0.1900634467601776,
                1.4239803552627563,
                0.18426533043384552,
                1.6036468744277954,
                -0.19210554659366608,
                -0.05817830190062523,
                -0.17449194192886353,
                -0.6341726779937744,
                -1.7706201076507568,
                0.019953161478042603,
                0.16470909118652344,
                -0.7609673738479614,
                -0.5660911202430725,
                0.19632214307785034,
                0.014660947024822235,
                -0.08373723924160004,
                0.1767192929983139,
                0.12323522567749023,
                0.3117927014827728,
                -0.08296515792608261,
                -0.3166482448577881,
                -0.3649638891220093,
                -0.2375679314136505,
                0.002616005251184106
            ],
            [
                -0.6369797587394714,
                -0.6340929865837097,
                0.05396220460534096,
                0.7059287428855896,
                0.19910970330238342,
                0.3891104757785797,
                0.1744796633720398,
                0.2696988582611084,
                -0.6909173727035522,
                -0.5604031085968018,
                -0.40299877524375916,
                -0.2809251844882965,
                -0.05770837515592575,
                0.398113876581192,
                0.37183448672294617,
                -0.44544780254364014,
                0.7717212438583374,
                0.16236929595470428,
                -1.4768351316452026,
                -1.2302687168121338,
                0.1354692131280899,
                -0.1834174394607544,
                -0.9837993383407593,
                -0.21305888891220093,
                -0.45130157470703125,
                -0.24284236133098602,
                -0.39530056715011597
            ],
            [
                0.6244320273399353,
                -0.15407870709896088,
                0.274942547082901,
                -1.1851025819778442,
                -1.3559244871139526,
                0.07980331033468246,
                -0.006601324770599604,
                -0.2797456979751587,
                1.049036979675293,
                -0.1522548496723175,
                -0.7733547687530518,
                -0.32379063963890076,
                -0.01807239092886448,
                -0.8640251755714417,
                -0.24018168449401855,
                -0.18018093705177307,
                0.37189334630966187,
                0.055355750024318695,
                1.0472737550735474,
                0.18413028120994568,
                1.0452767610549927,
                -0.37561050057411194,
                -0.8409107327461243,
                -1.2436221837997437,
                -0.25208723545074463,
                -0.8273791670799255,
                -0.263424813747406
            ],
            [
                -0.4012822210788727,
                -0.46956416964530945,
                0.37262582778930664,
                1.0987852811813354,
                -0.3671171963214874,
                0.4994911253452301,
                -0.17951054871082306,
                -1.3457348346710205,
                -0.5306225419044495,
                -0.043597523123025894,
                -0.19214597344398499,
                0.04398591071367264,
                0.19148623943328857,
                0.2441989779472351,
                -0.16596445441246033,
                0.27966398000717163,
                0.058497581630945206,
                -0.9696416258811951,
                -0.4082189202308655,
                -0.03508351370692253,
                0.40962228178977966,
                -0.08025632798671722,
                0.09848382323980331,
                0.33411136269569397,
                0.23212142288684845,
                -0.9926912188529968,
                0.3760206401348114
            ],
            [
                0.808937668800354,
                1.0545371770858765,
                1.0013870000839233,
                -0.9492730498313904,
                1.2532613277435303,
                -1.2492774724960327,
                -0.46769988536834717,
                -0.3281370997428894,
                0.11221867799758911,
                -0.03310241550207138,
                -0.1475311815738678,
                0.28885751962661743,
                0.06815734505653381,
                0.06023841351270676,
                -0.05948977172374725,
                -0.03889300301671028,
                -0.2112196385860443,
                0.023897685110569,
                0.09165222942829132,
                0.013740033842623234,
                0.05670832097530365,
                0.06846034526824951,
                -0.030638188123703003,
                -0.0022473891731351614,
                0.13914188742637634,
                0.4728773236274719,
                -0.05961678922176361
            ],
            [
                -0.028793754056096077,
                0.11391878873109818,
                0.8476212620735168,
                0.5347351431846619,
                0.6014199256896973,
                -0.38024094700813293,
                0.02029598131775856,
                -1.3948595523834229,
                -0.16451697051525116,
                -1.3187898397445679,
                -0.47378915548324585,
                -0.06522143632173538,
                -1.2592626810073853,
                -0.5489880442619324,
                -1.1011929512023926,
                0.17794501781463623,
                -0.3888493776321411,
                0.0036306888796389103,
                0.2958104908466339,
                0.8852231502532959,
                0.19485394656658173,
                0.6705038547515869,
                -0.8328756093978882,
                -0.3355051279067993,
                -0.5845791101455688,
                -1.0653436183929443,
                -0.591580867767334
            ],
            [
                -1.2737520933151245,
                -1.032729983329773,
                -0.02706884779036045,
                1.2349215745925903,
                -0.07461676001548767,
                1.0119290351867676,
                -1.0792874097824097,
                0.055128127336502075,
                -1.1935701370239258,
                0.03472154960036278,
                -1.0329062938690186,
                0.0700092539191246,
                0.020025024190545082,
                1.1947993040084839,
                -0.14084361493587494,
                1.0054631233215332,
                -1.0337978601455688,
                -0.05569387227296829,
                -1.1618871688842773,
                -0.12284374237060547,
                -0.7474015951156616,
                0.02460554987192154,
                1.0432648658752441,
                0.6057351231575012,
                -0.09518062323331833,
                0.28966811299324036,
                0.20340485870838165
            ],
            [
                0.40858030319213867,
                0.19156654179096222,
                0.15918786823749542,
                0.026483384892344475,
                0.366300106048584,
                0.3872012197971344,
                0.3760584592819214,
                0.2168140858411789,
                -0.14908906817436218,
                -0.09492341428995132,
                -0.30332645773887634,
                -0.27742666006088257,
                0.06445387750864029,
                0.06477665156126022,
                -0.053485091775655746,
                0.7439455389976501,
                0.40063175559043884,
                0.04614784196019173,
                -0.12105271220207214,
                0.392183393239975,
                -0.40596798062324524,
                -2.50753116607666,
                0.29561442136764526,
                -2.1519041061401367,
                -0.4190209209918976,
                0.04457312077283859,
                -0.08851499855518341
            ],
            [
                0.306209921836853,
                0.13339075446128845,
                -0.8827259540557861,
                -0.2005363404750824,
                -0.6144091486930847,
                0.013431422412395477,
                -0.6837455034255981,
                1.3753446340560913,
                -0.2516392469406128,
                1.4257649183273315,
                -0.08286073058843613,
                0.9398252367973328,
                -1.5305960178375244,
                -0.1488419473171234,
                -1.6348743438720703,
                0.12807460129261017,
                -1.2234481573104858,
                0.7101758718490601,
                0.25106513500213623,
                1.096421480178833,
                0.2033524364233017,
                0.9641957879066467,
                -1.1715574264526367,
                -1.2601733207702637,
                -0.08546870201826096,
                0.7131804823875427,
                0.006999289151281118
            ],
            [
                -0.9009802937507629,
                -1.2598323822021484,
                -0.2230468988418579,
                0.8950410485267639,
                -0.2959146201610565,
                0.13396035134792328,
                -0.8370436429977417,
                0.11579430848360062,
                -0.8222349286079407,
                0.06084117293357849,
                -0.7664072513580322,
                0.6743985414505005,
                -0.03934632986783981,
                0.7914266586303711,
                -0.4293944239616394,
                -0.29878661036491394,
                -0.23307034373283386,
                0.2655391991138458,
                -0.6791521906852722,
                -0.004850414115935564,
                -0.46602028608322144,
                0.5312898755073547,
                0.5818262696266174,
                -0.029055587947368622,
                -0.005833277944475412,
                -0.3381427526473999,
                -0.10349726676940918
            ],
            [
                -0.710777759552002,
                -1.4110885858535767,
                0.0064130062237381935,
                0.7382053732872009,
                0.1576610952615738,
                -0.296828031539917,
                0.33295026421546936,
                0.02452588453888893,
                -0.7004796862602234,
                -0.026713792234659195,
                -0.835061252117157,
                -0.0019484186777845025,
                -0.11323520541191101,
                0.7897877097129822,
                0.1600385308265686,
                0.7192966341972351,
                -0.9774584174156189,
                0.09685466438531876,
                -0.7888505458831787,
                0.16873298585414886,
                -1.3304200172424316,
                0.19109418988227844,
                1.0983073711395264,
                -0.8338186144828796,
                0.09122175723314285,
                -0.9111987948417664,
                -0.2875922620296478
            ],
            [
                1.698868751525879,
                1.529849648475647,
                -0.05955597013235092,
                -1.6063995361328125,
                0.0756501778960228,
                -1.6304235458374023,
                1.904310703277588,
                0.25653356313705444,
                1.66884183883667,
                0.055221445858478546,
                1.4467790126800537,
                -0.23374608159065247,
                -0.012600107118487358,
                -1.5119436979293823,
                -0.12192806601524353,
                -0.9053778052330017,
                0.7261974215507507,
                0.34790468215942383,
                1.6928387880325317,
                0.1434958130121231,
                1.2288833856582642,
                -0.19976162910461426,
                -1.4483222961425781,
                -0.7829009890556335,
                -0.2751380205154419,
                -1.055186152458191,
                -0.2772639989852905
            ],
            [
                -1.5135130882263184,
                -1.5832161903381348,
                -0.05680026859045029,
                0.0018979572923853993,
                0.1136893779039383,
                0.0032573735807090998,
                -1.298828363418579,
                0.010064192116260529,
                0.04717802628874779,
                0.02585574798285961,
                0.17970412969589233,
                -0.20964409410953522,
                0.05462198331952095,
                0.07284452766180038,
                0.08391497284173965,
                0.13724049925804138,
                0.15664994716644287,
                0.09591866284608841,
                0.035500116646289825,
                0.045971836894750595,
                -0.0024532333482056856,
                -0.11036943644285202,
                0.09601771086454391,
                0.2526008188724518,
                0.3721974492073059,
                -1.5288752317428589,
                0.3004923164844513
            ],
            [
                -0.03195388242602348,
                0.07967720180749893,
                0.7286458015441895,
                -0.10118740051984787,
                -1.0239667892456055,
                -0.017480364069342613,
                -1.0431327819824219,
                1.0804152488708496,
                0.0702064037322998,
                1.165177583694458,
                -0.0010153530165553093,
                1.1603517532348633,
                -1.1780916452407837,
                0.12082582712173462,
                -1.0944410562515259,
                0.07613460719585419,
                -0.9728797674179077,
                1.0405311584472656,
                0.23917651176452637,
                0.7723331451416016,
                0.21302533149719238,
                0.5589761734008789,
                -0.9173741340637207,
                -0.6235237717628479,
                -0.04766901955008507,
                -1.102384090423584,
                -0.0181861724704504
            ],
            [
                -0.7919535636901855,
                -0.13716958463191986,
                0.06026255339384079,
                0.022963300347328186,
                0.27441349625587463,
                0.028102898970246315,
                -0.44536495208740234,
                -1.4834824800491333,
                -0.3078407645225525,
                -0.7206514477729797,
                -0.37052789330482483,
                -0.40600159764289856,
                0.8287922143936157,
                -0.19480733573436737,
                0.3310331106185913,
                -0.417020708322525,
                -0.13906240463256836,
                -1.0915298461914062,
                -0.3249273896217346,
                -0.18963904678821564,
                -0.07634776830673218,
                0.337768018245697,
                -0.023803282529115677,
                -0.6291295886039734,
                0.22510820627212524,
                0.8415813446044922,
                0.40585190057754517
            ]
        ],
        [
            [
                0.7961214780807495,
                0.048218581825494766,
                0.1564919799566269,
                -0.2355504184961319,
                -0.3731454610824585,
                0.22796832025051117,
                -5.681697368621826,
                0.5142943263053894,
                -0.1613801270723343,
                0.3603510856628418,
                -0.06540661305189133,
                0.04060256853699684,
                0.11497864127159119,
                -0.10300181061029434,
                0.29546573758125305,
                -0.16673041880130768,
                0.09461919218301773,
                -0.27795419096946716,
                -1.7147068977355957,
                0.2598692774772644,
                -0.2718985974788666,
                0.16588614881038666,
                0.152933269739151,
                -3.7620599269866943,
                0.6562517881393433,
                0.5932296514511108,
                -2.8685660362243652,
                -4.824267387390137,
                -3.9662437438964844,
                0.20959648489952087,
                -0.19510062038898468,
                0.15971188247203827
            ],
            [
                -0.1704169511795044,
                0.31941190361976624,
                0.40679991245269775,
                -0.5304237008094788,
                -0.0014934183564037085,
                -7.119378089904785,
                -0.1129169836640358,
                0.02708517201244831,
                0.4147326350212097,
                -0.2616470754146576,
                -0.5807651281356812,
                0.1465279906988144,
                0.1855175793170929,
                0.3879856765270233,
                -0.5345025062561035,
                0.20839251577854156,
                0.9857826232910156,
                0.9941555261611938,
                0.13768577575683594,
                -0.06010689213871956,
                -0.06606901437044144,
                0.5236403346061707,
                -0.6157476305961609,
                0.4330189824104309,
                0.23321519792079926,
                0.44882678985595703,
                -0.39668700098991394,
                -0.24604865908622742,
                -0.08334174007177353,
                -0.3659195899963379,
                -4.6482391357421875,
                -0.09150507301092148
            ],
            [
                -0.005129593424499035,
                -0.15239770710468292,
                -0.0033368153963238,
                0.21054862439632416,
                -0.07144664973020554,
                -10.363656997680664,
                0.0166555754840374,
                0.7688705325126648,
                0.9509152173995972,
                0.1864856630563736,
                1.90194571018219,
                -0.29081085324287415,
                0.13676764070987701,
                0.05367887020111084,
                0.30821290612220764,
                0.17631198465824127,
                -0.09812287241220474,
                -0.5470269918441772,
                0.2931540608406067,
                -0.15634140372276306,
                0.22352007031440735,
                -0.031473685055971146,
                -0.20023544132709503,
                -0.08326341211795807,
                0.09044086933135986,
                0.21996712684631348,
                -0.10242302715778351,
                0.18162155151367188,
                0.02827596291899681,
                -1.2194145917892456,
                1.4991614818572998,
                0.11185462772846222
            ],
            [
                -0.22948741912841797,
                1.3209764957427979,
                0.06127193197607994,
                -0.10180000215768814,
                1.3135647773742676,
                -0.5067974328994751,
                -0.8981320858001709,
                0.7665866613388062,
                0.3725607097148895,
                -0.7739129662513733,
                0.28992244601249695,
                -0.5459009408950806,
                0.550953209400177,
                0.001547407591715455,
                0.2772159278392792,
                0.670654296875,
                0.27188611030578613,
                -0.32723304629325867,
                0.3157845437526703,
                0.09346847236156464,
                0.18267333507537842,
                -0.6208018660545349,
                0.110535629093647,
                0.3363879919052124,
                0.49896591901779175,
                0.06716056913137436,
                -0.11938934028148651,
                -0.35448119044303894,
                -0.4231298565864563,
                0.38239091634750366,
                0.18937964737415314,
                0.9654927253723145
            ],
            [
                1.0137672424316406,
                2.0322492122650146,
                -0.6053289175033569,
                -0.2113112211227417,
                1.4679923057556152,
                0.034748028963804245,
                0.9749380946159363,
                0.516953706741333,
                0.20693446695804596,
                -0.12779664993286133,
                0.1594024896621704,
                -2.332502841949463,
                0.47848016023635864,
                -0.9168520569801331,
                -0.434218168258667,
                -0.10276976972818375,
                0.23782534897327423,
                -0.27798885107040405,
                0.5502253174781799,
                0.7080661654472351,
                1.1063470840454102,
                -0.28721189498901367,
                -0.21435381472110748,
                0.5446898341178894,
                -0.0016687733586877584,
                0.11929819732904434,
                0.1756175458431244,
                1.0230766534805298,
                -0.2339017540216446,
                0.4296398162841797,
                -0.15078769624233246,
                -0.8784412145614624
            ],
            [
                -7.281762599945068,
                -1.9534176588058472,
                0.21353869140148163,
                0.18417061865329742,
                -1.4308539628982544,
                -0.02443592995405197,
                -2.3826088905334473,
                -0.3959311544895172,
                -0.6502302289009094,
                0.6292474865913391,
                -0.4568043649196625,
                -0.11445797234773636,
                -2.083643674850464,
                -0.07650227844715118,
                -2.2758660316467285,
                -0.3685550093650818,
                0.3251190185546875,
                -0.2806661128997803,
                0.42270633578300476,
                -3.912505626678467,
                -0.02888103574514389,
                -1.5032460689544678,
                0.6316309571266174,
                0.030841823667287827,
                0.36838671565055847,
                0.12888196110725403,
                -0.07428805530071259,
                0.6906436681747437,
                -0.32977235317230225,
                0.38780608773231506,
                0.5022854804992676,
                0.5007110238075256
            ],
            [
                0.527364194393158,
                0.21050840616226196,
                0.22110259532928467,
                1.8091366291046143,
                0.061210740357637405,
                0.46629148721694946,
                -0.2567494213581085,
                0.08206408470869064,
                -1.1978710889816284,
                -0.3492266535758972,
                -1.4548587799072266,
                -0.2666807770729065,
                -0.11879262328147888,
                0.8523290157318115,
                0.3353641629219055,
                -0.40681061148643494,
                -9.112555503845215,
                1.0791527032852173,
                0.7931088805198669,
                -0.08075021207332611,
                -0.19605916738510132,
                0.4098748564720154,
                -1.6889981031417847,
                0.32589805126190186,
                0.02009647712111473,
                -0.24540287256240845,
                -0.205133318901062,
                0.09313401579856873,
                -0.37349820137023926,
                -0.2662772536277771,
                -0.9318639636039734,
                0.34037697315216064
            ],
            [
                -0.16745157539844513,
                -0.26901674270629883,
                1.2027074098587036,
                -0.21719534695148468,
                -0.04484771564602852,
                -0.12448165565729141,
                0.47599732875823975,
                0.14906910061836243,
                1.6299409866333008,
                0.5152651071548462,
                0.3175342381000519,
                0.938075602054596,
                0.11539647728204727,
                0.4382294714450836,
                -1.0958251953125,
                0.24818909168243408,
                0.47047922015190125,
                -1.4946452379226685,
                -0.275159627199173,
                0.5809584259986877,
                -0.10500043630599976,
                -1.5738836526870728,
                0.5927001237869263,
                0.5865030288696289,
                -0.7203550338745117,
                -1.0479724407196045,
                -0.30013149976730347,
                0.31511926651000977,
                -1.1063956022262573,
                -0.48126885294914246,
                0.9627950191497803,
                0.23165282607078552
            ],
            [
                0.0971595048904419,
                -0.06423135101795197,
                -0.0325930118560791,
                0.33443158864974976,
                -0.20707325637340546,
                -0.8980224132537842,
                -0.2216811180114746,
                0.7293612360954285,
                0.23676396906375885,
                0.1229473352432251,
                1.6472066640853882,
                0.022303350269794464,
                0.30191802978515625,
                -0.12581506371498108,
                0.5043612122535706,
                1.2892245054244995,
                1.2237205505371094,
                -0.32660719752311707,
                0.4455098509788513,
                -0.1462954431772232,
                -0.21518440544605255,
                0.3879546523094177,
                -0.24717505276203156,
                -0.4180702269077301,
                1.29387629032135,
                -1.239518404006958,
                -0.0827656015753746,
                0.060761500149965286,
                -0.04709366336464882,
                -0.1620774269104004,
                -0.2096996158361435,
                1.1766287088394165
            ],
            [
                -0.3784761428833008,
                0.60877525806427,
                0.8836877346038818,
                0.020050296559929848,
                0.4381430447101593,
                0.04731662943959236,
                -1.6503558158874512,
                0.6393062472343445,
                0.4147471487522125,
                0.5417208075523376,
                -0.4341013431549072,
                -0.015776313841342926,
                -0.033050213009119034,
                0.7279672622680664,
                0.8654504418373108,
                0.29662659764289856,
                -0.07896308600902557,
                -0.12432608753442764,
                0.09659376740455627,
                0.9498475790023804,
                -0.5705739855766296,
                0.42934876680374146,
                -0.02968166582286358,
                -0.7380646467208862,
                0.7464184761047363,
                0.24887028336524963,
                -0.4990695118904114,
                -1.4152532815933228,
                -0.034933432936668396,
                0.04176938906311989,
                3.6463978176470846e-05,
                0.7810590863227844
            ],
            [
                -1.6399120092391968,
                1.2905677556991577,
                0.22847087681293488,
                0.2601134479045868,
                1.3986388444900513,
                0.15414002537727356,
                -1.0690600872039795,
                0.7166472673416138,
                0.24358421564102173,
                -0.6564536094665527,
                -0.13572174310684204,
                -2.0867209434509277,
                0.5433675646781921,
                -0.07801163196563721,
                0.0661739706993103,
                0.0371820330619812,
                0.3135521411895752,
                -0.15359283983707428,
                0.5617554187774658,
                -0.5472370386123657,
                1.1250420808792114,
                0.1450107991695404,
                -0.3711826205253601,
                -2.716948986053467,
                0.2693958878517151,
                0.000364569277735427,
                1.7610204219818115,
                1.0140902996063232,
                -1.7619093656539917,
                0.4830542802810669,
                0.2721039652824402,
                0.14138703048229218
            ],
            [
                0.9728274941444397,
                0.008525684475898743,
                0.6295957565307617,
                -0.20705607533454895,
                0.006498697679489851,
                0.1773451566696167,
                -2.861726999282837,
                0.7693105936050415,
                0.42182156443595886,
                0.4744855761528015,
                -0.382177472114563,
                0.6960689425468445,
                -0.18449048697948456,
                0.9057466387748718,
                1.1038111448287964,
                0.23705598711967468,
                0.021873919293284416,
                -0.4553500711917877,
                -0.5471954941749573,
                1.4780055284500122,
                -0.9708294868469238,
                0.504041850566864,
                0.38434740900993347,
                -1.937248706817627,
                0.33351367712020874,
                0.28138694167137146,
                -1.4144996404647827,
                -2.9452154636383057,
                -0.9435582756996155,
                -0.25366538763046265,
                -0.1442030817270279,
                0.7374574542045593
            ],
            [
                0.08176690340042114,
                0.05655508488416672,
                -0.3284916281700134,
                1.0879653692245483,
                0.37921133637428284,
                -0.796417772769928,
                -0.10053737461566925,
                0.8260272741317749,
                0.36532172560691833,
                0.2719525098800659,
                0.8023326396942139,
                0.2556490898132324,
                0.29858145117759705,
                -0.3990202844142914,
                0.8257577419281006,
                1.2567200660705566,
                0.8654817342758179,
                0.26727378368377686,
                0.23106810450553894,
                0.100730299949646,
                0.027182994410395622,
                0.3942823112010956,
                0.9790142774581909,
                -0.055338647216558456,
                1.2119572162628174,
                -2.8546345233917236,
                -0.4441992938518524,
                0.175964817404747,
                -0.0739908441901207,
                -0.25281384587287903,
                0.9752443432807922,
                0.7989000082015991
            ],
            [
                0.9292503595352173,
                -0.298554390668869,
                0.32984688878059387,
                -0.14620371162891388,
                -0.2328520119190216,
                0.08794277906417847,
                0.02020758017897606,
                0.7143593430519104,
                -0.07089653611183167,
                0.20478424429893494,
                -0.04874076321721077,
                -0.21834377944469452,
                -0.17139334976673126,
                -0.1713462471961975,
                -0.062233440577983856,
                0.04436275362968445,
                0.08173292875289917,
                -0.20199203491210938,
                -0.5678899884223938,
                0.04811728373169899,
                0.632958173751831,
                0.2714814841747284,
                0.07520169019699097,
                1.426899790763855,
                0.6751577854156494,
                0.41297733783721924,
                0.03098466992378235,
                0.14449727535247803,
                -0.9643006920814514,
                0.4239334464073181,
                0.14319509267807007,
                0.19315700232982635
            ],
            [
                -0.6551021337509155,
                0.8317053318023682,
                0.6747966408729553,
                -0.1636921465396881,
                1.0003727674484253,
                0.8358262181282043,
                -0.1241099014878273,
                -0.8891398310661316,
                -1.505855679512024,
                0.7400678992271423,
                0.9763897061347961,
                1.1259326934814453,
                0.22791209816932678,
                0.5913534164428711,
                -0.589832603931427,
                -0.7772840261459351,
                1.0152616500854492,
                -0.0032123352866619825,
                -0.6883593797683716,
                0.8049638271331787,
                0.0807807594537735,
                0.18208293616771698,
                1.3907792568206787,
                0.4936142563819885,
                -0.24114836752414703,
                -0.2782188355922699,
                0.43084678053855896,
                -0.4452369213104248,
                -1.2240859270095825,
                -2.440829277038574,
                -0.28293970227241516,
                0.5799651145935059
            ],
            [
                0.6523541212081909,
                0.3667389750480652,
                -0.3223959803581238,
                -0.6852090358734131,
                0.27924343943595886,
                -0.29760241508483887,
                0.35487040877342224,
                0.07108414173126221,
                0.5751140117645264,
                -5.618849277496338,
                0.41291090846061707,
                -2.3555028438568115,
                1.9474384784698486,
                0.22307896614074707,
                0.04854971915483475,
                0.08737106621265411,
                -0.10065290331840515,
                0.08757079392671585,
                -0.44811877608299255,
                0.8598127365112305,
                1.25419020652771,
                -0.25765806436538696,
                0.8989912867546082,
                0.057229164987802505,
                -0.3159392774105072,
                -0.010506420396268368,
                -0.4507291913032532,
                0.2382679581642151,
                0.8232389092445374,
                0.3552796542644501,
                -0.2978188693523407,
                0.6762619018554688
            ]
        ],
        [
            [
                -0.037145137786865234,
                1.0584241151809692,
                1.5092058181762695,
                -0.1494450569152832,
                -0.13054631650447845,
                -0.5045602321624756,
                1.0462898015975952,
                -0.8069893717765808,
                -0.5120437145233154,
                -0.5701644420623779,
                0.2594515085220337,
                0.3845197856426239,
                0.8825465440750122,
                -0.10366100072860718,
                0.9893054366111755,
                0.16873300075531006
            ],
            [
                0.024782633408904076,
                -0.5543859004974365,
                0.34031376242637634,
                0.2346610724925995,
                -0.9427286386489868,
                0.6857119202613831,
                0.35976430773735046,
                0.002164599020034075,
                -0.09851506352424622,
                -0.7691516280174255,
                0.3698640465736389,
                0.22083427011966705,
                0.3431820571422577,
                -0.019886821508407593,
                0.05432954430580139,
                -1.2753617763519287
            ],
            [
                2.475966453552246,
                0.18458020687103271,
                0.3415212631225586,
                -0.770285964012146,
                -0.8287686705589294,
                1.0860174894332886,
                0.14049509167671204,
                0.347068190574646,
                0.22204412519931793,
                -0.3287651240825653,
                1.3372100591659546,
                0.7533612251281738,
                -0.19188721477985382,
                -1.8221604824066162,
                -0.03768967464566231,
                0.5173195600509644
            ],
            [
                0.19384931027889252,
                0.31672540307044983,
                -0.1750597208738327,
                0.017633527517318726,
                0.11687108874320984,
                0.4906526207923889,
                0.46937239170074463,
                0.17956629395484924,
                -0.6480848789215088,
                0.8226785063743591,
                0.15969251096248627,
                -0.8104478716850281,
                2.0149765014648438,
                -0.013375731185078621,
                0.23064035177230835,
                0.29116857051849365
            ],
            [
                0.26008760929107666,
                -0.3478872776031494,
                0.1831156611442566,
                1.2283729314804077,
                0.8754689693450928,
                -0.9650891423225403,
                -0.1297713816165924,
                0.12852787971496582,
                0.732286274433136,
                0.39607495069503784,
                0.5159836411476135,
                -0.533015251159668,
                -1.065103530883789,
                -0.2062828540802002,
                0.38917428255081177,
                0.6160355806350708
            ],
            [
                -0.06017060950398445,
                -0.08573886007070541,
                0.05114429444074631,
                -0.16269636154174805,
                0.08643072098493576,
                0.04641203582286835,
                -0.5558210015296936,
                -0.11835004389286041,
                -0.16750897467136383,
                -0.013051786459982395,
                -0.0693848729133606,
                -0.3309183120727539,
                -0.04987524449825287,
                -0.0643949881196022,
                -0.2796768248081207,
                -0.5102186799049377
            ],
            [
                -0.5653940439224243,
                0.14058196544647217,
                1.1790566444396973,
                0.0010530253639444709,
                -0.8635269403457642,
                0.31442803144454956,
                0.3033443093299866,
                0.8862550258636475,
                1.1799429655075073,
                -0.3762134313583374,
                -0.3633192777633667,
                0.466480553150177,
                -1.2672264575958252,
                0.262926310300827,
                0.776717483997345,
                -0.3531780540943146
            ],
            [
                0.9840930104255676,
                0.061579629778862,
                0.6475582718849182,
                -0.03377562016248703,
                1.2343034744262695,
                -1.2148096561431885,
                0.17294444143772125,
                0.06342408806085587,
                0.1535310000181198,
                1.8206430673599243,
                0.0069292462430894375,
                -2.3708462715148926,
                -0.40435996651649475,
                -0.2561030387878418,
                0.6534997820854187,
                0.5223613381385803
            ]
        ],
        [
            [
                -0.5048797130584717,
                1.0436393022537231,
                0.02549891173839569,
                -0.7902024388313293,
                0.6973139047622681,
                -0.21151778101921082,
                0.8785833120346069,
                0.25838837027549744
            ],
            [
                0.364616334438324,
                0.3847598135471344,
                0.012817139737308025,
                -0.605172872543335,
                0.3801794648170471,
                -0.21221499145030975,
                0.7455829977989197,
                0.42575860023498535
            ],
            [
                0.12396295368671417,
                -0.49809110164642334,
                1.2976932525634766,
                -0.06786429136991501,
                0.6410837173461914,
                0.04804849997162819,
                -0.3120112121105194,
                1.4568302631378174
            ],
            [
                -0.3106062710285187,
                -2.1238749027252197,
                0.23105666041374207,
                -0.06099855154752731,
                -1.5636000633239746,
                -0.461727112531662,
                0.7159090042114258,
                0.5644470453262329
            ]
        ],
        [
            [
                -0.8520427346229553,
                0.770645797252655,
                -0.039872195571660995,
                -0.0895422026515007
            ],
            [
                -0.007361296564340591,
                0.19728317856788635,
                -0.41137585043907166,
                -0.4516010284423828
            ]
        ]
    ]
}