{
    "biases": [
        [
            1.0220739841461182,
            -0.31303903460502625,
            0.8739925026893616,
            -0.3340585231781006,
            -0.9539290070533752,
            -1.1279017925262451,
            -0.2617799937725067,
            1.0222537517547607,
            0.7169450521469116,
            -0.5110687017440796,
            -1.0390857458114624,
            -0.6133404970169067,
            -0.5812601447105408,
            -1.3808468580245972,
            -1.1171647310256958,
            -0.6351034641265869,
            0.268128901720047,
            0.898101806640625,
            0.7525845170021057,
            -1.6673240661621094
        ],
        [
            -0.5809500217437744,
            0.6915009021759033,
            -0.8295029997825623,
            -0.3390747606754303,
            -0.8714421391487122,
            -1.1729204654693604,
            -2.311147689819336,
            -0.3373878002166748,
            0.7461780905723572,
            -0.29564693570137024,
            0.24994923174381256,
            -1.9728021621704102,
            1.273850440979004,
            2.453036069869995,
            -1.1833571195602417
        ],
        [
            1.1771831512451172,
            0.7310718894004822,
            -2.365840435028076,
            -0.438740611076355,
            1.0426957607269287,
            3.554034948348999,
            -2.9337379932403564,
            1.4165199995040894,
            -0.14936496317386627,
            -0.5754753947257996
        ],
        [
            0.33708420395851135,
            -1.6063852310180664,
            2.118363380432129,
            -1.0191185474395752,
            -3.4932899475097656
        ],
        [
            -0.24056215584278107,
            0.13676229119300842
        ]
    ],
    "weights": [
        [
            [
                -0.096110038459301,
                -0.07525645941495895,
                1.27322256565094,
                0.08240674436092377,
                1.1679093837738037,
                0.009323570877313614,
                1.3595092296600342,
                -1.2690932750701904,
                -0.027200795710086823,
                -1.234147071838379,
                -0.004491974133998156,
                -1.1706433296203613,
                1.3750699758529663,
                0.023289961740374565,
                1.181322455406189,
                -0.036387644708156586,
                1.0785243511199951,
                -2.0346121788024902,
                -0.05372777581214905,
                -1.0212812423706055,
                -0.006589709781110287,
                -1.0189906358718872,
                0.9014038443565369,
                0.7670791745185852,
                0.31404805183410645,
                0.8825231790542603,
                -0.005409419536590576
            ],
            [
                -0.31063589453697205,
                -0.4021202325820923,
                1.3083244562149048,
                0.019716894254088402,
                1.3291007280349731,
                0.0583573654294014,
                1.3541542291641235,
                -1.3257917165756226,
                0.14620061218738556,
                -1.4535328149795532,
                0.041965484619140625,
                -1.5115455389022827,
                0.9518460631370544,
                0.04648786038160324,
                1.238309621810913,
                0.05083618313074112,
                1.1802890300750732,
                -0.6617003083229065,
                -0.1733057051897049,
                -0.8341121077537537,
                -0.27655914425849915,
                -0.9477733373641968,
                0.6726558208465576,
                0.6025294661521912,
                0.1715690940618515,
                -0.604033887386322,
                0.004547529388219118
            ],
            [
                -1.3433942794799805,
                0.10664188116788864,
                0.41044244170188904,
                -0.9451369047164917,
                1.0079667568206787,
                -0.0648246482014656,
                0.49762704968452454,
                -0.21869945526123047,
                0.45905041694641113,
                -0.2642430067062378,
                0.3646138906478882,
                -0.9219802021980286,
                -0.20972703397274017,
                0.11175409704446793,
                0.22767247259616852,
                0.3332563042640686,
                0.10796378552913666,
                -0.06006533280014992,
                -0.06015636771917343,
                0.4812413454055786,
                -0.3676721155643463,
                0.2214910238981247,
                -0.2610646188259125,
                -0.04839334264397621,
                0.057864073663949966,
                0.9822231531143188,
                0.1239003837108612
            ],
            [
                -1.2127888202667236,
                1.1812818050384521,
                0.00650150328874588,
                -0.9049389958381653,
                0.015174256637692451,
                -0.937505304813385,
                0.8359102606773376,
                -0.001994319260120392,
                -1.2121319770812988,
                0.014906353317201138,
                1.1536146402359009,
                -0.14293256402015686,
                -0.017525436356663704,
                -1.1453253030776978,
                -0.00147445744369179,
                -0.7346428632736206,
                0.7461566925048828,
                -0.00964384339749813,
                -1.197950005531311,
                0.037399809807538986,
                0.8532991409301758,
                -0.06093629449605942,
                -1.0798190832138062,
                -0.3442554473876953,
                0.44346684217453003,
                0.0316777341067791,
                -0.2852136492729187
            ],
            [
                1.808205008506775,
                -0.8800203800201416,
                0.25791898369789124,
                -1.6265244483947754,
                -0.3935183882713318,
                0.037996791303157806,
                -0.03763983026146889,
                -0.010543187148869038,
                1.3427774906158447,
                -0.5220972895622253,
                -0.25787487626075745,
                0.04864856228232384,
                -0.06996246427297592,
                0.02749910205602646,
                0.05299545079469681,
                0.03379014879465103,
                0.03728761896491051,
                0.021860618144273758,
                -0.07365460693836212,
                0.11936990916728973,
                -0.018763262778520584,
                0.0509091317653656,
                0.10892726480960846,
                0.028137056156992912,
                0.03309847414493561,
                -0.6749246120452881,
                -0.12696605920791626
            ],
            [
                0.02587924711406231,
                -0.009573125280439854,
                -0.97837895154953,
                0.04020867869257927,
                -0.9659013748168945,
                -0.006347219925373793,
                1.1023725271224976,
                0.8358414769172668,
                -0.10985530912876129,
                0.8123676776885986,
                -0.00746047543361783,
                0.8467046618461609,
                -0.6495848894119263,
                0.08389591425657272,
                -0.972944438457489,
                0.03450203686952591,
                -1.1164990663528442,
                -0.08355219662189484,
                0.05104327201843262,
                0.45985087752342224,
                0.07658757269382477,
                0.8722324967384338,
                -0.508266806602478,
                -0.8595251441001892,
                -0.1316230297088623,
                -1.3832181692123413,
                -0.007025111932307482
            ],
            [
                0.19965623319149017,
                0.315255343914032,
                1.5719363689422607,
                -0.2553221881389618,
                1.4905383586883545,
                -0.2822931706905365,
                0.20838101208209991,
                -1.5987449884414673,
                -0.2592667043209076,
                -1.1468956470489502,
                -0.03839384391903877,
                -1.038701057434082,
                0.014232128858566284,
                -0.010827633552253246,
                0.5872096419334412,
                0.00843682698905468,
                0.576953649520874,
                0.07592903077602386,
                -0.06361997872591019,
                -0.10888031870126724,
                -0.18819624185562134,
                -0.19427023828029633,
                0.19816604256629944,
                0.2040327936410904,
                -0.07371233403682709,
                -0.2144622802734375,
                -0.2697264552116394
            ],
            [
                0.38481083512306213,
                -0.596705973148346,
                -0.23396825790405273,
                1.1712985038757324,
                -0.9679398536682129,
                0.5291207432746887,
                0.1558288186788559,
                0.11617808789014816,
                0.12442437559366226,
                0.0018492677481845021,
                -0.6112693548202515,
                0.3476546108722687,
                -0.2092990279197693,
                0.4668278992176056,
                -0.23500807583332062,
                0.17050544917583466,
                -0.49569302797317505,
                -1.5252406597137451,
                0.4303313195705414,
                -0.5788196921348572,
                -0.09755434095859528,
                -0.4171159267425537,
                0.34936365485191345,
                -0.21192681789398193,
                0.09247469902038574,
                1.1780556440353394,
                0.32366374135017395
            ],
            [
                -0.9035289883613586,
                0.8707693815231323,
                -0.10364343225955963,
                -0.686244785785675,
                0.04373510554432869,
                -0.7702988386154175,
                0.6334994435310364,
                0.05991597846150398,
                -0.8562790751457214,
                0.028769763186573982,
                0.9729601144790649,
                -0.17308661341667175,
                -0.028597820550203323,
                -1.031915545463562,
                -0.07671650499105453,
                -0.6344411373138428,
                0.46466803550720215,
                0.0025655454955995083,
                -1.0122721195220947,
                -0.011467162519693375,
                0.7328246831893921,
                -0.14085929095745087,
                -1.0160298347473145,
                -0.4557662904262543,
                0.009927023202180862,
                0.48729610443115234,
                -0.02597254328429699
            ],
            [
                -1.8503514528274536,
                -0.3201963007450104,
                0.43745648860931396,
                0.7106409668922424,
                -0.1973060816526413,
                0.07845529168844223,
                0.01568557508289814,
                1.3984923362731934,
                -0.060901395976543427,
                0.0051491595804691315,
                -0.2789665758609772,
                -0.057996608316898346,
                -0.036889102309942245,
                0.24162274599075317,
                0.04817112907767296,
                0.09850248694419861,
                -0.04996180906891823,
                0.4558180868625641,
                0.14185072481632233,
                -0.04754815250635147,
                0.017977669835090637,
                -0.008910836651921272,
                0.1070747897028923,
                0.10352247953414917,
                0.32355383038520813,
                -0.9542651176452637,
                0.522023618221283
            ],
            [
                0.12175082415342331,
                0.09744975715875626,
                -0.8185971975326538,
                -0.10893415659666061,
                0.1038810983300209,
                0.04653226584196091,
                -0.056838881224393845,
                1.465497374534607,
                1.3200602531433105,
                0.159394770860672,
                0.11551979929208755,
                -0.019040578976273537,
                -0.8503077030181885,
                -0.2120068073272705,
                0.04242204502224922,
                0.014498144388198853,
                0.04313844442367554,
                -0.6173712015151978,
                -0.8335647583007812,
                0.03072251006960869,
                0.03984219208359718,
                0.03168302774429321,
                0.04726659134030342,
                0.026077890768647194,
                -0.1580853909254074,
                -0.5282899737358093,
                0.08407235890626907
            ],
            [
                -0.8428574204444885,
                -0.33486756682395935,
                -0.3610894978046417,
                -0.3411388397216797,
                0.15138059854507446,
                0.10591395944356918,
                -0.47093725204467773,
                -0.44234180450439453,
                0.24096815288066864,
                0.3721141815185547,
                -0.1629791557788849,
                0.187022402882576,
                -0.17430727183818817,
                0.3762485980987549,
                0.06781157851219177,
                0.13965140283107758,
                -0.269900918006897,
                -1.9945484399795532,
                0.6562325954437256,
                0.1412314623594284,
                0.0185999795794487,
                0.032942239195108414,
                0.3927031457424164,
                0.7022277116775513,
                0.2808556854724884,
                -0.6116417646408081,
                0.516309380531311
            ],
            [
                -0.2169302999973297,
                0.07389597594738007,
                0.03193192929029465,
                -0.14956258237361908,
                1.2178425788879395,
                -0.06476245820522308,
                2.0195958614349365,
                0.11664271354675293,
                0.2379857450723648,
                -0.18374624848365784,
                -0.4956420958042145,
                -1.7056829929351807,
                0.06954736262559891,
                0.06463755667209625,
                -0.24272336065769196,
                -0.3074810802936554,
                -0.45767244696617126,
                0.10725490748882294,
                0.011132889427244663,
                0.13832618296146393,
                -0.030823135748505592,
                0.160797581076622,
                -0.054661188274621964,
                -0.15409623086452484,
                -0.14613007009029388,
                -0.39791813492774963,
                -0.0369395911693573
            ],
            [
                -1.1120558977127075,
                0.888556957244873,
                -0.08417433500289917,
                -1.0285470485687256,
                -0.03630630299448967,
                -0.8478480577468872,
                0.777514636516571,
                0.07051549106836319,
                -1.1878465414047241,
                -0.007296234834939241,
                1.1121224164962769,
                -0.22000327706336975,
                -0.04654496908187866,
                -1.2849678993225098,
                0.03156232088804245,
                -0.8905709981918335,
                0.9379690885543823,
                -0.03979393467307091,
                -1.2447694540023804,
                -0.0003682296664919704,
                1.1349632740020752,
                -0.23581764101982117,
                -1.2823647260665894,
                -0.6882548928260803,
                -0.25815412402153015,
                -1.348933458328247,
                0.2857949435710907
            ],
            [
                1.6291354894638062,
                -1.31863534450531,
                -0.039012547582387924,
                -1.1081777811050415,
                -0.1021309643983841,
                0.6411764621734619,
                -0.74769526720047,
                0.0557718463242054,
                1.6324783563613892,
                -0.026192879304289818,
                -1.5293042659759521,
                0.37505802512168884,
                -0.04803374409675598,
                1.6432349681854248,
                -0.0575990192592144,
                0.5967563390731812,
                -0.9608270525932312,
                -0.020100783556699753,
                1.6454565525054932,
                -0.05603145807981491,
                -1.4930886030197144,
                0.38327962160110474,
                1.6074267625808716,
                -0.23881708085536957,
                0.019359586760401726,
                -0.9919771552085876,
                0.011647006496787071
            ],
            [
                0.10078287869691849,
                0.05026703700423241,
                -0.4169173240661621,
                0.011155648157000542,
                -0.5690871477127075,
                -0.21612872183322906,
                -0.6993853449821472,
                -1.3686095476150513,
                -0.25229412317276,
                -1.252077341079712,
                -0.07046686857938766,
                -1.0835222005844116,
                0.19234436750411987,
                0.0994323194026947,
                0.7246771454811096,
                0.10283763706684113,
                0.5835362076759338,
                -0.011219325475394726,
                -0.10903432220220566,
                -0.24016061425209045,
                -0.30989745259284973,
                -0.283160001039505,
                0.31865110993385315,
                0.30543553829193115,
                -0.07985315471887589,
                -1.0654349327087402,
                -0.39623185992240906
            ],
            [
                -0.23843108117580414,
                -0.538245439529419,
                0.2865210473537445,
                0.8743833899497986,
                -0.23866108059883118,
                0.4985808730125427,
                -0.8328588008880615,
                -0.29543909430503845,
                0.16504879295825958,
                -0.2854393720626831,
                -0.29824650287628174,
                0.13929621875286102,
                -0.21638239920139313,
                -0.34342095255851746,
                0.046367522329092026,
                0.13371554017066956,
                0.8403778076171875,
                -0.46403932571411133,
                -0.3017670512199402,
                0.09197922796010971,
                0.18876850605010986,
                0.4885920584201813,
                -0.4664204716682434,
                0.5788014531135559,
                -0.12014519423246384,
                0.547213077545166,
                -0.1348404884338379
            ],
            [
                -0.8458629846572876,
                -1.3670114278793335,
                -0.34392791986465454,
                0.057845667004585266,
                -0.02981501817703247,
                -0.07686706632375717,
                -1.0413070917129517,
                -0.6702738404273987,
                -0.3500424921512604,
                -0.10471414774656296,
                -0.12868806719779968,
                -0.08712349086999893,
                0.257835328578949,
                -0.28790149092674255,
                -0.1583395004272461,
                -0.3821382224559784,
                -0.06013450026512146,
                0.2938060462474823,
                -0.4251094162464142,
                -0.05213616415858269,
                0.07689611613750458,
                -0.16401079297065735,
                -0.03351506218314171,
                -0.32543718814849854,
                -0.008341948501765728,
                0.93555748462677,
                -0.15870870649814606
            ],
            [
                0.8473498225212097,
                0.28294071555137634,
                -0.3145880103111267,
                -0.3928574025630951,
                0.055846214294433594,
                0.026348324492573738,
                0.040244150906801224,
                0.5111645460128784,
                0.5194548964500427,
                0.3153808116912842,
                0.07039714604616165,
                -0.024544984102249146,
                -0.5146985650062561,
                -0.3281119763851166,
                -0.017603890970349312,
                0.043738026171922684,
                0.015880081802606583,
                0.35784581303596497,
                1.262306809425354,
                -0.25078004598617554,
                0.09728863835334778,
                -0.01460365392267704,
                -0.7564769387245178,
                -0.025301571935415268,
                -0.15854211151599884,
                0.9709327816963196,
                -0.04044376686215401
            ],
            [
                -1.1022584438323975,
                -0.44236868619918823,
                -0.06943947076797485,
                -0.748389720916748,
                -0.20985867083072662,
                0.5160324573516846,
                -0.3326714038848877,
                0.16377487778663635,
                -0.8927969336509705,
                -0.24398817121982574,
                -0.5328928828239441,
                0.1444481611251831,
                -0.02200765535235405,
                -0.8478649854660034,
                -0.360922247171402,
                0.48106807470321655,
                -0.5522921681404114,
                0.05937619507312775,
                -0.8095541596412659,
                -0.29356518387794495,
                -0.48127660155296326,
                0.05345182120800018,
                -0.3087309002876282,
                0.2628529369831085,
                -0.5073671936988831,
                -1.6776759624481201,
                -0.25851550698280334
            ]
        ],
        [
            [
                0.6153574585914612,
                -2.210022211074829,
                0.10966751724481583,
                0.09826509654521942,
                -0.2925974130630493,
                -0.7111912369728088,
                -0.5996893644332886,
                0.18776234984397888,
                -0.07089873403310776,
                0.33355090022087097,
                0.1379176825284958,
                0.29185256361961365,
                -0.3620299696922302,
                -0.09875880181789398,
                0.07524096220731735,
                0.6929181814193726,
                0.25498539209365845,
                0.871679425239563,
                -0.006862020585685968,
                0.2597101628780365
            ],
            [
                -2.1041877269744873,
                -3.278041362762451,
                -0.025425506755709648,
                -0.2012055516242981,
                0.27614712715148926,
                -0.5412318706512451,
                -2.112189769744873,
                0.6794424057006836,
                0.5812666416168213,
                0.5503072738647461,
                0.6775806546211243,
                0.5475924611091614,
                -1.183388113975525,
                0.04371604323387146,
                -0.03771108761429787,
                0.023550577461719513,
                -0.026668429374694824,
                0.6067181825637817,
                0.45255330204963684,
                0.1313249170780182
            ],
            [
                -1.1920158863067627,
                1.032806634902954,
                0.6360890865325928,
                -0.09291012585163116,
                0.03694053366780281,
                1.315634846687317,
                -1.114341378211975,
                0.4046415686607361,
                -0.039842329919338226,
                0.897135853767395,
                -0.6093275547027588,
                0.12397830933332443,
                -2.1467204093933105,
                0.2688562572002411,
                0.05009755492210388,
                0.6569510698318481,
                0.1974734365940094,
                1.1043670177459717,
                -0.09080098569393158,
                -0.24149537086486816
            ],
            [
                0.15329480171203613,
                0.017755981534719467,
                -0.16733193397521973,
                -4.35053825378418,
                -0.4276864528656006,
                0.2878360450267792,
                -0.09255819022655487,
                0.26688632369041443,
                1.8080285787582397,
                0.1958412379026413,
                0.04051588848233223,
                -0.48756611347198486,
                0.3295389413833618,
                -3.599730968475342,
                -0.17787905037403107,
                -0.17005905508995056,
                0.6791765689849854,
                0.26084887981414795,
                0.33536267280578613,
                -3.0072402954101562
            ],
            [
                0.29009199142456055,
                -0.49494433403015137,
                0.23787589371204376,
                -0.3152075707912445,
                0.9114366769790649,
                -0.6445180773735046,
                -0.22468656301498413,
                -0.03332825377583504,
                0.042833853513002396,
                1.525431513786316,
                0.5340354442596436,
                -0.4723987579345703,
                -1.6240333318710327,
                0.10979849845170975,
                0.3157993257045746,
                0.6651575565338135,
                0.12399186939001083,
                0.5418246388435364,
                0.454441636800766,
                0.354638010263443
            ],
            [
                0.8238645792007446,
                -1.6850019693374634,
                -0.8770508170127869,
                0.2142179012298584,
                -1.1303784847259521,
                1.180750846862793,
                -0.9927365183830261,
                -0.18531835079193115,
                0.3039976954460144,
                -0.14945271611213684,
                0.13754302263259888,
                0.8839628100395203,
                -2.3575356006622314,
                -0.7977480292320251,
                -0.12093871831893921,
                0.7203842997550964,
                0.10903006792068481,
                -0.08238830417394638,
                0.5158894062042236,
                0.5784045457839966
            ],
            [
                -0.13110816478729248,
                0.27404603362083435,
                -0.16493584215641022,
                0.4366244673728943,
                -0.02043389342725277,
                0.1170804351568222,
                -0.19602039456367493,
                -0.4719640016555786,
                -0.32153555750846863,
                -0.28035616874694824,
                -0.18214266002178192,
                0.22710461914539337,
                0.213899165391922,
                1.2614574432373047,
                1.3673465251922607,
                0.13428924977779388,
                -0.02498268336057663,
                -0.398413747549057,
                -0.3501473665237427,
                0.526801347732544
            ],
            [
                -0.0056970203295350075,
                -0.4415334165096283,
                0.6408036351203918,
                -0.2957400679588318,
                -2.4650521278381348,
                -0.4379940629005432,
                0.06921705603599548,
                0.8548389077186584,
                0.636561393737793,
                -0.8860498666763306,
                -2.151937961578369,
                0.5062665939331055,
                -0.19009537994861603,
                0.18369907140731812,
                -0.07898164540529251,
                0.03622512146830559,
                0.7942260503768921,
                0.0037115681916475296,
                -1.5100041627883911,
                0.6274473667144775
            ],
            [
                0.061748042702674866,
                0.11201555281877518,
                -0.09012825042009354,
                0.3060305714607239,
                -0.4120390713214874,
                -0.0776263177394867,
                -0.10633302479982376,
                -0.014606230892241001,
                -0.7796963453292847,
                0.07235584408044815,
                -0.038878023624420166,
                0.012160019017755985,
                0.43405893445014954,
                1.940103530883789,
                2.0197110176086426,
                0.07698985934257507,
                0.9456934332847595,
                0.011731835082173347,
                0.019563117995858192,
                -0.31007814407348633
            ],
            [
                -0.383745402097702,
                -0.20863191783428192,
                -1.3395369052886963,
                0.005725864786654711,
                1.0467544794082642,
                -4.012133598327637,
                2.5046544075012207,
                0.1954352706670761,
                -0.052392877638339996,
                -0.9688613414764404,
                1.0790252685546875,
                0.21355752646923065,
                0.295261949300766,
                -0.07940487563610077,
                0.025672754272818565,
                -0.6445752382278442,
                -0.09409809112548828,
                0.615588366985321,
                -0.176882803440094,
                0.5110582709312439
            ],
            [
                -11.095381736755371,
                -0.5292347073554993,
                -0.14963765442371368,
                0.2627435326576233,
                0.38747283816337585,
                -0.7512509226799011,
                0.7000268697738647,
                1.4376060962677002,
                0.5214142203330994,
                0.37235450744628906,
                0.3738378584384918,
                0.7756954431533813,
                0.25879356265068054,
                -0.03317845240235329,
                -0.22745463252067566,
                -3.0753026008605957,
                -0.33108437061309814,
                0.10270135849714279,
                0.4179840385913849,
                -0.11411723494529724
            ],
            [
                0.6194618940353394,
                2.0228426456451416,
                -1.1366825103759766,
                0.11995598673820496,
                -0.34485796093940735,
                1.0897425413131714,
                0.16000346839427948,
                -0.7882871627807617,
                -0.43036434054374695,
                0.3652598559856415,
                0.16764461994171143,
                0.4059019088745117,
                0.013877490535378456,
                0.22594678401947021,
                0.2962094843387604,
                0.25119826197624207,
                0.14173677563667297,
                -0.4373515844345093,
                -0.46940499544143677,
                0.42315322160720825
            ],
            [
                0.16087184846401215,
                -0.43061745166778564,
                0.5179498195648193,
                0.12447914481163025,
                -0.08674243092536926,
                -0.13293980062007904,
                0.22051902115345,
                1.0747913122177124,
                -0.02721690572798252,
                -0.07653957605361938,
                0.24252918362617493,
                -0.6987071633338928,
                -0.3677329123020172,
                -4.207272529602051,
                -4.788307189941406,
                -0.275282084941864,
                0.12237703055143356,
                0.8059215545654297,
                0.2449580878019333,
                -0.45006582140922546
            ],
            [
                -1.2369405031204224,
                -1.5542978048324585,
                0.6536350846290588,
                -0.028836144134402275,
                0.14906667172908783,
                -2.084575653076172,
                0.3560892641544342,
                0.6977333426475525,
                0.40946704149246216,
                0.389554500579834,
                -0.2189173400402069,
                -0.15039750933647156,
                -0.05438528582453728,
                -0.3389381468296051,
                0.021008547395467758,
                0.32815665006637573,
                0.035511452704668045,
                0.47961539030075073,
                0.4059869050979614,
                -0.02893858589231968
            ],
            [
                -0.1983509212732315,
                0.2560095191001892,
                0.5633049607276917,
                1.1708815097808838,
                0.6605157256126404,
                -0.5181722640991211,
                -0.5661979913711548,
                -0.505524754524231,
                0.09075272083282471,
                -0.6234976649284363,
                -0.40179213881492615,
                0.04765801876783371,
                -0.8838681578636169,
                1.106996774673462,
                -2.8713431358337402,
                -0.04505135864019394,
                -1.873551845550537,
                -0.8386008739471436,
                -1.1471742391586304,
                -0.2289995700120926
            ]
        ],
        [
            [
                0.5080626606941223,
                -0.3732149302959442,
                0.049671024084091187,
                0.03538908064365387,
                0.5612808465957642,
                0.33744412660598755,
                0.1043153926730156,
                0.2037889063358307,
                -0.1198911964893341,
                -0.13279102742671967,
                0.16257338225841522,
                -1.5045337677001953,
                -0.03674684092402458,
                -1.53587007522583,
                0.08320942521095276
            ],
            [
                1.0470011234283447,
                -1.2061419486999512,
                -1.2931474447250366,
                -0.35597512125968933,
                0.40871456265449524,
                -1.1030042171478271,
                -0.3155905306339264,
                0.37943270802497864,
                -0.06136661022901535,
                0.5084754228591919,
                0.9151008725166321,
                -0.41756924986839294,
                0.058359596878290176,
                0.726616382598877,
                0.35214540362358093
            ],
            [
                0.1855512410402298,
                -0.22145657241344452,
                0.28939658403396606,
                0.5101751089096069,
                -0.5498418807983398,
                0.051115795969963074,
                2.1860413551330566,
                1.4663348197937012,
                -0.4819837808609009,
                -0.4914875328540802,
                0.24050746858119965,
                0.3817818760871887,
                -0.18460258841514587,
                -0.6956461668014526,
                -0.1460350602865219
            ],
            [
                0.6121804714202881,
                0.5053064227104187,
                0.018566735088825226,
                -0.5032548308372498,
                0.2727293074131012,
                0.16787473857402802,
                -0.563606321811676,
                -0.1597771942615509,
                -0.11895519495010376,
                0.22834138572216034,
                -0.43187129497528076,
                -1.9076238870620728,
                -0.013060561381280422,
                -0.771882951259613,
                0.2337670922279358
            ],
            [
                0.6002050638198853,
                0.870277464389801,
                0.9283872246742249,
                -0.5179768800735474,
                1.023725986480713,
                0.040134262293577194,
                -0.21988645195960999,
                0.36378225684165955,
                0.17214374244213104,
                -0.30770570039749146,
                -1.512274146080017,
                -1.6353696584701538,
                0.26036015152931213,
                0.6027356386184692,
                -0.2509325444698334
            ],
            [
                -1.786115050315857,
                0.6594446301460266,
                -0.9653570652008057,
                0.055270906537771225,
                -0.6891018748283386,
                0.11320420354604721,
                -0.15251746773719788,
                0.41196128726005554,
                0.20374129712581635,
                0.781282901763916,
                -0.38712358474731445,
                -1.9800407886505127,
                0.03852038457989693,
                0.3589368760585785,
                0.10304632782936096
            ],
            [
                0.5868266224861145,
                0.5499522089958191,
                0.17843542993068695,
                0.22130586206912994,
                -0.32214516401290894,
                -0.005524537991732359,
                0.6924352645874023,
                -0.16603319346904755,
                -0.22431541979312897,
                -0.9384127855300903,
                -0.26821377873420715,
                0.8393946886062622,
                -0.13847483694553375,
                -0.02259550616145134,
                -0.1742657572031021
            ],
            [
                0.022869393229484558,
                -0.2046072632074356,
                0.16507701575756073,
                1.19887375831604,
                0.34597963094711304,
                -0.29130107164382935,
                -1.6163004636764526,
                0.5862263441085815,
                -1.2188799381256104,
                0.386854887008667,
                0.05151529610157013,
                0.11036691069602966,
                -0.9491401314735413,
                0.3320491313934326,
                -0.3550051748752594
            ],
            [
                0.4289781153202057,
                -0.3623294532299042,
                0.3659495711326599,
                -1.865607500076294,
                -0.6142978668212891,
                -0.6765787601470947,
                -4.960101127624512,
                -1.2421544790267944,
                1.1177374124526978,
                0.1066129133105278,
                0.07868880033493042,
                0.25181981921195984,
                1.366736650466919,
                0.0836530551314354,
                0.9821198582649231
            ],
            [
                0.6695013046264648,
                0.22855819761753082,
                0.12403040379285812,
                0.2099006175994873,
                -0.5980166792869568,
                -1.1607584953308105,
                1.457648754119873,
                1.0855644941329956,
                -0.4606179893016815,
                -0.10829316824674606,
                -0.15547455847263336,
                1.1048853397369385,
                -0.44113999605178833,
                -0.3834500312805176,
                -0.19024378061294556
            ]
        ],
        [
            [
                -0.49120911955833435,
                0.10818017274141312,
                -0.23296549916267395,
                -0.01242215558886528,
                0.28382983803749084,
                -0.3282970190048218,
                0.5700617432594299,
                -0.7935634851455688,
                1.1138001680374146,
                -0.5060045719146729
            ],
            [
                1.107560396194458,
                -1.1487635374069214,
                0.4973268508911133,
                -0.1074032410979271,
                0.7440106272697449,
                1.4286417961120605,
                1.6008446216583252,
                0.554510772228241,
                0.4466051757335663,
                0.455502986907959
            ],
            [
                -0.11492965370416641,
                -0.04073993116617203,
                0.5665494203567505,
                -0.6508228778839111,
                0.35304591059684753,
                -0.022004013881087303,
                0.31108295917510986,
                0.6993133425712585,
                -0.23554718494415283,
                0.3358813226222992
            ],
            [
                -1.197390079498291,
                0.13905934989452362,
                0.7387778162956238,
                0.5953065156936646,
                -0.21010421216487885,
                -0.8013372421264648,
                -1.4429823160171509,
                0.1711375117301941,
                0.43362149596214294,
                -0.3742386996746063
            ],
            [
                1.187585473060608,
                -0.5708959102630615,
                0.2069234997034073,
                1.341840147972107,
                -0.2499774545431137,
                1.0430755615234375,
                1.5889577865600586,
                0.6016154885292053,
                -1.4453164339065552,
                0.22985270619392395
            ]
        ],
        [
            [
                0.2643361985683441,
                -0.6902198195457458,
                0.7040222883224487,
                0.7574933767318726,
                -0.34738218784332275
            ],
            [
                0.47090163826942444,
                0.10638247430324554,
                -0.6134829521179199,
                0.18630008399486542,
                -0.5282759070396423
            ]
        ]
    ]
}