{
    "biases": [
        [
            -0.254559725522995,
            -0.672993540763855,
            0.17238396406173706,
            -0.42986607551574707,
            -0.4874037802219391,
            -0.7707182168960571,
            -1.1160151958465576,
            -1.0680538415908813,
            -0.7921052575111389,
            0.33068132400512695,
            -0.4532899558544159,
            -0.213515505194664,
            -0.6269540786743164,
            0.4243379235267639,
            1.3848607540130615,
            -0.01730562373995781,
            -0.04257899150252342,
            -0.15260399878025055,
            -0.34499314427375793,
            -0.5054362416267395,
            -0.9086400270462036,
            0.25861355662345886,
            -0.9473785758018494,
            0.21537111699581146,
            0.08435885608196259,
            0.6007434129714966,
            -0.33043259382247925,
            -0.47630372643470764,
            -0.775741457939148,
            -1.5538283586502075,
            -0.846492350101471,
            0.9456212520599365
        ],
        [
            0.3896760046482086,
            0.40661677718162537,
            0.5986285209655762,
            -0.03896650671958923,
            -1.398277759552002,
            -0.45287805795669556,
            0.42779117822647095,
            -0.0940457209944725,
            0.7064064741134644,
            0.4304850995540619,
            -0.4570457637310028,
            1.680002212524414,
            0.2777083218097687,
            -0.2616562247276306,
            0.5401643514633179,
            -0.4581131935119629
        ],
        [
            -0.41546159982681274,
            -0.39248114824295044,
            0.22416837513446808,
            -0.4371269643306732,
            -0.11446940898895264,
            -0.14724117517471313,
            0.7821178436279297,
            0.06563032418489456
        ],
        [
            0.6797110438346863,
            0.01747504062950611,
            -0.4472273886203766,
            0.3588498830795288
        ],
        [
            -2.675065755844116,
            4.36447811126709
        ]
    ],
    "weights": [
        [
            [
                0.7042294144630432,
                -0.023477382957935333,
                -0.08378817141056061,
                -0.6463567018508911,
                -0.0465901754796505,
                0.159942165017128,
                -0.05877920240163803,
                0.016115035861730576,
                1.2450623512268066,
                -0.4629826843738556,
                -0.33277636766433716,
                0.07429839670658112,
                -0.017846060916781425,
                -1.415101170539856,
                -0.42818838357925415,
                0.49275097250938416,
                -0.07213292270898819,
                -0.03614187240600586,
                1.0621962547302246,
                -0.4043729901313782,
                -0.9630740284919739,
                0.13048619031906128,
                -1.3468234539031982,
                0.40901800990104675,
                -0.6982873678207397,
                -0.2864040732383728,
                -0.6650898456573486
            ],
            [
                -0.7986505627632141,
                0.4322662651538849,
                -0.39662131667137146,
                -0.6604653000831604,
                0.010823041200637817,
                -0.12632828950881958,
                0.11532478034496307,
                -0.7061417698860168,
                0.7034088969230652,
                0.42808765172958374,
                0.19949661195278168,
                0.08010245859622955,
                -0.43245768547058105,
                -0.6191849112510681,
                -0.08107253909111023,
                0.08375422656536102,
                -0.03431694582104683,
                0.772695004940033,
                -1.060677170753479,
                -0.42953193187713623,
                0.010161969810724258,
                0.06727136671543121,
                -1.1326910257339478,
                -0.028071384876966476,
                -0.32724305987358093,
                -1.0719592571258545,
                -0.14378052949905396
            ],
            [
                0.04541676491498947,
                0.35281896591186523,
                -0.3490754961967468,
                0.027792617678642273,
                -0.8541303277015686,
                -0.9669864177703857,
                -1.5138592720031738,
                0.4207439124584198,
                0.14952979981899261,
                0.4217228889465332,
                0.26304739713668823,
                -0.8364514708518982,
                -0.20882458984851837,
                -0.3233672082424164,
                0.06876234710216522,
                0.1747186928987503,
                0.7950189709663391,
                0.3535146713256836,
                0.24576137959957123,
                0.15205523371696472,
                -0.004859832115471363,
                0.1271936446428299,
                -0.17728067934513092,
                -0.3831046521663666,
                -0.16446828842163086,
                0.26122233271598816,
                -0.13966986536979675
            ],
            [
                -0.4521428048610687,
                -0.15369190275669098,
                1.3678289651870728,
                -0.3484143316745758,
                0.7033653259277344,
                0.11656467616558075,
                0.7884458899497986,
                -1.5031756162643433,
                -0.6978719234466553,
                -0.6971755623817444,
                0.3967377841472626,
                -0.5367147922515869,
                -1.592322587966919,
                -0.28318357467651367,
                -0.0903824120759964,
                0.042844533920288086,
                0.038728903979063034,
                0.9038931131362915,
                0.0314563550055027,
                -0.07105156034231186,
                -0.11878062039613724,
                -0.16701380908489227,
                0.0032602567225694656,
                -0.20765362679958344,
                -0.35237157344818115,
                -0.7138892412185669,
                -0.26078101992607117
            ],
            [
                -1.1878420114517212,
                0.5096419453620911,
                -0.2890557646751404,
                -1.3152366876602173,
                0.1652919352054596,
                -0.1590416580438614,
                0.4115554094314575,
                0.5894045233726501,
                -1.0683115720748901,
                -0.374099999666214,
                0.4567033052444458,
                -0.11911866813898087,
                -0.3214367926120758,
                -0.6086837649345398,
                0.08032528311014175,
                0.0645979642868042,
                0.12948501110076904,
                -0.5955289602279663,
                0.5004057884216309,
                0.23008009791374207,
                0.17214331030845642,
                0.007661542855203152,
                -0.38850176334381104,
                0.1797354370355606,
                -0.03259943053126335,
                -0.558857262134552,
                -0.2580711841583252
            ],
            [
                -0.02389216236770153,
                -0.026972392573952675,
                -0.9728960394859314,
                -0.022262118756771088,
                -1.0570170879364014,
                0.03583887591958046,
                -1.0553456544876099,
                -1.1213507652282715,
                -0.021821707487106323,
                -1.1914652585983276,
                0.024164941161870956,
                1.1422638893127441,
                0.7582899928092957,
                -0.029187534004449844,
                1.161267638206482,
                -0.006450727581977844,
                -1.2049596309661865,
                -0.606606662273407,
                0.022861475124955177,
                -1.1433277130126953,
                0.00987135712057352,
                -1.2957441806793213,
                1.2545394897460938,
                1.3772556781768799,
                -0.11385897547006607,
                -1.1549901962280273,
                -0.2077610045671463
            ],
            [
                -0.6319529414176941,
                -0.3407968282699585,
                0.0042413463816046715,
                0.718696117401123,
                0.37026312947273254,
                1.4153746366500854,
                -1.6724143028259277,
                0.02922574058175087,
                -0.7313811182975769,
                0.07648120820522308,
                -0.8276432752609253,
                0.2586095929145813,
                0.0030330794397741556,
                0.877033531665802,
                0.17423591017723083,
                0.7346509099006653,
                -0.8285216093063354,
                0.18208341300487518,
                -0.9296236634254456,
                0.19605299830436707,
                -1.2601089477539062,
                0.1666741520166397,
                0.9088272452354431,
                -0.004270429722964764,
                0.21712420880794525,
                -1.2809302806854248,
                0.026422321796417236
            ],
            [
                -0.8369428515434265,
                -1.2150967121124268,
                0.12284479290246964,
                -1.1256022453308105,
                0.7203785181045532,
                -0.13241657614707947,
                -0.6027655005455017,
                -0.2610107958316803,
                0.3072802722454071,
                -0.23781268298625946,
                0.6202989220619202,
                -1.1291393041610718,
                0.244072824716568,
                -0.26339948177337646,
                0.6426447033882141,
                -0.5199046730995178,
                -0.7171898484230042,
                0.02166702225804329,
                0.1712343543767929,
                -0.07968006283044815,
                -0.07133743166923523,
                0.19158905744552612,
                -0.24439150094985962,
                -0.19014319777488708,
                -0.423088014125824,
                -0.9388986825942993,
                -0.0815168023109436
            ],
            [
                0.03014875389635563,
                -1.4204539060592651,
                -0.6841932535171509,
                -0.00017928531451616436,
                0.6310111880302429,
                -0.09593518078327179,
                0.6875888109207153,
                0.9200933575630188,
                -0.1392039656639099,
                1.018845796585083,
                0.04758865013718605,
                1.0241596698760986,
                -0.6708658337593079,
                -0.012577543966472149,
                -0.9671549797058105,
                -0.38207539916038513,
                -0.48821860551834106,
                0.3112792372703552,
                -0.0016339948633685708,
                0.7156044840812683,
                0.11935201287269592,
                1.1183439493179321,
                -0.47098150849342346,
                -1.0915769338607788,
                -0.15111786127090454,
                -0.6102619767189026,
                -0.28153765201568604
            ],
            [
                1.270648717880249,
                -0.8335574865341187,
                0.19245591759681702,
                -0.8486696481704712,
                0.023779161274433136,
                0.2287798672914505,
                0.023740913718938828,
                1.3306199312210083,
                -0.323558509349823,
                -0.28921499848365784,
                -0.06326115131378174,
                -0.10808902233839035,
                0.6337048411369324,
                -0.000918206584174186,
                0.028553370386362076,
                -0.10923823714256287,
                -0.11921841651201248,
                1.7877596616744995,
                -0.2839883863925934,
                0.06640709191560745,
                0.04961724951863289,
                0.02326538786292076,
                0.14343903958797455,
                -0.12623287737369537,
                0.10548179596662521,
                0.25362539291381836,
                0.2239398956298828
            ],
            [
                0.2118673324584961,
                -0.15168334543704987,
                -0.07384608685970306,
                -0.003476422978565097,
                0.07815232872962952,
                -0.23104733228683472,
                -0.02033361606299877,
                -1.4078065156936646,
                -0.2926819324493408,
                -1.4778790473937988,
                0.09351533651351929,
                0.14852051436901093,
                0.7735699415206909,
                0.09963640570640564,
                1.4623130559921265,
                0.16583818197250366,
                -0.3620254695415497,
                -0.35008594393730164,
                -0.1226506233215332,
                -1.0342272520065308,
                -0.23520918190479279,
                -1.3982181549072266,
                1.2171319723129272,
                1.4815140962600708,
                0.08876027911901474,
                -0.5665351748466492,
                -0.17375268042087555
            ],
            [
                -2.4411261081695557,
                0.17338033020496368,
                -0.9908645153045654,
                -0.2638516128063202,
                0.1963966190814972,
                0.010098486207425594,
                0.011692634783685207,
                1.0120664834976196,
                0.9721519351005554,
                0.03764600679278374,
                0.07619772106409073,
                0.038352224975824356,
                -0.9579775333404541,
                0.03049847111105919,
                0.06530779600143433,
                0.055152446031570435,
                -0.01299551222473383,
                1.088281273841858,
                0.7601521015167236,
                -0.026293398812413216,
                0.015214670449495316,
                0.11168642342090607,
                -0.2947577238082886,
                0.06978338211774826,
                -0.0688140019774437,
                -0.2731427848339081,
                -0.12297893315553665
            ],
            [
                -1.3280619382858276,
                0.42634227871894836,
                -0.187831312417984,
                -0.4096423089504242,
                0.3547704815864563,
                0.12309809029102325,
                0.02633541449904442,
                -0.9086363315582275,
                0.6624957919120789,
                0.35657596588134766,
                -0.10534745454788208,
                0.14931663870811462,
                -0.3423406481742859,
                0.8510794639587402,
                0.14349600672721863,
                0.030260706320405006,
                0.1733098179101944,
                -0.8527550101280212,
                0.6427502036094666,
                0.1064048781991005,
                -0.4801580309867859,
                0.2629009783267975,
                0.7179737687110901,
                0.6871982216835022,
                0.19523999094963074,
                -0.523253858089447,
                0.14916127920150757
            ],
            [
                -0.05562565103173256,
                -0.44977277517318726,
                0.0646042674779892,
                0.04244241490960121,
                -0.6538969874382019,
                -0.2160942405462265,
                -0.14574627578258514,
                -0.18286801874637604,
                0.7884061932563782,
                0.028224090114235878,
                0.8150689601898193,
                1.3011120557785034,
                -0.39776620268821716,
                -0.5719773173332214,
                -0.16090689599514008,
                -0.6446948647499084,
                -0.6848306655883789,
                -0.3958272933959961,
                0.5909250974655151,
                -0.03138800337910652,
                0.1858849823474884,
                -0.6892865300178528,
                -0.18385958671569824,
                -0.30909979343414307,
                0.23723259568214417,
                0.5406606793403625,
                0.28286415338516235
            ],
            [
                1.5854982137680054,
                0.48571693897247314,
                0.12382062524557114,
                0.511557936668396,
                0.553644061088562,
                -0.35635778307914734,
                1.308620572090149,
                -0.11154749244451523,
                0.19957281649112701,
                -0.022426195442676544,
                0.7921493649482727,
                -1.1031049489974976,
                0.01717430166900158,
                0.18755967915058136,
                0.1893620789051056,
                0.23527304828166962,
                -0.013835685327649117,
                0.07935656607151031,
                -0.02742719277739525,
                -0.21860210597515106,
                -0.3094649910926819,
                -0.0408022366464138,
                0.0243607796728611,
                0.09247403591871262,
                0.4904707372188568,
                1.464406132698059,
                0.14477011561393738
            ],
            [
                -0.5725239515304565,
                -0.5655713677406311,
                0.32440152764320374,
                0.10716987401247025,
                0.003153155790641904,
                0.05294584110379219,
                1.009983777999878,
                -0.9341797232627869,
                0.4130302667617798,
                -0.846642792224884,
                0.03942909091711044,
                1.4015991687774658,
                0.3267878293991089,
                -0.13387057185173035,
                0.97745281457901,
                0.1373482495546341,
                1.006282091140747,
                -0.26624372601509094,
                0.17065784335136414,
                -0.7005738615989685,
                -0.014803508296608925,
                -1.1463065147399902,
                0.6136336326599121,
                1.2350704669952393,
                0.09732018411159515,
                0.01125221699476242,
                -0.04643750190734863
            ],
            [
                0.005675403866916895,
                -0.02935813181102276,
                1.3109371662139893,
                0.01996636390686035,
                1.2690050601959229,
                0.02938448265194893,
                1.30923593044281,
                -1.3560901880264282,
                -0.10302712023258209,
                -1.3405357599258423,
                -0.05900023877620697,
                -1.3915702104568481,
                -1.1767306327819824,
                -0.27015259861946106,
                -1.0448157787322998,
                -0.23697815835475922,
                0.9828988909721375,
                0.38749879598617554,
                -0.34430548548698425,
                -0.6267070770263672,
                -0.3514971137046814,
                -0.617186963558197,
                0.6027783751487732,
                0.4099714756011963,
                -0.011268005706369877,
                -0.22195973992347717,
                -0.10394632071256638
            ],
            [
                -0.1668025106191635,
                -0.2585987150669098,
                0.9598739147186279,
                -0.24933750927448273,
                1.3570647239685059,
                0.24800533056259155,
                1.5809696912765503,
                -0.14087001979351044,
                0.03416996821761131,
                -0.18048764765262604,
                -0.5853099822998047,
                -1.7561832666397095,
                -0.0012333830818533897,
                0.0762316882610321,
                -0.72165846824646,
                -0.5736756920814514,
                0.1973300278186798,
                -0.028240546584129333,
                -0.033468130975961685,
                0.1925603300333023,
                0.11690182238817215,
                0.3122406005859375,
                -0.08094272017478943,
                -0.29122409224510193,
                -0.37585365772247314,
                -0.33307772874832153,
                -0.008268209174275398
            ],
            [
                -0.6589590311050415,
                -0.6346435546875,
                0.021878277882933617,
                0.5889018177986145,
                0.32702764868736267,
                0.32034388184547424,
                0.28332245349884033,
                0.09020861238241196,
                -0.6874167919158936,
                -0.6833193302154541,
                -0.49488088488578796,
                -0.2364826649427414,
                -0.024959225207567215,
                -0.022726889699697495,
                0.45953869819641113,
                -0.6586161255836487,
                0.988517701625824,
                0.01921095885336399,
                -1.457649827003479,
                -0.9229686260223389,
                0.0026920391246676445,
                -0.10687458515167236,
                -0.9417915344238281,
                -0.014328301884233952,
                -0.47469526529312134,
                -0.2478131353855133,
                -0.41869425773620605
            ],
            [
                0.03865933045744896,
                0.09766767919063568,
                0.3873792588710785,
                -1.271696925163269,
                -1.1015944480895996,
                0.06678080558776855,
                -0.015664365142583847,
                -0.26279836893081665,
                1.068341612815857,
                -0.02539561688899994,
                -0.9281721711158752,
                -0.27920278906822205,
                0.03983441740274429,
                -0.8181726932525635,
                -0.18526925146579742,
                -0.1923740953207016,
                0.4395750164985657,
                0.0845644548535347,
                1.0220838785171509,
                0.19355590641498566,
                1.0471391677856445,
                -0.366353839635849,
                -0.7871007323265076,
                -0.9969193935394287,
                -0.21352912485599518,
                -0.7278819680213928,
                -0.2248629629611969
            ],
            [
                -0.3472864031791687,
                -0.41359639167785645,
                0.4440491199493408,
                1.2747763395309448,
                -0.28419074416160583,
                0.4977756142616272,
                -0.1510319709777832,
                -1.3408210277557373,
                -0.5446175932884216,
                0.00947636179625988,
                -0.1945914775133133,
                -0.004811745602637529,
                0.14950081706047058,
                0.35275697708129883,
                -0.08623934537172318,
                0.3118612468242645,
                0.031208781525492668,
                -0.8638170957565308,
                -0.392689973115921,
                -0.09352541714906693,
                0.33139777183532715,
                -0.17271308600902557,
                0.14780743420124054,
                0.3039907217025757,
                0.1737547516822815,
                -0.8455148339271545,
                0.3176465332508087
            ],
            [
                0.6926983594894409,
                0.9897959232330322,
                1.008524775505066,
                -0.9399746060371399,
                1.2012147903442383,
                -1.1876300573349,
                -0.5065569281578064,
                -0.4108735918998718,
                0.034943126142024994,
                -0.080337293446064,
                -0.09281782060861588,
                0.2175833284854889,
                0.09359056502580643,
                0.019278479740023613,
                -0.041992977261543274,
                -0.040996991097927094,
                -0.19352465867996216,
                0.1291419118642807,
                0.08568467199802399,
                0.06122373417019844,
                0.1462036371231079,
                0.14079421758651733,
                -0.015551053918898106,
                -0.042393047362565994,
                0.15326665341854095,
                0.4179052710533142,
                -0.04549059644341469
            ],
            [
                0.10092950612306595,
                0.07956435531377792,
                0.8406873941421509,
                0.4917859435081482,
                0.6513282656669617,
                -0.413269966840744,
                0.18045669794082642,
                -1.3831688165664673,
                -0.13008160889148712,
                -1.3043442964553833,
                -0.460348516702652,
                0.05204455181956291,
                -1.283280849456787,
                -0.43873047828674316,
                -1.200112223625183,
                0.19203288853168488,
                -0.3029569685459137,
                -0.0826827809214592,
                0.31660354137420654,
                0.6923071146011353,
                0.17759588360786438,
                0.5933841466903687,
                -0.6277222037315369,
                -0.3361475169658661,
                -0.4923754036426544,
                -1.0582841634750366,
                -0.49937722086906433
            ],
            [
                -1.1913243532180786,
                -1.0660351514816284,
                -0.02645929716527462,
                1.2841463088989258,
                -0.09117892384529114,
                0.9700278043746948,
                -1.0733731985092163,
                0.06751784682273865,
                -1.1741292476654053,
                -0.03207259625196457,
                -1.0017197132110596,
                0.05308788642287254,
                0.028422730043530464,
                1.0657936334609985,
                -0.1256738007068634,
                0.9721553921699524,
                -1.1055352687835693,
                -0.02015663869678974,
                -1.1027708053588867,
                -0.15772058069705963,
                -0.7272000312805176,
                -0.0055993604473769665,
                0.9994847178459167,
                0.609654426574707,
                -0.07893955707550049,
                0.261638879776001,
                0.21964454650878906
            ],
            [
                0.46619608998298645,
                0.2169191688299179,
                0.029095133766531944,
                -0.036757536232471466,
                0.3751274049282074,
                0.298252135515213,
                0.3274662494659424,
                0.3294810652732849,
                -0.1197793036699295,
                0.09767960011959076,
                -0.29888734221458435,
                -0.34689411520957947,
                0.06190456077456474,
                0.047592293471097946,
                0.022573154419660568,
                0.7874795794487,
                0.5900248289108276,
                0.1286723017692566,
                -0.2010103315114975,
                0.4012391269207001,
                -0.5158195495605469,
                -2.241401195526123,
                0.1201872006058693,
                -2.0580289363861084,
                -0.38547927141189575,
                0.05213569477200508,
                -0.054972052574157715
            ],
            [
                0.34907642006874084,
                0.1619120091199875,
                -0.8261033892631531,
                -0.23426733911037445,
                -0.5946345329284668,
                -0.011239394545555115,
                -0.6540407538414001,
                1.315463900566101,
                -0.1455889791250229,
                1.3834158182144165,
                -0.04750931262969971,
                0.8215569257736206,
                -1.478730320930481,
                -0.14709824323654175,
                -1.6123745441436768,
                0.09021200239658356,
                -1.1136510372161865,
                0.6365154981613159,
                0.3056595027446747,
                1.0263031721115112,
                0.2757357954978943,
                0.8349757790565491,
                -1.0791889429092407,
                -1.12613844871521,
                -0.06292976438999176,
                0.6383899450302124,
                0.029539279639720917
            ],
            [
                -0.9495431184768677,
                -1.258283019065857,
                -0.2984974980354309,
                0.8843084573745728,
                -0.3142453730106354,
                0.10813765227794647,
                -0.806056559085846,
                0.19082975387573242,
                -0.7459540367126465,
                0.05620122328400612,
                -0.7474488019943237,
                0.6598671078681946,
                -0.09756682813167572,
                0.7817077040672302,
                -0.5178903341293335,
                -0.1677543967962265,
                -0.37670642137527466,
                0.35241013765335083,
                -0.7084953188896179,
                -0.006255962885916233,
                -0.42609310150146484,
                0.5752524733543396,
                0.5423943400382996,
                0.01141982153058052,
                -0.007164503913372755,
                -0.2600962519645691,
                -0.10482754558324814
            ],
            [
                -0.6074739098548889,
                -1.2653539180755615,
                -0.04421139508485794,
                0.7516831755638123,
                0.20628178119659424,
                -0.3813900351524353,
                0.5442119240760803,
                0.03750278800725937,
                -0.7172971963882446,
                -0.08222295343875885,
                -0.8947340250015259,
                0.08434507250785828,
                -0.08015364408493042,
                0.9309752583503723,
                0.24423396587371826,
                0.6082577705383301,
                -0.8794844746589661,
                0.13991759717464447,
                -0.7897934317588806,
                0.2351442277431488,
                -1.5290913581848145,
                0.11041903495788574,
                1.0913856029510498,
                -0.8055845499038696,
                0.10169711709022522,
                -0.8266618251800537,
                -0.27710482478141785
            ],
            [
                1.632019281387329,
                1.481474757194519,
                -0.046789128333330154,
                -1.4916216135025024,
                0.1283920705318451,
                -1.4282424449920654,
                1.8605759143829346,
                0.22528356313705444,
                1.5850701332092285,
                0.07165650278329849,
                1.383171558380127,
                -0.26845866441726685,
                -0.02250126376748085,
                -1.3315649032592773,
                -0.14242097735404968,
                -0.8041713833808899,
                0.7182658314704895,
                0.3187487721443176,
                1.5818021297454834,
                0.11318839341402054,
                1.118566632270813,
                -0.16560497879981995,
                -1.3201481103897095,
                -0.804012656211853,
                -0.2972935736179352,
                -0.8002541065216064,
                -0.2994198799133301
            ],
            [
                -1.59333074092865,
                -1.5938836336135864,
                -0.07023955881595612,
                0.0737747922539711,
                0.04074810445308685,
                -0.0076344613917171955,
                -1.2920135259628296,
                -0.028074659407138824,
                0.051938340067863464,
                0.012184101156890392,
                0.2223697453737259,
                -0.22718188166618347,
                -0.005548040382564068,
                0.10845077037811279,
                0.11806363612413406,
                0.07135596871376038,
                0.21087421476840973,
                0.14092953503131866,
                0.0493549108505249,
                0.05222111567854881,
                -0.026506364345550537,
                -0.12798897922039032,
                0.11623584479093552,
                0.23058301210403442,
                0.25717777013778687,
                -1.3533129692077637,
                0.18547680974006653
            ],
            [
                -0.06966845691204071,
                0.05576726794242859,
                0.8600122332572937,
                -0.09903138875961304,
                -0.974531888961792,
                0.057000532746315,
                -1.0776962041854858,
                1.0570476055145264,
                0.06111356243491173,
                1.155309796333313,
                0.05633418262004852,
                1.1318246126174927,
                -1.1336466073989868,
                0.10701806843280792,
                -1.012917399406433,
                0.028686944395303726,
                -1.0002014636993408,
                0.9921056628227234,
                0.2472279965877533,
                0.7162867784500122,
                0.2589492201805115,
                0.5233029723167419,
                -0.8551344275474548,
                -0.5417988896369934,
                -0.0924764946103096,
                -0.9169262051582336,
                -0.06299294531345367
            ],
            [
                -0.8318665027618408,
                -0.04839794337749481,
                -0.046212587505578995,
                0.04700404405593872,
                0.24590280652046204,
                -0.013066430576145649,
                -0.3129284381866455,
                -1.4428703784942627,
                -0.1998341977596283,
                -0.7789375185966492,
                -0.30935436487197876,
                -0.40177759528160095,
                0.7457243204116821,
                -0.18668192625045776,
                0.230937197804451,
                -0.26028379797935486,
                -0.2668437957763672,
                -0.9721724987030029,
                -0.24244937300682068,
                -0.08427087962627411,
                0.010922779329121113,
                0.2076466977596283,
                -0.05096903815865517,
                -0.6159019470214844,
                0.2143120914697647,
                0.6439857482910156,
                0.3950389623641968
            ]
        ],
        [
            [
                0.6328629851341248,
                0.11974091827869415,
                -0.03874202445149422,
                -0.12666895985603333,
                -0.3849553167819977,
                0.0467115193605423,
                -5.086991310119629,
                0.2981448471546173,
                -0.05838720500469208,
                0.4246161878108978,
                0.0012349763419479132,
                -0.015635348856449127,
                -0.02590714953839779,
                -0.07155252993106842,
                0.32874172925949097,
                -0.09093709290027618,
                0.16573593020439148,
                -0.27390825748443604,
                -1.5422754287719727,
                0.1810426265001297,
                -0.45277005434036255,
                0.015535048209130764,
                0.05472429469227791,
                -3.8903064727783203,
                0.5852367877960205,
                0.5031851530075073,
                -2.3420250415802,
                -4.008479595184326,
                -3.541252851486206,
                0.33974501490592957,
                -0.09933634102344513,
                0.2552510201931
            ],
            [
                -0.1450757533311844,
                0.4780369699001312,
                0.322395920753479,
                -0.42960673570632935,
                0.0241908747702837,
                -6.369107723236084,
                -0.01270974613726139,
                0.024750879034399986,
                0.30680885910987854,
                -0.22614021599292755,
                -0.7364426255226135,
                0.20869982242584229,
                0.30146729946136475,
                0.42583557963371277,
                -0.4378732740879059,
                0.3564816415309906,
                0.6755581498146057,
                1.0204689502716064,
                0.10320387035608292,
                -0.06966738402843475,
                0.040355537086725235,
                0.598750650882721,
                -0.4828527867794037,
                0.5096557140350342,
                0.2701350152492523,
                0.3663363754749298,
                -0.404739111661911,
                -0.2680164873600006,
                -0.2688501179218292,
                -0.23858743906021118,
                -4.207430362701416,
                -0.11941566318273544
            ],
            [
                0.05685970559716225,
                -0.03496716171503067,
                0.14815102517604828,
                0.28611910343170166,
                -0.10630166530609131,
                -8.98988151550293,
                0.02942540869116783,
                0.7083710432052612,
                1.0696954727172852,
                0.23281261324882507,
                1.5101855993270874,
                -0.3543963134288788,
                0.09114506840705872,
                0.04088530316948891,
                0.3150339424610138,
                0.31915223598480225,
                -0.21362239122390747,
                -0.48211991786956787,
                0.33110153675079346,
                -0.1400044709444046,
                0.2564794719219208,
                0.06308114528656006,
                -0.13704027235507965,
                -0.052273254841566086,
                0.14796747267246246,
                0.28349846601486206,
                -0.06637300550937653,
                0.1581970900297165,
                -0.22079406678676605,
                -1.1187734603881836,
                1.1912250518798828,
                0.16347886621952057
            ],
            [
                -0.2639481723308563,
                1.0902498960494995,
                0.10609927773475647,
                -0.1386871486902237,
                1.0995872020721436,
                -0.6858686208724976,
                -0.8503637313842773,
                0.7496854066848755,
                0.2988549768924713,
                -0.6762586236000061,
                0.256355881690979,
                -0.42330291867256165,
                0.4942212402820587,
                0.04354022815823555,
                0.2827818691730499,
                0.7041317820549011,
                0.25766533613204956,
                -0.41248857975006104,
                0.5776993632316589,
                0.1570073813199997,
                0.13215570151805878,
                -0.5138943791389465,
                -0.028723618015646935,
                0.3480122685432434,
                0.4218733310699463,
                -0.005283649545162916,
                -0.001742002321407199,
                -0.334428995847702,
                -0.3024488389492035,
                0.2866048514842987,
                0.1369229555130005,
                0.9481523036956787
            ],
            [
                1.0615140199661255,
                1.552288293838501,
                -0.5748488903045654,
                -0.23866009712219238,
                1.054172158241272,
                0.07167951762676239,
                0.8524025678634644,
                0.3235565423965454,
                0.04832806438207626,
                -0.14402875304222107,
                0.20121262967586517,
                -1.9421522617340088,
                0.26932457089424133,
                -0.8282947540283203,
                -0.5872224569320679,
                -0.055149562656879425,
                0.0808720514178276,
                -0.31015992164611816,
                0.49536246061325073,
                -0.021998358890414238,
                0.9217339158058167,
                -0.4478567838668823,
                -0.14190997183322906,
                0.5164057612419128,
                -0.11167678982019424,
                0.12190026789903641,
                0.14463014900684357,
                0.9706624746322632,
                -0.23561429977416992,
                0.40134555101394653,
                -0.10717611014842987,
                -0.830889880657196
            ],
            [
                -5.383132457733154,
                -1.965327501296997,
                0.11406947672367096,
                0.2411693036556244,
                -1.3067615032196045,
                -0.25774896144866943,
                -2.6295852661132812,
                -0.29251807928085327,
                -0.6640114784240723,
                0.21674317121505737,
                -0.5076951384544373,
                -0.5016362071037292,
                -1.6697874069213867,
                -0.13007839024066925,
                -2.0534486770629883,
                -0.2635086476802826,
                0.2413996160030365,
                -0.3089856803417206,
                0.569284200668335,
                -2.8186709880828857,
                -0.0010908873518928885,
                -1.450941562652588,
                0.35301584005355835,
                0.11308907717466354,
                0.2938476502895355,
                0.18000249564647675,
                -0.025835389271378517,
                0.5643771886825562,
                -0.28798365592956543,
                0.2483075112104416,
                0.4850909411907196,
                0.4631529748439789
            ],
            [
                0.5949392318725586,
                0.30890434980392456,
                0.12007443606853485,
                1.5555758476257324,
                0.1997656375169754,
                0.3928297162055969,
                -0.2959097623825073,
                0.09491444379091263,
                -1.0382709503173828,
                -0.37426668405532837,
                -1.3204331398010254,
                -0.2917518615722656,
                -0.07004983723163605,
                0.895953893661499,
                0.3250422477722168,
                -0.4394545257091522,
                -7.93609094619751,
                1.1554114818572998,
                0.6816176772117615,
                -0.010473056696355343,
                0.003903744276612997,
                0.46657794713974,
                -1.9276701211929321,
                0.2799598276615143,
                -0.04695494472980499,
                -0.057923708111047745,
                -0.14491288363933563,
                0.0917290672659874,
                -0.4657062292098999,
                -0.24427974224090576,
                -0.9522446393966675,
                0.21167907118797302
            ],
            [
                -0.16269052028656006,
                -0.28418460488319397,
                0.9631003737449646,
                -0.13659711182117462,
                -0.03350171819329262,
                0.08489259332418442,
                0.1576588749885559,
                0.014543051831424236,
                1.5116233825683594,
                0.5695979595184326,
                0.2434176206588745,
                0.9498104453086853,
                -0.2249121516942978,
                0.4318515956401825,
                -0.96925288438797,
                0.06646610051393509,
                0.5940207242965698,
                -1.1529603004455566,
                -0.24329444766044617,
                0.5759990215301514,
                -0.020426686853170395,
                -0.942274808883667,
                0.32944542169570923,
                0.5763060450553894,
                -0.8714070320129395,
                -1.0045171976089478,
                -0.38564616441726685,
                0.4014408588409424,
                -1.3997613191604614,
                -0.49696433544158936,
                0.8604656457901001,
                0.11310392618179321
            ],
            [
                0.17290574312210083,
                0.04069507494568825,
                0.0480475090444088,
                0.18145887553691864,
                -0.10686057806015015,
                -0.8244480490684509,
                -0.22581154108047485,
                0.6898279190063477,
                0.23223207890987396,
                -0.08072119951248169,
                1.5752196311950684,
                0.007052604574710131,
                0.40031930804252625,
                -0.0609712190926075,
                0.3282877206802368,
                1.296614408493042,
                1.2888054847717285,
                -0.4088585376739502,
                0.26844722032546997,
                -0.033014312386512756,
                -0.04458599537611008,
                0.27245548367500305,
                -0.354688823223114,
                -0.5201092958450317,
                1.190496802330017,
                -0.9618150591850281,
                -0.09302236139774323,
                0.05148153379559517,
                -0.21969754993915558,
                -0.3359912037849426,
                -0.2736029028892517,
                1.130326271057129
            ],
            [
                -0.34281203150749207,
                0.6265271306037903,
                0.8160470128059387,
                0.05695957690477371,
                0.5149876475334167,
                0.036595482379198074,
                -1.5089612007141113,
                0.6757504940032959,
                0.4862931966781616,
                0.5143680572509766,
                -0.5791123509407043,
                -0.07556942850351334,
                -0.08634094893932343,
                0.708046019077301,
                0.8818251490592957,
                0.4052886962890625,
                -0.0289347805082798,
                -0.21685177087783813,
                0.2755087912082672,
                0.9022353291511536,
                -0.5134226679801941,
                0.41879144310951233,
                -0.06797803938388824,
                -0.5866496562957764,
                0.7587132453918457,
                0.2216021567583084,
                -0.46767961978912354,
                -1.3317766189575195,
                -0.21672853827476501,
                -0.050433602184057236,
                0.002925711451098323,
                0.7785916924476624
            ],
            [
                -2.0019524097442627,
                0.9476057291030884,
                0.13991360366344452,
                0.1001342311501503,
                1.0771193504333496,
                0.1467820107936859,
                -1.0210260152816772,
                0.6048307418823242,
                0.2972465455532074,
                -1.100097417831421,
                -0.031112216413021088,
                -1.8623569011688232,
                0.24685868620872498,
                -0.04778091609477997,
                -0.12216752767562866,
                0.010881754569709301,
                0.3369327187538147,
                -0.013779412023723125,
                0.6891887187957764,
                -0.3755742013454437,
                1.0902243852615356,
                0.1383626013994217,
                -0.17955929040908813,
                -2.7308287620544434,
                0.20342756807804108,
                -0.11463556438684464,
                1.5810621976852417,
                1.0201802253723145,
                -1.1269112825393677,
                0.4447028636932373,
                0.26685431599617004,
                0.1892179548740387
            ],
            [
                1.0158486366271973,
                -0.04507506638765335,
                0.48744848370552063,
                -0.14782243967056274,
                -0.025158805772662163,
                0.12975923717021942,
                -2.5102741718292236,
                0.6537911295890808,
                0.43670377135276794,
                0.5004002451896667,
                -0.4803338944911957,
                0.7121348977088928,
                -0.22691065073013306,
                0.8140756487846375,
                1.1410725116729736,
                0.19923093914985657,
                -0.03788376599550247,
                -0.42207732796669006,
                -0.3431187868118286,
                1.2809884548187256,
                -0.9409356117248535,
                0.43332207202911377,
                0.3375403583049774,
                -1.79593825340271,
                0.3006569445133209,
                0.2813001573085785,
                -1.345748782157898,
                -2.657146453857422,
                -0.8976936936378479,
                -0.2274457961320877,
                -0.10479091107845306,
                0.7557597756385803
            ],
            [
                0.1306408941745758,
                0.08318591862916946,
                -0.47072967886924744,
                1.1086316108703613,
                0.41026097536087036,
                -0.7053864002227783,
                -0.14037513732910156,
                0.7675069570541382,
                0.38835689425468445,
                0.2560291290283203,
                0.7209953665733337,
                0.15701624751091003,
                0.24247431755065918,
                -0.4306870996952057,
                0.7554234266281128,
                1.215232253074646,
                0.9240110516548157,
                0.19925810396671295,
                0.22101108729839325,
                0.1891574263572693,
                0.08756285905838013,
                0.449348509311676,
                0.9203106760978699,
                -0.0216445904225111,
                1.122015118598938,
                -2.857156276702881,
                -0.5569760203361511,
                0.15154622495174408,
                -0.14403951168060303,
                -0.14393408596515656,
                0.9705380797386169,
                0.7202115654945374
            ],
            [
                0.7467557191848755,
                -0.3751552402973175,
                0.33169180154800415,
                -0.10601124167442322,
                -0.2121696025133133,
                -0.08888334780931473,
                0.18081159889698029,
                0.5343884825706482,
                0.13937003910541534,
                0.279563307762146,
                0.08916447311639786,
                -0.23672311007976532,
                0.037289246916770935,
                -0.14269950985908508,
                -0.13983066380023956,
                0.11965987086296082,
                0.22169990837574005,
                -0.2604963481426239,
                -0.344967782497406,
                0.10524344444274902,
                0.6018273234367371,
                0.07709790021181107,
                0.07775044441223145,
                1.4292446374893188,
                0.6863261461257935,
                0.2662888467311859,
                0.06778784841299057,
                0.108578160405159,
                -0.7236546277999878,
                0.2642243802547455,
                0.13112318515777588,
                0.20569947361946106
            ],
            [
                -0.6820770502090454,
                0.8348989486694336,
                0.5461198687553406,
                -0.2563861906528473,
                0.8554922342300415,
                0.6787355542182922,
                -0.06673333793878555,
                -0.8774939179420471,
                -1.48478102684021,
                0.5933201313018799,
                0.9719797372817993,
                1.0546927452087402,
                0.34040912985801697,
                0.5482842922210693,
                -0.5351749658584595,
                -0.7786926031112671,
                0.9930797219276428,
                0.1258622109889984,
                -0.5611621737480164,
                0.677462637424469,
                0.10066235065460205,
                0.3987116813659668,
                1.2517313957214355,
                0.38448646664619446,
                -0.24060285091400146,
                -0.1995488405227661,
                0.6411693692207336,
                -0.5065954923629761,
                -0.9885028004646301,
                -2.32159161567688,
                -0.2318623960018158,
                0.5923444032669067
            ],
            [
                0.5638033151626587,
                0.2570066452026367,
                -0.35714656114578247,
                -0.7340580821037292,
                0.33127105236053467,
                -0.30062851309776306,
                0.3300374448299408,
                -0.04627741873264313,
                0.6012687683105469,
                -4.243867874145508,
                0.5636571049690247,
                -2.185072898864746,
                1.6620590686798096,
                0.2243276834487915,
                0.16863372921943665,
                0.012131363153457642,
                -0.22253605723381042,
                -0.0011727495584636927,
                -0.4264832139015198,
                0.8375608325004578,
                1.0899598598480225,
                -0.32258304953575134,
                0.9663302302360535,
                -0.03632668778300285,
                -0.28448358178138733,
                0.051423195749521255,
                -0.4502161741256714,
                0.05570223554968834,
                0.5284937620162964,
                0.2982981503009796,
                -0.20175525546073914,
                0.6075806617736816
            ]
        ],
        [
            [
                -0.11764262616634369,
                1.0072544813156128,
                1.3491809368133545,
                -0.23573563992977142,
                -0.24519763886928558,
                -0.2982123792171478,
                1.1223224401474,
                -0.7144367694854736,
                -0.32951614260673523,
                -0.5904120802879333,
                0.29380476474761963,
                0.35546788573265076,
                0.8707365989685059,
                -0.15664634108543396,
                0.8980736136436462,
                0.1375129073858261
            ],
            [
                0.08957197517156601,
                -0.601970911026001,
                0.24180367588996887,
                0.26328492164611816,
                -1.3627948760986328,
                0.6043923497200012,
                0.3401409089565277,
                0.03218228742480278,
                -0.0743359699845314,
                -0.7979570627212524,
                0.27348944544792175,
                0.19473698735237122,
                0.40672972798347473,
                -0.0012556174769997597,
                0.00994253158569336,
                -1.5342963933944702
            ],
            [
                2.378448963165283,
                0.18461278080940247,
                0.3314620852470398,
                -0.6517412066459656,
                -0.47751957178115845,
                0.9489883184432983,
                0.11096258461475372,
                0.39945274591445923,
                0.2030985802412033,
                -0.3599233031272888,
                1.217742681503296,
                0.8075061440467834,
                -0.21104305982589722,
                -1.3615723848342896,
                -0.04476457089185715,
                0.4254198372364044
            ],
            [
                0.3398749828338623,
                0.3793480098247528,
                -0.14231577515602112,
                -0.0740673616528511,
                0.2717980146408081,
                0.5025637745857239,
                0.40666618943214417,
                -0.021104643121361732,
                -0.5992360711097717,
                0.9015463590621948,
                0.21269622445106506,
                -0.8214333057403564,
                1.9487428665161133,
                -0.06512878835201263,
                0.2781631648540497,
                0.3828624188899994
            ],
            [
                0.06072094291448593,
                -0.398303359746933,
                0.22645452618598938,
                1.1850717067718506,
                0.8166539072990417,
                -0.5576170682907104,
                -0.08211100846529007,
                0.17883411049842834,
                0.7421217560768127,
                0.35455772280693054,
                0.6203540563583374,
                -0.561570942401886,
                -1.0519458055496216,
                -0.15874318778514862,
                0.43317705392837524,
                0.5991950631141663
            ],
            [
                -0.06017060950398445,
                -0.08573886007070541,
                0.05114429444074631,
                -0.16269636154174805,
                0.08643072098493576,
                0.04641203582286835,
                -0.5558210015296936,
                -0.11835004389286041,
                -0.16750897467136383,
                -0.013051786459982395,
                -0.0693848729133606,
                -0.3309183120727539,
                -0.04987524449825287,
                -0.0643949881196022,
                -0.2796768248081207,
                -0.5102186799049377
            ],
            [
                -0.19701968133449554,
                0.04425479844212532,
                1.0324290990829468,
                0.005258760415017605,
                -0.9497812986373901,
                0.15768688917160034,
                0.19466090202331543,
                1.047737717628479,
                1.1272647380828857,
                -0.3755969703197479,
                -0.32556024193763733,
                0.49670279026031494,
                -1.2052305936813354,
                0.253290057182312,
                0.7423722743988037,
                -0.34563755989074707
            ],
            [
                0.9645086526870728,
                0.05613033100962639,
                0.5979986190795898,
                0.008216715417802334,
                1.2423592805862427,
                -1.395293951034546,
                0.13693316280841827,
                0.2590407729148865,
                0.1494750678539276,
                1.6304810047149658,
                -0.05945718660950661,
                -2.3475868701934814,
                -0.4217917323112488,
                -0.19738410413265228,
                0.6406311392784119,
                0.49208101630210876
            ]
        ],
        [
            [
                -0.4797596037387848,
                0.8726112246513367,
                -0.042141471058130264,
                -0.7808693647384644,
                0.7054120898246765,
                -0.21151778101921082,
                0.8332292437553406,
                0.26095956563949585
            ],
            [
                0.35400232672691345,
                0.18306446075439453,
                -0.02949661947786808,
                -0.5569141507148743,
                0.379805326461792,
                -0.21221499145030975,
                0.7794869542121887,
                0.42237403988838196
            ],
            [
                0.06748933345079422,
                -0.5643740892410278,
                1.2358144521713257,
                -0.0024964765179902315,
                0.6390169262886047,
                0.04804849997162819,
                -0.28855645656585693,
                1.4342409372329712
            ],
            [
                -0.23136423528194427,
                -1.9340736865997314,
                0.08214618265628815,
                -0.04647982120513916,
                -1.4820362329483032,
                -0.461727112531662,
                0.5674641728401184,
                0.5632955431938171
            ]
        ],
        [
            [
                -0.8777186274528503,
                0.7958332300186157,
                -0.044876813888549805,
                -0.08664857596158981
            ],
            [
                -0.009999804198741913,
                0.18520160019397736,
                -0.4492417871952057,
                -0.5421457886695862
            ]
        ]
    ]
}