{
    "biases": [
        [
            -0.48086199164390564,
            -0.2263052612543106,
            1.1790060997009277,
            -0.7064474821090698,
            -0.5842412114143372,
            -0.2515657842159271,
            1.0297480821609497,
            0.02497728168964386,
            -0.3809587359428406,
            0.023524142801761627,
            -1.0247712135314941,
            -0.3873186409473419,
            -0.10356015712022781,
            0.5337985157966614,
            -0.6270114183425903,
            -0.09888628870248795,
            -0.2052014321088791,
            0.06979212164878845,
            -0.240200474858284,
            1.080409049987793,
            -0.4454546272754669,
            0.46897247433662415,
            0.049509529024362564,
            -0.1073770746588707,
            -0.37266436219215393,
            -1.398888111114502,
            -0.34412673115730286,
            0.2590351998806,
            -0.5047575235366821,
            1.531814694404602,
            -0.4283663034439087,
            -0.907696545124054
        ],
        [
            -0.5395101308822632,
            0.41623547673225403,
            0.3037659227848053,
            0.0048704384826123714,
            -0.049183592200279236,
            -0.4989098608493805,
            -0.04863756150007248,
            0.09285274147987366,
            0.24750180542469025,
            -0.2088213413953781,
            0.6787813901901245,
            0.36619362235069275,
            -0.3527742326259613,
            0.279674768447876,
            0.2151227593421936,
            0.652711033821106
        ],
        [
            0.1821344643831253,
            -0.519798219203949,
            -0.20233529806137085,
            -0.0027650888077914715,
            -0.1784442961215973,
            1.7244396209716797,
            -0.24740423262119293,
            0.2902536392211914
        ],
        [
            0.6527173519134521,
            1.3993921279907227,
            0.17861826717853546,
            -0.6389078497886658
        ],
        [
            -0.8434892892837524,
            1.458836555480957
        ]
    ],
    "weights": [
        [
            [
                0.2395400106906891,
                1.1162245273590088,
                -0.4209941625595093,
                0.8397255539894104,
                -1.052261233329773,
                -0.3169980049133301,
                1.3359973430633545,
                0.11687494069337845,
                0.04845194146037102,
                0.02360771782696247,
                0.05782829597592354,
                -1.040515422821045,
                -0.0880851149559021,
                -0.008665798231959343,
                0.08542726933956146,
                1.0952366590499878,
                0.17334812879562378,
                0.08003530651330948,
                -0.026915064081549644,
                0.11075139045715332,
                0.032497502863407135,
                -1.1413418054580688,
                0.1320452094078064,
                -0.9760966300964355
            ],
            [
                -0.28855523467063904,
                -0.655950665473938,
                -0.750144362449646,
                0.7047258019447327,
                -0.901188313961029,
                -0.8958497643470764,
                0.6674994230270386,
                -0.8540318012237549,
                0.823860228061676,
                0.24013924598693848,
                -0.35382917523384094,
                -0.19413311779499054,
                -0.5958262085914612,
                -0.2654232382774353,
                0.19184142351150513,
                0.2287735790014267,
                0.13822822272777557,
                0.500694215297699,
                0.9108350276947021,
                -0.45443838834762573,
                0.24798375368118286,
                -0.49900978803634644,
                -0.3374566435813904,
                0.22685062885284424
            ],
            [
                1.444216251373291,
                0.3548225462436676,
                -0.4582264721393585,
                -0.5692731142044067,
                0.6087801456451416,
                -0.532244861125946,
                0.8880313634872437,
                -0.49610206484794617,
                0.8045663237571716,
                -0.5786597728729248,
                0.770524263381958,
                -0.9929239749908447,
                -0.03958730399608612,
                -0.13388770818710327,
                -0.08043143153190613,
                0.04266313835978508,
                -0.34038838744163513,
                0.32021719217300415,
                -0.12909629940986633,
                0.23796525597572327,
                0.006233093794435263,
                0.11863482743501663,
                -0.23319685459136963,
                -0.09683071076869965
            ],
            [
                -0.06253331899642944,
                0.05677187442779541,
                -0.4939875602722168,
                0.06535673886537552,
                -0.48700812458992004,
                -0.06923800706863403,
                0.045959893614053726,
                1.573350429534912,
                -0.8367105722427368,
                -0.5713783502578735,
                -0.2932918965816498,
                -0.2324134111404419,
                -0.023689381778240204,
                -0.6042262315750122,
                0.16800275444984436,
                0.004424767103046179,
                0.06753750145435333,
                -1.1012552976608276,
                0.04895686358213425,
                -0.17109237611293793,
                0.19444967806339264,
                -0.503163754940033,
                -0.20372872054576874,
                0.36622580885887146
            ],
            [
                1.3480792045593262,
                0.006684228777885437,
                -0.31120267510414124,
                -1.4095019102096558,
                0.565970242023468,
                -0.4893641173839569,
                0.2735055983066559,
                0.004679916892200708,
                2.0830771923065186,
                -0.712654173374176,
                -0.47149017453193665,
                -0.03534895181655884,
                -0.5208529829978943,
                -0.5658281445503235,
                -0.11982732266187668,
                0.022802243009209633,
                0.09429583698511124,
                0.1673944592475891,
                -0.0977284237742424,
                -0.032955750823020935,
                0.2375393807888031,
                -0.08362139761447906,
                -0.09483260661363602,
                -0.0734587088227272
            ],
            [
                -0.35800424218177795,
                -0.5051065683364868,
                0.12876729667186737,
                1.0344487428665161,
                -0.6503398418426514,
                1.0749951601028442,
                -1.2510615587234497,
                -0.5421290993690491,
                -0.36731410026550293,
                -0.09826850891113281,
                0.41743341088294983,
                -0.26990213990211487,
                0.2661798894405365,
                -0.06427058577537537,
                -0.1453910619020462,
                0.000143900397233665,
                0.04240766912698746,
                -1.219674825668335,
                -0.16289904713630676,
                0.025716891512274742,
                0.26309511065483093,
                0.18066392838954926,
                0.026623377576470375,
                -0.19128510355949402
            ],
            [
                0.20401237905025482,
                0.925153911113739,
                0.4082236588001251,
                -0.5933278799057007,
                0.196102112531662,
                -1.0010906457901,
                -0.0805547833442688,
                -0.4401146173477173,
                -0.33397698402404785,
                0.3873355984687805,
                -0.37863093614578247,
                1.176762580871582,
                -0.21311920881271362,
                0.2903493046760559,
                -0.33348825573921204,
                -0.5344737768173218,
                0.43220746517181396,
                0.12234539538621902,
                -0.26270022988319397,
                -0.05607149377465248,
                0.0803418979048729,
                0.5410201549530029,
                0.09484320133924484,
                -0.5649585127830505
            ],
            [
                -0.7153744101524353,
                -0.11529146879911423,
                0.37505480647087097,
                -0.3074800968170166,
                -0.021962814033031464,
                -0.06306027621030807,
                -0.5416660308837891,
                -0.412673681974411,
                0.20416785776615143,
                0.19429345428943634,
                -0.47513970732688904,
                0.3551258444786072,
                0.22801434993743896,
                -0.07726506888866425,
                -0.13087263703346252,
                0.23690864443778992,
                -0.5327482223510742,
                -1.1001096963882446,
                -0.1540425419807434,
                0.004211036954075098,
                0.1939471960067749,
                -0.26678088307380676,
                -0.07356186956167221,
                0.07983708381652832
            ],
            [
                -1.0604228973388672,
                -0.13826341927051544,
                -0.016287460923194885,
                -0.11523730307817459,
                -0.44636717438697815,
                -0.18170557916164398,
                -0.8989793062210083,
                0.004155779257416725,
                0.38957417011260986,
                -0.9430873990058899,
                -1.1074657440185547,
                0.5911624431610107,
                0.10150875151157379,
                0.11837854981422424,
                0.14001283049583435,
                0.037331752479076385,
                -0.9251119494438171,
                0.4535837471485138,
                -0.2649068236351013,
                -0.0573866032063961,
                -0.10464650392532349,
                -0.40270736813545227,
                0.3351452648639679,
                0.5116134881973267
            ],
            [
                0.027422504499554634,
                0.2881838083267212,
                -0.7986918687820435,
                -0.5744571685791016,
                0.044347137212753296,
                0.6344615817070007,
                -0.6261374354362488,
                -0.8634658455848694,
                1.2850347757339478,
                0.41996243596076965,
                0.1333799660205841,
                0.11557846516370773,
                -0.33347758650779724,
                -0.06121901050209999,
                0.0888628289103508,
                -0.681560218334198,
                0.446055144071579,
                0.7241997122764587,
                0.8168977499008179,
                -0.31614089012145996,
                0.26095065474510193,
                0.14144542813301086,
                -0.42384102940559387,
                -0.6332626938819885
            ],
            [
                -1.5826963186264038,
                -0.08715322613716125,
                -0.011660379357635975,
                0.13566777110099792,
                0.3465404808521271,
                -0.8092504143714905,
                1.4768589735031128,
                -0.7727394700050354,
                0.23746199905872345,
                0.05194266140460968,
                0.25998085737228394,
                0.037271395325660706,
                0.1486828476190567,
                -0.3479004204273224,
                -0.054956380277872086,
                -0.3108617067337036,
                0.3262200355529785,
                -0.7264676094055176,
                0.1689637452363968,
                0.4032352566719055,
                0.4679023325443268,
                0.14570482075214386,
                0.004883841145783663,
                -0.0483243390917778
            ],
            [
                -0.0528806634247303,
                -0.7570439577102661,
                0.13183444738388062,
                -0.5935416221618652,
                -0.07770486921072006,
                0.4522322416305542,
                -0.3803008496761322,
                1.3773266077041626,
                -0.6369273662567139,
                1.0221989154815674,
                -0.27349239587783813,
                -0.09877869486808777,
                0.026456575840711594,
                -0.5181419253349304,
                -0.053320132195949554,
                -0.2907067537307739,
                0.0708155483007431,
                0.636753499507904,
                -0.5769643187522888,
                -0.6797730326652527,
                1.0544159412384033,
                -0.8524050712585449,
                -0.28983476758003235,
                0.022701041772961617
            ],
            [
                1.4698376655578613,
                -0.7858716249465942,
                0.8127827644348145,
                -1.000984787940979,
                1.0033704042434692,
                -0.8261104226112366,
                0.20388849079608917,
                0.012285652570426464,
                -0.7520483732223511,
                0.7846497893333435,
                -0.5464544296264648,
                0.3639180660247803,
                0.0061153871938586235,
                -0.4429994821548462,
                0.07098568975925446,
                0.07807734608650208,
                -0.4423947036266327,
                0.6963985562324524,
                0.3830045759677887,
                -0.02370443381369114,
                0.23785308003425598,
                0.24846002459526062,
                -0.29235395789146423,
                -0.10658857226371765
            ],
            [
                0.3828468322753906,
                0.6340219378471375,
                0.6039263606071472,
                0.988228976726532,
                0.7597924470901489,
                0.7023876905441284,
                -0.7914389371871948,
                -0.5773628354072571,
                -0.012476375326514244,
                0.22452574968338013,
                0.469668447971344,
                -0.3065048158168793,
                0.2734683156013489,
                0.39395150542259216,
                -0.2571659982204437,
                -0.10543004423379898,
                0.33548274636268616,
                -0.23577429354190826,
                -0.37896811962127686,
                0.005578709300607443,
                0.15763691067695618,
                0.027126280590891838,
                0.20509234070777893,
                -0.06813028454780579
            ],
            [
                0.5853829979896545,
                -0.11538431793451309,
                -0.18777625262737274,
                -0.9624863266944885,
                -0.9022403359413147,
                1.1135166883468628,
                -0.9255000352859497,
                -0.058384958654642105,
                -0.29926854372024536,
                -0.09880898147821426,
                0.35676825046539307,
                -0.21071240305900574,
                0.062174733728170395,
                -0.20711247622966766,
                -0.01181015931069851,
                -0.047860320657491684,
                -0.0029289552476257086,
                -0.9521735310554504,
                -0.0017498756060376763,
                0.20334850251674652,
                -0.10752396285533905,
                0.17520834505558014,
                -0.034423939883708954,
                -0.010237826965749264
            ],
            [
                -0.17632488906383514,
                0.07310476154088974,
                -0.5550264120101929,
                0.824303150177002,
                -0.6014229655265808,
                0.6030284762382507,
                -0.7656612396240234,
                1.6617393493652344,
                1.2682065963745117,
                0.26887786388397217,
                -0.47378113865852356,
                0.36239147186279297,
                -0.20521511137485504,
                0.08219553530216217,
                0.19619077444076538,
                0.08623139560222626,
                -0.16643336415290833,
                -0.7818624377250671,
                0.3161265254020691,
                0.1349479705095291,
                -0.10158062726259232,
                0.009622132405638695,
                0.0030352696776390076,
                -0.04078717157244682
            ],
            [
                0.28013306856155396,
                -0.2877325117588043,
                0.3549216687679291,
                -0.21853043138980865,
                -0.9219849705696106,
                0.1505935937166214,
                -0.7658031582832336,
                -0.3892752230167389,
                0.20041736960411072,
                -0.3498608469963074,
                0.1459221988916397,
                -1.010096788406372,
                0.051999688148498535,
                0.27029308676719666,
                -0.1914856880903244,
                -0.7032239437103271,
                0.005895296577364206,
                -0.1948554664850235,
                -0.004862271714955568,
                -0.21265238523483276,
                0.08785758912563324,
                0.6194266080856323,
                0.1209571585059166,
                -0.6097643971443176
            ],
            [
                1.742162823677063,
                0.41652435064315796,
                -0.12758760154247284,
                -0.12434575706720352,
                0.43510332703590393,
                -1.5578242540359497,
                -0.36789461970329285,
                0.3750822842121124,
                0.30839109420776367,
                0.5093462467193604,
                -0.33480438590049744,
                1.3357298374176025,
                0.03227012977004051,
                0.06289909780025482,
                -0.4514384865760803,
                -0.5132318139076233,
                -0.8952458500862122,
                0.4021109342575073,
                -0.146762877702713,
                0.03834541514515877,
                0.15182411670684814,
                -1.014443278312683,
                0.13172201812267303,
                0.6914902329444885
            ],
            [
                -0.9234119057655334,
                -0.43754443526268005,
                0.07049711048603058,
                0.26954570412635803,
                -0.10977643728256226,
                -0.2969740927219391,
                -0.3869123160839081,
                0.7017665505409241,
                -0.6528298258781433,
                0.6541686058044434,
                0.251930296421051,
                -0.4804570972919464,
                0.009373909793794155,
                0.2195023149251938,
                -0.4376685619354248,
                0.20450636744499207,
                0.5400833487510681,
                0.2916005253791809,
                -0.14104466140270233,
                0.23611967265605927,
                -0.13586604595184326,
                1.00686514377594,
                -0.0368659645318985,
                -1.009081244468689
            ],
            [
                1.4337769746780396,
                1.0106092691421509,
                -0.6065312027931213,
                -0.6631569266319275,
                -0.7626762986183167,
                0.16349691152572632,
                -0.7107835412025452,
                0.3197283446788788,
                0.1179099753499031,
                -0.4092395007610321,
                0.41238051652908325,
                -0.023925017565488815,
                0.06010657921433449,
                -0.06875092536211014,
                -0.007976209744811058,
                0.0229021143168211,
                -0.5491510629653931,
                0.16237963736057281,
                -0.2993418872356415,
                0.2808418273925781,
                -0.0896340012550354,
                0.5169491171836853,
                0.060743290930986404,
                -0.40518495440483093
            ],
            [
                -0.33079782128334045,
                -1.1713483333587646,
                0.0827237144112587,
                0.17314906418323517,
                -0.3462342917919159,
                -0.48148006200790405,
                -0.45151281356811523,
                0.11017823219299316,
                0.21597827970981598,
                0.762230634689331,
                0.3472670614719391,
                0.5743671655654907,
                0.25290054082870483,
                -0.06079927831888199,
                -0.28856736421585083,
                -0.5044569969177246,
                -0.08106586337089539,
                0.037676114588975906,
                -0.10969138145446777,
                -0.0035934702027589083,
                -0.01601865515112877,
                -0.6118837594985962,
                0.187901571393013,
                0.46916887164115906
            ],
            [
                0.17377595603466034,
                1.7899352312088013,
                -0.18517789244651794,
                0.0807967409491539,
                0.15416096150875092,
                0.21166682243347168,
                -0.2193782776594162,
                -0.22780799865722656,
                0.06991475075483322,
                -0.30068260431289673,
                -0.025871412828564644,
                -0.036039285361766815,
                -0.045422010123729706,
                -0.2196531444787979,
                -0.2667770981788635,
                -0.3079148828983307,
                0.2244846075773239,
                -0.18645620346069336,
                1.1047892570495605,
                -0.26812809705734253,
                0.2561562657356262,
                -0.12279845774173737,
                -0.46491849422454834,
                -0.3598131835460663
            ],
            [
                1.1210237741470337,
                0.6744052767753601,
                0.9248464703559875,
                0.6829932928085327,
                0.09072569012641907,
                0.10465063154697418,
                -0.25197768211364746,
                0.21131065487861633,
                -1.2624478340148926,
                0.2012634426355362,
                -0.3122200667858124,
                -0.1561133712530136,
                -1.1345723867416382,
                -0.5046494007110596,
                0.0849868580698967,
                0.21556483209133148,
                -0.18912725150585175,
                -0.14166294038295746,
                -0.21104171872138977,
                0.07279833406209946,
                0.16766943037509918,
                0.048309922218322754,
                0.10942787677049637,
                -0.07809136062860489
            ],
            [
                -0.21482619643211365,
                -0.4102749824523926,
                1.47791588306427,
                -0.6520470380783081,
                0.15850907564163208,
                -0.5307808518409729,
                0.22584892809391022,
                -1.5899035930633545,
                -0.3008875548839569,
                0.2239360809326172,
                0.024504199624061584,
                0.015721624717116356,
                -0.3359296917915344,
                0.13933537900447845,
                0.09526439011096954,
                0.5108153223991394,
                -0.2623089551925659,
                -0.42416834831237793,
                0.22862477600574493,
                0.10998325049877167,
                -0.03347432240843773,
                -0.2301335334777832,
                -0.13479983806610107,
                0.32139110565185547
            ],
            [
                0.12099547684192657,
                -0.8101102709770203,
                0.35134854912757874,
                -1.0039072036743164,
                -0.08721345663070679,
                0.05372612178325653,
                0.24303005635738373,
                0.8876181244850159,
                -0.5900244116783142,
                -0.7290003895759583,
                -0.0975612923502922,
                0.26597902178764343,
                0.743696928024292,
                0.9633748531341553,
                -0.09548506140708923,
                0.0039116679690778255,
                0.03823554888367653,
                -0.7962109446525574,
                -0.7062711119651794,
                -0.39039674401283264,
                -0.2760255038738251,
                0.029634643346071243,
                0.9620351791381836,
                0.07404911518096924
            ],
            [
                0.278748095035553,
                -0.36790189146995544,
                -0.23605550825595856,
                -0.08205339312553406,
                0.10760314017534256,
                -0.16713164746761322,
                -0.5083980560302734,
                -0.6477665901184082,
                1.3814805746078491,
                -1.1056756973266602,
                1.7541542053222656,
                -1.0035914182662964,
                -0.2047656625509262,
                0.1909707486629486,
                -0.49838340282440186,
                -0.2269785851240158,
                0.5305649042129517,
                0.2166065275669098,
                0.007024549413472414,
                0.12617610394954681,
                0.14247021079063416,
                -0.07207854092121124,
                -0.17482207715511322,
                0.07578733563423157
            ],
            [
                -1.5718324184417725,
                -0.11051438003778458,
                -1.1058604717254639,
                -1.077142357826233,
                1.058564305305481,
                -0.8113697171211243,
                0.7014085054397583,
                0.7088401317596436,
                -0.11572521924972534,
                0.12524159252643585,
                -0.3224189281463623,
                -0.2264477014541626,
                -0.1926598697900772,
                -0.06298726052045822,
                0.20488207042217255,
                0.10019057244062424,
                -0.16429893672466278,
                -0.038033463060855865,
                -0.1441272497177124,
                -0.032480813562870026,
                -0.1702955663204193,
                -0.33715781569480896,
                -0.0032138407696038485,
                0.2594636380672455
            ],
            [
                -1.4718223810195923,
                0.1539170891046524,
                0.0057096160016953945,
                0.14821329712867737,
                0.3452271521091461,
                0.37940195202827454,
                -0.09280888736248016,
                -1.039637804031372,
                -0.44972729682922363,
                -0.13692550361156464,
                0.07579534500837326,
                -0.2468634694814682,
                0.05486193671822548,
                0.04445752501487732,
                0.19279134273529053,
                0.08003292232751846,
                0.10305866599082947,
                1.0121839046478271,
                0.5675547122955322,
                -0.3731530010700226,
                0.10877449065446854,
                -0.03644740581512451,
                -0.01217908225953579,
                0.16015228629112244
            ],
            [
                0.17461755871772766,
                0.7015419602394104,
                0.15308111906051636,
                0.1544535905122757,
                -0.20245373249053955,
                0.5057792067527771,
                2.6967756748199463,
                0.02922019176185131,
                0.16541384160518646,
                0.03352997452020645,
                0.2171510010957718,
                -0.996950626373291,
                0.016602635383605957,
                0.15946592390537262,
                -0.2160618156194687,
                0.9499969482421875,
                0.20587673783302307,
                0.03039613366127014,
                0.07507490366697311,
                -0.11038053035736084,
                0.15738718211650848,
                -0.8121265769004822,
                0.08000580966472626,
                1.1085832118988037
            ],
            [
                1.3893263339996338,
                0.16471530497074127,
                -0.4915466904640198,
                -0.677030622959137,
                1.4511915445327759,
                -0.8214601874351501,
                0.8006223440170288,
                0.7030050158500671,
                -0.7029364705085754,
                0.18425260484218597,
                -0.02287888154387474,
                -0.5528403520584106,
                0.22139686346054077,
                0.1456051468849182,
                -0.23377174139022827,
                0.3865359425544739,
                0.36605098843574524,
                -0.029504764825105667,
                0.016720404848456383,
                0.0027380292303860188,
                0.2172904759645462,
                -0.4308604300022125,
                -0.02488602139055729,
                0.28181514143943787
            ],
            [
                -0.28050631284713745,
                0.01306139212101698,
                -0.10029037296772003,
                0.2912258803844452,
                -0.24717025458812714,
                -0.13868895173072815,
                0.06965053081512451,
                -0.6456166505813599,
                -0.03253628686070442,
                -0.06657985597848892,
                0.06771238148212433,
                -0.07862517237663269,
                0.26499512791633606,
                0.3615272343158722,
                -0.4102261960506439,
                0.20152495801448822,
                0.00867544300854206,
                0.8367987871170044,
                -0.929530918598175,
                1.2432050704956055,
                0.3994109630584717,
                -0.027899332344532013,
                0.7270280718803406,
                -0.060526810586452484
            ],
            [
                0.1851186901330948,
                -0.5635753870010376,
                -0.13746416568756104,
                0.11512495577335358,
                0.34991946816444397,
                0.15812671184539795,
                0.11811903119087219,
                0.4620814025402069,
                -0.4438941776752472,
                -1.1355104446411133,
                -0.19296450912952423,
                -0.20634187757968903,
                0.16107921302318573,
                -0.867753267288208,
                -0.8059592247009277,
                0.5970094203948975,
                -0.4852221608161926,
                0.9683279991149902,
                0.431170791387558,
                0.010404039174318314,
                0.07186659425497055,
                0.1006319671869278,
                -0.44081294536590576,
                -0.24436402320861816
            ]
        ],
        [
            [
                -0.938722550868988,
                -0.12559391558170319,
                -0.7102756500244141,
                0.17177531123161316,
                -0.1827782541513443,
                0.1937825083732605,
                -0.5553719401359558,
                -0.375785231590271,
                0.3004446029663086,
                0.7950520515441895,
                0.03263083100318909,
                0.20478861033916473,
                -0.15089266002178192,
                -0.673744261264801,
                0.6569144129753113,
                -0.041191596537828445,
                0.6575640439987183,
                -1.8328988552093506,
                0.23356987535953522,
                0.6214154958724976,
                0.3072027266025543,
                -0.8458630442619324,
                -0.9993461966514587,
                -0.7824609279632568,
                0.6335031986236572,
                -0.6766444444656372,
                -0.1259513646364212,
                -0.038694970309734344,
                -3.102726697921753,
                -0.05176991969347,
                -0.034884221851825714,
                0.11929865926504135
            ],
            [
                0.6800470352172852,
                0.014183811843395233,
                0.3099396228790283,
                0.7279432415962219,
                -0.3858116567134857,
                0.4711563289165497,
                -0.0659138485789299,
                0.18878725171089172,
                -0.7686212062835693,
                -0.13936230540275574,
                0.24645453691482544,
                -0.3172595798969269,
                -1.1975620985031128,
                0.567798912525177,
                0.6318998336791992,
                -1.449967384338379,
                0.328281044960022,
                -0.41927358508110046,
                -0.3789626955986023,
                0.6268478631973267,
                -0.21710525453090668,
                0.0979270190000534,
                0.33400627970695496,
                0.4527696967124939,
                0.35884055495262146,
                -0.3380364775657654,
                0.6122891902923584,
                -0.26908135414123535,
                1.5951629877090454,
                -0.15180057287216187,
                -0.4332118332386017,
                0.5990011692047119
            ],
            [
                -0.12366688996553421,
                -0.13886362314224243,
                -0.10752850025892258,
                -0.598140299320221,
                0.07445163279771805,
                -0.6020462512969971,
                0.43773749470710754,
                0.010402069427073002,
                -0.7391303181648254,
                -0.29195234179496765,
                0.5165756940841675,
                0.03580931946635246,
                0.6765714883804321,
                0.8626506328582764,
                0.8598074913024902,
                0.2867225706577301,
                0.6957842111587524,
                0.00759549206122756,
                0.11216181516647339,
                -0.06482523679733276,
                -0.07367943227291107,
                0.20889651775360107,
                -0.03779679909348488,
                0.7295747995376587,
                0.5430131554603577,
                -0.275168776512146,
                0.38776570558547974,
                0.5588228702545166,
                -0.2359868288040161,
                -0.8094320893287659,
                0.25369176268577576,
                0.29451784491539
            ],
            [
                0.06899365782737732,
                0.7634875774383545,
                -1.563847541809082,
                -0.28492462635040283,
                1.261495590209961,
                0.13409821689128876,
                -0.23091153800487518,
                0.27971160411834717,
                0.014210310764610767,
                -0.05385502427816391,
                -1.3216156959533691,
                -0.511751651763916,
                -1.0279431343078613,
                0.29282090067863464,
                0.4451802670955658,
                -2.7433440685272217,
                0.32775169610977173,
                -1.8501921892166138,
                -0.2125064581632614,
                -0.16575570404529572,
                0.35003864765167236,
                0.4941929578781128,
                0.25359925627708435,
                0.07552176713943481,
                -1.586219310760498,
                -0.7567068338394165,
                0.27348941564559937,
                -0.2036568522453308,
                0.08904921263456345,
                -2.357442855834961,
                0.8178054094314575,
                0.18403413891792297
            ],
            [
                -0.5445517897605896,
                0.33595678210258484,
                0.3390882909297943,
                0.5136615633964539,
                0.6056535243988037,
                -0.35841062664985657,
                -0.07413307577371597,
                0.16801589727401733,
                0.5872161984443665,
                0.2896820306777954,
                -0.8569905757904053,
                0.4863964915275574,
                0.11413070559501648,
                0.3033105432987213,
                -0.1849534809589386,
                0.2812217175960541,
                0.14385859668254852,
                -0.2305256575345993,
                0.16118602454662323,
                0.07031506299972534,
                0.7013218998908997,
                -0.4091430902481079,
                -0.3942420482635498,
                0.435740202665329,
                -0.07392337173223495,
                0.7051705718040466,
                0.14123614132404327,
                0.6804229617118835,
                -0.6743522882461548,
                -0.006968199275434017,
                0.47380489110946655,
                -0.40684428811073303
            ],
            [
                -1.1770563125610352,
                0.9641230702400208,
                -0.21343153715133667,
                0.07741030305624008,
                -0.10052461922168732,
                0.22385047376155853,
                -1.1467742919921875,
                0.1710623949766159,
                0.25469639897346497,
                -0.2368415892124176,
                0.0593903511762619,
                -0.3379494249820709,
                -1.7217873334884644,
                0.307547926902771,
                0.30259355902671814,
                0.5571635961532593,
                -0.7414674162864685,
                -1.7218228578567505,
                0.6458698511123657,
                -0.36144036054611206,
                0.6367977857589722,
                -0.6784026622772217,
                -1.0058069229125977,
                -0.01097081694751978,
                0.29825344681739807,
                0.7432655692100525,
                0.34331315755844116,
                0.21285760402679443,
                -1.5050297975540161,
                -0.053741034120321274,
                0.4048328101634979,
                0.7177788615226746
            ],
            [
                -0.415731281042099,
                -2.6645374298095703,
                -0.24101440608501434,
                0.25467270612716675,
                0.08358186483383179,
                0.5152289271354675,
                -0.35932761430740356,
                0.39436963200569153,
                -0.6348119378089905,
                -1.3145759105682373,
                0.26410984992980957,
                0.05722520127892494,
                0.20797672867774963,
                -0.2933436632156372,
                0.7598643898963928,
                0.5470059514045715,
                0.30462321639060974,
                -0.18079423904418945,
                0.3349687159061432,
                -0.011489496566355228,
                0.4151889979839325,
                -0.18016628921031952,
                0.10865554213523865,
                -0.16301770508289337,
                1.027852177619934,
                -0.11367228627204895,
                0.80846107006073,
                -1.6182684898376465,
                -1.0030996799468994,
                0.27355101704597473,
                -1.4992053508758545,
                -0.9912673830986023
            ],
            [
                0.08376206457614899,
                -0.18318265676498413,
                -0.4262053966522217,
                0.18937046825885773,
                -0.09082609415054321,
                0.785015344619751,
                0.10897398740053177,
                0.4597920775413513,
                1.010032296180725,
                -0.07193516939878464,
                0.37751883268356323,
                -0.1820022165775299,
                0.5267993807792664,
                0.4494297206401825,
                0.4495845139026642,
                0.7680681347846985,
                0.30734309554100037,
                -0.3563806712627411,
                0.9459312558174133,
                -0.6044484972953796,
                0.5763404965400696,
                -0.046655867248773575,
                -0.15893493592739105,
                0.23399418592453003,
                0.46861544251441956,
                0.483471155166626,
                0.7981788516044617,
                0.530231237411499,
                -1.165666103363037,
                -0.7448062896728516,
                -0.1939549744129181,
                0.4106266498565674
            ],
            [
                -0.42985206842422485,
                0.816196858882904,
                0.19800694286823273,
                0.3815973997116089,
                -3.9201502799987793,
                0.39365243911743164,
                -0.8536307215690613,
                0.05987340211868286,
                -0.08232089132070541,
                0.993396520614624,
                -0.6659458875656128,
                -3.0355048179626465,
                0.8146878480911255,
                0.1538403034210205,
                -0.5421886444091797,
                -1.2033014297485352,
                0.02056415006518364,
                -0.264142781496048,
                0.23337873816490173,
                -1.1681143045425415,
                0.393200159072876,
                -0.011520014144480228,
                -0.30015236139297485,
                -0.6406958103179932,
                -1.3214726448059082,
                -1.018444299697876,
                -0.020119283348321915,
                0.620283842086792,
                -0.04227803274989128,
                -1.8504010438919067,
                1.2427364587783813,
                0.8214961886405945
            ],
            [
                -0.5076305866241455,
                0.12915782630443573,
                0.815674364566803,
                0.6237906813621521,
                0.09801297634840012,
                -0.9467235803604126,
                0.2418150156736374,
                -0.8646738529205322,
                -0.03878841921687126,
                0.5857974886894226,
                -1.4269822835922241,
                0.08401859551668167,
                1.21149480342865,
                -0.35708558559417725,
                -0.7359828352928162,
                -2.4877851009368896,
                0.022874638438224792,
                0.1811956763267517,
                -0.4025811553001404,
                0.7971948385238647,
                -0.3688337802886963,
                0.13176997005939484,
                0.10513935983181,
                0.2785811722278595,
                0.7124537825584412,
                -0.5446364879608154,
                -0.6207126975059509,
                0.6392475366592407,
                1.5609694719314575,
                1.1211097240447998,
                0.8935803771018982,
                0.28317248821258545
            ],
            [
                -0.20633980631828308,
                -0.061743464320898056,
                1.076696515083313,
                0.10419277101755142,
                0.6507028341293335,
                -0.045045699924230576,
                0.0016866461373865604,
                -0.5321976542472839,
                -0.9632204174995422,
                0.17730960249900818,
                -0.28431829810142517,
                -0.1452016979455948,
                0.41403302550315857,
                0.7177127599716187,
                0.39952465891838074,
                0.7296057939529419,
                0.44767338037490845,
                -0.2805991768836975,
                -0.9417253732681274,
                0.3103711009025574,
                -0.5186616778373718,
                0.16749583184719086,
                0.17663337290287018,
                -0.5728187561035156,
                0.32503542304039,
                -0.9217435121536255,
                0.758192777633667,
                0.008816791698336601,
                0.9500439763069153,
                1.4533900022506714,
                0.4820955693721771,
                0.3021271824836731
            ],
            [
                -1.45387601852417,
                -1.3926411867141724,
                -0.4794274866580963,
                0.5945252776145935,
                -1.426957130432129,
                -0.4322029650211334,
                -0.32478067278862,
                -0.16123226284980774,
                0.21114851534366608,
                0.3643905520439148,
                1.1095855236053467,
                0.37883785367012024,
                0.23166924715042114,
                -0.8018002510070801,
                0.6144295930862427,
                -0.23446032404899597,
                -0.16326402127742767,
                0.06022674962878227,
                -0.08324316143989563,
                0.29267266392707825,
                -0.07005549967288971,
                -0.3956003189086914,
                0.574865460395813,
                -0.9618610143661499,
                0.7118499279022217,
                -1.767491102218628,
                -0.1287842094898224,
                -0.3118468225002289,
                0.2991621494293213,
                1.1207425594329834,
                -0.6819047331809998,
                -0.5174969434738159
            ],
            [
                -2.7088916301727295,
                0.24893216788768768,
                -0.7249159812927246,
                0.441003680229187,
                -0.030436212196946144,
                -0.2808901071548462,
                -0.6819090843200684,
                0.27125248312950134,
                0.3263866603374481,
                0.1633947193622589,
                -0.22073183953762054,
                0.3241879642009735,
                0.7904744744300842,
                -0.4652666747570038,
                -0.17850805819034576,
                0.12253773212432861,
                -0.9827997088432312,
                -1.0073350667953491,
                0.8202698230743408,
                -1.56203031539917,
                0.4643639326095581,
                -0.09595051407814026,
                -0.36115145683288574,
                0.10206356644630432,
                0.3441917598247528,
                1.4394865036010742,
                0.8612625002861023,
                0.0730481669306755,
                -0.9057365655899048,
                -0.05403405427932739,
                0.5773135423660278,
                -0.3090910315513611
            ],
            [
                0.4259621798992157,
                0.03519104793667793,
                0.40619462728500366,
                0.38129597902297974,
                1.5359513759613037,
                -0.2087164670228958,
                -0.33612075448036194,
                -0.050620026886463165,
                -0.1551007181406021,
                -1.0380951166152954,
                -0.14782561361789703,
                0.2542789578437805,
                -0.2373059093952179,
                0.865044355392456,
                0.6122716665267944,
                1.2881001234054565,
                -0.3846557140350342,
                0.3035948872566223,
                0.32479506731033325,
                0.4539048373699188,
                -0.22776451706886292,
                0.310494601726532,
                0.28963685035705566,
                -0.7794871926307678,
                0.48510995507240295,
                -0.07283923774957657,
                -0.22211618721485138,
                -2.4011054039001465,
                1.083631992340088,
                0.0127746956422925,
                -1.0261842012405396,
                -1.0787057876586914
            ],
            [
                -0.17893058061599731,
                -0.49415165185928345,
                0.9866772294044495,
                -2.035809278488159,
                0.9980596303939819,
                -2.0837252140045166,
                0.02827327884733677,
                -1.047925353050232,
                0.31423646211624146,
                0.1694425642490387,
                -2.1104986667633057,
                0.6852578520774841,
                0.5842923521995544,
                -0.20928515493869781,
                -0.4363688826560974,
                0.15950803458690643,
                -0.1921580582857132,
                0.3253929615020752,
                0.4072650074958801,
                0.4401088356971741,
                0.03761225566267967,
                -0.9368283152580261,
                0.12574653327465057,
                -0.42706090211868286,
                0.10713333636522293,
                -0.04579780623316765,
                -0.010041915811598301,
                -0.1394808292388916,
                -0.030406028032302856,
                0.7942882180213928,
                -0.7883533239364624,
                0.39118242263793945
            ],
            [
                -0.6833034157752991,
                0.3900327682495117,
                0.5570694208145142,
                0.04113131761550903,
                -0.40534645318984985,
                0.09259122610092163,
                -0.05466755852103233,
                0.34933915734291077,
                -0.6173492074012756,
                -0.02435278333723545,
                -0.40645039081573486,
                -0.40958473086357117,
                -0.07913697510957718,
                0.8531770706176758,
                0.23581810295581818,
                0.1826614886522293,
                0.1828630566596985,
                -0.11405850946903229,
                -0.7777848243713379,
                -0.019308118149638176,
                -0.11294614523649216,
                0.05696999654173851,
                0.3808906376361847,
                0.26840275526046753,
                0.12181202322244644,
                -2.9647061824798584,
                1.0387029647827148,
                -0.013782746158540249,
                0.17268812656402588,
                -0.13016322255134583,
                0.1673503816127777,
                0.889257550239563
            ]
        ],
        [
            [
                0.24044229090213776,
                0.40543457865715027,
                0.14314067363739014,
                0.24426712095737457,
                -0.2859798073768616,
                0.6208894848823547,
                -0.5869577527046204,
                0.27608105540275574,
                -1.0970319509506226,
                -1.1438137292861938,
                -0.2512318789958954,
                0.33916062116622925,
                0.6152026653289795,
                -0.4795146584510803,
                0.9613293409347534,
                0.8340885043144226
            ],
            [
                1.6199530363082886,
                -0.34002646803855896,
                0.07274086028337479,
                1.3468141555786133,
                -0.28591057658195496,
                1.3536728620529175,
                0.1831440031528473,
                0.38508912920951843,
                -0.6143509745597839,
                0.18674112856388092,
                -1.2358803749084473,
                -1.3373228311538696,
                0.787635326385498,
                -0.39856407046318054,
                0.3386577069759369,
                -0.006321714725345373
            ],
            [
                0.3139022886753082,
                -0.41777968406677246,
                0.8167842030525208,
                0.7367286682128906,
                0.5418251752853394,
                0.0339372418820858,
                0.4029635787010193,
                -0.2541397511959076,
                0.8303491473197937,
                0.19721601903438568,
                0.08855635672807693,
                -0.8259227871894836,
                0.550235390663147,
                0.7423577308654785,
                -1.188530445098877,
                0.5664000511169434
            ],
            [
                -1.8693122863769531,
                1.0395647287368774,
                -0.11901219189167023,
                -0.7619966864585876,
                -1.1232022047042847,
                0.4779823124408722,
                -0.3735806941986084,
                -1.666151762008667,
                -0.5356326699256897,
                0.7032084465026855,
                0.618211567401886,
                -0.47802847623825073,
                1.3380178213119507,
                0.5170774459838867,
                -0.5337494611740112,
                0.24128878116607666
            ],
            [
                -2.048220157623291,
                0.378987193107605,
                -0.08618617802858353,
                0.3585033118724823,
                0.3438543379306793,
                -0.759027361869812,
                0.39896780252456665,
                -0.11015472561120987,
                0.2556896209716797,
                0.16817186772823334,
                0.20457042753696442,
                -0.1473759263753891,
                -0.9980641007423401,
                0.16109097003936768,
                -2.658923625946045,
                0.6157034635543823
            ],
            [
                -0.5930217504501343,
                0.45501914620399475,
                0.7703856825828552,
                -0.7618749141693115,
                0.35954415798187256,
                -0.6614386439323425,
                -0.5233113765716553,
                0.15203413367271423,
                -0.741674542427063,
                -0.5725316405296326,
                0.4192712604999542,
                0.1166483461856842,
                -0.61408931016922,
                -0.12742669880390167,
                -0.3411826193332672,
                0.9689508676528931
            ],
            [
                0.031536225229501724,
                -0.30787035822868347,
                -0.05014709010720253,
                0.9167060852050781,
                0.09129514545202255,
                0.07751164585351944,
                0.8781262040138245,
                -0.23507161438465118,
                0.8037340044975281,
                1.0044748783111572,
                0.48010221123695374,
                -1.4499365091323853,
                0.47292253375053406,
                0.7294324636459351,
                -0.6581502556800842,
                0.005103963427245617
            ],
            [
                -0.22654545307159424,
                -0.6731405258178711,
                -0.06898172944784164,
                1.0152292251586914,
                -0.1189868301153183,
                0.5214503407478333,
                0.762276828289032,
                -0.7285095453262329,
                0.6674333214759827,
                0.5918524861335754,
                0.15203484892845154,
                -0.07933111488819122,
                -1.1996036767959595,
                0.42283347249031067,
                0.531735897064209,
                -0.5214190483093262
            ]
        ],
        [
            [
                0.6764248013496399,
                -0.011814185418188572,
                0.9205068349838257,
                -0.37395626306533813,
                -0.6553761959075928,
                0.933955729007721,
                -0.23805004358291626,
                0.14377056062221527
            ],
            [
                0.004977203905582428,
                -1.3999581336975098,
                0.11335280537605286,
                -2.277446746826172,
                0.35285598039627075,
                1.3022239208221436,
                0.29924309253692627,
                0.3426564335823059
            ],
            [
                0.3718068301677704,
                0.12212423235177994,
                0.08230531960725784,
                0.8523593544960022,
                -0.3389461934566498,
                0.20129910111427307,
                -0.7211068868637085,
                -0.014966357499361038
            ],
            [
                -0.17128467559814453,
                -0.07477976381778717,
                1.4110054969787598,
                -0.19872882962226868,
                0.3419819474220276,
                -0.005865897983312607,
                0.23732468485832214,
                -2.2803454399108887
            ]
        ],
        [
            [
                -0.5531243681907654,
                0.7654607892036438,
                0.19240067899227142,
                -0.08802050352096558
            ],
            [
                -0.5344977974891663,
                0.020773107185959816,
                -0.2948240637779236,
                0.6273185014724731
            ]
        ]
    ]
}