{
    "biases": [
        [
            0.007567123509943485,
            -0.45593971014022827,
            -0.6161187887191772,
            0.18627357482910156,
            -0.04999576508998871,
            -0.0222837682813406,
            0.037885017693042755,
            0.04174165055155754,
            -0.6184163093566895,
            -0.46918290853500366,
            -0.03236832469701767,
            -0.29881688952445984,
            0.025836801156401634,
            -0.24451377987861633,
            -0.18725186586380005,
            0.1583341807126999,
            0.40478718280792236,
            0.034675829112529755,
            -0.15071779489517212,
            0.2654287815093994,
            -0.3679124712944031,
            0.6138651371002197,
            0.027563055977225304,
            -0.07745922356843948,
            0.21842826902866364,
            -0.11340007185935974,
            -0.37435394525527954,
            0.02920900285243988,
            -0.0854591652750969,
            0.22949378192424774,
            0.1560324877500534,
            -0.1497820019721985
        ],
        [
            -0.03268149495124817,
            0.7741734981536865,
            0.3862106204032898,
            -0.4411791265010834,
            0.09772644937038422,
            -0.0036913699004799128,
            0.3066751956939697,
            0.018524816259741783,
            -0.1984478235244751,
            0.13522261381149292,
            0.10501431673765182,
            1.007323145866394,
            0.06873597949743271,
            0.5185372829437256,
            0.06901134550571442,
            -0.0630207285284996
        ],
        [
            0.7213447093963623,
            -0.21898895502090454,
            -0.15086813271045685,
            0.04041849821805954,
            0.341434121131897,
            0.34984639286994934,
            -0.16434736549854279,
            0.030800985172390938
        ],
        [
            -0.04381448030471802,
            0.19107359647750854,
            -0.47978511452674866,
            -0.26729243993759155
        ],
        [
            0.9495182633399963,
            -0.5045329332351685
        ]
    ],
    "weights": [
        [
            [
                -0.6196244359016418,
                -0.45120084285736084,
                0.1826438009738922,
                -0.6235140562057495,
                -0.13220970332622528,
                -0.35376906394958496,
                -0.0940469428896904,
                0.572512149810791,
                0.23904486000537872,
                0.5670515298843384,
                0.18589624762535095,
                0.3860653340816498,
                -0.15409909188747406,
                -0.11110197007656097,
                -0.6084401607513428,
                0.04490777105093002,
                -6.549460522364825e-05,
                0.4969187378883362,
                0.24029336869716644,
                0.1509445458650589,
                0.34970715641975403,
                0.3560129404067993,
                0.010316682979464531,
                -0.6042510867118835
            ],
            [
                0.22154967486858368,
                0.2981182038784027,
                -0.27329716086387634,
                -0.4559803903102875,
                -0.2677319049835205,
                0.053247857838869095,
                -0.2729092240333557,
                0.2779308259487152,
                -1.046473741531372,
                -0.5089746117591858,
                0.32033413648605347,
                -0.295788437128067,
                -0.27201828360557556,
                -0.20574098825454712,
                0.11358343809843063,
                0.167237788438797,
                0.2369765192270279,
                -0.35301366448402405,
                0.004442763049155474,
                0.020708702504634857,
                0.20673100650310516,
                -0.0514008067548275,
                0.06081497669219971,
                0.327340692281723
            ],
            [
                0.6372436881065369,
                0.6165310144424438,
                -0.5439175367355347,
                -0.5020743012428284,
                -0.4650651514530182,
                -0.3024497926235199,
                -0.1533103883266449,
                0.39212489128112793,
                0.26347362995147705,
                0.6191631555557251,
                0.441842645406723,
                0.6560087203979492,
                -0.46077924966812134,
                -0.32605403661727905,
                -0.7071719765663147,
                -0.41891250014305115,
                -0.6114622354507446,
                0.13869832456111908,
                0.32912054657936096,
                0.33240431547164917,
                0.37248694896698,
                -0.0016700393753126264,
                -0.9229047298431396,
                -0.11253073811531067
            ],
            [
                -0.41817882657051086,
                -0.9227173328399658,
                0.1253557652235031,
                0.32035449147224426,
                0.1663089543581009,
                -0.3693082332611084,
                0.015469077043235302,
                -0.08178608864545822,
                -0.3346320688724518,
                -0.0650630071759224,
                0.10659585148096085,
                0.3700360655784607,
                -0.006237429101020098,
                0.03624671325087547,
                0.062276724725961685,
                0.0969245582818985,
                -0.3387424051761627,
                0.10943017154932022,
                -0.45279088616371155,
                -0.05579165369272232,
                -0.0954647958278656,
                0.31123149394989014,
                0.3343827724456787,
                -0.4134829342365265
            ],
            [
                -0.07959362119436264,
                0.3024895489215851,
                -0.058610327541828156,
                -0.08493714779615402,
                0.9494771957397461,
                0.0686403140425682,
                1.158517599105835,
                0.04940897226333618,
                -0.15408746898174286,
                -0.03524399921298027,
                -0.5595448613166809,
                -1.1793957948684692,
                -0.15327441692352295,
                0.3220367729663849,
                0.13127416372299194,
                -0.20963139832019806,
                -0.12015359848737717,
                0.3027413487434387,
                -0.06198897585272789,
                0.07507072389125824,
                -0.1360258162021637,
                0.11750692874193192,
                0.3362910747528076,
                0.0035148144233971834
            ],
            [
                -0.09261296689510345,
                0.10702276229858398,
                -0.33881062269210815,
                -0.21735283732414246,
                -0.623282790184021,
                -0.23577453196048737,
                -0.7158470153808594,
                -0.4204899072647095,
                0.6796677708625793,
                -0.45641064643859863,
                0.43071696162223816,
                -0.6823412179946899,
                0.29540762305259705,
                -0.42573267221450806,
                0.3191201984882355,
                0.031925518065690994,
                0.6951221227645874,
                0.32209351658821106,
                0.3628332316875458,
                0.07793789356946945,
                0.18155471980571747,
                -0.05089391767978668,
                -0.08084242045879364,
                0.12856018543243408
            ],
            [
                0.39139917492866516,
                -0.5418916940689087,
                -0.002318965969607234,
                0.9001314640045166,
                -0.04800441116094589,
                0.7263820171356201,
                -0.4628463089466095,
                -0.1334492415189743,
                0.517886221408844,
                -0.0654013603925705,
                -0.5850945115089417,
                0.11383151262998581,
                0.16423287987709045,
                1.0705591440200806,
                -0.000640392187051475,
                0.20440924167633057,
                -0.19851407408714294,
                0.025183487683534622,
                -0.07846692204475403,
                -0.1964937448501587,
                -0.23179073631763458,
                0.05766139179468155,
                0.46086573600769043,
                0.14021413028240204
            ],
            [
                0.42142295837402344,
                -0.6749405264854431,
                0.04014833644032478,
                -0.4630436897277832,
                0.20593832433223724,
                0.3983333706855774,
                0.33427903056144714,
                0.201423779129982,
                0.7125961184501648,
                0.16205257177352905,
                0.39334407448768616,
                -0.3894886076450348,
                -0.17866083979606628,
                -0.42395079135894775,
                0.23760290443897247,
                -0.5847528576850891,
                -0.36255940794944763,
                0.21026070415973663,
                0.8740782141685486,
                0.04464411363005638,
                0.08263657242059708,
                -0.24138988554477692,
                -0.8090935945510864,
                0.08324836194515228
            ],
            [
                0.5436234474182129,
                -0.07359848916530609,
                1.1317452192306519,
                -0.34166818857192993,
                0.2665919363498688,
                -0.2290956825017929,
                -0.2691515386104584,
                -0.9380049109458923,
                -0.41275033354759216,
                -0.22047267854213715,
                -0.08001076430082321,
                0.07406305521726608,
                -0.3155548870563507,
                0.07474178075790405,
                0.013563135638833046,
                0.08460011333227158,
                0.011858402751386166,
                0.3404228091239929,
                0.06693731993436813,
                -0.04359130188822746,
                0.16393066942691803,
                0.07334455847740173,
                0.34453973174095154,
                -0.10467863827943802
            ],
            [
                0.1336454153060913,
                -0.012868496589362621,
                -0.5975831151008606,
                0.03697003051638603,
                -0.5926192402839661,
                0.04250863194465637,
                -0.6121121644973755,
                0.9799695611000061,
                0.10484299808740616,
                0.837050199508667,
                0.023747146129608154,
                0.5484557151794434,
                -0.8735436201095581,
                0.032694216817617416,
                -0.6018003225326538,
                0.04681309312582016,
                -0.49211883544921875,
                0.011395897716283798,
                -0.16366226971149445,
                -0.5331586003303528,
                -0.03147042915225029,
                0.5834346413612366,
                0.5960832238197327,
                -0.4267663061618805
            ],
            [
                0.019515184685587883,
                0.059077486395835876,
                -0.424774706363678,
                0.11837591975927353,
                -0.4666443467140198,
                0.034642212092876434,
                -0.40098267793655396,
                0.48728516697883606,
                -0.2019885778427124,
                0.4359853267669678,
                -0.04652678221464157,
                0.6178175210952759,
                -0.26768064498901367,
                0.1817680150270462,
                -0.8267421126365662,
                -0.16053524613380432,
                -1.2820192575454712,
                0.3608275055885315,
                -0.041709620505571365,
                0.2846621572971344,
                0.07088970392942429,
                -0.9415639638900757,
                -0.057258401066064835,
                0.2623785436153412
            ],
            [
                0.9129815101623535,
                -0.3726355731487274,
                0.06186310574412346,
                -1.079946517944336,
                -0.037489600479602814,
                0.17858010530471802,
                -0.11839044094085693,
                -0.024987833574414253,
                -0.08742684125900269,
                -0.2623325288295746,
                -0.42414793372154236,
                -0.046198975294828415,
                0.06888622790575027,
                0.3733454644680023,
                0.024639420211315155,
                0.16356921195983887,
                -0.06747880578041077,
                -0.09359501302242279,
                -0.6402761936187744,
                0.19014199078083038,
                0.35747987031936646,
                -0.09068397432565689,
                0.7310190200805664,
                0.31094637513160706
            ],
            [
                -0.04785698652267456,
                -0.16137953102588654,
                -0.7258931398391724,
                0.2013932764530182,
                -0.30711129307746887,
                0.12139986455440521,
                -0.6712412238121033,
                -0.5302883982658386,
                -0.854958713054657,
                0.1868230402469635,
                -0.23383499681949615,
                0.5349810123443604,
                0.03532510995864868,
                0.3173884451389313,
                -0.28872203826904297,
                0.04283297434449196,
                -0.2526196837425232,
                0.046150997281074524,
                -0.21944037079811096,
                -0.19108900427818298,
                0.13008873164653778,
                0.2901449203491211,
                0.6028379797935486,
                0.07948995381593704
            ],
            [
                0.21253466606140137,
                0.20703032612800598,
                0.8713304996490479,
                0.014160405844449997,
                0.9156560301780701,
                -0.33756178617477417,
                0.2252012938261032,
                -0.5750391483306885,
                0.03258242830634117,
                -0.9268894195556641,
                -0.327517569065094,
                -0.19572946429252625,
                0.24931688606739044,
                -0.33635127544403076,
                0.16393901407718658,
                0.2948768138885498,
                0.21464914083480835,
                -0.2672237455844879,
                0.04542256519198418,
                -0.2020338773727417,
                -0.18214018642902374,
                -0.08560780435800552,
                0.02572602406144142,
                0.009684737771749496
            ],
            [
                -0.18213967978954315,
                -0.16945672035217285,
                -0.01843133196234703,
                0.4592421352863312,
                0.13363990187644958,
                -0.12025685608386993,
                0.2546989619731903,
                0.023025864735245705,
                -0.5922676920890808,
                0.1951083242893219,
                -0.5793403387069702,
                -0.058082785457372665,
                -0.23339085280895233,
                1.0029618740081787,
                0.029719091951847076,
                0.9452858567237854,
                -0.3494451940059662,
                -0.10443132370710373,
                -0.32942506670951843,
                0.12580347061157227,
                -0.3345056474208832,
                -0.24564312398433685,
                0.8909525871276855,
                0.8700937032699585
            ],
            [
                -0.5685569643974304,
                -0.3749139606952667,
                0.3143663704395294,
                0.002089850604534149,
                0.3856758773326874,
                0.007500664331018925,
                0.3143503963947296,
                -0.6858040690422058,
                -0.5898050665855408,
                -0.45821601152420044,
                -0.17641450464725494,
                -0.4530642032623291,
                0.41346612572669983,
                0.07493776082992554,
                0.16666552424430847,
                -0.3025156855583191,
                0.1715971827507019,
                -0.5798190236091614,
                -0.7576091289520264,
                -0.47543835639953613,
                -0.04827360808849335,
                -0.4673500061035156,
                0.10288991034030914,
                0.3655308187007904
            ],
            [
                0.046001918613910675,
                -0.041670236736536026,
                -0.5656285285949707,
                -0.24848878383636475,
                -0.3881998360157013,
                -0.07676203548908234,
                -0.5471746325492859,
                0.3776637315750122,
                -0.0965299978852272,
                0.5098559856414795,
                -0.015465176664292812,
                0.4069131314754486,
                -0.7537164688110352,
                -0.11625298857688904,
                -0.4429648816585541,
                -0.11585895717144012,
                -0.5658860206604004,
                -0.24652273952960968,
                -0.37425610423088074,
                0.5058556199073792,
                0.11959678679704666,
                0.7084522843360901,
                -0.627898097038269,
                -0.4879154562950134
            ],
            [
                -0.4136335849761963,
                0.759696364402771,
                -0.5620378255844116,
                -0.17968712747097015,
                0.4215380847454071,
                0.07752541452646255,
                0.7122413516044617,
                0.12923720479011536,
                0.20548750460147858,
                -0.09335988759994507,
                -0.2880624830722809,
                0.0048605576157569885,
                -0.21843644976615906,
                -0.40294545888900757,
                -0.22570881247520447,
                -0.45320162177085876,
                -0.12058288604021072,
                0.022589676082134247,
                0.3756498694419861,
                -0.022067667916417122,
                0.37572556734085083,
                -0.11202472448348999,
                -0.2523214519023895,
                -0.18057629466056824
            ],
            [
                0.12030724436044693,
                -0.044658053666353226,
                0.5452450513839722,
                0.026412302628159523,
                0.5268937945365906,
                -0.006914669182151556,
                0.6933807730674744,
                -0.5398805141448975,
                0.08095502108335495,
                -0.6798838973045349,
                -0.12027367949485779,
                -1.0053983926773071,
                0.07036106288433075,
                -0.23549748957157135,
                -0.8019090890884399,
                -0.31671491265296936,
                -0.35415351390838623,
                0.0007679874543100595,
                -0.1310276985168457,
                0.3172869384288788,
                0.271999716758728,
                0.23801814019680023,
                0.1522044539451599,
                -0.11869463324546814
            ],
            [
                0.8123517632484436,
                0.051725439727306366,
                0.022909317165613174,
                -0.6209492087364197,
                -1.0951801538467407,
                -0.09008421003818512,
                0.2149597704410553,
                -0.09719128906726837,
                0.5629005432128906,
                -0.0884992703795433,
                0.35692375898361206,
                -0.00649380823597312,
                0.03203284740447998,
                -0.5978196263313293,
                -1.9950552086811513e-05,
                -0.34848278760910034,
                0.37879011034965515,
                -0.02158716693520546,
                0.6704304814338684,
                -0.023127034306526184,
                0.6929275989532471,
                -0.2573215067386627,
                -0.6527889370918274,
                -0.8609599471092224
            ],
            [
                -0.43167153000831604,
                0.3482930660247803,
                0.4869270622730255,
                -0.3195676803588867,
                0.49958184361457825,
                -0.07203564792871475,
                0.3506903648376465,
                -0.8223150372505188,
                -0.5348158478736877,
                -0.9094110727310181,
                0.38116031885147095,
                0.30879417061805725,
                -0.5263262987136841,
                0.05649331584572792,
                0.05571717768907547,
                -0.06141052395105362,
                0.36636680364608765,
                0.3854355216026306,
                -0.22324711084365845,
                0.015073374845087528,
                0.06132054701447487,
                -0.3416063189506531,
                0.10199838876724243,
                -0.0235578715801239
            ],
            [
                -0.3014536499977112,
                0.07415566593408585,
                0.3909513056278229,
                -0.46905314922332764,
                0.48440009355545044,
                -0.14495635032653809,
                0.2726053297519684,
                -0.28917428851127625,
                0.6748166680335999,
                -0.6013340353965759,
                0.09073556214570999,
                -0.17633354663848877,
                0.07883928716182709,
                -0.5063737034797668,
                -0.04517759382724762,
                -0.316305935382843,
                0.15796878933906555,
                -0.5566555857658386,
                0.5222396850585938,
                -0.6843756437301636,
                0.019551267847418785,
                -0.8786525726318359,
                -0.06505755335092545,
                -0.1329496055841446
            ],
            [
                0.3645833432674408,
                0.134923055768013,
                -0.38431546092033386,
                -0.1617172360420227,
                0.035089101642370224,
                0.05969875678420067,
                -0.344265341758728,
                0.051984451711177826,
                0.3491208851337433,
                0.019885189831256866,
                -0.3549537658691406,
                0.3160473108291626,
                -0.025589777156710625,
                -1.072204351425171,
                -0.43481311202049255,
                0.4279821217060089,
                -0.32169923186302185,
                0.03188150376081467,
                0.6294305920600891,
                -0.0667792409658432,
                -0.6805956363677979,
                0.15896905958652496,
                -0.7016780376434326,
                0.25565406680107117
            ],
            [
                0.734095573425293,
                -0.056194599717855453,
                -0.23833590745925903,
                0.10776742547750473,
                0.11843018978834152,
                0.051502782851457596,
                -0.0005832237657159567,
                -0.9918599724769592,
                -0.7988637089729309,
                -0.13965469598770142,
                0.04490351676940918,
                -0.28734835982322693,
                -0.666788637638092,
                0.08389518409967422,
                0.3380468189716339,
                0.03514965996146202,
                0.13417932391166687,
                0.737012505531311,
                0.6924433708190918,
                -0.3010121285915375,
                -0.013712914660573006,
                -0.18152503669261932,
                -0.2486961930990219,
                0.3129059076309204
            ],
            [
                0.8618171215057373,
                0.8267054557800293,
                -0.006920393090695143,
                -0.6776343584060669,
                0.10595838725566864,
                -1.2997785806655884,
                -0.5008001923561096,
                -0.016438428312540054,
                0.6161874532699585,
                0.042817819863557816,
                0.7247440218925476,
                -0.19413138926029205,
                -0.029829341918230057,
                -0.6856083869934082,
                -0.10324637591838837,
                -0.412034273147583,
                0.12468177825212479,
                -0.009527407586574554,
                0.7431191205978394,
                -0.09179680794477463,
                0.05167530104517937,
                0.0041684373281896114,
                -0.7569541931152344,
                -0.27865803241729736
            ],
            [
                -0.11143212020397186,
                0.24606068432331085,
                -0.5697981119155884,
                -0.21915340423583984,
                -0.4857984483242035,
                -0.19230437278747559,
                -0.2133718729019165,
                0.013638660311698914,
                -0.3846966028213501,
                0.08213933557271957,
                -0.13839437067508698,
                0.1255420297384262,
                0.5600250959396362,
                0.2826645076274872,
                -0.2400399148464203,
                -0.001990893855690956,
                -0.16836166381835938,
                0.9603963494300842,
                -0.04448525607585907,
                0.26183125376701355,
                -0.22893233597278595,
                0.5212684869766235,
                0.5861497521400452,
                -0.4334878623485565
            ],
            [
                0.3757036626338959,
                0.5873976945877075,
                -0.0030308905988931656,
                -0.18968187272548676,
                0.01207859255373478,
                -0.5860550403594971,
                -0.15241239964962006,
                -0.06726924329996109,
                0.2523892819881439,
                0.03502821549773216,
                0.5231350660324097,
                -0.0921611338853836,
                -0.057280708104372025,
                -0.10038261860609055,
                -0.22433511912822723,
                -0.8692240118980408,
                0.10040603578090668,
                0.051473405212163925,
                0.2885928452014923,
                0.1077502965927124,
                1.487747311592102,
                -0.23557740449905396,
                0.16192521154880524,
                -1.085923671722412
            ],
            [
                -0.023088714107871056,
                0.029852142557501793,
                0.11381661891937256,
                0.44979068636894226,
                -0.2648411691188812,
                0.056831713765859604,
                -0.42050665616989136,
                -0.03381500393152237,
                -0.20686125755310059,
                -0.19654454290866852,
                0.20797300338745117,
                -0.25587430596351624,
                -0.5091258883476257,
                -0.7344657778739929,
                0.08082431554794312,
                -0.07570325583219528,
                0.3035993278026581,
                0.10534114390611649,
                -0.4916108250617981,
                -0.39463987946510315,
                0.32207801938056946,
                0.02200952358543873,
                0.7333958148956299,
                0.3389447331428528
            ],
            [
                -0.4907771050930023,
                0.6617128252983093,
                0.1544172763824463,
                -0.4590786397457123,
                -0.057127464562654495,
                -0.3328894078731537,
                0.46720755100250244,
                -0.7401315569877625,
                -0.10421906411647797,
                0.6128861904144287,
                0.4705515503883362,
                -0.1622132658958435,
                -0.01326635293662548,
                0.012942527420818806,
                0.0281057246029377,
                -0.14694462716579437,
                0.022050844505429268,
                -0.3002782166004181,
                -0.6050221920013428,
                -0.19988584518432617,
                0.19151072204113007,
                0.025939296931028366,
                0.22297552227973938,
                0.05976645275950432
            ],
            [
                1.0196243524551392,
                0.08878781646490097,
                0.29765263199806213,
                -0.27876800298690796,
                0.33924368023872375,
                -0.09594906866550446,
                0.36566030979156494,
                0.01686968468129635,
                0.456078439950943,
                0.06212261691689491,
                0.326965868473053,
                -0.2623395323753357,
                0.5014066100120544,
                0.26348578929901123,
                0.21960218250751495,
                -0.26513776183128357,
                -0.2609177827835083,
                -1.0549225807189941,
                -0.6752452850341797,
                -0.8099767565727234,
                -0.1501099318265915,
                -0.06431777030229568,
                -0.07610652595758438,
                -0.02202070876955986
            ],
            [
                -0.4088435471057892,
                0.02341746725142002,
                0.13081814348697662,
                0.3317303955554962,
                -0.02574819326400757,
                0.19672782719135284,
                -0.12589238584041595,
                0.030845578759908676,
                -0.42713814973831177,
                -0.12263268977403641,
                -0.06397184729576111,
                -0.05100520700216293,
                -0.02437841333448887,
                0.42071104049682617,
                0.04809446632862091,
                0.29451581835746765,
                -0.3453616797924042,
                -0.16179722547531128,
                -0.288425087928772,
                0.0008820138755254447,
                -0.9120352864265442,
                -0.2680560350418091,
                0.811276376247406,
                -0.8726687431335449
            ],
            [
                -0.09119009971618652,
                -0.6319267153739929,
                0.038047388195991516,
                0.5889386534690857,
                -0.3583308160305023,
                -0.8204506039619446,
                0.16716508567333221,
                0.35620933771133423,
                -0.23918968439102173,
                0.335929811000824,
                -0.9108119606971741,
                -0.2696705758571625,
                -0.02232452854514122,
                0.3618828356266022,
                -6.40746729914099e-05,
                -0.41018810868263245,
                0.26685309410095215,
                0.14884823560714722,
                -0.2159786969423294,
                -0.09892059117555618,
                0.04409104585647583,
                0.02456401102244854,
                0.2561822235584259,
                -0.13798834383487701
            ]
        ],
        [
            [
                -0.0874367281794548,
                -0.3152465224266052,
                -0.8282532691955566,
                -0.07046105712652206,
                -0.19296056032180786,
                0.19318367540836334,
                -2.0971789360046387,
                -1.356777310371399,
                -0.02122781053185463,
                -0.1758653074502945,
                0.263628751039505,
                -0.6809099912643433,
                0.027030546218156815,
                -0.1424863040447235,
                -1.1023114919662476,
                -0.007517870515584946,
                0.2346271574497223,
                -0.2294665277004242,
                0.12547093629837036,
                -1.5231138467788696,
                0.16885916888713837,
                0.32809874415397644,
                -0.7660369277000427,
                -0.46204718947410583,
                -1.9083647727966309,
                0.17970791459083557,
                -0.7674037218093872,
                0.3303530812263489,
                0.08707134425640106,
                0.13469314575195312,
                0.27404963970184326,
                0.5197880268096924
            ],
            [
                0.2481798380613327,
                -0.07679231464862823,
                -0.7290613651275635,
                -0.029314927756786346,
                -0.7876641750335693,
                0.47563380002975464,
                0.0028980376664549112,
                0.2283051609992981,
                -0.4017932116985321,
                -0.603169858455658,
                -0.016177808865904808,
                -0.4598349630832672,
                -0.314796507358551,
                -0.7564536929130554,
                -0.2411832958459854,
                0.275178998708725,
                -0.1415889859199524,
                0.45014333724975586,
                -0.24540483951568604,
                -0.23338374495506287,
                0.2591559886932373,
                0.6252309083938599,
                -0.20345310866832733,
                0.17788735032081604,
                -0.22432410717010498,
                -0.07837161421775818,
                0.0891294851899147,
                -0.11197593063116074,
                0.4735957980155945,
                0.005852230824530125,
                0.29523104429244995,
                -0.021541928872466087
            ],
            [
                0.5213762521743774,
                0.20498846471309662,
                0.3891836106777191,
                0.10435092449188232,
                -0.5804955363273621,
                -0.12706288695335388,
                -0.3032623827457428,
                0.14721541106700897,
                0.16385695338249207,
                0.1521897166967392,
                0.3981252610683441,
                0.34278014302253723,
                0.19453884661197662,
                -0.023810265585780144,
                0.25697562098503113,
                -0.2813522517681122,
                0.4827953279018402,
                0.6254450082778931,
                -0.3008863925933838,
                -0.006109476555138826,
                -0.20686325430870056,
                0.010221542790532112,
                0.10691604018211365,
                0.25721660256385803,
                0.36487463116645813,
                0.7621154189109802,
                -0.5140799283981323,
                0.21674185991287231,
                -0.30487772822380066,
                -0.19020098447799683,
                -0.005255135241895914,
                0.33917030692100525
            ],
            [
                0.12421435862779617,
                0.1737123429775238,
                0.8464422821998596,
                -0.3545211851596832,
                -0.22383669018745422,
                0.3938683569431305,
                -0.24957409501075745,
                0.6670553684234619,
                0.014643771573901176,
                -1.1779829263687134,
                -1.3288723230361938,
                -0.2586846649646759,
                -1.0899937152862549,
                0.493619441986084,
                -0.1813983917236328,
                0.2654096484184265,
                -0.6911234855651855,
                0.03999811038374901,
                0.5199230909347534,
                0.5384066700935364,
                0.24740684032440186,
                0.2359599471092224,
                0.05178157612681389,
                0.39703643321990967,
                0.634817361831665,
                -0.5098905563354492,
                0.9260870218276978,
                -0.3240063488483429,
                0.674811065196991,
                0.28610438108444214,
                -0.48022928833961487,
                -0.6380377411842346
            ],
            [
                0.30465707182884216,
                0.49421074986457825,
                0.11336896568536758,
                -0.31499820947647095,
                -0.4314076900482178,
                0.18405601382255554,
                -0.2585849463939667,
                0.2829650044441223,
                0.035273194313049316,
                -0.3590497076511383,
                0.10303567349910736,
                -0.520979642868042,
                -0.22463101148605347,
                0.03914344310760498,
                -1.0784876346588135,
                0.0006855836254544556,
                0.5064688324928284,
                0.3161383867263794,
                0.027525806799530983,
                0.9427647590637207,
                0.1674180030822754,
                0.3742656111717224,
                0.20025919377803802,
                0.21347735822200775,
                1.036488652229309,
                0.20331484079360962,
                0.7579940557479858,
                0.18240344524383545,
                0.5371891856193542,
                0.19477780163288116,
                -0.37811654806137085,
                -0.12562890350818634
            ],
            [
                -0.6344451904296875,
                0.29637494683265686,
                -0.4800367057323456,
                -0.08725015074014664,
                0.1511821746826172,
                -0.19245900213718414,
                0.28008079528808594,
                0.11411985009908676,
                0.15210603177547455,
                0.004385805688798428,
                0.1666722595691681,
                -0.014723081141710281,
                0.4422284662723541,
                -0.4244784712791443,
                0.33391907811164856,
                0.46567532420158386,
                0.3744921386241913,
                0.45696455240249634,
                -0.7449771165847778,
                0.368663489818573,
                -0.2810874581336975,
                0.4249342978000641,
                0.3298810124397278,
                0.035706423223018646,
                0.07159505039453506,
                -0.1796211302280426,
                -0.23854514956474304,
                0.6518821716308594,
                0.30590036511421204,
                0.13843359053134918,
                0.2082970291376114,
                0.20138345658779144
            ],
            [
                0.7047579288482666,
                -0.21917147934436798,
                -0.032213520258665085,
                0.4202040731906891,
                0.20359061658382416,
                -0.1607000231742859,
                -0.1230296865105629,
                -0.2657354176044464,
                -0.05217805877327919,
                -0.6326029300689697,
                -0.2833137512207031,
                0.13398244976997375,
                -0.5087524652481079,
                -0.07225160300731659,
                -1.1114777326583862,
                0.16114963591098785,
                -0.1562240570783615,
                0.166375070810318,
                0.12828995287418365,
                0.3264912962913513,
                0.29387614130973816,
                0.4737529754638672,
                -0.0947151854634285,
                0.45578697323799133,
                0.16235511004924774,
                0.19455896317958832,
                -0.4860594868659973,
                -0.13251753151416779,
                -0.950249195098877,
                -0.016285380348563194,
                0.3085801601409912,
                0.35077211260795593
            ],
            [
                -0.2463463693857193,
                -0.32071226835250854,
                -0.5275762677192688,
                -0.410660058259964,
                -0.43193313479423523,
                -0.2623206079006195,
                -0.08246671408414841,
                0.9996495246887207,
                -0.03700760751962662,
                -0.15640607476234436,
                -0.2449653446674347,
                0.68959641456604,
                -0.22512125968933105,
                0.3780307173728943,
                -0.14742767810821533,
                -0.2842091917991638,
                0.08135006576776505,
                0.15225057303905487,
                -0.3722039461135864,
                0.3754917085170746,
                -0.532053530216217,
                0.23975884914398193,
                1.0897704362869263,
                0.01464663166552782,
                0.2918282151222229,
                -0.26086077094078064,
                0.02102057635784149,
                -0.4456149637699127,
                -0.2400231510400772,
                0.06539572775363922,
                -0.21712473034858704,
                -0.20348985493183136
            ],
            [
                -0.9686256051063538,
                0.18645352125167847,
                -0.7935999035835266,
                -0.0389242023229599,
                0.08719393610954285,
                0.2382345348596573,
                0.13958148658275604,
                -0.17415915429592133,
                -0.32864904403686523,
                -2.4059455394744873,
                -2.0308637619018555,
                -0.2024647295475006,
                -0.35264915227890015,
                0.22246748208999634,
                -0.11439816653728485,
                0.9672024250030518,
                -1.6468431949615479,
                -0.1534866988658905,
                -0.043563362210989,
                -0.09869017452001572,
                0.11320468783378601,
                0.4886714816093445,
                -0.6406145095825195,
                0.46756210923194885,
                -0.42767131328582764,
                -0.7397832274436951,
                -0.5111735463142395,
                0.19906049966812134,
                -0.13624754548072815,
                0.5620325803756714,
                0.07838695496320724,
                0.3996070623397827
            ],
            [
                -0.025556212291121483,
                -0.10651983320713043,
                -1.1291248798370361,
                -0.1342289298772812,
                0.7582970857620239,
                -0.453665167093277,
                0.09157668054103851,
                0.20901305973529816,
                0.9107843637466431,
                -1.9579592943191528,
                -0.7090417146682739,
                0.10881999135017395,
                -0.4879191517829895,
                0.6068801283836365,
                -0.1594526320695877,
                0.2811143398284912,
                -0.2485882192850113,
                0.5566315054893494,
                0.8792007565498352,
                0.21872881054878235,
                0.5908645987510681,
                0.29657459259033203,
                -0.08048252016305923,
                0.489071249961853,
                0.12474919855594635,
                -0.33030733466148376,
                -0.03022364340722561,
                0.18956848978996277,
                0.4529724717140198,
                0.862217366695404,
                0.2982712984085083,
                0.07854551821947098
            ],
            [
                0.12507222592830658,
                -0.17713961005210876,
                0.002240502741187811,
                -0.45880651473999023,
                -0.5514482259750366,
                0.17960712313652039,
                -0.5935320258140564,
                0.5612877607345581,
                -0.027403125539422035,
                -0.03164949268102646,
                -0.26826032996177673,
                0.5391566753387451,
                -0.14625991880893707,
                -0.028765592724084854,
                -0.018056832253932953,
                -0.32692569494247437,
                0.012071174569427967,
                0.24292759597301483,
                0.2379807084798813,
                0.7842673659324646,
                -0.07719658315181732,
                0.22294986248016357,
                0.3700771927833557,
                0.3396991789340973,
                0.9008733630180359,
                -0.24276922643184662,
                0.5541099905967712,
                -0.23391909897327423,
                -0.007136852480471134,
                0.4163675308227539,
                -0.37721073627471924,
                -0.564064085483551
            ],
            [
                -0.35811999440193176,
                0.46899184584617615,
                -1.1543110609054565,
                0.321419894695282,
                -0.4017207622528076,
                0.24884100258350372,
                0.45551860332489014,
                0.12471040338277817,
                -0.37520864605903625,
                -1.3018345832824707,
                -0.977451741695404,
                0.1745976060628891,
                -0.049953315407037735,
                -0.3654289245605469,
                0.2853626012802124,
                1.087928295135498,
                -0.32960063219070435,
                0.17707407474517822,
                0.8381294012069702,
                0.2516661584377289,
                0.07216845452785492,
                0.8691987991333008,
                0.17396198213100433,
                1.029476284980774,
                0.058446165174245834,
                -0.14204852283000946,
                0.18389573693275452,
                0.364584743976593,
                0.5191134214401245,
                1.1464380025863647,
                0.5477472543716431,
                0.036875754594802856
            ],
            [
                0.7053196430206299,
                0.028676824644207954,
                0.10661014169454575,
                0.1560201644897461,
                -0.7664251923561096,
                0.19502399861812592,
                0.20374590158462524,
                0.2277505099773407,
                -0.32076895236968994,
                0.17148417234420776,
                0.477383553981781,
                -0.37955957651138306,
                0.06742618978023529,
                -0.3512416481971741,
                0.4019834101200104,
                -0.11601747572422028,
                0.710088312625885,
                -0.3774223327636719,
                0.3604486882686615,
                -0.2828986942768097,
                -0.35567623376846313,
                -0.4718455970287323,
                0.01731976680457592,
                -0.3347468376159668,
                -0.09584307670593262,
                0.17647331953048706,
                -0.13932976126670837,
                -0.4221595525741577,
                -0.26025113463401794,
                -0.9818732738494873,
                -0.2570028603076935,
                -0.02245444990694523
            ],
            [
                0.05175332352519035,
                -0.13462281227111816,
                -0.6002598404884338,
                0.17491286993026733,
                0.008542878553271294,
                0.6687904596328735,
                -0.054067254066467285,
                0.09873933345079422,
                0.25824904441833496,
                0.30805906653404236,
                0.8974819779396057,
                0.4408654570579529,
                -0.3015611171722412,
                -0.25889158248901367,
                -0.5884528756141663,
                -0.07166182994842529,
                0.5975275039672852,
                0.028178341686725616,
                -0.14915509521961212,
                -0.6897076368331909,
                -0.3241845965385437,
                0.39634448289871216,
                -0.10641048103570938,
                0.980125367641449,
                -0.51227867603302,
                0.4638826549053192,
                -0.4712465703487396,
                -0.008718093857169151,
                -0.5342802405357361,
                0.36143308877944946,
                0.3430555760860443,
                0.7849798202514648
            ],
            [
                0.3967403769493103,
                0.09473173320293427,
                0.5721467137336731,
                -0.3500870168209076,
                -0.4245917797088623,
                0.20166045427322388,
                -0.6998676061630249,
                0.46634647250175476,
                0.07113156467676163,
                -0.25771090388298035,
                -0.2703954875469208,
                -0.13048313558101654,
                -0.17740994691848755,
                0.0520254485309124,
                -0.8281034827232361,
                -0.2890867292881012,
                -0.16589237749576569,
                0.3518751263618469,
                0.06344570964574814,
                0.5119999647140503,
                0.04260345548391342,
                0.29464834928512573,
                -0.07921114563941956,
                0.15769775211811066,
                1.0041640996932983,
                0.09224902093410492,
                0.966997504234314,
                0.04408591613173485,
                -0.05823344364762306,
                0.2340691238641739,
                -0.735408365726471,
                -0.2789015769958496
            ],
            [
                0.062210921198129654,
                0.3176272511482239,
                -0.6565031409263611,
                0.3068726062774658,
                -0.06910423189401627,
                0.31130746006965637,
                0.12126912921667099,
                0.15286022424697876,
                -0.47644928097724915,
                -0.20209303498268127,
                -0.10989560186862946,
                -0.26603835821151733,
                0.07271537184715271,
                -0.06446464359760284,
                0.46555426716804504,
                0.625105619430542,
                0.2744102478027344,
                -0.28521350026130676,
                0.013356545008718967,
                0.6051869988441467,
                0.012455929070711136,
                0.1765247881412506,
                0.15985184907913208,
                -0.5065634250640869,
                0.8466001152992249,
                -0.18615661561489105,
                -0.2712026834487915,
                -0.3692643344402313,
                0.15984870493412018,
                -0.4206092357635498,
                0.14188839495182037,
                0.007583939470350742
            ]
        ],
        [
            [
                0.4299338459968567,
                0.3531855046749115,
                0.39855465292930603,
                -0.7886962890625,
                -0.14689147472381592,
                0.2688192129135132,
                0.7535867691040039,
                -0.45896944403648376,
                -0.9871691465377808,
                0.1449218988418579,
                -0.04336291551589966,
                0.4094350337982178,
                0.15856678783893585,
                0.4746362864971161,
                -0.5079289674758911,
                0.3397054672241211
            ],
            [
                -0.4096287190914154,
                0.16656586527824402,
                -0.6888513565063477,
                0.6314220428466797,
                -0.39884066581726074,
                -0.7033240795135498,
                0.33677318692207336,
                0.11811685562133789,
                0.422329306602478,
                0.4875151515007019,
                -0.38680386543273926,
                0.2417135387659073,
                -1.1422889232635498,
                -0.3785184621810913,
                0.008521908894181252,
                0.10636318475008011
            ],
            [
                -0.1967705339193344,
                0.3624103367328644,
                0.34418341517448425,
                -0.4726097285747528,
                0.4585477411746979,
                -0.0686674490571022,
                -0.2392546385526657,
                0.033456671983003616,
                0.5242178440093994,
                -1.6923041343688965,
                -0.10972736030817032,
                0.7402582168579102,
                0.703930139541626,
                0.10830381512641907,
                0.04738357663154602,
                0.07347014546394348
            ],
            [
                -0.9984816312789917,
                -0.09728769212961197,
                0.2046048939228058,
                -0.3274269998073578,
                0.8703947067260742,
                0.30455026030540466,
                0.42277756333351135,
                -1.8906363248825073,
                -0.012845700606703758,
                -0.012121559120714664,
                -1.4776347875595093,
                0.12840615212917328,
                0.02783682383596897,
                -0.2981940507888794,
                -1.11248779296875,
                0.7307168841362
            ],
            [
                -0.45400089025497437,
                0.5362094044685364,
                0.09776102751493454,
                -0.44357866048812866,
                0.5314810872077942,
                -0.07350893318653107,
                0.13545604050159454,
                0.29450300335884094,
                -2.0161828994750977,
                0.19598111510276794,
                -0.39223533868789673,
                0.793673574924469,
                0.4531922936439514,
                -0.3640008270740509,
                -0.2734748423099518,
                0.1779913604259491
            ],
            [
                -0.7808261513710022,
                0.37167659401893616,
                0.4313064217567444,
                -0.42372092604637146,
                -0.3541743755340576,
                0.21711932122707367,
                0.28674444556236267,
                -0.4574730694293976,
                -0.07814419269561768,
                0.17949415743350983,
                -0.632770836353302,
                0.2529212534427643,
                0.04720943421125412,
                0.6733471751213074,
                -1.0720402002334595,
                -0.02924991399049759
            ],
            [
                1.2695982456207275,
                0.2396698147058487,
                0.5839256048202515,
                0.44730144739151,
                -0.07041964679956436,
                -0.2744147479534149,
                0.08059360086917877,
                -0.4429992437362671,
                0.7580594420433044,
                -0.0439586415886879,
                -0.14272360503673553,
                0.3746732771396637,
                -0.1587669551372528,
                -0.7952873110771179,
                0.6124926805496216,
                -0.4655689597129822
            ],
            [
                -0.23269422352313995,
                -0.27096298336982727,
                0.05261858180165291,
                -0.36970195174217224,
                0.7029102444648743,
                0.6800249814987183,
                0.01290808990597725,
                -0.20144978165626526,
                -0.013229581527411938,
                -0.41756120324134827,
                -0.0441318079829216,
                -0.9185972809791565,
                -0.21783845126628876,
                0.3499002754688263,
                -0.7749208807945251,
                0.7004252672195435
            ]
        ],
        [
            [
                0.6975194811820984,
                0.3704094886779785,
                -0.06415366381406784,
                -0.06992179900407791,
                0.020281095057725906,
                -1.3053932189941406,
                -0.3057643473148346,
                0.6610912680625916
            ],
            [
                -0.41824787855148315,
                0.2994260787963867,
                0.5141562223434448,
                0.8823285698890686,
                0.69318026304245,
                0.17134568095207214,
                -0.5158251523971558,
                0.08240828663110733
            ],
            [
                0.46129268407821655,
                -1.0585167407989502,
                -0.24717460572719574,
                0.037538375705480576,
                0.8319157361984253,
                -0.10760503262281418,
                -0.17883403599262238,
                -1.264704704284668
            ],
            [
                0.7331918478012085,
                0.16838236153125763,
                0.9505345821380615,
                -0.06133190169930458,
                0.9224811792373657,
                -0.2842826247215271,
                -0.4257632791996002,
                -0.7686771750450134
            ]
        ],
        [
            [
                0.3901194930076599,
                0.1491081863641739,
                1.4529621601104736,
                -0.9943963885307312
            ],
            [
                0.8096618056297302,
                -1.3034800291061401,
                -0.17980501055717468,
                0.6158578395843506
            ]
        ]
    ]
}