{
    "biases": [
        [
            0.15218877792358398,
            0.1639736294746399,
            0.2425791174173355,
            0.1568024456501007,
            -0.08370792120695114,
            0.4054506719112396,
            -0.34698981046676636,
            -0.5651829242706299,
            -0.5496629476547241,
            0.03503359854221344,
            -0.19425185024738312,
            0.2646335959434509,
            -0.13448652625083923,
            0.13337300717830658,
            0.1389337182044983,
            0.11745795607566833,
            -0.5042230486869812,
            0.36789268255233765,
            -0.12450141459703445,
            -0.431161493062973,
            -0.4274114668369293,
            0.3794063627719879,
            0.16841666400432587,
            -0.3321256637573242,
            -0.3637923002243042,
            -0.1342637538909912,
            0.6443127393722534,
            -0.4853378236293793,
            0.029300371184945107,
            0.7169661521911621,
            0.7963784337043762,
            0.11833308637142181,
            -0.2317824363708496,
            -0.4283830523490906,
            -0.02924419566988945,
            -0.30952391028404236
        ],
        [
            -0.19052854180335999,
            0.6312621831893921,
            -0.9684168696403503,
            1.0155119895935059,
            -0.1507595032453537,
            -0.5177182555198669,
            -0.021500181406736374,
            0.22841134667396545,
            0.9230840802192688,
            -0.39401745796203613,
            -0.3065558075904846,
            0.7605593204498291,
            -0.47540828585624695,
            0.47062018513679504,
            0.23288235068321228,
            0.3063085973262787,
            0.015509206801652908,
            0.7095001339912415
        ],
        [
            3.803406000137329,
            5.129377365112305,
            2.9475648403167725,
            4.514065742492676,
            5.43625020980835,
            5.092557907104492,
            3.3389744758605957,
            4.337124347686768,
            3.293665885925293,
            -5.327388286590576,
            -6.306318283081055,
            -5.125675201416016,
            -8.676328659057617,
            -8.596695899963379,
            -8.314247131347656,
            -5.415700912475586,
            -7.770761489868164,
            -5.568039417266846,
            -5.711122989654541,
            -8.383235931396484,
            -5.865159511566162,
            -8.827932357788086,
            -8.87644100189209,
            -8.576628684997559,
            -6.023381233215332,
            -8.390585899353027,
            -8.012662887573242,
            -5.809558868408203,
            -8.49148178100586,
            -5.853516101837158,
            -6.49081563949585,
            -7.851191997528076,
            -8.15246295928955,
            -6.3165435791015625,
            -5.725768089294434,
            -7.723743915557861
        ]
    ],
    "weights": [
        [
            [
                -0.5898106098175049,
                -0.19647850096225739,
                -0.18879133462905884,
                -0.8865833878517151,
                -0.3770813047885895,
                0.9147131443023682,
                -0.06686753779649734,
                0.909726083278656
            ],
            [
                -0.11975441128015518,
                0.2242673933506012,
                -2.2584056854248047,
                -0.1979227215051651,
                -0.37594160437583923,
                -0.16630397737026215,
                0.822470486164093,
                -0.06392887234687805
            ],
            [
                -1.257030725479126,
                -0.022494390606880188,
                0.0750456154346466,
                0.1441967487335205,
                0.3545977771282196,
                -1.0597161054611206,
                0.28892481327056885,
                -0.5334511399269104
            ],
            [
                -1.3452156782150269,
                0.46118560433387756,
                -0.32168257236480713,
                -0.11124283075332642,
                -1.0205974578857422,
                0.678488552570343,
                -0.6375808715820312,
                0.36820316314697266
            ],
            [
                -1.249887466430664,
                0.2787683606147766,
                -0.5530762672424316,
                -0.7019506692886353,
                0.4657841622829437,
                0.10386136919260025,
                -1.1727569103240967,
                0.8300200700759888
            ],
            [
                -0.12257792055606842,
                -0.4917142391204834,
                -0.2944628596305847,
                0.11368250846862793,
                0.44455254077911377,
                -0.4083634912967682,
                0.28024718165397644,
                -1.139064073562622
            ],
            [
                -0.5946263670921326,
                -0.1860830932855606,
                0.8989145159721375,
                -0.4704754948616028,
                0.6909772753715515,
                -0.8440260291099548,
                0.5954416394233704,
                0.1682632565498352
            ],
            [
                0.7979679107666016,
                -0.42212215065956116,
                0.053878601640462875,
                -0.0019748290069401264,
                0.5969971418380737,
                0.708003580570221,
                1.3195441961288452,
                0.4156422019004822
            ],
            [
                1.5306727886199951,
                -0.01044169720262289,
                0.6037931442260742,
                -0.15745392441749573,
                -0.7044320106506348,
                -0.02300429530441761,
                0.7330865263938904,
                -0.5342512726783752
            ],
            [
                0.1804594248533249,
                -0.6418737173080444,
                -1.5843219757080078,
                0.44985124468803406,
                0.3602629601955414,
                -1.4905143976211548,
                0.4294610321521759,
                -1.3258709907531738
            ],
            [
                0.2208210974931717,
                0.164411723613739,
                1.68660569190979,
                1.6576802730560303,
                -0.3929065465927124,
                -0.09759671241044998,
                0.4280465543270111,
                0.16613976657390594
            ],
            [
                -0.374217689037323,
                0.5081772804260254,
                -0.4858548045158386,
                0.3976916968822479,
                -0.9825141429901123,
                -2.2013916969299316,
                0.26384660601615906,
                -0.42794111371040344
            ],
            [
                0.011507931165397167,
                -0.4954333007335663,
                -0.23340795934200287,
                0.3428410589694977,
                0.4210766553878784,
                0.2957470715045929,
                -0.7605777382850647,
                1.0300041437149048
            ],
            [
                0.06487572938203812,
                0.5060643553733826,
                -0.16055241227149963,
                -0.5550616979598999,
                -2.210012912750244,
                -0.7290951609611511,
                0.4744186997413635,
                -0.880854606628418
            ],
            [
                0.7388214468955994,
                -0.46306857466697693,
                -0.455120325088501,
                -2.4093129634857178,
                0.8807228207588196,
                -0.1613720953464508,
                -0.22033293545246124,
                -0.12708395719528198
            ],
            [
                0.20379775762557983,
                -1.5934269428253174,
                -0.24155396223068237,
                0.7640868425369263,
                -0.5964142680168152,
                0.5193821787834167,
                -0.6412506699562073,
                -0.7407293319702148
            ],
            [
                0.1942775398492813,
                0.7946922183036804,
                1.3062727451324463,
                0.23078785836696625,
                0.9931176900863647,
                -0.06711471080780029,
                -0.3293423652648926,
                0.8570906519889832
            ],
            [
                0.9747065305709839,
                -1.1426093578338623,
                -0.5271913409233093,
                -0.18457652628421783,
                0.6666147112846375,
                0.4422740340232849,
                0.17188327014446259,
                -1.351101040840149
            ],
            [
                0.3280552625656128,
                1.1278841495513916,
                -0.5016743540763855,
                -0.6773592829704285,
                1.6103715896606445,
                0.9217383861541748,
                -0.30382734537124634,
                0.4362146854400635
            ],
            [
                -0.32120630145072937,
                0.13135533034801483,
                -0.10435585677623749,
                1.62228524684906,
                -0.2618650794029236,
                0.12139733880758286,
                1.56089448928833,
                1.3640129566192627
            ],
            [
                -0.3549758493900299,
                0.5592449307441711,
                -0.576402485370636,
                0.5058522820472717,
                -0.5945159196853638,
                0.7719728350639343,
                0.6032477617263794,
                1.0660638809204102
            ],
            [
                -1.4290062189102173,
                0.9666933417320251,
                -0.33638995885849,
                -0.3566828668117523,
                0.7618548274040222,
                0.16603024303913116,
                1.0052804946899414,
                -0.17400692403316498
            ],
            [
                -0.15188024938106537,
                -1.6347471475601196,
                0.4068049192428589,
                0.8087183833122253,
                -1.3023481369018555,
                -0.12753841280937195,
                -0.1021561473608017,
                1.3419996500015259
            ],
            [
                0.9486796259880066,
                0.042855773121118546,
                -1.3225102424621582,
                0.43234485387802124,
                0.6367961764335632,
                0.47444504499435425,
                0.29175859689712524,
                0.35658812522888184
            ],
            [
                0.4113345146179199,
                0.2614504098892212,
                0.08975230157375336,
                0.25356870889663696,
                -0.8489351868629456,
                -0.11001462489366531,
                0.9420846700668335,
                2.093514919281006
            ],
            [
                1.22393000125885,
                0.5975445508956909,
                -0.1372397243976593,
                -0.10942796617746353,
                -1.2152376174926758,
                0.6343465447425842,
                -0.370768278837204,
                -0.9168404936790466
            ],
            [
                -0.627572238445282,
                -0.17705023288726807,
                0.12339475005865097,
                -0.7551630139350891,
                -0.5923900604248047,
                -0.46468034386634827,
                0.3237111568450928,
                -0.8190901875495911
            ],
            [
                0.5011938214302063,
                1.136934518814087,
                -0.1998295783996582,
                -0.6593247652053833,
                1.1107585430145264,
                0.36428380012512207,
                0.06766554713249207,
                -0.48680347204208374
            ],
            [
                0.22158214449882507,
                0.24768327176570892,
                -0.3023238182067871,
                1.193563461303711,
                0.022763652727007866,
                -0.7643657922744751,
                0.4603751003742218,
                0.2540929913520813
            ],
            [
                0.4344748556613922,
                0.17806914448738098,
                0.24393434822559357,
                -0.49395498633384705,
                0.8673561811447144,
                -0.6788113713264465,
                -0.8540891408920288,
                0.3350331783294678
            ],
            [
                0.7570911645889282,
                -0.3758089244365692,
                0.22376996278762817,
                -1.2380307912826538,
                -0.41153979301452637,
                0.411433607339859,
                0.1288912147283554,
                -0.49608877301216125
            ],
            [
                0.5896291136741638,
                -0.3000001311302185,
                -1.1640392541885376,
                -0.2592255771160126,
                1.0380829572677612,
                -0.8555154204368591,
                -0.1431342214345932,
                1.4775468111038208
            ],
            [
                -0.8060476779937744,
                0.4771626591682434,
                0.5025923848152161,
                0.044554341584444046,
                0.3099530041217804,
                0.3599889576435089,
                -1.1151463985443115,
                -1.345845341682434
            ],
            [
                -0.33115077018737793,
                -0.03390143811702728,
                -0.26399388909339905,
                0.9961977601051331,
                0.17978021502494812,
                0.7483319640159607,
                0.5633394718170166,
                0.01765456423163414
            ],
            [
                0.29304948449134827,
                0.36206045746803284,
                -0.8144295811653137,
                0.8549968600273132,
                -0.43161290884017944,
                -1.1108472347259521,
                -0.39130303263664246,
                -0.20483434200286865
            ],
            [
                0.08161187916994095,
                0.2661941349506378,
                0.3848697543144226,
                1.4958428144454956,
                0.12583503127098083,
                0.5833656787872314,
                0.3306799829006195,
                -1.7275360822677612
            ]
        ],
        [
            [
                0.6638940572738647,
                -0.2901167869567871,
                -0.6079561114311218,
                1.1243644952774048,
                0.6024311184883118,
                -1.025957465171814,
                0.03734595701098442,
                -1.0786817073822021,
                -0.5534260272979736,
                -0.7929598093032837,
                0.13155372440814972,
                -0.1784450262784958,
                0.052824895828962326,
                -0.4084509015083313,
                0.25227174162864685,
                -0.5010000467300415,
                0.3885014057159424,
                -0.9122045636177063,
                0.7057110071182251,
                -0.7302154302597046,
                0.11555463820695877,
                -0.10828564316034317,
                -0.4973726272583008,
                -0.6307750344276428,
                -0.3346385061740875,
                0.11989811807870865,
                -0.44365715980529785,
                0.37242498993873596,
                -0.7976764440536499,
                0.32034027576446533,
                0.1506839543581009,
                0.6268763542175293,
                0.42135676741600037,
                -0.5879698395729065,
                0.06998966634273529,
                -0.49812135100364685
            ],
            [
                0.03947049379348755,
                -0.6024602055549622,
                -0.35165971517562866,
                -0.35607782006263733,
                -0.46795812249183655,
                -0.1908433437347412,
                -0.036871619522571564,
                0.2844407558441162,
                0.278557687997818,
                -0.6401973962783813,
                0.5256637334823608,
                0.1879703849554062,
                -0.0658399760723114,
                -0.04048357158899307,
                0.31649237871170044,
                0.2593316435813904,
                -0.22895286977291107,
                0.49385860562324524,
                -0.550778865814209,
                -0.5531474351882935,
                -0.39018121361732483,
                -0.5843349695205688,
                0.5557811260223389,
                -0.2445368766784668,
                -0.17523084580898285,
                -0.032696038484573364,
                0.3933308720588684,
                -0.323164165019989,
                0.3120841085910797,
                0.5670900344848633,
                1.1282140016555786,
                0.011467981152236462,
                -0.6101126074790955,
                -0.7862879037857056,
                -0.07578548789024353,
                -0.635800838470459
            ],
            [
                0.4410945475101471,
                0.239985391497612,
                0.10945481061935425,
                -0.15440669655799866,
                0.6523323655128479,
                0.23139478266239166,
                1.035595417022705,
                0.7776115536689758,
                -0.2671840488910675,
                0.02901497855782509,
                -0.7843549847602844,
                0.14853619039058685,
                1.032286286354065,
                0.4550623893737793,
                0.600182294845581,
                0.5010999441146851,
                -0.885853111743927,
                0.8039663434028625,
                -0.2528146803379059,
                0.21931354701519012,
                -0.0287821963429451,
                0.08609365671873093,
                0.9017672538757324,
                -0.6901351809501648,
                -0.2148664891719818,
                -1.2691690921783447,
                0.17473681271076202,
                -0.07478812336921692,
                -1.5533441305160522,
                -0.48479920625686646,
                0.15534037351608276,
                0.5481193661689758,
                0.12538868188858032,
                0.4431959092617035,
                -0.02164912223815918,
                -0.62416672706604
            ],
            [
                -0.0498209074139595,
                0.6180258393287659,
                0.16857101023197174,
                -0.3934488296508789,
                -0.5288897156715393,
                0.5383287072181702,
                -0.0937860906124115,
                0.6090431213378906,
                0.13459990918636322,
                0.0579184889793396,
                0.5223058462142944,
                0.2552570104598999,
                -0.492686927318573,
                -0.33029961585998535,
                -0.2342020571231842,
                -0.6586176753044128,
                -0.20159775018692017,
                0.45237454771995544,
                0.1358153074979782,
                0.22210697829723358,
                0.13452976942062378,
                1.1060417890548706,
                -0.3439869284629822,
                0.8257354497909546,
                -0.21656468510627747,
                0.09818070381879807,
                0.21193961799144745,
                0.01282577496021986,
                0.355840265750885,
                0.4419741630554199,
                1.7361016273498535,
                -0.26692071557044983,
                -0.5752724409103394,
                -0.30192458629608154,
                -0.7664011120796204,
                -0.033662065863609314
            ],
            [
                1.0981848239898682,
                -0.3822169303894043,
                -0.3364540636539459,
                0.48675602674484253,
                0.05135275423526764,
                -0.586047351360321,
                0.23901495337486267,
                0.35090404748916626,
                0.22752992808818817,
                -0.03645854815840721,
                0.7007200121879578,
                -0.5518622994422913,
                0.6940944790840149,
                -0.20665612816810608,
                -0.232343390583992,
                0.49322447180747986,
                0.3719608187675476,
                -0.6626136898994446,
                -0.5171983242034912,
                0.8481959700584412,
                -0.06574627012014389,
                0.0334547720849514,
                0.8948759436607361,
                -0.6818954944610596,
                0.5973522067070007,
                -0.1004127562046051,
                0.026625627651810646,
                -0.6233033537864685,
                -0.15527915954589844,
                -0.1907241940498352,
                -0.3122621774673462,
                0.5440981984138489,
                -0.24707940220832825,
                0.46541550755500793,
                0.34170761704444885,
                -0.1049795150756836
            ],
            [
                0.18510912358760834,
                -0.026762668043375015,
                -0.012158419005572796,
                -0.8412956595420837,
                -0.3204345703125,
                -0.024355366826057434,
                0.967056393623352,
                0.885739803314209,
                0.9530993700027466,
                0.05900090932846069,
                -0.04853248968720436,
                0.1547456681728363,
                -0.10839588940143585,
                0.7422385215759277,
                0.5787965655326843,
                -0.2935790717601776,
                -0.23465894162654877,
                0.2477591186761856,
                -0.3013337552547455,
                -0.026320625096559525,
                0.35419437289237976,
                0.414622038602829,
                0.044195011258125305,
                -0.3411802053451538,
                0.1456473469734192,
                -0.49511006474494934,
                0.10682123154401779,
                0.1766042411327362,
                -0.49011796712875366,
                -0.5063338279724121,
                0.2502902150154114,
                -0.042739562690258026,
                -0.3966923952102661,
                -0.10407286882400513,
                -0.6957741975784302,
                -0.16121868789196014
            ],
            [
                -0.6261125802993774,
                -0.2332942932844162,
                0.6484683156013489,
                -0.16846321523189545,
                -0.4766767919063568,
                0.5011934041976929,
                0.6347597241401672,
                -0.5929876565933228,
                0.36776286363601685,
                0.7157335877418518,
                0.37003886699676514,
                0.8746967315673828,
                -0.5540559887886047,
                -0.03174282982945442,
                0.3133685886859894,
                -0.6988973021507263,
                0.19746538996696472,
                0.5538987517356873,
                -0.006431442219763994,
                -0.085492342710495,
                -0.6785457730293274,
                0.04977784678339958,
                -0.6496315002441406,
                -0.3616816997528076,
                -0.2281523197889328,
                -0.41117042303085327,
                0.6697114706039429,
                0.13918685913085938,
                0.13770867884159088,
                0.4252379238605499,
                0.16627594828605652,
                -0.20077086985111237,
                0.19812695682048798,
                -0.3645549416542053,
                0.7100920677185059,
                0.20615819096565247
            ],
            [
                -0.0931471511721611,
                1.335971474647522,
                -0.3225387930870056,
                1.0891870260238647,
                0.3515830636024475,
                0.5922598838806152,
                -1.1322410106658936,
                -0.47958600521087646,
                -0.8522457480430603,
                0.6877397894859314,
                0.16052578389644623,
                0.3545147478580475,
                0.6941394805908203,
                0.7157589197158813,
                -0.7833000421524048,
                0.23957160115242004,
                -0.7097212076187134,
                -0.1333092898130417,
                0.15357667207717896,
                0.7056460380554199,
                -0.07648420333862305,
                0.36695197224617004,
                0.07021177560091019,
                0.7243564128875732,
                -0.11538280546665192,
                0.23465275764465332,
                0.28599897027015686,
                -0.14952628314495087,
                0.7228232622146606,
                -0.35319823026657104,
                -0.2673269212245941,
                0.24698378145694733,
                0.015152089297771454,
                -0.07575250416994095,
                0.6532301306724548,
                -0.026981255039572716
            ],
            [
                -0.11239433288574219,
                -0.247684046626091,
                0.9560605883598328,
                -0.22943764925003052,
                -0.047842755913734436,
                0.4416806399822235,
                0.2723482847213745,
                -0.684158444404602,
                -0.8948589563369751,
                -0.5621486902236938,
                -0.27263879776000977,
                0.6078557968139648,
                -0.45670926570892334,
                0.2691326141357422,
                -0.20082709193229675,
                -0.3148789703845978,
                0.3920423090457916,
                -0.41701167821884155,
                0.285849928855896,
                -0.40626782178878784,
                -0.3329460620880127,
                0.8895925879478455,
                -0.022644927725195885,
                -0.7769265174865723,
                -0.4799301028251648,
                -0.7673735618591309,
                0.9036031365394592,
                -0.09188875555992126,
                0.3781595230102539,
                0.25642457604408264,
                0.06828340888023376,
                -0.19362153112888336,
                0.2061576545238495,
                -0.0013726549223065376,
                0.018254071474075317,
                0.3970317244529724
            ],
            [
                -0.770490825176239,
                -0.6802637577056885,
                0.10720960795879364,
                0.3721095025539398,
                -0.08010221272706985,
                -0.5112118124961853,
                0.8142775297164917,
                -0.5173015594482422,
                0.051876526325941086,
                -0.6467355489730835,
                1.3880584239959717,
                0.024024641141295433,
                0.11051813513040543,
                -0.35132694244384766,
                -0.3134947419166565,
                -0.05484626069664955,
                1.2758071422576904,
                -0.5145337581634521,
                -0.13711561262607574,
                0.051397912204265594,
                -0.7049487233161926,
                -0.5963528156280518,
                0.030841469764709473,
                -0.8702064156532288,
                -0.23775988817214966,
                -0.37452998757362366,
                -0.4092332422733307,
                -0.17334507405757904,
                0.22239567339420319,
                -0.029210170730948448,
                -0.7290846109390259,
                -0.31905093789100647,
                0.4388595521450043,
                0.28415805101394653,
                0.07854489982128143,
                0.35638299584388733
            ],
            [
                -0.17403194308280945,
                -0.08735502511262894,
                0.35690441727638245,
                -0.6879590153694153,
                0.1211019828915596,
                0.3210350573062897,
                0.474057674407959,
                0.23974505066871643,
                0.06423187255859375,
                0.10723131150007248,
                -0.9034202694892883,
                -0.20644336938858032,
                0.43999984860420227,
                -0.5140772461891174,
                0.2787478268146515,
                0.3931068181991577,
                0.30019626021385193,
                0.35124772787094116,
                -0.11436920613050461,
                0.5469192862510681,
                0.23009651899337769,
                0.681820273399353,
                0.1639849841594696,
                0.5130444765090942,
                -0.2204483449459076,
                -0.7271609902381897,
                -0.3504980206489563,
                0.11051710695028305,
                -0.3193502426147461,
                -0.04737928509712219,
                -0.6025132536888123,
                0.3617839515209198,
                0.1707216203212738,
                0.33602213859558105,
                -0.50274658203125,
                0.8564580678939819
            ],
            [
                0.2699771821498871,
                -0.5148632526397705,
                -0.5219449996948242,
                -0.6735714673995972,
                -0.6169295310974121,
                -0.2295168936252594,
                0.35782212018966675,
                0.046779386699199677,
                -0.22574429214000702,
                -1.2341928482055664,
                0.4417950510978699,
                -1.1688884496688843,
                -0.7802677750587463,
                -0.6802753210067749,
                -0.4934651553630829,
                -0.929055392742157,
                0.9400913119316101,
                0.10461677610874176,
                1.1508432626724243,
                -0.331443190574646,
                0.0359535738825798,
                0.2789013385772705,
                -0.38840603828430176,
                -0.13998380303382874,
                -0.13764800131320953,
                0.3589601218700409,
                0.0447227880358696,
                0.38216909766197205,
                -0.22050270438194275,
                0.4016077220439911,
                1.0035783052444458,
                -0.3958100378513336,
                -0.20542152225971222,
                -0.5614384412765503,
                -1.1082100868225098,
                0.27282148599624634
            ],
            [
                -0.5273561477661133,
                -0.21435761451721191,
                -0.1407555490732193,
                -0.2725903391838074,
                0.3068961799144745,
                -0.44988954067230225,
                -0.03206200897693634,
                -0.08967244625091553,
                0.030577246099710464,
                -0.22183987498283386,
                -0.2604057490825653,
                0.21101421117782593,
                -0.18768024444580078,
                -0.25166845321655273,
                0.32619553804397583,
                -0.6435429453849792,
                0.8023638725280762,
                -0.13926003873348236,
                0.15805935859680176,
                -0.12769100069999695,
                -0.2869168519973755,
                -0.10680956393480301,
                -0.36697787046432495,
                0.2809002697467804,
                -0.36429715156555176,
                -0.573521614074707,
                -1.008804440498352,
                0.5681532621383667,
                0.500073254108429,
                0.22460240125656128,
                -0.602959394454956,
                0.8487035036087036,
                0.9579018950462341,
                0.27359578013420105,
                0.16043394804000854,
                -0.007403319701552391
            ],
            [
                0.525197446346283,
                -0.4302316904067993,
                0.3513457477092743,
                -0.22960828244686127,
                0.38578248023986816,
                0.5427658557891846,
                0.1913415640592575,
                -0.022819900885224342,
                -0.4909130930900574,
                -0.08397241681814194,
                -0.17586649954319,
                -0.5422883629798889,
                0.6033785343170166,
                -0.5188568830490112,
                0.48209407925605774,
                0.16773422062397003,
                0.1216612309217453,
                0.7213234305381775,
                0.24148939549922943,
                -0.36182332038879395,
                -0.7772917151451111,
                0.09738576412200928,
                0.5529102683067322,
                0.27872273325920105,
                -1.0727567672729492,
                -0.9254751801490784,
                -0.26487118005752563,
                -0.507161557674408,
                -0.031824588775634766,
                0.7140353918075562,
                0.5063271522521973,
                0.5864200592041016,
                0.10979150980710983,
                -0.39794930815696716,
                -0.4947800636291504,
                -0.5636298656463623
            ],
            [
                0.11069005727767944,
                -0.11504190415143967,
                0.10630978643894196,
                0.07719626277685165,
                0.2746502161026001,
                0.29389891028404236,
                0.500236988067627,
                -0.004317717161029577,
                -0.2658933699131012,
                -0.8095924258232117,
                -0.3369065225124359,
                -0.44086769223213196,
                -0.05127890780568123,
                -0.0333833247423172,
                -0.17381857335567474,
                0.718433141708374,
                -0.5037038326263428,
                0.727703869342804,
                -1.1721553802490234,
                -0.5642667412757874,
                -0.3971763253211975,
                0.3643653392791748,
                0.14847978949546814,
                -0.01923612505197525,
                -0.7733169794082642,
                -0.11501989513635635,
                0.11794482171535492,
                -0.31382378935813904,
                -0.3354034423828125,
                0.2372475415468216,
                0.28948795795440674,
                -0.8689073920249939,
                0.27385661005973816,
                0.06782127171754837,
                -0.23102429509162903,
                0.08545994013547897
            ],
            [
                0.9881478548049927,
                0.5422927141189575,
                1.3140689134597778,
                0.686911404132843,
                1.0853828191757202,
                -0.2814796268939972,
                0.8196956515312195,
                -0.5787870287895203,
                -0.9223125576972961,
                -0.14677053689956665,
                -0.7070609331130981,
                0.47427889704704285,
                0.3730309009552002,
                -0.4607737064361572,
                0.014567604288458824,
                -0.4741654694080353,
                -0.5942491292953491,
                -0.8771393299102783,
                -0.26130545139312744,
                0.47794702649116516,
                0.19717100262641907,
                1.242828607559204,
                0.5680173635482788,
                -0.1159888282418251,
                0.5257153511047363,
                -1.2438689470291138,
                -0.2515929341316223,
                -0.41964486241340637,
                0.055530525743961334,
                -0.3377549350261688,
                -0.8846597671508789,
                0.8564901947975159,
                -0.36206841468811035,
                0.7648026943206787,
                -0.5056496262550354,
                -1.2343659400939941
            ],
            [
                0.590679407119751,
                -0.08176206052303314,
                -0.3719571530818939,
                0.2048003375530243,
                -0.2922876477241516,
                -0.3845176100730896,
                0.9421339631080627,
                -0.026958676055073738,
                -0.38160571455955505,
                -0.6758424639701843,
                0.01583053357899189,
                -0.6136006712913513,
                -0.2377648949623108,
                0.4061118960380554,
                -0.7482089400291443,
                -0.08502437174320221,
                0.18469135463237762,
                -0.49767768383026123,
                0.5109995603561401,
                0.5055389404296875,
                0.5887504816055298,
                0.6830448508262634,
                -0.6359789967536926,
                -0.3338737189769745,
                0.5417709946632385,
                0.5511019825935364,
                0.10654813796281815,
                0.12871819734573364,
                0.12405318021774292,
                -0.6556168794631958,
                -0.43907925486564636,
                -0.6804351210594177,
                -0.4722764492034912,
                0.4978022575378418,
                -0.6523197889328003,
                0.4037196934223175
            ],
            [
                0.6240196228027344,
                0.10739048570394516,
                -0.5493593215942383,
                0.20987334847450256,
                -0.4824518859386444,
                -0.33792126178741455,
                -0.6453667283058167,
                0.11202866584062576,
                -0.43743202090263367,
                0.21116013824939728,
                0.6373324990272522,
                -0.6912617087364197,
                -0.06281021982431412,
                -0.41736555099487305,
                -0.5813212394714355,
                -0.6119582056999207,
                0.25556665658950806,
                0.19408734142780304,
                1.1796436309814453,
                1.0291502475738525,
                0.2751997709274292,
                0.695632815361023,
                -1.0162465572357178,
                0.9879938364028931,
                0.16547344624996185,
                0.7861754298210144,
                -0.3060142397880554,
                0.6293915510177612,
                0.33843427896499634,
                -0.1454249769449234,
                0.17111197113990784,
                -0.013554839417338371,
                -0.11416898667812347,
                0.32780224084854126,
                -0.5560294389724731,
                0.5570452213287354
            ]
        ],
        [
            [
                -0.008201353251934052,
                -0.8999865055084229,
                1.4672633409500122,
                -1.5359448194503784,
                1.0347695350646973,
                0.8229011297225952,
                -0.16233691573143005,
                0.7917523384094238,
                1.188432216644287,
                0.9758346676826477,
                1.137423038482666,
                -1.2190442085266113,
                -1.6595970392227173,
                1.2777862548828125,
                1.3359580039978027,
                0.9296854138374329,
                -0.5641719698905945,
                -1.191727876663208
            ],
            [
                0.09921585768461227,
                -0.7787941694259644,
                0.18289153277873993,
                0.05311768874526024,
                0.022129757329821587,
                -0.5855316519737244,
                0.3302465081214905,
                0.2941187918186188,
                -0.811206042766571,
                -0.6139767169952393,
                -0.09903421252965927,
                -0.10463541001081467,
                -0.28998127579689026,
                0.6372688412666321,
                -0.4630817472934723,
                0.04684579744935036,
                0.22296403348445892,
                0.22215789556503296
            ],
            [
                0.5802217721939087,
                -0.9583207368850708,
                2.3881378173828125,
                -0.45225536823272705,
                -1.2681742906570435,
                0.42835673689842224,
                -1.3943512439727783,
                1.5319246053695679,
                -0.424039751291275,
                -4.482041835784912,
                0.49939075112342834,
                -1.166041612625122,
                0.6657916903495789,
                0.041027821600437164,
                0.3087863326072693,
                1.645022988319397,
                -1.076399564743042,
                -1.5545381307601929
            ],
            [
                -0.24992984533309937,
                -0.5423591136932373,
                0.5263786315917969,
                -0.6048727035522461,
                -0.30538707971572876,
                -0.7757144570350647,
                -0.22833897173404694,
                0.6680701971054077,
                0.7921056747436523,
                -1.106925368309021,
                0.5393553376197815,
                -0.7592756748199463,
                -1.200496792793274,
                -0.647406280040741,
                0.5930666327476501,
                1.0333930253982544,
                -0.40113309025764465,
                -0.7318225502967834
            ],
            [
                -0.032291311770677567,
                0.004870045930147171,
                -0.38504213094711304,
                0.15830115973949432,
                -0.5719161033630371,
                0.26632699370384216,
                -0.2073751986026764,
                0.23265372216701508,
                0.10691197961568832,
                0.10472334176301956,
                -0.17299731075763702,
                -0.008176182396709919,
                -0.32226595282554626,
                -0.023598045110702515,
                0.1885891556739807,
                -0.016018329188227654,
                0.05753422901034355,
                0.19547268748283386
            ],
            [
                0.05074544623494148,
                0.2859611213207245,
                -0.07468140870332718,
                -0.31644535064697266,
                -0.4110161066055298,
                0.05642314255237579,
                0.16663414239883423,
                0.3525440990924835,
                0.23288553953170776,
                -0.21990419924259186,
                0.2122136354446411,
                -0.12756191194057465,
                0.3274851441383362,
                0.39997971057891846,
                0.2698597013950348,
                0.298727810382843,
                -0.08686187118291855,
                0.2858154773712158
            ],
            [
                -0.4426378309726715,
                0.8557131886482239,
                1.1844196319580078,
                -1.552899718284607,
                2.2035529613494873,
                -0.03869294747710228,
                1.2737243175506592,
                1.0991275310516357,
                -0.7231110334396362,
                0.5332738757133484,
                -1.7472875118255615,
                -1.7542678117752075,
                -1.1370458602905273,
                -1.6617965698242188,
                -0.9220948815345764,
                0.87667316198349,
                -1.3002033233642578,
                -1.7826588153839111
            ],
            [
                -1.1098754405975342,
                0.7711337208747864,
                0.10971680283546448,
                -0.7405885457992554,
                -1.5667741298675537,
                -0.4995749890804291,
                1.2802025079727173,
                0.8129797577857971,
                1.783468246459961,
                -0.039916105568408966,
                -1.063893437385559,
                -1.0863630771636963,
                0.23852179944515228,
                -0.5832476019859314,
                2.013284206390381,
                -0.15177683532238007,
                -1.3819715976715088,
                -0.9591217041015625
            ],
            [
                2.7818732261657715,
                1.3694566488265991,
                2.1648995876312256,
                -2.7167530059814453,
                -1.0459164381027222,
                -5.184082984924316,
                0.046369828283786774,
                -0.3446919918060303,
                -0.19589225947856903,
                1.071346640586853,
                -1.734724521636963,
                -1.4995182752609253,
                1.1885493993759155,
                1.9900678396224976,
                2.3453261852264404,
                -0.8890739679336548,
                -1.6509308815002441,
                -1.8448861837387085
            ],
            [
                0.9549872875213623,
                -1.6665031909942627,
                -0.4164349138736725,
                -0.21158213913440704,
                -0.5087496638298035,
                -0.13674545288085938,
                0.17968344688415527,
                -0.13238346576690674,
                0.7857194542884827,
                1.214664101600647,
                0.08265452831983566,
                0.1818365454673767,
                0.8864181041717529,
                -1.185470461845398,
                -0.2802240550518036,
                0.949164867401123,
                1.0381684303283691,
                0.09836503863334656
            ],
            [
                -0.8623330593109131,
                -0.5721431970596313,
                0.39838844537734985,
                -1.5496947765350342,
                0.6376323103904724,
                0.07066967338323593,
                -0.9964231252670288,
                -0.08676253259181976,
                -1.218168020248413,
                1.4416767358779907,
                0.8821401000022888,
                -0.43661144375801086,
                -0.2832350432872772,
                -1.098946452140808,
                -0.29245489835739136,
                0.5834720134735107,
                0.13419240713119507,
                -0.4636833667755127
            ],
            [
                -2.396066427230835,
                -1.4390290975570679,
                -0.6900968551635742,
                -0.5116620063781738,
                0.7442231774330139,
                -1.4155956506729126,
                -0.33916589617729187,
                2.785475969314575,
                -0.950390100479126,
                -0.34517809748649597,
                1.0911369323730469,
                -2.2955057621002197,
                0.6642775535583496,
                -0.6534488201141357,
                -1.4437609910964966,
                -0.3493124842643738,
                -0.6564754843711853,
                0.545078694820404
            ],
            [
                -0.4096193313598633,
                -1.314262866973877,
                2.6299822330474854,
                -2.6788575649261475,
                -0.10301654040813446,
                0.9852529764175415,
                -0.2323954701423645,
                0.21521207690238953,
                -1.1635656356811523,
                0.4359349012374878,
                0.6224323511123657,
                -1.4979057312011719,
                0.5051526427268982,
                -0.7768496870994568,
                0.12642918527126312,
                -0.3681955635547638,
                -0.9085266590118408,
                -2.0918755531311035
            ],
            [
                -0.23102852702140808,
                -0.9516093730926514,
                2.3288776874542236,
                -2.4714245796203613,
                0.013789129443466663,
                1.1141903400421143,
                -0.06718326359987259,
                0.18544501066207886,
                -1.2151288986206055,
                0.3934035301208496,
                0.6983259320259094,
                -1.3905913829803467,
                0.7637810707092285,
                -0.6884126663208008,
                0.2244231104850769,
                -0.4088893234729767,
                -0.9816543459892273,
                -2.0800132751464844
            ],
            [
                0.0020186319015920162,
                -1.1340817213058472,
                2.396010637283325,
                -2.2558155059814453,
                -0.2880915403366089,
                0.9753326773643494,
                -0.1598946899175644,
                -0.022702589631080627,
                -1.145338773727417,
                0.06490236520767212,
                0.9642356038093567,
                -1.2921903133392334,
                0.8596956729888916,
                -0.5317478775978088,
                0.12435387820005417,
                -0.49363094568252563,
                -1.1583654880523682,
                -1.6457239389419556
            ],
            [
                -0.05339261516928673,
                -1.4455537796020508,
                0.5647140741348267,
                -0.33656081557273865,
                0.4574928879737854,
                0.6825363039970398,
                2.238170623779297,
                -0.36988839507102966,
                -1.1588457822799683,
                0.5971187353134155,
                1.4934924840927124,
                0.1667523980140686,
                1.7168211936950684,
                0.9305883049964905,
                -0.8286977410316467,
                1.1756142377853394,
                -0.8913114070892334,
                -0.4512244760990143
            ],
            [
                -0.5467537045478821,
                -1.0484514236450195,
                1.8237546682357788,
                -2.1130290031433105,
                -0.513796865940094,
                0.656066358089447,
                0.3794538378715515,
                0.17170044779777527,
                -0.6785131692886353,
                0.30584001541137695,
                0.770565927028656,
                -1.2858182191848755,
                0.7125229835510254,
                -0.906919538974762,
                0.37400704622268677,
                -0.6654661893844604,
                -0.829192042350769,
                -1.4145805835723877
            ],
            [
                -2.7086212635040283,
                -1.4473116397857666,
                -0.30130529403686523,
                0.5965215563774109,
                0.5804269909858704,
                5.129034042358398,
                -0.03779761865735054,
                0.7459211945533752,
                0.02102937176823616,
                -1.1603573560714722,
                2.0154049396514893,
                0.014402501285076141,
                -0.38282883167266846,
                -1.776421070098877,
                -1.466795802116394,
                1.1001306772232056,
                0.1860041618347168,
                -0.15408551692962646
            ],
            [
                0.3869665563106537,
                0.9258071780204773,
                0.25311046838760376,
                -0.225820854306221,
                -0.6366559267044067,
                0.47405192255973816,
                0.10332949459552765,
                -0.4693440794944763,
                -1.621491551399231,
                0.030041582882404327,
                0.26460766792297363,
                -0.16007640957832336,
                1.8391920328140259,
                -1.5255826711654663,
                -0.5805498957633972,
                -1.055383563041687,
                0.2632690668106079,
                -0.041363250464200974
            ],
            [
                -0.36251550912857056,
                -1.2954003810882568,
                2.1724281311035156,
                -2.8650033473968506,
                -0.12666647136211395,
                1.0713443756103516,
                -0.29776543378829956,
                0.1409069001674652,
                -1.122551441192627,
                0.5957769751548767,
                0.5433410406112671,
                -1.615173101425171,
                0.8605895638465881,
                -0.9677826762199402,
                0.12807917594909668,
                -0.1470966935157776,
                -0.808353066444397,
                -1.7700347900390625
            ],
            [
                -1.5824990272521973,
                -0.7539688348770142,
                0.43520981073379517,
                -1.26278555393219,
                1.2696870565414429,
                -0.6588419079780579,
                0.5030956864356995,
                -1.4506834745407104,
                -0.29177799820899963,
                0.7460830807685852,
                0.9077539443969727,
                0.6831755638122559,
                0.47599199414253235,
                -1.119748592376709,
                0.10431685298681259,
                -0.3583501875400543,
                0.3513152003288269,
                -0.3623511493206024
            ],
            [
                -0.3613322377204895,
                -1.3236463069915771,
                2.7629175186157227,
                -2.6372766494750977,
                -0.15700484812259674,
                1.2062891721725464,
                -0.2761296331882477,
                0.30507877469062805,
                -1.521636962890625,
                0.5197131037712097,
                0.6445313096046448,
                -1.6983946561813354,
                0.6446221470832825,
                -0.9001152515411377,
                0.059027187526226044,
                -0.315981924533844,
                -0.9606585502624512,
                -2.11877179145813
            ],
            [
                -0.11694885790348053,
                -1.1107591390609741,
                2.4545130729675293,
                -2.798081636428833,
                -0.1376582235097885,
                1.1531286239624023,
                -0.24480238556861877,
                0.2555099129676819,
                -1.2286161184310913,
                0.4277806580066681,
                0.8551780581474304,
                -1.643632411956787,
                0.7532867193222046,
                -1.0244032144546509,
                0.10689827799797058,
                -0.4773580729961395,
                -1.0958597660064697,
                -2.12829327583313
            ],
            [
                -0.07761143893003464,
                -1.1956830024719238,
                2.4397881031036377,
                -2.5113794803619385,
                -0.18561536073684692,
                1.0806127786636353,
                -0.11013785004615784,
                -0.03299684077501297,
                -1.2880066633224487,
                0.2062022089958191,
                1.0122569799423218,
                -1.4294432401657104,
                0.7456101775169373,
                -0.741870105266571,
                0.07032909244298935,
                -0.5915454030036926,
                -1.112504005432129,
                -1.7747588157653809
            ],
            [
                -0.28800836205482483,
                -0.8209985494613647,
                0.5043290257453918,
                -0.5963545441627502,
                -0.8730746507644653,
                0.6054632663726807,
                -2.638545513153076,
                0.17057538032531738,
                0.552751362323761,
                0.2040293961763382,
                1.9524840116500854,
                -0.6541722416877747,
                1.6390212774276733,
                0.81365966796875,
                -0.40558677911758423,
                -0.8288558721542358,
                0.010741615667939186,
                -0.17690636217594147
            ],
            [
                -0.028658811002969742,
                -0.988887369632721,
                2.411159038543701,
                -2.4968576431274414,
                0.2651800215244293,
                0.8764992356300354,
                -0.3361985385417938,
                0.14699873328208923,
                -1.225145936012268,
                0.44165149331092834,
                0.667792022228241,
                -1.507145881652832,
                0.715345025062561,
                -0.743754506111145,
                -0.18217028677463531,
                0.3215760290622711,
                -1.0488972663879395,
                -1.8111013174057007
            ],
            [
                -0.4110703766345978,
                -0.8540416359901428,
                2.107177972793579,
                -2.2955546379089355,
                -0.17663046717643738,
                0.8594561815261841,
                0.04898650944232941,
                -0.040768373757600784,
                -0.8829436898231506,
                0.16329970955848694,
                0.8669553995132446,
                -1.2491323947906494,
                0.7755178213119507,
                -0.6259459257125854,
                0.2760984003543854,
                0.0016366200288757682,
                -1.1407532691955566,
                -1.6778433322906494
            ],
            [
                -1.7804087400436401,
                0.36649394035339355,
                -0.07576216012239456,
                0.08262775093317032,
                0.6777182221412659,
                1.1383795738220215,
                -0.1658947467803955,
                -0.6281893849372864,
                -2.63726544380188,
                -0.02233729511499405,
                -0.01948384754359722,
                -0.09232359379529953,
                -0.009114627726376057,
                1.7667381763458252,
                0.20199057459831238,
                -1.3302432298660278,
                -1.4320951700210571,
                0.21973340213298798
            ],
            [
                -0.3988379240036011,
                -1.1445986032485962,
                2.413527727127075,
                -2.6061081886291504,
                0.11664139479398727,
                1.1140137910842896,
                -0.13798247277736664,
                0.2166256606578827,
                -0.9198384881019592,
                0.39836516976356506,
                0.6210113167762756,
                -1.6079580783843994,
                1.2219220399856567,
                -0.8355550169944763,
                0.06467371433973312,
                -0.2965223789215088,
                -0.8248153924942017,
                -1.7919772863388062
            ],
            [
                1.7653685808181763,
                0.4501124918460846,
                0.44590041041374207,
                0.3715267479419708,
                0.22706063091754913,
                2.5371651649475098,
                0.3274551033973694,
                -0.6129282712936401,
                -0.03432273492217064,
                2.0220069885253906,
                0.13616451621055603,
                -0.2503112256526947,
                -0.38552674651145935,
                0.44729071855545044,
                0.5512561202049255,
                -0.40496692061424255,
                0.1426960825920105,
                -0.3460487723350525
            ],
            [
                -0.5036457777023315,
                0.2710685133934021,
                1.0918476581573486,
                -0.6525244116783142,
                0.669215202331543,
                1.0305771827697754,
                0.022265370935201645,
                0.06837884336709976,
                -2.327552080154419,
                1.7917098999023438,
                -0.4529184401035309,
                -0.7181697487831116,
                1.732195258140564,
                -0.05014482140541077,
                -0.605583667755127,
                -0.9047341346740723,
                -0.2665315270423889,
                -0.18471501767635345
            ],
            [
                0.36937570571899414,
                -1.1405054330825806,
                1.7222011089324951,
                -2.7998368740081787,
                0.25352489948272705,
                0.5985153913497925,
                -0.7978635430335999,
                0.7568804025650024,
                -1.2551993131637573,
                0.9254316091537476,
                0.2788809537887573,
                -2.066228151321411,
                1.034757137298584,
                -0.8843134045600891,
                -0.37120452523231506,
                -0.011467981152236462,
                -0.7324572205543518,
                -1.4122213125228882
            ],
            [
                -0.28323793411254883,
                -0.9473077654838562,
                2.129068613052368,
                -2.2464611530303955,
                0.01374257542192936,
                1.1416147947311401,
                -0.0984438881278038,
                -0.06036566197872162,
                -1.0783722400665283,
                0.39959439635276794,
                0.5019991993904114,
                -1.3975905179977417,
                0.8388489484786987,
                -0.690403163433075,
                0.028895912691950798,
                -0.585231363773346,
                -0.6554989814758301,
                -1.5157654285430908
            ],
            [
                -0.5974032878875732,
                0.04243295267224312,
                0.5612818002700806,
                -0.6511892676353455,
                -0.6209662556648254,
                -0.6683703064918518,
                -1.4616879224777222,
                0.5580316781997681,
                -1.691807508468628,
                -0.1281077265739441,
                -0.3885578215122223,
                -0.6963141560554504,
                -1.3838199377059937,
                -1.401161789894104,
                1.659116506576538,
                -1.7549687623977661,
                0.8904405832290649,
                0.4181267321109772
            ],
            [
                0.6523194909095764,
                -0.6092849969863892,
                0.8985847234725952,
                -0.4575488865375519,
                2.0080466270446777,
                0.2023473083972931,
                -0.8694927096366882,
                0.11292561888694763,
                -1.1378222703933716,
                0.6652178168296814,
                0.6654700636863708,
                0.13148383796215057,
                0.15992365777492523,
                0.023932991549372673,
                -2.065020799636841,
                0.7529638409614563,
                0.2788727283477783,
                -0.5709144473075867
            ],
            [
                -0.44460463523864746,
                -0.7227656245231628,
                2.306241989135742,
                -2.32989501953125,
                -0.1665288507938385,
                0.41405728459358215,
                0.18394994735717773,
                -0.2227761447429657,
                -0.9355626702308655,
                0.3063037693500519,
                0.754388689994812,
                -1.3703739643096924,
                0.8252192139625549,
                -0.3759573698043823,
                0.2736695110797882,
                -0.1693703532218933,
                -1.1765466928482056,
                -1.69357430934906
            ]
        ]
    ]
}