{
    "biases": [
        [
            0.16352881491184235,
            -0.314064085483551,
            0.9165170788764954,
            -0.25433996319770813,
            1.0191121101379395,
            -0.5842319130897522,
            2.3180091381073,
            1.2452788352966309,
            -0.04713909327983856,
            0.1177852675318718,
            -1.4302781820297241,
            -0.3170720934867859,
            0.3552210330963135,
            -0.9898788332939148,
            -1.3023179769515991,
            1.1132457256317139,
            0.0028522652573883533,
            -0.05811940133571625
        ],
        [
            3.3872029781341553,
            4.486178874969482,
            4.095325469970703,
            3.7056429386138916,
            5.4012861251831055,
            3.0966010093688965,
            4.214832782745361,
            1.917770504951477,
            5.081533908843994,
            -6.1486053466796875,
            -6.183394908905029,
            -5.983260631561279,
            -7.342729091644287,
            -8.052213668823242,
            -6.628964424133301,
            -6.599005699157715,
            -5.349958419799805,
            -7.926946640014648,
            -7.160747528076172,
            -6.464842796325684,
            -6.01073694229126,
            -7.276750564575195,
            -8.370357513427734,
            -8.175928115844727,
            -6.385651588439941,
            -8.331815719604492,
            -7.939844608306885,
            -6.553206443786621,
            -6.460147857666016,
            -6.024020195007324,
            -6.179354667663574,
            -8.585470199584961,
            -8.0794038772583,
            -6.424372673034668,
            -8.425235748291016,
            -5.711511611938477
        ]
    ],
    "weights": [
        [
            [
                0.4273889660835266,
                1.5807260274887085,
                -1.1381101608276367,
                0.9891795516014099,
                -0.8361860513687134,
                1.3343472480773926,
                0.34114721417427063,
                -0.15163688361644745
            ],
            [
                0.20366771519184113,
                1.0623629093170166,
                0.15681256353855133,
                -1.8731034994125366,
                0.49419155716896057,
                0.765004575252533,
                2.8790876865386963,
                -1.4151986837387085
            ],
            [
                -1.3128762245178223,
                1.2796365022659302,
                -0.5743333697319031,
                -0.6151923537254333,
                -0.09722098708152771,
                1.1120408773422241,
                -0.808072566986084,
                0.6901537179946899
            ],
            [
                1.1085689067840576,
                0.3343350887298584,
                -1.0247364044189453,
                2.0846235752105713,
                1.7630175352096558,
                0.6194971799850464,
                -1.000700831413269,
                1.6789653301239014
            ],
            [
                -0.0028560718055814505,
                -0.35552260279655457,
                0.4693059027194977,
                -1.624572515487671,
                0.9289857149124146,
                -1.670197606086731,
                -0.14486199617385864,
                1.2142983675003052
            ],
            [
                1.4808828830718994,
                0.9999786019325256,
                0.6589228510856628,
                -1.4626377820968628,
                0.07048983126878738,
                1.3932474851608276,
                -0.9199975728988647,
                -1.5324411392211914
            ],
            [
                -0.9695084095001221,
                -1.2934670448303223,
                0.2375902682542801,
                -0.300308495759964,
                -1.505662202835083,
                0.0838644802570343,
                0.6019207835197449,
                -0.3441624939441681
            ],
            [
                1.0131874084472656,
                -0.0524153895676136,
                -1.2032904624938965,
                -1.0348230600357056,
                0.34204503893852234,
                -0.3597189784049988,
                -1.4647823572158813,
                -1.3388214111328125
            ],
            [
                -0.5980077981948853,
                -0.8470964431762695,
                -0.6470704674720764,
                -2.067242383956909,
                0.5815443396568298,
                -1.3631235361099243,
                0.9345783591270447,
                -0.26364654302597046
            ],
            [
                1.4980177879333496,
                1.1452230215072632,
                0.9370584487915039,
                -0.9083331823348999,
                -0.07589893043041229,
                -1.3152949810028076,
                1.1030068397521973,
                1.2783241271972656
            ],
            [
                1.3897277116775513,
                0.904236376285553,
                0.601510763168335,
                0.3152947425842285,
                -1.2222872972488403,
                1.5766496658325195,
                -0.2565981149673462,
                0.9815306663513184
            ],
            [
                -1.9088212251663208,
                0.23569223284721375,
                -1.1602783203125,
                -1.8713624477386475,
                0.6748201847076416,
                1.2689428329467773,
                -0.7622537612915039,
                0.6682602763175964
            ],
            [
                1.2902989387512207,
                -1.3804103136062622,
                -0.36913156509399414,
                -0.22774648666381836,
                2.0028069019317627,
                1.0978065729141235,
                -0.16559207439422607,
                -1.5754843950271606
            ],
            [
                0.2713526785373688,
                1.8050811290740967,
                -0.20738688111305237,
                1.6038328409194946,
                0.804785966873169,
                -1.0383100509643555,
                0.15178950130939484,
                0.06588629633188248
            ],
            [
                2.1450929641723633,
                -0.22941522300243378,
                -1.2898956537246704,
                -1.3014228343963623,
                -0.03971489146351814,
                1.153591275215149,
                -0.49848365783691406,
                1.8356564044952393
            ],
            [
                1.1882493495941162,
                0.39533472061157227,
                -1.291596531867981,
                -0.14779719710350037,
                -2.678222179412842,
                -0.5746033787727356,
                0.09028884768486023,
                -0.3664270341396332
            ],
            [
                -1.1540448665618896,
                0.02827671729028225,
                2.779083728790283,
                0.3521701991558075,
                -0.04151489585638046,
                -1.1329740285873413,
                -0.26830244064331055,
                0.25046154856681824
            ],
            [
                0.07470500469207764,
                -0.8059212565422058,
                -1.1634893417358398,
                0.2959964871406555,
                1.050302267074585,
                0.8925619721412659,
                1.6165666580200195,
                1.319499135017395
            ]
        ],
        [
            [
                -1.8355872631072998,
                -1.44865882396698,
                -1.2180885076522827,
                -1.8795700073242188,
                0.6777555346488953,
                -1.535670280456543,
                0.5503960847854614,
                -1.9579157829284668,
                1.0081557035446167,
                -2.5597970485687256,
                -0.9346787333488464,
                2.718147039413452,
                1.0540436506271362,
                -0.5643371343612671,
                -0.27072322368621826,
                -2.126183032989502,
                1.332321047782898,
                0.16925770044326782
            ],
            [
                1.6179893016815186,
                -1.1504402160644531,
                3.5625438690185547,
                -1.111266016960144,
                -2.6023712158203125,
                -1.1624923944473267,
                2.325601577758789,
                -0.3749234974384308,
                0.45111891627311707,
                -0.9302050471305847,
                -1.5234373807907104,
                0.9763984084129333,
                0.7324889302253723,
                -0.42078542709350586,
                1.58639395236969,
                -3.116370677947998,
                -4.111420631408691,
                1.2653144598007202
            ],
            [
                1.0280070304870605,
                -0.04701667279005051,
                0.24940438568592072,
                0.608241081237793,
                -1.815659999847412,
                1.3442333936691284,
                -1.175748586654663,
                1.9005831480026245,
                0.7859014868736267,
                -0.6421517729759216,
                1.6068304777145386,
                1.1079713106155396,
                1.997738003730774,
                -0.1676652729511261,
                1.6801286935806274,
                1.206249713897705,
                -2.5516648292541504,
                2.5670154094696045
            ],
            [
                -1.857715129852295,
                -2.072113275527954,
                -1.9652608633041382,
                -1.9810646772384644,
                1.1117407083511353,
                -1.9176762104034424,
                0.5681893229484558,
                -0.2334965467453003,
                1.880913257598877,
                -0.5953950881958008,
                1.0798513889312744,
                -1.0160471200942993,
                -1.47322416305542,
                -1.0459579229354858,
                1.2624614238739014,
                1.766380786895752,
                0.8367198705673218,
                -1.6282939910888672
            ],
            [
                -1.2093416452407837,
                -1.7391111850738525,
                -2.666452169418335,
                -0.8852934241294861,
                2.531641721725464,
                -2.829246997833252,
                -1.207520842552185,
                2.40727162361145,
                0.7030974626541138,
                -0.16358061134815216,
                -3.1045007705688477,
                1.3909648656845093,
                -1.2215691804885864,
                3.1902313232421875,
                0.24542231857776642,
                2.869321346282959,
                -4.252401351928711,
                -0.22027002274990082
            ],
            [
                -2.6534838676452637,
                1.9086989164352417,
                2.229462146759033,
                -3.166146993637085,
                4.281552314758301,
                3.260801076889038,
                -0.9410600662231445,
                1.0925829410552979,
                2.375088930130005,
                0.41033416986465454,
                0.3337990343570709,
                3.3232946395874023,
                -0.19302301108837128,
                -2.337752103805542,
                2.3609564304351807,
                0.5965240001678467,
                -0.28608596324920654,
                -1.5494952201843262
            ],
            [
                2.3529326915740967,
                -0.2436402142047882,
                -0.20497937500476837,
                -1.9851627349853516,
                -1.586540937423706,
                -0.15762589871883392,
                -1.4979379177093506,
                1.0495930910110474,
                1.1305025815963745,
                1.8377290964126587,
                1.911881685256958,
                1.1083167791366577,
                -4.158442497253418,
                2.1865596771240234,
                -1.0860596895217896,
                2.3467373847961426,
                0.22858457267284393,
                -1.9355915784835815
            ],
            [
                -3.684997081756592,
                -2.6126155853271484,
                3.039104461669922,
                -1.5440928936004639,
                2.92069149017334,
                3.200228452682495,
                -1.8282181024551392,
                4.376560688018799,
                1.860274076461792,
                -2.268799066543579,
                0.5506399869918823,
                3.549497604370117,
                -0.9275978803634644,
                -1.788157343864441,
                3.067753314971924,
                0.0884670615196228,
                1.77225661277771,
                -3.396799325942993
            ],
            [
                -0.58286052942276,
                -0.9701335430145264,
                0.008981510065495968,
                -4.197356224060059,
                -0.49112439155578613,
                4.80673885345459,
                -1.2259546518325806,
                4.8135085105896,
                1.6426053047180176,
                -2.2132110595703125,
                -1.7881108522415161,
                -0.19123855233192444,
                2.8727786540985107,
                -0.5462971925735474,
                -3.4261722564697266,
                0.7216987013816833,
                0.4543508291244507,
                -4.5270795822143555
            ],
            [
                0.4589371681213379,
                -0.15370486676692963,
                0.4224032461643219,
                0.14635425806045532,
                -0.6112626791000366,
                -0.38159123063087463,
                -0.4277094900608063,
                -0.29881396889686584,
                0.3146781325340271,
                -0.382455974817276,
                1.313861608505249,
                1.1511472463607788,
                -3.2994773387908936,
                0.8948126435279846,
                -1.0713587999343872,
                0.1567188948392868,
                1.3105777502059937,
                -1.0713952779769897
            ],
            [
                -0.16000424325466156,
                0.4745742082595825,
                -1.4966464042663574,
                -2.289428472518921,
                -1.558499813079834,
                1.4192235469818115,
                -1.1542770862579346,
                -0.7456716299057007,
                0.8302841186523438,
                0.7584699988365173,
                0.44137537479400635,
                -1.5379241704940796,
                0.48217150568962097,
                -1.2763675451278687,
                1.3584635257720947,
                -2.226262331008911,
                -1.7043452262878418,
                1.8487049341201782
            ],
            [
                1.088557243347168,
                -2.7160425186157227,
                -0.3735515773296356,
                1.0927789211273193,
                -1.5581719875335693,
                -0.2365005910396576,
                -2.536808490753174,
                0.9145433306694031,
                0.27711084485054016,
                -2.26922607421875,
                1.2243260145187378,
                -1.4155266284942627,
                1.6830697059631348,
                1.4963817596435547,
                0.0007484141970053315,
                0.704562783241272,
                0.6387785077095032,
                0.6715937256813049
            ],
            [
                -0.28920483589172363,
                0.009023934602737427,
                0.3891942799091339,
                -1.1359684467315674,
                1.85843026638031,
                0.44027963280677795,
                -5.507604122161865,
                -1.3337159156799316,
                1.224852442741394,
                0.838168203830719,
                -0.8923936486244202,
                -0.17330026626586914,
                -1.4153579473495483,
                2.810760974884033,
                0.06781817227602005,
                -1.816547155380249,
                1.172743320465088,
                -0.018285132944583893
            ],
            [
                -1.50038480758667,
                -0.8415425419807434,
                -2.708747148513794,
                -1.5221643447875977,
                -0.6908570528030396,
                -0.21395522356033325,
                -2.62404727935791,
                -0.1432742476463318,
                2.5206689834594727,
                -1.4181045293807983,
                0.6447246074676514,
                1.80241858959198,
                -0.869474470615387,
                0.8214949369430542,
                1.6564873456954956,
                -0.6051028966903687,
                -0.7198105454444885,
                -1.1397491693496704
            ],
            [
                0.3079984188079834,
                -2.79870343208313,
                -3.237355947494507,
                1.1610686779022217,
                -4.391881465911865,
                -2.5395662784576416,
                -1.3717972040176392,
                -0.8054853677749634,
                -0.24969014525413513,
                -1.690402865409851,
                -0.27334126830101013,
                -1.8522809743881226,
                0.3388659954071045,
                2.0453484058380127,
                -0.3471684157848358,
                -0.7190937399864197,
                0.10105723887681961,
                0.42333105206489563
            ],
            [
                -2.927386999130249,
                -0.4557777941226959,
                -2.085181474685669,
                1.5732104778289795,
                0.5302639603614807,
                -1.2728880643844604,
                -0.9134601950645447,
                -0.4781978130340576,
                0.9119083881378174,
                -2.052011489868164,
                -1.0258835554122925,
                -0.9319562911987305,
                2.1843984127044678,
                -0.16426365077495575,
                2.0942296981811523,
                -2.655639171600342,
                -0.9886043667793274,
                1.7555327415466309
            ],
            [
                1.640052080154419,
                1.5522838830947876,
                -4.202493190765381,
                0.20912130177021027,
                -3.546642541885376,
                -2.8616044521331787,
                -0.23328880965709686,
                -4.32334566116333,
                0.5229782462120056,
                0.44100019335746765,
                -0.4777531027793884,
                -2.316321849822998,
                0.7109231352806091,
                2.2495765686035156,
                -1.731217622756958,
                -0.21381773054599762,
                -1.6903661489486694,
                2.37900710105896
            ],
            [
                -0.3141366243362427,
                3.179680585861206,
                -4.207142353057861,
                -0.9358834028244019,
                -4.659824371337891,
                0.017146700993180275,
                -0.731997013092041,
                -0.18304011225700378,
                0.6839247345924377,
                -1.3104692697525024,
                -1.0566550493240356,
                -0.14607584476470947,
                0.6633120179176331,
                2.2943475246429443,
                -1.7991126775741577,
                0.3516969084739685,
                0.09489542245864868,
                -0.3630286157131195
            ],
            [
                -0.15045365691184998,
                0.14686459302902222,
                -0.14729517698287964,
                -0.6550114750862122,
                -2.391397714614868,
                0.16060273349285126,
                -2.154033899307251,
                -1.0166256427764893,
                1.197739839553833,
                0.13111557066440582,
                1.8059273958206177,
                -1.5502657890319824,
                -0.6107501983642578,
                1.1447590589523315,
                2.431011438369751,
                1.1111642122268677,
                -1.5949686765670776,
                -1.1349849700927734
            ],
            [
                -1.3350911140441895,
                0.384005069732666,
                -2.489194393157959,
                -0.7797003984451294,
                0.16451768577098846,
                1.3284896612167358,
                -2.23020601272583,
                -0.4452158212661743,
                0.5163831114768982,
                -0.08080948144197464,
                0.40933752059936523,
                0.10558924823999405,
                0.30784162878990173,
                -0.23328429460525513,
                0.5599852204322815,
                -0.5387616157531738,
                -0.10747472196817398,
                0.9421016573905945
            ],
            [
                -0.6824249029159546,
                -1.5961673259735107,
                -1.704660177230835,
                0.772355318069458,
                0.2538953125476837,
                -0.9921860694885254,
                -0.7802890539169312,
                -0.9254006147384644,
                0.15562288463115692,
                -1.0996040105819702,
                -0.035916782915592194,
                0.11198215186595917,
                -0.926503598690033,
                1.5393359661102295,
                0.12446169555187225,
                -1.7776581048965454,
                0.6554014682769775,
                -2.486076593399048
            ],
            [
                -0.3753255605697632,
                0.054823506623506546,
                -1.2115411758422852,
                -0.43602773547172546,
                -2.267332077026367,
                0.3169843554496765,
                -4.020448684692383,
                -0.6967140436172485,
                0.8425486087799072,
                -0.3982851207256317,
                1.6234652996063232,
                3.1661524772644043,
                0.7238930463790894,
                2.0633411407470703,
                0.40388235449790955,
                -1.9762234687805176,
                -0.8832338452339172,
                0.4498782753944397
            ],
            [
                -1.6793577671051025,
                -0.8882439136505127,
                -2.543379545211792,
                -1.8010199069976807,
                -0.9373635053634644,
                0.03268054127693176,
                -2.9071717262268066,
                -0.25371864438056946,
                2.6217498779296875,
                -1.5496461391448975,
                0.77621990442276,
                1.4666866064071655,
                -0.9593073129653931,
                0.5368959903717041,
                1.7181953191757202,
                -0.7688159942626953,
                -0.78791743516922,
                -1.0254236459732056
            ],
            [
                -1.5319528579711914,
                -0.6717806458473206,
                -1.5266265869140625,
                -1.3082497119903564,
                -1.0551631450653076,
                0.019170187413692474,
                -2.246251106262207,
                -0.2702608108520508,
                2.707897663116455,
                -1.226356863975525,
                1.320192813873291,
                0.922103762626648,
                -0.3583136796951294,
                0.8276772499084473,
                1.6904289722442627,
                -0.7708871960639954,
                -0.14393717050552368,
                -0.7470226287841797
            ],
            [
                -2.4081530570983887,
                -0.2537519931793213,
                -0.19656607508659363,
                -0.6109060049057007,
                0.7024791836738586,
                -0.5709788203239441,
                -1.4794261455535889,
                -0.896228015422821,
                1.6436028480529785,
                0.9634418487548828,
                -0.43553128838539124,
                0.6262186169624329,
                -0.49847766757011414,
                2.0265471935272217,
                1.4312381744384766,
                -1.7255043983459473,
                1.1908199787139893,
                0.09842255711555481
            ],
            [
                -1.6470831632614136,
                -0.5925337672233582,
                -2.58301043510437,
                -1.5015723705291748,
                -1.2081464529037476,
                0.23915579915046692,
                -1.9174612760543823,
                -0.14406625926494598,
                2.8100533485412598,
                -1.3566606044769287,
                0.9135212302207947,
                1.171817660331726,
                -0.6734186410903931,
                0.8274902701377869,
                1.5966113805770874,
                -0.7883930206298828,
                -0.15832246840000153,
                -0.6478273272514343
            ],
            [
                -0.2719078063964844,
                -0.32916662096977234,
                -2.74739933013916,
                0.5020996332168579,
                -0.9792622327804565,
                -0.5375300049781799,
                -0.6374377012252808,
                -0.11849865317344666,
                0.8428755402565002,
                0.41327425837516785,
                1.7058007717132568,
                0.45100682973861694,
                -1.633830189704895,
                0.8991554379463196,
                0.07058985531330109,
                -1.3784970045089722,
                -1.2736175060272217,
                1.1166788339614868
            ],
            [
                -0.3574395775794983,
                -0.7591408491134644,
                -2.3904027938842773,
                -0.9937500953674316,
                -0.9225019216537476,
                0.04494943097233772,
                -0.88670414686203,
                -0.6704909801483154,
                1.3782355785369873,
                0.3189505338668823,
                0.34695959091186523,
                -1.411354422569275,
                3.4651904106140137,
                -1.1523852348327637,
                3.2636470794677734,
                -1.5172035694122314,
                -1.1522985696792603,
                2.5549864768981934
            ],
            [
                -1.3582582473754883,
                0.08724988996982574,
                -3.4309160709381104,
                0.7351694107055664,
                1.2025530338287354,
                0.8383597135543823,
                -1.650797963142395,
                -0.10217633098363876,
                0.8871437311172485,
                -0.23768238723278046,
                2.3551981449127197,
                0.3315999507904053,
                0.5651018619537354,
                0.7999467849731445,
                0.35184431076049805,
                1.8433663845062256,
                2.6478471755981445,
                -0.12379254400730133
            ],
            [
                -2.538498640060425,
                -0.0055647194385528564,
                -0.5343021750450134,
                -1.585510492324829,
                -0.2793947160243988,
                -1.1344780921936035,
                -0.2748458683490753,
                -1.0902892351150513,
                0.26482710242271423,
                0.26813456416130066,
                -1.3315281867980957,
                -0.3983730971813202,
                -1.962943196296692,
                1.6216111183166504,
                -0.5676432847976685,
                -2.2711281776428223,
                1.7598955631256104,
                -1.9119162559509277
            ],
            [
                -0.4218200743198395,
                -0.6816761493682861,
                -0.363895446062088,
                0.8295167088508606,
                -2.3143701553344727,
                -0.5195074081420898,
                0.8633539080619812,
                -0.3590438961982727,
                0.21883173286914825,
                -1.9243699312210083,
                1.2036904096603394,
                0.7634748220443726,
                0.3242039978504181,
                -1.9134306907653809,
                2.035381317138672,
                0.47860008478164673,
                -0.9899712800979614,
                0.801058292388916
            ],
            [
                -0.27166926860809326,
                0.3144536018371582,
                1.1982183456420898,
                -0.208331897854805,
                -2.5130858421325684,
                2.0709431171417236,
                -1.2849814891815186,
                -1.6288836002349854,
                1.6154659986495972,
                -0.9005858302116394,
                2.312168836593628,
                -0.050806161016225815,
                0.31891682744026184,
                -2.079665422439575,
                1.2887340784072876,
                -2.3255748748779297,
                3.5068774223327637,
                -0.14761923253536224
            ],
            [
                -1.5774458646774292,
                -0.4723265469074249,
                -1.4013557434082031,
                -1.3774186372756958,
                -0.7142111659049988,
                0.6685118675231934,
                -2.5272369384765625,
                -0.17658887803554535,
                2.309875965118408,
                -1.1076908111572266,
                0.9483485817909241,
                1.3215614557266235,
                -0.5395737886428833,
                0.3024335205554962,
                1.7488484382629395,
                -0.7649510502815247,
                -0.32941389083862305,
                -0.4338122308254242
            ],
            [
                0.10040926188230515,
                -0.9399451613426208,
                -1.823392391204834,
                0.5770898461341858,
                -1.3635379076004028,
                -0.7878363132476807,
                -1.740621566772461,
                -1.2006574869155884,
                0.3893697261810303,
                0.6443385481834412,
                2.4001338481903076,
                -0.5550678372383118,
                1.0535383224487305,
                0.9140022993087769,
                0.5472397208213806,
                0.8437958359718323,
                0.10843047499656677,
                -0.18918555974960327
            ],
            [
                -1.7813514471054077,
                -0.67847740650177,
                -2.0970981121063232,
                -1.4348684549331665,
                -1.1195367574691772,
                0.46897682547569275,
                -2.156212091445923,
                -0.10075497627258301,
                2.7544679641723633,
                -1.394620418548584,
                0.8831600546836853,
                1.2345781326293945,
                -0.7188578844070435,
                0.6208702325820923,
                1.6789566278457642,
                -0.6942484974861145,
                0.07670065015554428,
                -0.7366060018539429
            ],
            [
                -1.4946321249008179,
                -2.8054146766662598,
                3.278290271759033,
                0.09420198202133179,
                4.270017623901367,
                -0.4471980929374695,
                -1.1729717254638672,
                -1.1798197031021118,
                2.0807101726531982,
                0.09046201407909393,
                2.5134665966033936,
                1.9452847242355347,
                -1.5626440048217773,
                -1.4641549587249756,
                5.58877420425415,
                -0.9086340069770813,
                1.4368664026260376,
                -0.29065370559692383
            ]
        ]
    ]
}