{
    "biases": [
        [
            0.7351574897766113,
            0.9152956604957581,
            -1.4429998397827148,
            0.4021854102611542,
            1.2826193571090698,
            0.2035478949546814,
            -0.7509956359863281,
            -0.3075278103351593,
            0.21157915890216827,
            0.7047843933105469,
            0.3888070583343506,
            -0.7022573351860046,
            -0.7613771557807922,
            -0.6110226511955261,
            0.22116291522979736,
            0.686033308506012,
            -0.6535056829452515,
            0.04406219720840454,
            0.8443878293037415
        ],
        [
            0.18474037945270538,
            0.03726065158843994,
            0.06846537441015244,
            0.8803574442863464,
            0.231329545378685,
            -0.013617596589028835,
            0.7231323719024658,
            0.2933410704135895,
            0.6870768070220947,
            0.12043692171573639,
            0.7981116771697998,
            -0.14542533457279205,
            1.1371339559555054
        ],
        [
            -0.38599148392677307,
            0.32106584310531616,
            0.038608141243457794,
            -0.1132897362112999,
            0.6708539128303528,
            -0.2582663297653198
        ],
        [
            0.22980362176895142,
            -2.1215429306030273
        ]
    ],
    "weights": [
        [
            [
                -0.4674704372882843,
                -0.13249324262142181,
                0.03954453021287918,
                0.14906664192676544,
                -0.0382392592728138,
                -0.19833369553089142,
                0.04774199053645134,
                0.20663753151893616,
                -0.4726777970790863,
                -0.1094360500574112,
                0.1160770058631897,
                -0.06819554418325424,
                9.032164234668016e-05,
                -0.49317309260368347,
                0.18369530141353607,
                -0.3159506618976593,
                0.12009759247303009,
                0.2965944707393646,
                -1.464996099472046,
                -0.35917383432388306,
                0.6611266732215881,
                -0.028654590249061584,
                -0.9290793538093567,
                -0.2593573331832886
            ],
            [
                -0.3108314573764801,
                0.13403362035751343,
                -0.08082041144371033,
                -0.6523114442825317,
                0.019869167357683182,
                -0.34104928374290466,
                0.23129427433013916,
                -0.34845566749572754,
                0.22717225551605225,
                -0.1335088461637497,
                0.2795204222202301,
                -0.07333911210298538,
                0.5480051040649414,
                -0.27120426297187805,
                0.10472371429204941,
                -0.5602341294288635,
                0.32184433937072754,
                -0.6942939162254333,
                0.1005181148648262,
                -0.4253002107143402,
                0.3317210376262665,
                -0.10435137152671814,
                -0.22239404916763306,
                -0.3784627616405487
            ],
            [
                0.19559063017368317,
                -2.9143197536468506,
                -0.014545783400535583,
                -0.11408108472824097,
                -0.03240867331624031,
                0.7972836494445801,
                0.10266765207052231,
                -0.28368479013442993,
                0.29958122968673706,
                -0.10587190836668015,
                -2.4012112617492676,
                0.015854746103286743,
                0.32101133465766907,
                -1.0215721130371094,
                -0.30906450748443604,
                0.687567412853241,
                0.07030665129423141,
                -0.46691879630088806,
                0.9541102051734924,
                -0.285487562417984,
                -0.7062174677848816,
                0.06827721744775772,
                -1.356545090675354,
                0.6527055501937866
            ],
            [
                -0.11113391071557999,
                -0.7679829001426697,
                -0.024272415786981583,
                0.43293800950050354,
                0.12073852866888046,
                -0.057741012424230576,
                -0.2139715701341629,
                0.31757861375808716,
                -0.09701067209243774,
                0.05690542608499527,
                -0.8762653470039368,
                -0.22252368927001953,
                -0.12679408490657806,
                0.6039397716522217,
                -0.2840120196342468,
                -1.246567964553833,
                0.1677880883216858,
                0.41597098112106323,
                -0.23884232342243195,
                0.08290164172649384,
                -0.6787598133087158,
                -0.21983091533184052,
                0.7076529860496521,
                -0.7790506482124329
            ],
            [
                -0.6642054915428162,
                -0.5909866094589233,
                0.10387935489416122,
                0.3018396496772766,
                0.030322307720780373,
                0.29899585247039795,
                -0.014749261550605297,
                -0.5253726840019226,
                -0.3283119201660156,
                -0.5044721364974976,
                -0.48785313963890076,
                -0.16347448527812958,
                -0.2800951600074768,
                0.10754527151584625,
                -0.10164415091276169,
                0.32252079248428345,
                0.12822672724723816,
                0.10581605136394501,
                -0.04124142602086067,
                -0.053123220801353455,
                -0.2866708040237427,
                -0.14969176054000854,
                -0.014348631724715233,
                0.07153637707233429
            ],
            [
                -0.03217525780200958,
                0.05664677545428276,
                -0.041299402713775635,
                0.08837492763996124,
                0.1537819504737854,
                0.06844776123762131,
                0.1740494966506958,
                -0.9159014821052551,
                -0.13618052005767822,
                -0.5956354737281799,
                0.009126703254878521,
                -0.07844891399145126,
                1.0187914371490479,
                -0.16352593898773193,
                0.6312593817710876,
                -0.19845350086688995,
                0.5720736980438232,
                -1.0021393299102783,
                0.023448733612895012,
                -0.9950370192527771,
                0.015825064852833748,
                -0.9091556072235107,
                0.01607387140393257,
                -0.17531055212020874
            ],
            [
                0.3077581226825714,
                -1.5993504524230957,
                0.025631625205278397,
                -0.6794125437736511,
                -0.20282115042209625,
                1.3469994068145752,
                -0.006584943272173405,
                0.06597829610109329,
                -0.01858421042561531,
                -0.037500541657209396,
                -1.2051016092300415,
                -0.1390162706375122,
                -0.18637782335281372,
                0.5571832060813904,
                0.07539892196655273,
                1.1560635566711426,
                0.1218266636133194,
                0.183412566781044,
                -0.416826456785202,
                0.022137422114610672,
                -1.094556450843811,
                -0.028634607791900635,
                0.5726394057273865,
                1.2397550344467163
            ],
            [
                -1.646540880203247,
                -0.1566232144832611,
                -1.9196749925613403,
                -0.08990173041820526,
                -0.3505318760871887,
                0.08483082801103592,
                -0.12131471931934357,
                1.244780421257019,
                0.24691495299339294,
                0.8111328482627869,
                -0.18801790475845337,
                0.3680433928966522,
                -0.16272129118442535,
                -0.01917063631117344,
                -0.1554540991783142,
                0.07280390709638596,
                -0.13704116642475128,
                0.39416033029556274,
                -0.14823836088180542,
                0.12335266917943954,
                -0.2205296754837036,
                0.33720874786376953,
                0.30070406198501587,
                -0.0959792509675026
            ],
            [
                -0.534379243850708,
                -0.14055731892585754,
                0.818536102771759,
                -0.16827408969402313,
                0.7751769423484802,
                -0.11760450899600983,
                0.4373425543308258,
                -0.861497700214386,
                0.1246708557009697,
                -0.7910556197166443,
                0.2101205438375473,
                -0.49844780564308167,
                0.6690869331359863,
                -0.15280184149742126,
                0.5649264454841614,
                -0.21732807159423828,
                0.6830106973648071,
                -0.6226003766059875,
                -0.025377200916409492,
                -0.5378632545471191,
                0.014171582646667957,
                -0.6176081299781799,
                -0.5535147190093994,
                -0.6507654190063477
            ],
            [
                0.6794838309288025,
                0.044404901564121246,
                -0.0209082942456007,
                -0.1604350060224533,
                0.01749866083264351,
                0.35523179173469543,
                0.2542901337146759,
                0.17905010282993317,
                0.3220860958099365,
                0.26686957478523254,
                -0.0556577667593956,
                -0.24736255407333374,
                -0.06337909400463104,
                -0.28605717420578003,
                0.06717602908611298,
                0.18501344323158264,
                0.5666030049324036,
                -0.037019237875938416,
                0.23557959496974945,
                0.14722028374671936,
                -0.10173682868480682,
                -0.30347388982772827,
                -0.3226076066493988,
                0.47527945041656494
            ],
            [
                -0.2512478828430176,
                -0.24436236917972565,
                0.3729550540447235,
                0.14208754897117615,
                0.20819362998008728,
                0.07276635617017746,
                -1.6518800258636475,
                -0.642092764377594,
                0.03857161104679108,
                -0.7657660245895386,
                0.02050924114882946,
                -1.5351735353469849,
                0.8015674948692322,
                -0.06701482087373734,
                0.92381352186203,
                0.06760070472955704,
                1.081279993057251,
                -0.8328460454940796,
                0.06113400682806969,
                -0.8898633718490601,
                -0.01285462360829115,
                -0.9215895533561707,
                -0.03959211707115173,
                0.06474068015813828
            ],
            [
                -0.047128189355134964,
                -0.7772514820098877,
                -0.0882163718342781,
                0.4094263017177582,
                -0.08552483469247818,
                0.787996232509613,
                -0.010245195589959621,
                0.19034110009670258,
                -0.07409805804491043,
                0.12767750024795532,
                -0.5534219145774841,
                -0.1393195241689682,
                0.026413414627313614,
                0.057531148195266724,
                -0.1089363768696785,
                -2.536860227584839,
                -0.025760028511285782,
                0.0925125926733017,
                0.07585851848125458,
                -0.09375156462192535,
                0.5846774578094482,
                0.0995403379201889,
                -0.19511108100414276,
                -0.997790515422821
            ],
            [
                0.09825911372900009,
                0.053574249148368835,
                0.13321468234062195,
                0.01464496087282896,
                0.07846931368112564,
                0.004514127969741821,
                -0.042970266193151474,
                0.16428998112678528,
                0.04440358653664589,
                0.13288895785808563,
                0.11398078501224518,
                0.131220743060112,
                -0.28916096687316895,
                -0.020271960645914078,
                -0.7654367089271545,
                -0.10379086434841156,
                -1.2705007791519165,
                0.1649158000946045,
                -0.299035906791687,
                0.5618777871131897,
                -0.26977965235710144,
                1.5184838771820068,
                0.08001228421926498,
                0.18000243604183197
            ],
            [
                0.002888449002057314,
                0.23474948108196259,
                -0.3253495395183563,
                -0.027118174359202385,
                -0.4749959409236908,
                -0.09600847214460373,
                -0.4846842586994171,
                0.44757118821144104,
                -0.1964278668165207,
                0.4708385169506073,
                -0.03929460793733597,
                0.5912301540374756,
                -0.9519216418266296,
                0.11700422316789627,
                -0.9374246597290039,
                0.14010676741600037,
                -0.836909294128418,
                0.9915726184844971,
                -0.0692533478140831,
                0.961317241191864,
                -0.02376507967710495,
                0.879773736000061,
                -0.09345661103725433,
                -0.10211004316806793
            ],
            [
                -0.5997554063796997,
                -0.8103681802749634,
                0.43425098061561584,
                0.39697515964508057,
                0.6142554879188538,
                0.29349759221076965,
                0.363960862159729,
                -0.5108826756477356,
                -0.12026466429233551,
                -0.7457956671714783,
                -0.31182509660720825,
                -0.4197816252708435,
                0.5077498555183411,
                0.2664778530597687,
                0.689530074596405,
                0.319603830575943,
                0.6074040532112122,
                -0.5434418320655823,
                -0.10628823190927505,
                -0.6751230955123901,
                -0.18173539638519287,
                -0.700629711151123,
                0.22241927683353424,
                0.18449467420578003
            ],
            [
                0.011273514479398727,
                -0.023959960788488388,
                -0.13168461620807648,
                0.16041062772274017,
                -0.010627237148582935,
                0.21140605211257935,
                -0.3791332542896271,
                0.29651859402656555,
                -0.09594836831092834,
                0.28507497906684875,
                -0.25729620456695557,
                -0.05123409628868103,
                0.5247631072998047,
                0.2686784565448761,
                0.11630848050117493,
                0.1320687085390091,
                -0.014024468138813972,
                -0.6364537477493286,
                -0.04427754506468773,
                -0.3309231698513031,
                -0.027916057035326958,
                -0.12935999035835266,
                -0.37047621607780457,
                0.11420009285211563
            ],
            [
                -0.8021785616874695,
                -1.1125454902648926,
                -0.13136596977710724,
                1.0714975595474243,
                0.05283553898334503,
                1.1133317947387695,
                0.057807277888059616,
                0.37767282128334045,
                -0.7418279647827148,
                -0.0283046904951334,
                -1.0695933103561401,
                0.011165788397192955,
                -0.09420184791088104,
                0.9227837324142456,
                0.0973893404006958,
                1.0831578969955444,
                0.043390266597270966,
                0.3308269679546356,
                -0.6371030807495117,
                -0.09524782001972198,
                -1.026064395904541,
                -0.02706465870141983,
                0.7988237738609314,
                1.0960252285003662
            ],
            [
                0.5076504349708557,
                0.7301798462867737,
                0.036475036293268204,
                -0.5378105640411377,
                -0.06460783630609512,
                -0.6946825385093689,
                -0.48734205961227417,
                -0.20016127824783325,
                0.4996890127658844,
                0.047148093581199646,
                0.7469139099121094,
                -0.02482404187321663,
                -0.05197136849164963,
                -0.5499023199081421,
                -0.052768319845199585,
                -0.7265135049819946,
                -0.5214054584503174,
                -0.07806873321533203,
                0.3598126471042633,
                0.1037164255976677,
                0.7758245468139648,
                0.009863423183560371,
                -0.6689579486846924,
                -1.1030914783477783
            ],
            [
                0.16492797434329987,
                0.06826257705688477,
                -0.012532943859696388,
                -0.049262337386608124,
                0.02715398743748665,
                0.10224143415689468,
                -0.01624651625752449,
                0.42468690872192383,
                0.11688931286334991,
                0.2945549488067627,
                0.12471853196620941,
                -0.026825780048966408,
                -0.7129825949668884,
                -0.311660498380661,
                -0.5005829930305481,
                0.01991916447877884,
                -0.4010058641433716,
                -1.5639638900756836,
                -0.3745480477809906,
                -1.6982358694076538,
                -0.307008296251297,
                -0.07960262894630432,
                0.3377431333065033,
                -0.30517497658729553
            ]
        ],
        [
            [
                0.04973955452442169,
                -0.017904872074723244,
                -0.4095998704433441,
                0.24538585543632507,
                0.2626599371433258,
                -1.8302634954452515,
                -0.05821052938699722,
                0.6376659870147705,
                -0.21386273205280304,
                0.25456464290618896,
                -2.660851240158081,
                -0.3147645592689514,
                -0.2579357922077179,
                -0.05873466655611992,
                -0.7742711901664734,
                0.24471290409564972,
                -0.1362353265285492,
                -0.3372206389904022,
                0.2592167556285858
            ],
            [
                -0.14176346361637115,
                -0.8649020195007324,
                -0.19669191539287567,
                -0.07526595890522003,
                1.002752423286438,
                -0.9670993089675903,
                -0.2778458297252655,
                -0.8982787728309631,
                0.6774230599403381,
                -0.05215871334075928,
                -1.186848759651184,
                0.18924249708652496,
                0.3828462064266205,
                0.6951850056648254,
                -0.7049340605735779,
                -1.331742286682129,
                -0.16051052510738373,
                0.3596555292606354,
                -0.08705763518810272
            ],
            [
                -0.15359413623809814,
                -0.6944478750228882,
                -1.1496326923370361,
                -0.30545252561569214,
                0.5230406522750854,
                0.07036744058132172,
                -2.3964762687683105,
                0.46024107933044434,
                -0.3198751211166382,
                -0.18475787341594696,
                -0.04942158982157707,
                -0.8184138536453247,
                0.11177711188793182,
                0.17744112014770508,
                0.4618092477321625,
                0.34290194511413574,
                -5.044426441192627,
                -0.7891470193862915,
                0.1064729243516922
            ],
            [
                1.1617863178253174,
                0.48093077540397644,
                -0.5910925269126892,
                -0.2422330230474472,
                0.8354412913322449,
                0.16377630829811096,
                -0.9324694871902466,
                -0.7271469235420227,
                0.8575574159622192,
                0.052151672542095184,
                -0.27992162108421326,
                -0.46239644289016724,
                -0.7508255839347839,
                -1.4701894521713257,
                -1.4047768115997314,
                0.24998468160629272,
                -0.8373132348060608,
                -0.7414664626121521,
                0.6010424494743347
            ],
            [
                0.17425891757011414,
                0.0478978306055069,
                -2.1268539428710938,
                1.679046392440796,
                -0.042146097868680954,
                0.0578153021633625,
                -1.4879907369613647,
                0.028423819690942764,
                0.23517486453056335,
                0.1577450931072235,
                0.21452882885932922,
                -1.6841721534729004,
                -0.4389837682247162,
                0.15430329740047455,
                0.11893148720264435,
                0.17846561968326569,
                -1.6458033323287964,
                0.5618900060653687,
                0.1740044504404068
            ],
            [
                -0.11636409908533096,
                0.1563541442155838,
                0.07021179050207138,
                -0.3732643127441406,
                0.4520992636680603,
                -1.5161644220352173,
                0.09253770858049393,
                0.01020779088139534,
                -1.1078910827636719,
                -0.4273664355278015,
                -2.3627443313598633,
                0.09038068354129791,
                -0.5414456129074097,
                -1.179847002029419,
                -1.7159291505813599,
                -0.016628770157694817,
                0.3605177402496338,
                0.055083416402339935,
                -0.27136439085006714
            ],
            [
                -0.10840215533971786,
                0.828433632850647,
                -3.0291082859039307,
                0.5656672716140747,
                0.805172860622406,
                -0.11009790748357773,
                -0.3167881369590759,
                0.11795339733362198,
                -0.12047005444765091,
                0.3178747594356537,
                -0.061381518840789795,
                -0.5683857798576355,
                0.2401590496301651,
                -0.6649576425552368,
                -0.023131778463721275,
                0.21374672651290894,
                -1.2529433965682983,
                -0.5565893054008484,
                -0.2532314956188202
            ],
            [
                0.17244090139865875,
                -0.08809761703014374,
                -0.41245850920677185,
                -0.25354400277137756,
                0.1588212251663208,
                0.2619277238845825,
                -0.42671695351600647,
                0.7435839772224426,
                0.6807547807693481,
                0.23974549770355225,
                0.2262485772371292,
                1.0741478204727173,
                0.08271408826112747,
                1.7912040948867798,
                0.3583870232105255,
                0.11866327375173569,
                0.11112095415592194,
                -0.686639666557312,
                0.4770759344100952
            ],
            [
                0.06051403656601906,
                0.022700434550642967,
                -0.5653408169746399,
                0.03732940927147865,
                0.8399061560630798,
                -0.7470036745071411,
                -0.08736380189657211,
                0.24643875658512115,
                -0.3735828995704651,
                0.025836223736405373,
                -1.0221669673919678,
                -0.5574092864990234,
                -1.5972435474395752,
                -0.5153940320014954,
                -0.9586436152458191,
                0.5837375521659851,
                -0.34312552213668823,
                -0.11036734282970428,
                0.3970251977443695
            ],
            [
                -1.8226265907287598,
                -0.8782935738563538,
                -1.0149468183517456,
                0.15484769642353058,
                0.6982558369636536,
                -0.2514849007129669,
                0.373189777135849,
                0.7783172130584717,
                -0.9228050112724304,
                0.40670695900917053,
                0.15946614742279053,
                0.5054705142974854,
                0.3998548686504364,
                0.48080307245254517,
                1.4647308588027954,
                0.3831106126308441,
                1.2486953735351562,
                -1.3794387578964233,
                0.25342443585395813
            ],
            [
                -0.859684944152832,
                -0.37939566373825073,
                -0.7296852469444275,
                -0.2513417899608612,
                0.9606781005859375,
                0.21757228672504425,
                0.17556063830852509,
                -0.17327658832073212,
                0.23585262894630432,
                0.48554250597953796,
                -0.29795515537261963,
                -0.7279427647590637,
                -1.3547616004943848,
                -1.0823954343795776,
                -0.2626577615737915,
                0.8639207482337952,
                0.0682826042175293,
                -0.6332739591598511,
                1.2324025630950928
            ],
            [
                0.3765648603439331,
                -0.5366590619087219,
                -0.11851952970027924,
                0.22722108662128448,
                0.30656763911247253,
                0.1399662345647812,
                -1.2628672122955322,
                -0.044154077768325806,
                0.1554425060749054,
                -0.6592878103256226,
                -0.16085965931415558,
                0.008269723504781723,
                -0.2362552285194397,
                -0.037622831761837006,
                -0.3290846347808838,
                0.43163126707077026,
                0.9128456115722656,
                -1.302828073501587,
                0.04695333540439606
            ],
            [
                0.3551356792449951,
                0.6405651569366455,
                -1.4087047576904297,
                0.23918889462947845,
                0.9876548647880554,
                -0.07017252594232559,
                -0.664070725440979,
                -0.014326502569019794,
                -0.9074609875679016,
                0.5452297329902649,
                0.101228728890419,
                -0.23736046254634857,
                0.1172972321510315,
                -1.1319390535354614,
                -0.32222750782966614,
                0.25411170721054077,
                -0.2026437520980835,
                -1.2296855449676514,
                -0.22990478575229645
            ]
        ],
        [
            [
                0.0888746902346611,
                -0.1528836339712143,
                2.331604242324829,
                0.2434013932943344,
                0.31123268604278564,
                0.039991024881601334,
                0.874620258808136,
                -0.5120739936828613,
                -0.13444079458713531,
                -2.6457226276397705,
                -0.08675532042980194,
                1.8917176723480225,
                -0.44244593381881714
            ],
            [
                0.8789682984352112,
                -0.2021772861480713,
                -0.5518689155578613,
                0.6739910840988159,
                0.2116987705230713,
                2.875253915786743,
                0.07684183865785599,
                -0.592923104763031,
                -1.1651052236557007,
                -0.579497754573822,
                0.7355266809463501,
                -0.28145650029182434,
                0.6667694449424744
            ],
            [
                -1.9222233295440674,
                -3.6929516792297363,
                -0.6400729417800903,
                0.5840262770652771,
                0.5113928318023682,
                -0.35483309626579285,
                -0.25745201110839844,
                0.4417109191417694,
                1.9466791152954102,
                -0.4333694577217102,
                0.9941239356994629,
                0.15839844942092896,
                -0.32125216722488403
            ],
            [
                0.5551276206970215,
                0.8724600672721863,
                0.9002993106842041,
                -0.13012951612472534,
                0.9683735370635986,
                -1.7969000339508057,
                0.9188902974128723,
                -0.3827650547027588,
                -0.20453569293022156,
                -1.3317114114761353,
                -0.046330444514751434,
                1.4881423711776733,
                0.4754882752895355
            ],
            [
                0.56540846824646,
                0.3181670606136322,
                -1.4356671571731567,
                1.100767731666565,
                -1.0994223356246948,
                -0.22408534586429596,
                1.1360479593276978,
                0.4920938313007355,
                -0.3048642873764038,
                -0.7719454765319824,
                0.08041272312402725,
                -1.8599313497543335,
                0.9107360243797302
            ],
            [
                0.0736941546201706,
                0.21237856149673462,
                -0.2525678277015686,
                0.12241574376821518,
                -0.7172898054122925,
                0.3782382011413574,
                -1.601819396018982,
                -0.504953145980835,
                0.15630419552326202,
                0.40686142444610596,
                -0.016965344548225403,
                0.788865327835083,
                -0.3900260031223297
            ]
        ],
        [
            [
                0.24301470816135406,
                2.273954153060913,
                -1.7938225269317627,
                -0.4288906753063202,
                -0.5028684139251709,
                -0.028789473697543144
            ],
            [
                -1.7076650857925415,
                -0.5382525324821472,
                -0.11627842485904694,
                -1.2546148300170898,
                1.365403175354004,
                1.7855424880981445
            ]
        ]
    ]
}