{
    "biases": [
        [
            0.21158534288406372,
            0.13129140436649323,
            0.5677508115768433,
            -0.7574768662452698,
            0.9251099824905396,
            1.085101842880249,
            -0.7170753479003906,
            -0.8881135582923889,
            -0.6142116785049438,
            -1.3909580707550049,
            1.1680691242218018,
            -1.250705361366272,
            -0.4090782701969147
        ],
        [
            -0.10371082276105881,
            -0.5883378386497498
        ]
    ],
    "weights": [
        [
            [
                -0.10413654148578644,
                -0.24608035385608673,
                -0.09167157858610153,
                -0.09781348705291748,
                -0.2213018834590912,
                0.09167453646659851,
                0.23000940680503845,
                -0.5018765330314636,
                -0.17208442091941833,
                0.6745526790618896,
                0.6554712653160095,
                3.193622589111328,
                1.4826817512512207,
                0.11026143282651901,
                -1.1951740980148315,
                0.17352120578289032,
                -1.8156235218048096,
                1.726183295249939,
                -0.07128487527370453,
                1.1479246616363525,
                -0.02780897729098797,
                0.9540339708328247,
                0.1383506953716278,
                -0.07759183645248413
            ],
            [
                -0.4472053647041321,
                -1.1427770853042603,
                -0.13320907950401306,
                0.9750367403030396,
                -0.025206219404935837,
                0.9455349445343018,
                1.1956292390823364,
                -0.14436526596546173,
                -0.4622403681278229,
                0.48540249466896057,
                -1.1271456480026245,
                -0.31351029872894287,
                -0.06792204827070236,
                0.33121344447135925,
                0.10021775215864182,
                1.3412030935287476,
                0.6592618823051453,
                -0.09921440482139587,
                -0.0385032519698143,
                -0.2657765746116638,
                0.7355218529701233,
                0.019978387281298637,
                -0.38483327627182007,
                3.096569299697876
            ],
            [
                1.5520013570785522,
                1.4503157138824463,
                0.10783053189516068,
                -1.8987797498703003,
                -0.4198257625102997,
                -1.0094414949417114,
                0.08346084505319595,
                0.5103806257247925,
                -0.9327313303947449,
                -0.14782899618148804,
                1.6302086114883423,
                -0.15812179446220398,
                -0.5576938390731812,
                1.3158997297286987,
                0.40364521741867065,
                -0.800010621547699,
                -0.19743192195892334,
                -0.02005060762166977,
                -0.6981154680252075,
                -0.13274700939655304,
                0.6474291086196899,
                0.12778878211975098,
                0.5061084628105164,
                -0.24503794312477112
            ],
            [
                0.3068098723888397,
                0.48766618967056274,
                0.0248819999396801,
                -0.21386322379112244,
                0.10073298960924149,
                0.047401778399944305,
                0.6384612917900085,
                0.2669428288936615,
                0.1922728568315506,
                0.052549343556165695,
                -0.21496455371379852,
                -0.10141074657440186,
                -0.4003973603248596,
                0.8570489287376404,
                0.06969088315963745,
                0.6146301627159119,
                0.2923305332660675,
                0.6575272679328918,
                -0.8601084351539612,
                0.26184898614883423,
                -1.0238147974014282,
                0.14530141651630402,
                1.576570987701416,
                1.168887734413147
            ],
            [
                -0.6725980043411255,
                -0.05914612114429474,
                -0.09130820631980896,
                0.7116886973381042,
                0.12888041138648987,
                -0.3421444296836853,
                0.5431678891181946,
                0.10613011568784714,
                -0.5537213087081909,
                -0.07517523318529129,
                0.4634287357330322,
                0.05753149837255478,
                -0.23105427622795105,
                1.274728775024414,
                0.311820924282074,
                -1.1001516580581665,
                -0.1262253075838089,
                0.46862635016441345,
                -1.0535262823104858,
                0.09606578201055527,
                2.2137911319732666,
                -0.07104583829641342,
                1.737903118133545,
                -1.3521642684936523
            ],
            [
                -0.6712061762809753,
                2.179734468460083,
                -0.3785441219806671,
                0.842296838760376,
                0.6360242366790771,
                -1.3238284587860107,
                -0.3161795735359192,
                0.00018702018132898957,
                -0.3294157087802887,
                0.07705730199813843,
                0.7947567701339722,
                0.04542481526732445,
                -0.08189468085765839,
                -0.010752473957836628,
                0.17298588156700134,
                -0.29585760831832886,
                -0.4375372529029846,
                -0.01194498036056757,
                -0.026728803291916847,
                -0.12053961306810379,
                -0.2631774842739105,
                0.24401003122329712,
                -0.03573456034064293,
                0.4960952401161194
            ],
            [
                -0.5235382914543152,
                -0.7330414056777954,
                0.9090021252632141,
                0.0037615993060171604,
                0.906869113445282,
                0.056695740669965744,
                0.5112674236297607,
                -1.3669320344924927,
                -0.10160107165575027,
                -1.4477308988571167,
                -0.12398991733789444,
                -1.2708261013031006,
                1.912032961845398,
                -0.07273080199956894,
                1.961124300956726,
                -0.12463641911745071,
                1.6898316144943237,
                1.1764470338821411,
                0.028356997296214104,
                1.1271746158599854,
                -0.06421800702810287,
                1.0224676132202148,
                0.07750886678695679,
                0.03572900965809822
            ],
            [
                0.5863383412361145,
                1.5506603717803955,
                -0.04235461354255676,
                -1.2794630527496338,
                -0.035955969244241714,
                1.1703139543533325,
                0.129904106259346,
                -0.28228092193603516,
                0.5678561329841614,
                -0.15116597712039948,
                1.9559673070907593,
                -0.12696492671966553,
                -0.17042650282382965,
                -1.1917668581008911,
                -0.019814252853393555,
                1.035032868385315,
                0.2373621165752411,
                -0.43496572971343994,
                0.7884164452552795,
                -0.031038347631692886,
                1.638778805732727,
                -0.07866654545068741,
                -1.1665056943893433,
                1.0735164880752563
            ],
            [
                0.5208572745323181,
                0.5358638763427734,
                -1.4777473211288452,
                -0.2921683192253113,
                -1.387293815612793,
                -0.24260106682777405,
                -1.3577202558517456,
                1.9331963062286377,
                -0.05202239751815796,
                2.08919620513916,
                -0.005341788753867149,
                1.728165864944458,
                -2.1814699172973633,
                0.149444118142128,
                -2.076307535171509,
                0.044195227324962616,
                -1.9349011182785034,
                1.8277192115783691,
                0.021826673299074173,
                1.7229230403900146,
                0.03766673058271408,
                1.693798542022705,
                -0.014391547068953514,
                -0.11902865022420883
            ],
            [
                -0.24726948142051697,
                -0.01877526193857193,
                0.8315364718437195,
                0.19662965834140778,
                0.32335910201072693,
                -0.02048194594681263,
                0.17228005826473236,
                -1.3934602737426758,
                -0.21571457386016846,
                -0.8695008754730225,
                0.23819875717163086,
                -0.26624253392219543,
                -2.102628469467163,
                -0.35998252034187317,
                -0.20158721506595612,
                -0.07940147072076797,
                0.28943824768066406,
                1.8873649835586548,
                0.21472780406475067,
                1.3692536354064941,
                -0.12482264637947083,
                -0.13410821557044983,
                0.2941410541534424,
                -0.42468494176864624
            ],
            [
                -0.16683083772659302,
                0.1751078963279724,
                -0.11353404819965363,
                -0.31096014380455017,
                -0.38253432512283325,
                -0.1445154994726181,
                -0.704484224319458,
                -0.23713292181491852,
                -0.23324818909168243,
                0.2832144498825073,
                0.29887521266937256,
                1.030071496963501,
                0.18136188387870789,
                0.5477374196052551,
                1.6162490844726562,
                0.5350812673568726,
                1.5769623517990112,
                0.5244911313056946,
                0.33319661021232605,
                -0.9717950820922852,
                -0.29128727316856384,
                -1.47234308719635,
                -0.7329687476158142,
                0.04487738013267517
            ],
            [
                0.020528212189674377,
                0.03991551324725151,
                0.3089253306388855,
                0.1465063840150833,
                0.18223731219768524,
                0.11383207887411118,
                -0.025446061044931412,
                -0.2152455449104309,
                -0.1052846685051918,
                -0.47699710726737976,
                0.14891496300697327,
                -0.3509018123149872,
                0.0039021121338009834,
                0.09948910027742386,
                0.17725789546966553,
                -0.4466475546360016,
                -0.5419844388961792,
                -0.20856639742851257,
                0.44682660698890686,
                -1.0739860534667969,
                -0.29561471939086914,
                1.31453275680542,
                -1.9587866067886353,
                1.1047676801681519
            ],
            [
                -1.2859277725219727,
                -2.087205171585083,
                -0.2208995521068573,
                1.9173557758331299,
                0.10971669107675552,
                1.706987738609314,
                -0.1017637774348259,
                0.6806522607803345,
                -1.6533504724502563,
                0.027416758239269257,
                -1.9881891012191772,
                -0.016073789447546005,
                -0.21021199226379395,
                2.183610439300537,
                0.10243499279022217,
                1.4764727354049683,
                -0.07424532622098923,
                0.5593096613883972,
                -1.376086711883545,
                -0.013426879420876503,
                -2.081634521484375,
                -0.04871036857366562,
                1.914995789527893,
                1.5070804357528687
            ]
        ],
        [
            [
                2.4695208072662354,
                0.16188447177410126,
                -0.4070318639278412,
                1.4317125082015991,
                0.4366489052772522,
                0.031040985137224197,
                4.084101676940918,
                0.03900671377778053,
                4.87079381942749,
                3.0989081859588623,
                -2.328644275665283,
                2.211430549621582,
                -0.2713792622089386
            ],
            [
                0.37831467390060425,
                2.375509262084961,
                -1.605850100517273,
                1.8577665090560913,
                -3.336989402770996,
                -2.9420700073242188,
                0.027194274589419365,
                4.46527624130249,
                -0.2016705572605133,
                -0.24830375611782074,
                -0.0062888553366065025,
                0.4366091191768646,
                4.593283653259277
            ]
        ]
    ]
}