{
    "biases": [
        [
            0.6299444437026978,
            -0.7544381022453308,
            0.6375083327293396,
            -0.8316953182220459,
            0.8373222947120667,
            -0.22082942724227905,
            0.04299294948577881,
            -0.6715918779373169,
            -0.6815723180770874,
            -1.3253240585327148,
            0.7780474424362183,
            -1.3230876922607422,
            -0.3862892985343933
        ],
        [
            -0.07568568736314774,
            -0.530708372592926
        ]
    ],
    "weights": [
        [
            [
                -0.03397399187088013,
                -0.7203303575515747,
                -0.50197434425354,
                0.24306870996952057,
                1.03522789478302,
                0.357502281665802,
                0.5454592704772949,
                1.2933647632598877,
                -0.14156419038772583,
                1.8885780572891235,
                0.03651779890060425,
                6.184562683105469,
                -0.1604255586862564,
                0.5750468969345093,
                -1.2852176427841187,
                1.261236310005188,
                -0.4687567949295044,
                0.46627771854400635,
                0.11236734688282013,
                0.09064412862062454,
                0.20506583154201508,
                -0.22488759458065033,
                -0.25229424238204956,
                1.389926552772522
            ],
            [
                -0.18786513805389404,
                -0.4392707049846649,
                0.13582617044448853,
                0.33980169892311096,
                -0.02853686548769474,
                0.9149540066719055,
                1.2000195980072021,
                -0.42318788170814514,
                -0.2543056309223175,
                -0.09126315265893936,
                0.11705285310745239,
                -0.7006797194480896,
                0.45813384652137756,
                0.2981221675872803,
                0.37004804611206055,
                0.8190118670463562,
                1.7450679540634155,
                -1.205281138420105,
                -0.25043272972106934,
                -1.1246311664581299,
                0.2530701458454132,
                -1.2671334743499756,
                -0.0441388376057148,
                0.8908932209014893
            ],
            [
                1.5654091835021973,
                1.2555325031280518,
                0.6043627262115479,
                -1.986348032951355,
                -0.12526679039001465,
                -0.9088766574859619,
                0.10578138381242752,
                -0.4237653911113739,
                -0.17477628588676453,
                0.059791211038827896,
                1.2837268114089966,
                0.11823912709951401,
                -0.49964460730552673,
                0.4046615660190582,
                -0.32911446690559387,
                -0.6750328540802002,
                -0.7515924572944641,
                0.043637506663799286,
                -0.2919931709766388,
                0.4256403148174286,
                0.07227637618780136,
                1.2921499013900757,
                0.032359104603528976,
                -0.11168134957551956
            ],
            [
                0.014017867855727673,
                0.014658167026937008,
                0.1660238355398178,
                -0.03586132079362869,
                -0.3441222310066223,
                0.409026175737381,
                -0.23302167654037476,
                -0.6835871338844299,
                -0.1282748132944107,
                0.23685051500797272,
                -0.15345627069473267,
                -0.21953454613685608,
                -0.9902132153511047,
                0.5723831653594971,
                0.32190361618995667,
                1.2256046533584595,
                1.0339919328689575,
                1.0231847763061523,
                -0.2663595378398895,
                0.6479213237762451,
                -0.8088946342468262,
                0.7207995653152466,
                1.4542933702468872,
                1.416594386100769
            ],
            [
                -0.5511913299560547,
                0.1761717051267624,
                -0.12148696184158325,
                0.6282587647438049,
                0.05912097543478012,
                -0.5128580927848816,
                0.13674421608448029,
                0.4179723858833313,
                -0.7005470991134644,
                -0.11284725368022919,
                0.7724974155426025,
                -0.01808176562190056,
                -0.4558538496494293,
                1.8297003507614136,
                0.10355416685342789,
                -1.1045688390731812,
                0.11530276387929916,
                1.0083460807800293,
                -1.486621379852295,
                0.36290594935417175,
                2.3384745121002197,
                -0.05651582032442093,
                2.176198720932007,
                -1.5288997888565063
            ],
            [
                -1.8634357452392578,
                2.2659387588500977,
                -0.22178220748901367,
                2.244724988937378,
                0.22705496847629547,
                -0.4625261723995209,
                0.303531676530838,
                0.0789608359336853,
                -0.28050073981285095,
                -0.9802814722061157,
                1.174235463142395,
                -0.07047952711582184,
                0.5594381093978882,
                -0.4330099821090698,
                -0.07492409646511078,
                0.05574135109782219,
                -0.1992504894733429,
                -0.15782587230205536,
                0.0388566255569458,
                -0.09192365407943726,
                -0.08061999827623367,
                0.10658803582191467,
                0.09359990805387497,
                0.2269589900970459
            ],
            [
                -0.7257839441299438,
                -0.9682706594467163,
                1.5599696636199951,
                0.20625917613506317,
                1.4899882078170776,
                0.5261608362197876,
                1.2479889392852783,
                -1.880664587020874,
                -0.10292373597621918,
                -2.0017812252044678,
                -0.2380041778087616,
                -1.7232306003570557,
                2.3303918838500977,
                0.0007125093252398074,
                2.3239643573760986,
                0.15032313764095306,
                1.919643759727478,
                0.9015166163444519,
                -0.15834049880504608,
                0.7465842962265015,
                -0.2875131666660309,
                0.6152238249778748,
                0.15887276828289032,
                0.21539409458637238
            ],
            [
                0.9320995807647705,
                2.4713075160980225,
                0.20115458965301514,
                -1.583724856376648,
                -0.18590310215950012,
                1.36689293384552,
                0.19953231513500214,
                -0.0854935348033905,
                1.0200879573822021,
                -0.20951750874519348,
                2.4941060543060303,
                0.29091331362724304,
                -0.2460288256406784,
                -1.210449457168579,
                -0.650515079498291,
                1.1104153394699097,
                -0.3933054804801941,
                0.8993479013442993,
                0.7678239345550537,
                0.9121856093406677,
                1.420947790145874,
                0.7696400284767151,
                -0.94044029712677,
                0.9710144400596619
            ],
            [
                0.4709423780441284,
                0.9793156385421753,
                -1.1114780902862549,
                -0.6027268767356873,
                -1.151315450668335,
                -0.7712635397911072,
                -1.3210160732269287,
                1.5419894456863403,
                -0.016686072573065758,
                1.5381051301956177,
                0.4458913803100586,
                1.7632057666778564,
                -1.7357975244522095,
                0.016914935782551765,
                -1.8950421810150146,
                -0.5600274205207825,
                -2.0635933876037598,
                1.8953694105148315,
                0.005594457034021616,
                1.6633199453353882,
                0.1973741501569748,
                1.7816120386123657,
                0.011857151985168457,
                -0.8018872737884521
            ],
            [
                0.0015202848007902503,
                0.3381417691707611,
                0.7370631098747253,
                0.015520691871643066,
                0.2777741253376007,
                -0.4915376305580139,
                0.3766828179359436,
                -1.5898559093475342,
                -0.09739841520786285,
                -1.1589381694793701,
                0.4891732633113861,
                -0.5631327629089355,
                -2.45609450340271,
                -0.4894196689128876,
                -0.7022505402565002,
                -0.7755172848701477,
                -0.41176638007164,
                2.22448992729187,
                0.19944614171981812,
                1.765067219734192,
                -0.07298988103866577,
                0.9744036793708801,
                -0.015573394484817982,
                -1.3169342279434204
            ],
            [
                -0.20081113278865814,
                0.26500171422958374,
                0.11802675575017929,
                -0.02386275865137577,
                0.06368286162614822,
                -0.7094452977180481,
                -0.021518230438232422,
                -0.3774784803390503,
                -0.024346547201275826,
                -0.06882327795028687,
                0.39832156896591187,
                0.15945319831371307,
                -0.3816605806350708,
                0.0532919317483902,
                0.35999542474746704,
                -0.5984230041503906,
                0.36447465419769287,
                1.480725884437561,
                0.6895557045936584,
                -0.36210888624191284,
                0.361263632774353,
                0.08556979149580002,
                -1.264900803565979,
                -2.925253391265869
            ],
            [
                0.08028673380613327,
                0.3068648874759674,
                -0.02690497785806656,
                0.17706835269927979,
                0.1844235360622406,
                -0.4944683015346527,
                0.41026389598846436,
                0.13025537133216858,
                -0.010358340106904507,
                -0.15595299005508423,
                0.5335015058517456,
                -0.775043249130249,
                0.18958282470703125,
                -0.15799535810947418,
                -0.8698877096176147,
                -1.2521671056747437,
                -3.2113115787506104,
                -0.71673583984375,
                -0.019954511895775795,
                -0.039700865745544434,
                0.09148731827735901,
                2.105860710144043,
                -0.8241194486618042,
                -0.27455347776412964
            ],
            [
                -0.9128230214118958,
                -1.7268660068511963,
                -0.2725495994091034,
                1.493913173675537,
                0.08850976079702377,
                1.542716145515442,
                -0.1058865338563919,
                0.8863891959190369,
                -1.2688642740249634,
                0.058139100670814514,
                -1.7458155155181885,
                0.21871748566627502,
                -0.644091784954071,
                1.9550237655639648,
                -0.19550977647304535,
                1.4616470336914062,
                -0.5056139230728149,
                1.3945802450180054,
                -1.292460322380066,
                0.7845227122306824,
                -2.0039236545562744,
                0.5315319895744324,
                1.9570503234863281,
                1.342512845993042
            ]
        ],
        [
            [
                2.293288469314575,
                0.41531991958618164,
                -1.0536922216415405,
                1.1451126337051392,
                0.01034612488001585,
                -0.34814226627349854,
                3.5453593730926514,
                0.042616747319698334,
                3.971003532409668,
                3.00093936920166,
                -1.4505305290222168,
                1.8510823249816895,
                -0.11644743382930756
            ],
            [
                0.13298657536506653,
                2.625696897506714,
                -1.602735996246338,
                0.662383496761322,
                -3.49326491355896,
                -1.3618727922439575,
                0.22902870178222656,
                3.8365366458892822,
                -0.09228847920894623,
                0.2400253862142563,
                -0.4370284378528595,
                1.1889950037002563,
                4.247280597686768
            ]
        ]
    ]
}