{
    "biases": [
        [
            0.6264380216598511,
            0.8344247341156006,
            0.2156398892402649,
            0.7863506078720093,
            -0.07577455043792725,
            0.27691778540611267,
            0.1819504052400589,
            -0.8651231527328491,
            0.5181505680084229,
            0.28919103741645813,
            0.42616453766822815,
            0.7418367862701416,
            -0.9462862610816956,
            0.4976331889629364,
            0.17840667068958282,
            0.7159086465835571,
            -0.8630949258804321,
            0.259863942861557,
            0.4928364157676697
        ],
        [
            0.03770348057150841,
            -0.022650297731161118,
            -0.3591827154159546,
            0.582179069519043,
            -0.048097796738147736,
            -0.7325888276100159,
            0.9376869797706604,
            0.38986197113990784,
            0.3913915455341339,
            -0.5279147028923035,
            -0.3055313229560852,
            -0.025648970156908035,
            -0.4386487901210785
        ],
        [
            -0.38322579860687256,
            -0.254244863986969,
            0.060500241816043854,
            0.04453220218420029,
            0.47025978565216064,
            -0.2151457816362381
        ],
        [
            -0.48144295811653137,
            -3.4281089305877686
        ]
    ],
    "weights": [
        [
            [
                0.21651947498321533,
                0.9145389199256897,
                -0.12876945734024048,
                -0.12883597612380981,
                0.10367632657289505,
                -1.1389648914337158,
                -0.4323132634162903,
                0.018205083906650543,
                0.4734496474266052,
                0.2279151827096939,
                0.6651549339294434,
                -0.03490665555000305,
                -0.036028556525707245,
                -0.5191835165023804,
                -0.07915668934583664,
                -0.2600216567516327,
                0.1373082399368286,
                0.10086872428655624,
                0.6020578742027283,
                0.08945242315530777,
                0.32455873489379883,
                0.11952656507492065,
                -0.8312966823577881,
                -0.1500648409128189
            ],
            [
                -0.3902633488178253,
                0.06604050099849701,
                -0.2879236042499542,
                0.3677462637424469,
                0.03337116166949272,
                0.16877058148384094,
                0.3114451467990875,
                -0.26952293515205383,
                0.05656822398304939,
                0.09073691815137863,
                0.38666579127311707,
                0.16463825106620789,
                0.2702185809612274,
                -0.250484436750412,
                -0.29012224078178406,
                -0.6890522241592407,
                -0.48947787284851074,
                0.48726505041122437,
                0.4762214720249176,
                0.24250555038452148,
                0.3619152903556824,
                0.2516525089740753,
                -0.3775748610496521,
                -0.7268544435501099
            ],
            [
                0.4740706980228424,
                -0.5381848216056824,
                -0.6807644963264465,
                -0.040349893271923065,
                0.8495909571647644,
                0.14378154277801514,
                0.840582013130188,
                0.21446505188941956,
                -0.09989608079195023,
                0.5825322270393372,
                0.053612299263477325,
                1.1741598844528198,
                -0.8160166144371033,
                0.08914408832788467,
                -0.7040839791297913,
                0.06720485538244247,
                -0.7188113927841187,
                0.564201831817627,
                -0.13864940404891968,
                0.6485487222671509,
                -0.1511187106370926,
                0.7977184653282166,
                -0.04780014976859093,
                -0.1296847015619278
            ],
            [
                0.14857405424118042,
                0.12639625370502472,
                0.09619736671447754,
                -0.1679292768239975,
                -0.2682473659515381,
                -0.10662782937288284,
                -0.03291557729244232,
                -0.018460936844348907,
                -0.09897910058498383,
                0.3807760775089264,
                0.5298589468002319,
                -0.19479672610759735,
                -0.058663323521614075,
                0.41568654775619507,
                0.5555155873298645,
                -0.7199654579162598,
                0.12832343578338623,
                -0.21370311081409454,
                -0.053833868354558945,
                -0.4103243947029114,
                0.5867614150047302,
                -0.3542708456516266,
                -0.11136448383331299,
                -0.4766634404659271
            ],
            [
                0.6843238472938538,
                0.1667473167181015,
                -1.586289405822754,
                -0.03331032767891884,
                -0.2535417377948761,
                -0.012038331478834152,
                -0.12039273232221603,
                -1.8390076160430908,
                -0.039911121129989624,
                -0.9898545145988464,
                0.15950095653533936,
                -0.11835062503814697,
                0.8210064172744751,
                0.07635597884654999,
                0.4757642447948456,
                -0.2683804929256439,
                0.2691263258457184,
                -0.3603392243385315,
                0.06764698028564453,
                -0.4521479606628418,
                0.0185538362711668,
                -0.4910222887992859,
                0.15820105373859406,
                0.16519835591316223
            ],
            [
                1.9990133047103882,
                -1.122694969177246,
                0.17581669986248016,
                1.5731079578399658,
                -0.25450563430786133,
                0.666594386100769,
                -0.15821057558059692,
                -0.45016738772392273,
                1.1167819499969482,
                0.007620185613632202,
                -0.9548747539520264,
                0.041186459362506866,
                0.04400236904621124,
                0.7298354506492615,
                -0.050765056163072586,
                0.6597804427146912,
                0.13783155381679535,
                0.24749889969825745,
                -0.5393566489219666,
                -0.013584460131824017,
                -0.5394782423973083,
                0.05496067553758621,
                0.4118610620498657,
                0.5122872591018677
            ],
            [
                -0.006182893179357052,
                -0.003109969198703766,
                0.03958101198077202,
                0.07051804661750793,
                -0.22091788053512573,
                0.06916018575429916,
                -0.31493663787841797,
                0.13458384573459625,
                -0.1943463385105133,
                0.27844664454460144,
                -0.1351272463798523,
                0.32899031043052673,
                -0.018197178840637207,
                0.2654469311237335,
                -0.5042051672935486,
                -0.27070343494415283,
                -1.025052547454834,
                -1.128625512123108,
                -0.031649455428123474,
                -0.7074913382530212,
                -0.06477468460798264,
                -3.728924512863159,
                -0.5231279730796814,
                0.28864917159080505
            ],
            [
                -1.3758206367492676,
                -0.3387109041213989,
                -0.2802445590496063,
                0.9826381802558899,
                0.13336992263793945,
                0.2765601873397827,
                -0.18964646756649017,
                -0.5466975569725037,
                -1.0510609149932861,
                -0.11219065636396408,
                -0.10165490955114365,
                -0.09981309622526169,
                0.04874224215745926,
                0.5140441656112671,
                0.13007767498493195,
                0.37598729133605957,
                0.02633894607424736,
                -0.028339657932519913,
                -0.167601078748703,
                -0.32111483812332153,
                -0.4133491814136505,
                -0.12016380578279495,
                0.2595934271812439,
                0.5766186118125916
            ],
            [
                -0.1812167465686798,
                -0.34060052037239075,
                -0.1767069548368454,
                0.05653935298323631,
                0.2139182835817337,
                0.47033774852752686,
                -0.05215904116630554,
                0.08930303901433945,
                0.16744215786457062,
                0.1733703464269638,
                -0.6426312327384949,
                -0.0766659528017044,
                -0.07586920261383057,
                1.1599160432815552,
                -0.3049044907093048,
                0.7385833263397217,
                -0.1832350343465805,
                -0.043668512254953384,
                1.9400993585586548,
                0.534033477306366,
                -1.272485613822937,
                0.3562401235103607,
                1.4783669710159302,
                0.7898340821266174
            ],
            [
                -0.07961880415678024,
                -0.10074020177125931,
                -0.0399768240749836,
                0.03521338850259781,
                -0.06869268417358398,
                0.6703251004219055,
                -0.0515388548374176,
                -0.0215813759714365,
                0.07552599161863327,
                0.1845259964466095,
                0.10699515789747238,
                0.13199672102928162,
                0.07787696272134781,
                -0.5308765769004822,
                -0.023231010884046555,
                1.1828196048736572,
                -0.16192491352558136,
                -0.6780054569244385,
                0.4670477509498596,
                -0.2167031615972519,
                1.5735225677490234,
                0.16599400341510773,
                -0.9997531771659851,
                3.428143262863159
            ],
            [
                -0.2975744605064392,
                -0.7369707226753235,
                0.18274986743927002,
                0.03376854211091995,
                0.14396576583385468,
                0.1643882542848587,
                -0.47796595096588135,
                -0.2610988914966583,
                0.20718087255954742,
                -0.09987428039312363,
                -0.3404058814048767,
                -0.2510959804058075,
                0.6683318018913269,
                -0.04225315898656845,
                0.49276280403137207,
                -0.018213331699371338,
                -0.12519727647304535,
                -0.7458697557449341,
                0.07406996190547943,
                -0.5321828722953796,
                0.23292936384677887,
                -0.521465539932251,
                -0.02399471215903759,
                0.06136836111545563
            ],
            [
                -0.12782704830169678,
                -0.3747499883174896,
                0.19548234343528748,
                -0.21703442931175232,
                0.16193124651908875,
                0.23647865653038025,
                0.6359652280807495,
                -0.26270046830177307,
                -0.04021824896335602,
                -0.3998570740222931,
                0.04816824942827225,
                -0.4875088334083557,
                0.41566622257232666,
                -0.5077923536300659,
                0.36365973949432373,
                -0.02839076891541481,
                1.0109800100326538,
                -0.5109184384346008,
                0.256394624710083,
                -0.5164956450462341,
                -0.14450371265411377,
                -0.6190654635429382,
                -0.2589452564716339,
                0.09327319264411926
            ],
            [
                0.18860135972499847,
                -0.9036121964454651,
                -0.404157429933548,
                -0.24292060732841492,
                -1.257895827293396,
                -0.035191986709833145,
                -1.6347588300704956,
                0.36698591709136963,
                -0.1510392278432846,
                0.6304147243499756,
                -0.04049917683005333,
                1.2144056558609009,
                -0.14417652785778046,
                0.07092902064323425,
                -0.42796289920806885,
                -0.05264611914753914,
                -0.46320489048957825,
                0.16164346039295197,
                -0.007324519567191601,
                0.39499354362487793,
                0.12965692579746246,
                0.35003727674484253,
                -0.09866755455732346,
                -0.03073946014046669
            ],
            [
                -0.13229838013648987,
                -0.06398945301771164,
                -0.2889767587184906,
                0.12160751223564148,
                -0.19840577244758606,
                0.543023407459259,
                0.14022448658943176,
                0.24840658903121948,
                -0.28879326581954956,
                0.9159886837005615,
                -0.6142736077308655,
                0.02670988440513611,
                0.25525665283203125,
                0.6350897550582886,
                0.04951678216457367,
                0.2048126459121704,
                0.4896877408027649,
                -0.22330208122730255,
                -0.29669424891471863,
                -0.3034554719924927,
                -0.4129592180252075,
                -0.20182842016220093,
                0.10886275768280029,
                0.598659336566925
            ],
            [
                0.08289504796266556,
                0.09021937102079391,
                -0.1626722663640976,
                -0.016181189566850662,
                0.13050444424152374,
                -0.025383535772562027,
                0.08069518208503723,
                0.6499682664871216,
                0.04514540731906891,
                0.21993133425712585,
                0.03279169648885727,
                0.11192075163125992,
                1.2628331184387207,
                -0.030028050765395164,
                0.3957372307777405,
                0.22033637762069702,
                0.42952731251716614,
                -0.8595609068870544,
                -0.006658406928181648,
                -0.5606340765953064,
                -0.18612343072891235,
                -0.3316887319087982,
                -0.1433868259191513,
                -0.43601536750793457
            ],
            [
                -0.25691112875938416,
                0.8347153663635254,
                0.03803621232509613,
                0.4595661163330078,
                -0.0898962914943695,
                -0.5230352878570557,
                -0.19558504223823547,
                -0.19257333874702454,
                -0.16402852535247803,
                -0.1273111253976822,
                0.34931305050849915,
                0.46175697445869446,
                0.09355636686086655,
                0.24320457875728607,
                -0.21953101456165314,
                -0.25441861152648926,
                0.09261610358953476,
                -0.36870282888412476,
                -0.32323527336120605,
                -0.09006450325250626,
                0.8615931272506714,
                0.01655573956668377,
                0.1427665650844574,
                -0.5918981432914734
            ],
            [
                -0.08331339061260223,
                -0.3196527361869812,
                -0.5316768288612366,
                0.314003586769104,
                -0.040375541895627975,
                0.5314019918441772,
                0.10936807096004486,
                0.5532419681549072,
                -0.06880977749824524,
                0.24299605190753937,
                -0.32917091250419617,
                -0.288531094789505,
                -0.41978028416633606,
                0.32934799790382385,
                0.14348585903644562,
                0.2496672421693802,
                0.5577884912490845,
                0.43384531140327454,
                0.13655021786689758,
                0.19997583329677582,
                -0.1432826817035675,
                -0.5061284899711609,
                -0.20043189823627472,
                -0.023958129808306694
            ],
            [
                -0.1405446082353592,
                -0.03970038518309593,
                0.43560791015625,
                -0.0613882802426815,
                -0.02298026718199253,
                0.2053680270910263,
                -0.29983437061309814,
                -0.4444175958633423,
                -0.12059356272220612,
                0.1102370172739029,
                0.4834001064300537,
                0.7336804270744324,
                0.32348257303237915,
                -0.34273964166641235,
                -0.260359525680542,
                0.1616707444190979,
                -0.6288428902626038,
                1.0980355739593506,
                -0.46261894702911377,
                0.5358695983886719,
                -0.4987679719924927,
                0.1458711326122284,
                0.42526161670684814,
                0.45193272829055786
            ],
            [
                -0.1247214525938034,
                -0.16119760274887085,
                0.567482590675354,
                0.2680804133415222,
                0.32909512519836426,
                -0.11853957176208496,
                -0.22158457338809967,
                -0.4849998950958252,
                -0.08579858392477036,
                -0.38662487268447876,
                0.11160313338041306,
                0.6153348088264465,
                -0.01010538637638092,
                -0.16829568147659302,
                0.7829006910324097,
                0.20709265768527985,
                1.1090145111083984,
                -0.09967666119337082,
                -0.04327062517404556,
                -0.3680045008659363,
                -0.11267653107643127,
                -0.6641044616699219,
                -0.029845204204320908,
                -0.4766664206981659
            ]
        ],
        [
            [
                0.14182187616825104,
                0.00010848598321899772,
                0.6173214316368103,
                -0.9101479053497314,
                0.17831280827522278,
                -0.19173774123191833,
                -1.104306936264038,
                0.0993976816534996,
                0.25010594725608826,
                -0.28051525354385376,
                -1.1312679052352905,
                -0.8375535011291504,
                0.3891913592815399,
                -0.6969260573387146,
                -2.580183506011963,
                -0.6720086336135864,
                0.7477974891662598,
                0.6748014092445374,
                0.37514010071754456
            ],
            [
                -0.06722263246774673,
                0.20194031298160553,
                -0.17202003300189972,
                -0.19135403633117676,
                0.25867214798927307,
                -0.3717438280582428,
                -0.9162649512290955,
                -0.3128693699836731,
                0.01892545446753502,
                1.249880075454712,
                -0.02816672995686531,
                0.2206825315952301,
                -0.34563106298446655,
                0.19063542783260345,
                -0.31678998470306396,
                0.33524227142333984,
                0.36114561557769775,
                0.44580546021461487,
                -0.3029710054397583
            ],
            [
                -0.9547645449638367,
                -0.36802902817726135,
                -0.205185204744339,
                -0.30476441979408264,
                -0.022561704739928246,
                0.32769837975502014,
                -0.16748102009296417,
                0.9656718373298645,
                0.3768402934074402,
                1.0110459327697754,
                -0.42012664675712585,
                -0.16765843331813812,
                0.2781381905078888,
                0.26455724239349365,
                -0.13548782467842102,
                -0.3059474527835846,
                0.29479923844337463,
                0.3726021349430084,
                0.12917667627334595
            ],
            [
                0.36245232820510864,
                0.45437103509902954,
                0.38182583451271057,
                0.13455718755722046,
                -0.18403360247612,
                -0.3074630796909332,
                -0.46284055709838867,
                -0.29472509026527405,
                -0.2878221869468689,
                -0.49925360083580017,
                -0.3206232488155365,
                -0.6295643448829651,
                0.6382788419723511,
                -0.31483009457588196,
                -0.5381136536598206,
                0.3717949688434601,
                0.10995472967624664,
                0.31469589471817017,
                -0.5491176843643188
            ],
            [
                0.40498700737953186,
                0.1948176473379135,
                -0.2560831904411316,
                0.7154892683029175,
                0.051254596561193466,
                -0.6977136135101318,
                -0.21600458025932312,
                -0.3441762924194336,
                -0.5124850869178772,
                -0.9081705212593079,
                0.27271902561187744,
                -0.10921610891819,
                -0.0698789432644844,
                -0.2687890827655792,
                0.060903653502464294,
                0.6046169996261597,
                -0.5237798094749451,
                0.03907596692442894,
                -0.012931883335113525
            ],
            [
                -0.47255662083625793,
                0.3040294647216797,
                0.5541547536849976,
                -0.8767995834350586,
                -1.1104700565338135,
                -0.3571215569972992,
                -0.40366703271865845,
                0.0028869539964944124,
                -0.2518749535083771,
                -0.11963517218828201,
                -1.0162798166275024,
                -0.7992092370986938,
                1.3386099338531494,
                -0.7725760340690613,
                -0.805666983127594,
                -0.21002192795276642,
                0.775195300579071,
                0.17391856014728546,
                -0.6318620443344116
            ],
            [
                1.128187894821167,
                0.9336377382278442,
                0.41003939509391785,
                0.6796970963478088,
                -0.464767187833786,
                -1.215502142906189,
                0.18984270095825195,
                -1.107143521308899,
                -0.431385338306427,
                -0.5540628433227539,
                -0.32220765948295593,
                0.668512761592865,
                0.4016878306865692,
                -0.24637387692928314,
                0.005932807922363281,
                0.5214712619781494,
                -0.27560943365097046,
                -0.1897425651550293,
                -0.43136048316955566
            ],
            [
                -0.033949047327041626,
                -0.20895597338676453,
                -0.3065245747566223,
                0.37544745206832886,
                0.8792949318885803,
                0.0348612405359745,
                0.934556245803833,
                0.009591808542609215,
                -0.28170573711395264,
                0.38633280992507935,
                0.1261368691921234,
                0.6975967288017273,
                -1.2039622068405151,
                0.13045579195022583,
                0.44937172532081604,
                -0.016718247905373573,
                -0.2267409861087799,
                -0.4779239594936371,
                1.0947589874267578
            ],
            [
                0.6144881844520569,
                0.29262059926986694,
                -0.7160308361053467,
                0.34613898396492004,
                0.973934531211853,
                -0.45397481322288513,
                -0.18417996168136597,
                -0.4216476380825043,
                -0.721375584602356,
                -0.2869250178337097,
                0.2933255732059479,
                0.7914254665374756,
                -0.7944172620773315,
                -0.02647893689572811,
                0.005560369696468115,
                0.6715356111526489,
                -0.4929387867450714,
                -0.18967576324939728,
                0.38458505272865295
            ],
            [
                -0.29168543219566345,
                -1.5028036832809448,
                -2.2611331939697266,
                0.3943803012371063,
                2.1038572788238525,
                -0.10096752643585205,
                -0.11645271629095078,
                0.001805775216780603,
                -0.15838932991027832,
                -0.10335006564855576,
                0.07227670401334763,
                0.6853657364845276,
                0.016571683809161186,
                -0.32641303539276123,
                0.6646780371665955,
                -0.36580485105514526,
                0.3897581696510315,
                -0.7952173948287964,
                -0.05779663100838661
            ],
            [
                0.6600558161735535,
                0.7874759435653687,
                0.30352726578712463,
                0.6376767158508301,
                0.23103906214237213,
                -0.02804397977888584,
                0.369880735874176,
                -0.2192913293838501,
                -0.3114318251609802,
                -0.6840284466743469,
                0.4612005949020386,
                -0.6303269863128662,
                -0.2250318080186844,
                -0.5779511332511902,
                0.10525964945554733,
                0.7561805248260498,
                -0.03978794440627098,
                -0.605688214302063,
                0.3058147728443146
            ],
            [
                -0.14162762463092804,
                -0.5124638080596924,
                -0.430058091878891,
                -0.030343791469931602,
                0.8458095788955688,
                -1.0470603704452515,
                -0.23270104825496674,
                0.25871777534484863,
                -0.7674618363380432,
                -0.6729355454444885,
                -0.01674862951040268,
                0.5989805459976196,
                -0.28111767768859863,
                0.15445886552333832,
                -0.02145932801067829,
                0.27457645535469055,
                -0.3818169832229614,
                -0.32027867436408997,
                0.22449778020381927
            ],
            [
                0.8531417846679688,
                0.7180819511413574,
                0.4184715151786804,
                0.17568695545196533,
                -0.6422816514968872,
                -0.6505833268165588,
                0.13863693177700043,
                -0.7769578695297241,
                -1.0457779169082642,
                -0.4657894968986511,
                -0.9159373044967651,
                -0.4005560576915741,
                0.7525338530540466,
                -0.2744772434234619,
                0.0711372047662735,
                -0.04431093856692314,
                0.16190151870250702,
                -0.32560497522354126,
                -0.29920315742492676
            ]
        ],
        [
            [
                0.381948322057724,
                0.005347547587007284,
                -0.1068335622549057,
                0.4739474952220917,
                0.5277974009513855,
                -1.5823915004730225,
                2.0257651805877686,
                0.3311665952205658,
                1.29229736328125,
                0.5905223488807678,
                -0.3976741135120392,
                2.3049824237823486,
                -1.8475921154022217
            ],
            [
                0.5860969424247742,
                0.22171948850154877,
                0.17884749174118042,
                0.6188212037086487,
                0.07547511905431747,
                1.1709418296813965,
                0.5333324074745178,
                -1.6984328031539917,
                -0.13597096502780914,
                -1.4486027956008911,
                -0.3429807722568512,
                -0.6422168016433716,
                -0.15994292497634888
            ],
            [
                0.17461173236370087,
                -0.7027207612991333,
                -1.7112655639648438,
                1.1612913608551025,
                1.3828933238983154,
                0.5165742635726929,
                1.1704634428024292,
                -0.21663276851177216,
                1.060742735862732,
                -0.2437467873096466,
                1.2045037746429443,
                1.339561104774475,
                1.0163151025772095
            ],
            [
                0.07879732549190521,
                -1.289206624031067,
                -1.2970077991485596,
                1.3699851036071777,
                1.5551785230636597,
                -0.5717028379440308,
                1.082542061805725,
                0.02187902107834816,
                1.2150518894195557,
                -0.5235571265220642,
                0.7129676342010498,
                0.88139408826828,
                0.2545102536678314
            ],
            [
                0.7668778300285339,
                1.4962129592895508,
                0.038102973252534866,
                0.49855583906173706,
                0.2705032527446747,
                -0.018528014421463013,
                0.09152069687843323,
                -1.0696510076522827,
                -1.4999186992645264,
                -1.5970752239227295,
                0.04977995529770851,
                1.186514973640442,
                1.7869305610656738
            ],
            [
                0.3848585784435272,
                0.6807884573936462,
                0.17140723764896393,
                -1.251325011253357,
                0.8410614132881165,
                -1.29350745677948,
                -0.9055300354957581,
                -0.43030622601509094,
                -1.0792121887207031,
                1.9176111221313477,
                0.5907214283943176,
                0.21551747620105743,
                -1.4708118438720703
            ]
        ],
        [
            [
                2.923868179321289,
                3.53957462310791,
                0.16030266880989075,
                -0.2816484272480011,
                1.2605934143066406,
                3.0938210487365723
            ],
            [
                2.362072229385376,
                -2.29400897026062,
                -2.2692174911499023,
                -2.457960844039917,
                2.7193336486816406,
                -1.7576189041137695
            ]
        ]
    ]
}