{
    "biases": [
        [
            0.9658902883529663,
            1.3361244201660156,
            0.407116562128067,
            0.615935206413269,
            0.08195546269416809,
            0.8125954270362854,
            0.06761765480041504,
            -1.3345094919204712,
            0.536251962184906,
            0.4464605748653412,
            0.7180495262145996,
            0.5760517716407776,
            -1.3534506559371948,
            1.050298810005188,
            0.5261932015419006,
            0.7779324650764465,
            -1.4954389333724976,
            0.1872941255569458,
            0.3471629023551941
        ],
        [
            -0.029166962951421738,
            -0.03317167982459068,
            -1.2075225114822388,
            1.3676726818084717,
            -0.5265378355979919,
            -0.6200557947158813,
            1.1172648668289185,
            0.6079355478286743,
            0.5223168134689331,
            -0.5615813136100769,
            -0.3861455023288727,
            0.10933578759431839,
            -0.2629140615463257
        ],
        [
            -1.0827019214630127,
            -0.39091756939888,
            0.4526205360889435,
            -0.20550687611103058,
            0.3394007086753845,
            -0.7733399271965027
        ],
        [
            -0.14182882010936737,
            -2.553039789199829
        ]
    ],
    "weights": [
        [
            [
                0.3700246512889862,
                0.9028541445732117,
                0.07303555309772491,
                -0.48720642924308777,
                0.2593919336795807,
                -1.2673594951629639,
                -0.9889726042747498,
                -0.25018611550331116,
                0.3133319020271301,
                0.5178720951080322,
                0.7270706295967102,
                0.08226768672466278,
                -0.024600040167570114,
                -0.6290740370750427,
                -0.25435739755630493,
                -0.13213802874088287,
                0.3759166896343231,
                -0.5983458757400513,
                0.6065298318862915,
                0.028139103204011917,
                0.4860139489173889,
                -0.05468513071537018,
                -0.8718740344047546,
                -0.0793929174542427
            ],
            [
                -0.29622790217399597,
                0.13314604759216309,
                -0.19786442816257477,
                0.23811067640781403,
                0.0904117301106453,
                -0.11186236143112183,
                0.011646156199276447,
                -0.09012042731046677,
                0.09250930696725845,
                -0.01423448882997036,
                0.4523565173149109,
                -0.17027609050273895,
                0.24787156283855438,
                -0.2555624842643738,
                -0.18915681540966034,
                -0.4951031804084778,
                -0.39176368713378906,
                -0.044764403253793716,
                0.5589777231216431,
                -0.12712548673152924,
                0.7487139105796814,
                -0.0328403115272522,
                -0.3879135549068451,
                -0.7967725396156311
            ],
            [
                1.0517672300338745,
                -1.5411850214004517,
                -1.1305253505706787,
                0.31787756085395813,
                1.2839804887771606,
                0.4857857823371887,
                2.8120226860046387,
                1.2403427362442017,
                -0.0931277945637703,
                1.2504526376724243,
                -0.06899958848953247,
                1.7571568489074707,
                -1.0107448101043701,
                0.2851690351963043,
                -1.4666246175765991,
                -0.16516783833503723,
                -1.6034204959869385,
                1.2144145965576172,
                -0.2273288518190384,
                1.229710578918457,
                -0.04435773938894272,
                1.5424801111221313,
                0.08387846499681473,
                -0.3409828543663025
            ],
            [
                0.2573851943016052,
                0.14736366271972656,
                -0.029134055599570274,
                -0.0905035138130188,
                -0.3985837697982788,
                0.017310278490185738,
                0.09502784162759781,
                -0.08757219463586807,
                -0.038476165384054184,
                0.2546460032463074,
                0.05821184441447258,
                0.07126545906066895,
                0.029824785888195038,
                -0.08595137298107147,
                0.44971582293510437,
                -0.6893201470375061,
                -0.23482953011989594,
                -0.7868392467498779,
                0.4193185865879059,
                -0.5088173151016235,
                0.6988533139228821,
                -0.3360658288002014,
                -0.3919433355331421,
                -0.3154107928276062
            ],
            [
                1.7358042001724243,
                0.06735915690660477,
                -1.8701268434524536,
                -0.3285343647003174,
                0.0847059041261673,
                -0.050910383462905884,
                -0.18729113042354584,
                -1.4612236022949219,
                -0.7803537845611572,
                -0.5555872917175293,
                -0.18141350150108337,
                0.12399954348802567,
                0.9426798224449158,
                -0.02858797460794449,
                0.274053156375885,
                -0.5746183395385742,
                -0.6001268029212952,
                -0.6934317946434021,
                -0.003023053053766489,
                -0.5235434174537659,
                -0.06261274218559265,
                -0.27756980061531067,
                0.161978080868721,
                -0.520845890045166
            ],
            [
                2.1208527088165283,
                -1.5039708614349365,
                -0.048031169921159744,
                1.945476770401001,
                -0.1311594694852829,
                1.3317230939865112,
                0.027419915422797203,
                -1.3286513090133667,
                1.4838553667068481,
                0.15782976150512695,
                -1.6476945877075195,
                0.2347896546125412,
                -0.08008831739425659,
                1.5480822324752808,
                -0.1293667107820511,
                1.2483705282211304,
                0.13203078508377075,
                0.9928518533706665,
                -1.1636208295822144,
                -0.438201367855072,
                -1.2142895460128784,
                0.02493143454194069,
                1.2480769157409668,
                0.9585970044136047
            ],
            [
                0.1674267202615738,
                -0.11175709217786789,
                0.05075829476118088,
                -0.06626073271036148,
                -0.10291772335767746,
                0.1267857849597931,
                -0.13359667360782623,
                -0.3045552670955658,
                -0.03643688187003136,
                0.02611635811626911,
                -0.04384331405162811,
                -0.4221157133579254,
                0.22545725107192993,
                -0.5378748774528503,
                0.27070948481559753,
                -1.3973594903945923,
                -1.9645359516143799,
                -0.944968044757843,
                0.21131010353565216,
                -0.5041815638542175,
                -0.06642244011163712,
                -7.244366645812988,
                -1.7816730737686157,
                0.39699020981788635
            ],
            [
                -1.6924761533737183,
                -0.6000413298606873,
                0.1477886438369751,
                1.1861598491668701,
                0.1006297841668129,
                0.2658858895301819,
                -0.0032257135026156902,
                -2.8172101974487305,
                -1.3033026456832886,
                -0.23714472353458405,
                -0.5115687251091003,
                0.05460955947637558,
                0.25723084807395935,
                0.9257190823554993,
                0.09591163694858551,
                0.24884913861751556,
                0.13753774762153625,
                0.43923261761665344,
                -0.6051268577575684,
                -0.29202142357826233,
                -0.434998482465744,
                -0.010153636336326599,
                0.7331194281578064,
                0.49243560433387756
            ],
            [
                -0.16312386095523834,
                -0.24764575064182281,
                -0.16255638003349304,
                0.045932214707136154,
                0.1733737587928772,
                0.8090142011642456,
                0.16748110949993134,
                0.5025457739830017,
                -0.22853538393974304,
                0.49933576583862305,
                -0.6976822018623352,
                -0.09639833122491837,
                0.18016283214092255,
                0.8821309804916382,
                -0.2032381147146225,
                1.2773910760879517,
                -0.001990311313420534,
                -0.8916522264480591,
                0.8081422448158264,
                1.6667916774749756,
                -1.4531556367874146,
                0.28583860397338867,
                1.8052871227264404,
                1.1281673908233643
            ],
            [
                0.13062937557697296,
                0.03520796820521355,
                -0.18069148063659668,
                -0.19116362929344177,
                -0.24446053802967072,
                0.37699761986732483,
                -0.25592225790023804,
                0.04318201541900635,
                -0.0962638109922409,
                0.4466991126537323,
                0.005136258900165558,
                -0.019105080515146255,
                -0.07151754200458527,
                -0.49880069494247437,
                -0.42466673254966736,
                0.47709009051322937,
                0.15891620516777039,
                -0.8379768133163452,
                1.062791347503662,
                -0.7643041014671326,
                1.7534493207931519,
                -0.2857690453529358,
                -0.8654038310050964,
                5.443982124328613
            ],
            [
                -0.021195542067289352,
                -0.6347626447677612,
                0.1556505411863327,
                0.14664843678474426,
                0.07724499702453613,
                0.32506299018859863,
                -1.9023185968399048,
                0.007544761523604393,
                0.0544857494533062,
                -0.030098050832748413,
                -0.2917306423187256,
                -0.16711048781871796,
                0.1763676255941391,
                0.08667959272861481,
                0.08709519356489182,
                0.2801474928855896,
                -1.4791077375411987,
                0.0070085651241242886,
                -0.040312353521585464,
                -0.2617829144001007,
                0.05122320353984833,
                -0.3154087960720062,
                0.03049297258257866,
                0.07502573728561401
            ],
            [
                -0.49474406242370605,
                -0.622523307800293,
                0.4231913983821869,
                0.25523877143859863,
                0.2862381041049957,
                0.21618250012397766,
                0.9450562596321106,
                -0.36563295125961304,
                0.0605689138174057,
                -0.49611926078796387,
                -0.10600019246339798,
                -0.4434448182582855,
                0.5592409372329712,
                0.18796591460704803,
                0.39930257201194763,
                0.047649186104536057,
                1.314261794090271,
                -0.6208335161209106,
                -0.19981390237808228,
                -0.540722668170929,
                -0.18173742294311523,
                -0.6020653247833252,
                -0.12727728486061096,
                -0.17704690992832184
            ],
            [
                0.7587071657180786,
                -2.4256155490875244,
                -0.76905757188797,
                -0.005644673481583595,
                -1.237025499343872,
                0.07556529343128204,
                -1.7924774885177612,
                0.6967449188232422,
                -0.1361742466688156,
                0.8100741505622864,
                0.16116157174110413,
                1.2667758464813232,
                -0.5632905960083008,
                0.15692318975925446,
                -0.7200650572776794,
                -0.08434101194143295,
                -0.8111575841903687,
                0.4082436263561249,
                -0.12153927236795425,
                0.46441230177879333,
                -0.01337289810180664,
                0.7885432243347168,
                0.0008990886271931231,
                -0.23597222566604614
            ],
            [
                -0.015464646741747856,
                -0.24776847660541534,
                -0.48978331685066223,
                0.34603452682495117,
                -0.36627912521362305,
                0.35812029242515564,
                -0.0082522789016366,
                1.2115530967712402,
                -0.7730677127838135,
                0.45810434222221375,
                -0.7681961059570312,
                0.13934803009033203,
                -0.4127909541130066,
                0.3090078830718994,
                -0.13629330694675446,
                0.5823807716369629,
                0.40254124999046326,
                0.5811095833778381,
                -0.5103165507316589,
                -0.011633847840130329,
                -0.796518087387085,
                -0.16108255088329315,
                0.391389399766922,
                0.5552337169647217
            ],
            [
                0.3787787854671478,
                0.05889621004462242,
                -0.4377453327178955,
                -0.007726052775979042,
                0.12362313270568848,
                0.07867393642663956,
                0.19266512989997864,
                0.5640782713890076,
                0.47451984882354736,
                0.3847626745700836,
                -0.08078951388597488,
                0.2297804206609726,
                1.3945813179016113,
                0.6532368659973145,
                -0.3853718340396881,
                0.12290528416633606,
                -0.11572587490081787,
                -1.0549626350402832,
                0.11130473762750626,
                -0.597133457660675,
                -0.1180654764175415,
                0.24087417125701904,
                0.16440251469612122,
                -0.9280543327331543
            ],
            [
                -0.15627150237560272,
                0.6923586130142212,
                0.1023624837398529,
                0.25945451855659485,
                -0.09749960154294968,
                -0.5793852806091309,
                0.27471160888671875,
                -0.1299588531255722,
                -0.082045778632164,
                -0.06449408084154129,
                0.1879151463508606,
                0.5417591333389282,
                0.17889586091041565,
                0.0990203469991684,
                -0.4818525016307831,
                -0.2790142297744751,
                -0.4994547367095947,
                -0.019020434468984604,
                -0.13392750918865204,
                -0.44090667366981506,
                0.5834395885467529,
                0.35268843173980713,
                0.10185661911964417,
                -1.257330298423767
            ],
            [
                0.6496011018753052,
                -0.07125836610794067,
                -0.5793789625167847,
                0.30586057901382446,
                0.18016275763511658,
                0.5177775025367737,
                -0.3024265766143799,
                1.0187761783599854,
                -0.04465538263320923,
                0.7036799192428589,
                -0.6153268218040466,
                0.11699816584587097,
                -0.576159656047821,
                0.2797927260398865,
                -0.20038080215454102,
                0.8205634355545044,
                -0.2678554952144623,
                0.5620506405830383,
                -0.2090579867362976,
                0.32803720235824585,
                -0.27244314551353455,
                -0.13597728312015533,
                0.1966215968132019,
                0.7418604493141174
            ],
            [
                -0.04294315353035927,
                -0.043093372136354446,
                -0.09277767688035965,
                -0.03693591058254242,
                -0.021443035453557968,
                0.0036563239991664886,
                0.10126793384552002,
                -0.02503753826022148,
                0.056856606155633926,
                0.03829207643866539,
                -0.000392697227653116,
                -0.12067268788814545,
                -0.08372803032398224,
                -0.16828826069831848,
                -0.22115619480609894,
                -0.34246549010276794,
                -0.055956292897462845,
                1.1788488626480103,
                -0.1952928751707077,
                0.4166909158229828,
                -0.35513854026794434,
                0.22294171154499054,
                2.731837749481201,
                3.849531888961792
            ],
            [
                -0.5751322507858276,
                0.08909966051578522,
                0.6249757409095764,
                0.03701089695096016,
                0.42050009965896606,
                -0.01684137061238289,
                0.0763910785317421,
                -0.2775522470474243,
                0.08780014514923096,
                -0.38473081588745117,
                0.8496891260147095,
                0.48849162459373474,
                0.3172028064727783,
                -0.2068069726228714,
                0.9195652604103088,
                0.6663097739219666,
                1.4648586511611938,
                -0.6310756206512451,
                0.03480231389403343,
                -0.6322969794273376,
                0.00478269811719656,
                -0.9546661972999573,
                0.08751098066568375,
                0.37916305661201477
            ]
        ],
        [
            [
                -0.0005525224260054529,
                -0.13240168988704681,
                0.35311996936798096,
                0.0322134904563427,
                -0.04488159343600273,
                0.14542804658412933,
                -1.5811285972595215,
                -0.2806724011898041,
                0.20385009050369263,
                -0.7982369661331177,
                -0.5055434107780457,
                -0.86567622423172,
                0.24491581320762634,
                -0.5490285754203796,
                -2.451052188873291,
                -0.3894760310649872,
                1.1672489643096924,
                1.6579726934432983,
                0.20512063801288605
            ],
            [
                -0.08965006470680237,
                0.1385437548160553,
                0.48752185702323914,
                -0.1932963728904724,
                0.32588058710098267,
                -0.09137313067913055,
                -0.9617183208465576,
                -0.7348527312278748,
                -0.24077075719833374,
                0.39226049184799194,
                0.05174798518419266,
                0.658886730670929,
                -0.21984164416790009,
                1.0365283489227295,
                -0.4445257782936096,
                0.7048912048339844,
                0.4258916974067688,
                0.9720962047576904,
                -0.6216095685958862
            ],
            [
                -0.9485375881195068,
                -0.5493884086608887,
                -0.10134871304035187,
                -1.2910417318344116,
                0.17598384618759155,
                0.7793748378753662,
                0.08044783771038055,
                0.502805233001709,
                0.08699934184551239,
                1.5647693872451782,
                0.40710699558258057,
                0.4931331276893616,
                -0.120001882314682,
                -0.15921342372894287,
                0.17958161234855652,
                -0.3292687237262726,
                0.31167668104171753,
                0.24213527143001556,
                -0.11192063242197037
            ],
            [
                0.2544853985309601,
                0.42176827788352966,
                0.68316251039505,
                -0.12150999158620834,
                -0.27545011043548584,
                -0.22452320158481598,
                -0.31602391600608826,
                -0.5624546408653259,
                -0.3998209536075592,
                -0.10201152414083481,
                -0.45130300521850586,
                -0.9724711179733276,
                0.7376428246498108,
                0.5459277629852295,
                -0.5920496582984924,
                0.02241964265704155,
                0.006795746739953756,
                0.05581875145435333,
                -0.9156447649002075
            ],
            [
                0.4890751242637634,
                0.27422696352005005,
                0.02357396110892296,
                0.5044906139373779,
                0.18909987807273865,
                -1.0917770862579346,
                -0.4735722839832306,
                -0.6157314777374268,
                -0.8868785500526428,
                -0.09998780488967896,
                -0.31509971618652344,
                0.6807875633239746,
                -0.29832544922828674,
                -0.0808415487408638,
                0.036777615547180176,
                0.18114140629768372,
                -0.5302714705467224,
                0.30174005031585693,
                -0.11862117052078247
            ],
            [
                -0.3954939544200897,
                0.2160838544368744,
                1.2948933839797974,
                -0.8840924501419067,
                -1.515030026435852,
                -0.582858145236969,
                0.019148273393511772,
                0.05574570596218109,
                -0.28293877840042114,
                -0.056014105677604675,
                -1.0415217876434326,
                -1.0644161701202393,
                1.3568516969680786,
                -0.62437903881073,
                -0.5960984826087952,
                -0.1950460523366928,
                1.223091721534729,
                -0.11459853500127792,
                -0.9602032899856567
            ],
            [
                1.2446264028549194,
                1.2600764036178589,
                0.26366084814071655,
                0.6914934515953064,
                0.15224727988243103,
                -1.551746129989624,
                0.007642255164682865,
                -1.4464446306228638,
                -0.6094610095024109,
                -0.24802358448505402,
                -0.38960325717926025,
                -0.022090552374720573,
                0.3573852777481079,
                -0.6055721640586853,
                -0.29150161147117615,
                0.3473395109176636,
                -0.9207424521446228,
                0.36934107542037964,
                -0.2606835663318634
            ],
            [
                -0.17855273187160492,
                -0.4472717046737671,
                -0.8891730308532715,
                0.2847444415092468,
                1.0747096538543701,
                -0.02641940489411354,
                0.5821554660797119,
                0.21590454876422882,
                -0.316164493560791,
                0.12884777784347534,
                0.40211519598960876,
                0.8479400277137756,
                -1.722806453704834,
                0.16224633157253265,
                0.08444754779338837,
                -0.08794309943914413,
                -0.16721127927303314,
                -0.254280149936676,
                1.112724781036377
            ],
            [
                0.6030368804931641,
                0.4129936993122101,
                -1.5101288557052612,
                0.5957851409912109,
                0.5176050662994385,
                -0.7469227910041809,
                0.33823588490486145,
                -0.21621602773666382,
                -0.9274615049362183,
                -0.1915312111377716,
                0.14657564461231232,
                0.8761873841285706,
                -1.2865747213363647,
                -0.23556220531463623,
                0.08492334932088852,
                0.47187599539756775,
                -1.0927753448486328,
                -0.23472779989242554,
                0.7120477557182312
            ],
            [
                0.35592979192733765,
                -1.3634370565414429,
                -2.371196746826172,
                -0.8805139660835266,
                1.690279483795166,
                0.08776971697807312,
                0.6382877826690674,
                0.1507905274629593,
                0.018733816221356392,
                0.2369452714920044,
                1.1091419458389282,
                0.4046489894390106,
                0.14806832373142242,
                -1.2064132690429688,
                0.45082369446754456,
                -0.42971131205558777,
                0.6567684412002563,
                0.40535953640937805,
                0.0947035476565361
            ],
            [
                0.31200602650642395,
                0.48208197951316833,
                0.2696393132209778,
                0.8341974020004272,
                -0.12253787368535995,
                -0.12563244998455048,
                0.574679970741272,
                0.35510337352752686,
                -0.5592924356460571,
                -1.1933661699295044,
                2.40356707572937,
                -1.3482478857040405,
                -0.3486200273036957,
                -0.6645731329917908,
                0.1614614576101303,
                0.9072701930999756,
                0.078886479139328,
                -0.181570366024971,
                0.15813694894313812
            ],
            [
                -0.49165502190589905,
                -0.4308171272277832,
                0.05976249650120735,
                -0.30415257811546326,
                -0.1044820249080658,
                -0.5358551144599915,
                -0.30455827713012695,
                0.7050639390945435,
                -0.9084429144859314,
                0.04556816816329956,
                0.32954108715057373,
                0.4362863600254059,
                0.03983893245458603,
                0.33848610520362854,
                0.057607948780059814,
                0.005951618775725365,
                0.49995821714401245,
                0.1699947714805603,
                -0.14846353232860565
            ],
            [
                0.5404797792434692,
                0.9692981839179993,
                -0.3445832431316376,
                0.4163146913051605,
                -0.0732661634683609,
                -0.6006996631622314,
                0.26074832677841187,
                -1.1756540536880493,
                -0.5778495669364929,
                -0.2027137279510498,
                -1.0162543058395386,
                -0.6144760251045227,
                1.1022104024887085,
                -0.7958225011825562,
                0.3403899371623993,
                0.26492226123809814,
                0.8360820412635803,
                -0.06336749345064163,
                -0.4545298218727112
            ]
        ],
        [
            [
                -0.11148520559072495,
                -0.19644899666309357,
                -0.17430801689624786,
                0.42213085293769836,
                0.5769879817962646,
                -1.6916165351867676,
                1.4962527751922607,
                -0.7949007749557495,
                1.615240454673767,
                0.4205819368362427,
                -0.44612830877304077,
                2.0825304985046387,
                -2.2573695182800293
            ],
            [
                0.6965802311897278,
                -0.5579995512962341,
                0.0258510522544384,
                1.3073701858520508,
                0.16155028343200684,
                0.5833147168159485,
                0.4473523199558258,
                -1.455493450164795,
                -1.2023330926895142,
                -1.5161603689193726,
                0.004498317837715149,
                -0.010360893793404102,
                0.2807283103466034
            ],
            [
                0.03673900291323662,
                0.5402345657348633,
                -1.7379741668701172,
                0.5181908011436462,
                2.084750175476074,
                0.743593156337738,
                0.12561653554439545,
                -0.4548788368701935,
                0.8159922957420349,
                -0.7988554239273071,
                1.6328599452972412,
                1.7866206169128418,
                0.9655667543411255
            ],
            [
                -0.8739684820175171,
                -1.8213752508163452,
                -0.6899999976158142,
                1.3729922771453857,
                0.7664529085159302,
                -0.36681124567985535,
                0.6863594055175781,
                -0.7369017601013184,
                -0.10334254801273346,
                -0.47760269045829773,
                0.1708114892244339,
                0.9907663464546204,
                -1.194000244140625
            ],
            [
                0.10040897130966187,
                1.0931605100631714,
                -0.51474529504776,
                -0.6914311647415161,
                0.15892867743968964,
                -0.29522329568862915,
                0.6573439240455627,
                -0.08407565206289291,
                -1.2122875452041626,
                -1.058433175086975,
                -0.4071906507015228,
                1.5915433168411255,
                1.952919602394104
            ],
            [
                0.3960270583629608,
                1.1637758016586304,
                0.12484599649906158,
                -1.4800366163253784,
                1.428092122077942,
                -1.9642350673675537,
                -0.5766687393188477,
                -0.8542920351028442,
                -0.682087242603302,
                1.421747088432312,
                0.26740768551826477,
                -0.033340051770210266,
                -0.9291229844093323
            ]
        ],
        [
            [
                3.5475168228149414,
                4.376439094543457,
                0.7995584011077881,
                -3.744600534439087,
                1.0752843618392944,
                4.211678981781006
            ],
            [
                4.2777204513549805,
                -0.8634449243545532,
                -4.035185813903809,
                -1.7590609788894653,
                5.004461288452148,
                -2.850847005844116
            ]
        ]
    ]
}