{
    "biases": [
        [
            0.022618653252720833,
            0.5938805937767029,
            0.4814464747905731,
            0.4260340929031372,
            0.31117814779281616,
            0.40159010887145996,
            -0.2401486188173294,
            -0.891972541809082,
            -0.716896116733551,
            -0.3073306977748871,
            -0.2603611350059509,
            0.501380980014801,
            -0.12640005350112915,
            0.3991457521915436,
            0.062110044062137604,
            0.17659257352352142,
            -0.7622212767601013,
            0.20257370173931122,
            -0.41517505049705505,
            0.15887868404388428,
            -0.31952720880508423,
            0.34372690320014954,
            -0.16855987906455994,
            -0.36699849367141724,
            -0.4117136001586914,
            0.1654217392206192,
            1.1113581657409668,
            -0.753994345664978,
            0.18497589230537415,
            0.6746302247047424,
            0.9992889761924744,
            0.07463029026985168,
            -0.17579665780067444,
            -0.6167372465133667,
            0.19609004259109497,
            -0.43869465589523315
        ],
        [
            -0.5885568857192993,
            0.6557618379592896,
            -0.17627744376659393,
            1.2680059671401978,
            -0.6416913270950317,
            -0.4222542643547058,
            0.16743338108062744,
            0.12431742250919342,
            0.5958728790283203,
            0.07853487133979797,
            -0.46048563718795776,
            0.7454593181610107,
            -0.3147869408130646,
            0.9323716163635254,
            0.37888118624687195,
            0.6872381567955017,
            0.4745936393737793,
            0.5459061861038208
        ],
        [
            1.973362922668457,
            5.337299823760986,
            1.3753697872161865,
            4.408646106719971,
            5.426948070526123,
            5.078278541564941,
            3.158348798751831,
            3.1152491569519043,
            2.410695791244507,
            -7.927093029022217,
            -8.243368148803711,
            -6.833559989929199,
            -6.865127086639404,
            -8.285765647888184,
            -8.135381698608398,
            -5.458615779876709,
            -8.234674453735352,
            -5.311234951019287,
            -6.828272819519043,
            -8.27821159362793,
            -6.4088664054870605,
            -7.864791393280029,
            -8.478474617004395,
            -8.230266571044922,
            -7.77728271484375,
            -8.2818603515625,
            -8.036957740783691,
            -6.3743743896484375,
            -7.994472503662109,
            -6.97928524017334,
            -7.030705451965332,
            -8.314629554748535,
            -7.839452266693115,
            -7.6436076164245605,
            -5.5688090324401855,
            -7.722835063934326
        ]
    ],
    "weights": [
        [
            [
                -0.02773079089820385,
                -0.5035937428474426,
                -0.095079205930233,
                -0.013195210136473179,
                -0.10750826448202133,
                0.48786354064941406,
                -0.28427350521087646,
                1.0604604482650757
            ],
            [
                -0.31435859203338623,
                0.44145262241363525,
                -1.5387805700302124,
                0.14656314253807068,
                -0.5703397989273071,
                0.6153709888458252,
                0.47964540123939514,
                -0.2509850263595581
            ],
            [
                -1.1701692342758179,
                0.3040144443511963,
                -0.2770311236381531,
                0.10823795199394226,
                0.7305118441581726,
                -0.8983868360519409,
                0.44929417967796326,
                -0.7856107950210571
            ],
            [
                -0.8103867173194885,
                0.3624524176120758,
                -0.22763660550117493,
                0.2739565670490265,
                -1.2185184955596924,
                0.23523543775081635,
                -0.7628709673881531,
                0.6959153413772583
            ],
            [
                -0.5000061988830566,
                -0.38115745782852173,
                -0.7394556403160095,
                -0.9679850935935974,
                0.7124947905540466,
                -0.5529575943946838,
                -0.6041973233222961,
                0.7207828164100647
            ],
            [
                0.0442596897482872,
                -1.0951560735702515,
                -0.654974102973938,
                0.29525142908096313,
                0.534394383430481,
                -0.28580713272094727,
                0.48743224143981934,
                -0.7064997553825378
            ],
            [
                -1.1051139831542969,
                -0.6325919032096863,
                0.43723341822624207,
                -0.7248601913452148,
                0.749756395816803,
                0.0788368284702301,
                0.6009169220924377,
                -0.4264823794364929
            ],
            [
                0.13492344319820404,
                0.11543566733598709,
                -0.42171216011047363,
                0.5112261772155762,
                0.5545327067375183,
                1.4925228357315063,
                0.8520892262458801,
                1.162857174873352
            ],
            [
                0.9720300436019897,
                -0.05450911447405815,
                0.7998666167259216,
                0.4974944591522217,
                -0.44510501623153687,
                0.3415924906730652,
                0.4511817991733551,
                -0.30154311656951904
            ],
            [
                -0.4297947585582733,
                -0.9906905293464661,
                -0.9581335783004761,
                1.0504889488220215,
                0.26392582058906555,
                -1.1175302267074585,
                0.11663191020488739,
                -2.056288242340088
            ],
            [
                0.017820147797465324,
                0.09397412836551666,
                1.017195701599121,
                1.1828620433807373,
                -0.6276089549064636,
                -0.6853765249252319,
                0.09367670863866806,
                0.2711428701877594
            ],
            [
                0.28237396478652954,
                0.40134868025779724,
                0.020395072177052498,
                -0.0016069236444309354,
                -0.40317249298095703,
                -1.362610101699829,
                0.4374122619628906,
                -0.7408267259597778
            ],
            [
                0.07164480537176132,
                -1.1332067251205444,
                -0.28413811326026917,
                0.4452264606952667,
                0.3916131556034088,
                -0.1591021716594696,
                -0.4207461476325989,
                0.7596705555915833
            ],
            [
                -0.6920140385627747,
                1.1962038278579712,
                -0.38186973333358765,
                -0.6386573910713196,
                0.17569847404956818,
                -3.7580764293670654,
                -0.4139527678489685,
                -2.7617886066436768
            ],
            [
                0.505891740322113,
                -1.0486972332000732,
                -0.5323981046676636,
                -1.495167851448059,
                0.904240608215332,
                -1.0295497179031372,
                -0.45905637741088867,
                -0.505419135093689
            ],
            [
                -0.3846644163131714,
                -0.970958411693573,
                0.4249396324157715,
                0.8241446614265442,
                -0.015816668048501015,
                0.7423911690711975,
                -0.4782707095146179,
                0.015114087611436844
            ],
            [
                0.07299989461898804,
                0.0638979822397232,
                1.0264639854431152,
                0.9281922578811646,
                0.6919010877609253,
                -0.8083299398422241,
                -0.2930804193019867,
                -0.1505245864391327
            ],
            [
                0.7635282278060913,
                -2.1386878490448,
                -0.2846664488315582,
                -0.5325414538383484,
                0.6349687576293945,
                -0.07164166122674942,
                0.044791921973228455,
                -0.8888649940490723
            ],
            [
                0.2697676420211792,
                0.6356279850006104,
                -0.3215580880641937,
                -0.8958764672279358,
                0.49901312589645386,
                0.25942111015319824,
                -0.19379977881908417,
                0.2167046070098877
            ],
            [
                -0.8631210327148438,
                0.18165232241153717,
                0.25231608748435974,
                0.4794180691242218,
                0.4329719841480255,
                -0.8773711323738098,
                1.5826126337051392,
                2.1260151863098145
            ],
            [
                -0.07405494153499603,
                0.8655690550804138,
                -0.5984840393066406,
                -0.6387983560562134,
                -0.23309554159641266,
                0.2859251797199249,
                0.4573594629764557,
                1.5019381046295166
            ],
            [
                -1.4589722156524658,
                0.6661013960838318,
                -0.19106587767601013,
                -0.7540955543518066,
                0.6423379778862,
                0.0714624673128128,
                0.16836318373680115,
                0.43426713347435
            ],
            [
                0.3955223560333252,
                -1.4691213369369507,
                -0.461063027381897,
                0.7393599152565002,
                -0.8899300694465637,
                -0.05070730671286583,
                0.12241905927658081,
                1.2804189920425415
            ],
            [
                0.4571017622947693,
                0.35911595821380615,
                -1.0272372961044312,
                0.8322108387947083,
                1.1187974214553833,
                0.5060516595840454,
                -0.07997527718544006,
                -0.0007807737565599382
            ],
            [
                -0.05623987689614296,
                0.8593637347221375,
                -0.06445277482271194,
                -0.22940175235271454,
                -0.7713359594345093,
                -0.7639303803443909,
                0.6338781118392944,
                1.3674713373184204
            ],
            [
                0.22145621478557587,
                0.1669067144393921,
                -0.1327119767665863,
                0.2121909111738205,
                -1.3581444025039673,
                0.9922142028808594,
                -0.24570095539093018,
                -1.0339267253875732
            ],
            [
                -0.4612584710121155,
                0.04706269130110741,
                -0.19056203961372375,
                -0.1307494342327118,
                -1.3005619049072266,
                -0.31598731875419617,
                0.6406280398368835,
                -0.7629336714744568
            ],
            [
                0.3652903437614441,
                1.1655499935150146,
                -0.5522285103797913,
                -0.672710657119751,
                0.4131261706352234,
                0.3156554102897644,
                0.03520461916923523,
                -0.6746875047683716
            ],
            [
                0.6164414882659912,
                0.5151067972183228,
                -0.5821780562400818,
                1.0332499742507935,
                0.10050159692764282,
                -0.9536939263343811,
                0.36149802803993225,
                -0.07013759762048721
            ],
            [
                0.43302008509635925,
                -0.2892865538597107,
                -0.23929066956043243,
                -0.4156450033187866,
                0.9103536009788513,
                -0.7666471600532532,
                -0.8764545321464539,
                -0.3269292414188385
            ],
            [
                0.6222839951515198,
                0.16340655088424683,
                0.8258567452430725,
                -0.7724926471710205,
                0.13381421566009521,
                -0.9648227691650391,
                -0.09598978608846664,
                -0.8365951776504517
            ],
            [
                0.40625062584877014,
                0.19919535517692566,
                -0.7113723754882812,
                0.06759126484394073,
                1.2927830219268799,
                -0.6971393823623657,
                -0.19152005016803741,
                1.2039116621017456
            ],
            [
                -0.6478903889656067,
                0.44654741883277893,
                0.43136483430862427,
                0.2923329174518585,
                0.5346680283546448,
                -0.03738237917423248,
                -0.4219594895839691,
                -0.44622063636779785
            ],
            [
                -0.32521581649780273,
                0.2708446681499481,
                -0.8759645819664001,
                0.7485723495483398,
                0.6901295185089111,
                0.9404982924461365,
                -0.18170402944087982,
                0.1943802684545517
            ],
            [
                0.27807822823524475,
                0.03474999964237213,
                -0.13466545939445496,
                0.972766101360321,
                -1.2589763402938843,
                -0.7166267037391663,
                -0.2078523188829422,
                -0.5215272903442383
            ],
            [
                -0.5892480611801147,
                -0.02070397511124611,
                0.4871143102645874,
                1.291354775428772,
                0.769517183303833,
                0.6749979853630066,
                0.3983945846557617,
                -1.1780682802200317
            ]
        ],
        [
            [
                0.794786810874939,
                -0.7851833701133728,
                -0.4448089003562927,
                -0.2663617432117462,
                0.7989836931228638,
                -0.25254014134407043,
                0.8411454558372498,
                -0.26889461278915405,
                -0.005965151824057102,
                -0.6118302941322327,
                0.3667580783367157,
                -0.13670913875102997,
                -0.09530327469110489,
                -0.3114381432533264,
                0.5729113817214966,
                -0.5580577850341797,
                -0.2509608566761017,
                0.038067225366830826,
                0.4504964053630829,
                -0.3040761649608612,
                -0.2337276190519333,
                0.047183308750391006,
                -0.8253388404846191,
                -1.138162612915039,
                0.1961531937122345,
                -0.683998167514801,
                0.08085139095783234,
                0.43281200528144836,
                -0.8990566730499268,
                -0.052381861954927444,
                0.714059591293335,
                0.10075928270816803,
                -0.24761052429676056,
                -1.3236092329025269,
                -0.7069861888885498,
                -0.5921955108642578
            ],
            [
                -0.03153426945209503,
                -0.22866153717041016,
                -1.148898720741272,
                0.017126334831118584,
                -0.8663767576217651,
                -0.21243856847286224,
                -0.9234697222709656,
                0.2607167363166809,
                0.637252151966095,
                0.42958006262779236,
                0.8402640223503113,
                -0.06231744587421417,
                -0.1323087513446808,
                -0.6457993984222412,
                -0.05395478382706642,
                0.11480847746133804,
                0.016387207433581352,
                0.11035803705453873,
                0.01750250719487667,
                -1.2352328300476074,
                -0.20985311269760132,
                -1.256105661392212,
                0.8148887753486633,
                0.394441157579422,
                -0.5434061884880066,
                -0.1340242475271225,
                0.34046995639801025,
                0.17068345844745636,
                0.8383467793464661,
                0.04269501194357872,
                0.4890047311782837,
                0.5169164538383484,
                -0.3644101619720459,
                -0.2558303773403168,
                0.28347131609916687,
                -0.6272277235984802
            ],
            [
                0.0051101334393024445,
                -0.5940291881561279,
                0.497454971075058,
                -0.06066427752375603,
                0.5629655718803406,
                1.251527190208435,
                0.66461580991745,
                0.3031770884990692,
                -0.203145369887352,
                0.19524626433849335,
                -0.7785173058509827,
                -0.17501632869243622,
                1.0419447422027588,
                0.2854575216770172,
                0.39469531178474426,
                1.154334545135498,
                -0.37067270278930664,
                0.7012978792190552,
                -0.5868958830833435,
                -0.19701746106147766,
                -0.6155055165290833,
                0.25819146633148193,
                0.35379523038864136,
                -0.017445240169763565,
                -0.7966189384460449,
                -0.824006974697113,
                -0.5352731347084045,
                -0.5785515308380127,
                -0.6769455075263977,
                0.02768886461853981,
                0.15642787516117096,
                -0.004856240935623646,
                0.23638832569122314,
                -0.13654695451259613,
                -0.37180355191230774,
                -0.2041722536087036
            ],
            [
                -0.15757454931735992,
                0.3906203806400299,
                0.697927713394165,
                -0.20401041209697723,
                -0.1107398197054863,
                0.6216331124305725,
                -0.03996433690190315,
                0.5948403477668762,
                -0.8472993969917297,
                -0.06935100257396698,
                0.09343745559453964,
                0.2941572964191437,
                -0.4614744782447815,
                -0.6801464557647705,
                -0.5722327828407288,
                -0.5917697548866272,
                -0.8199290633201599,
                0.20964232087135315,
                -0.24626465141773224,
                -0.2748408913612366,
                -0.2932470440864563,
                0.509423553943634,
                -0.5543879866600037,
                0.1593235284090042,
                -0.7691430449485779,
                -0.30274003744125366,
                0.5720101594924927,
                -0.616807758808136,
                0.21895697712898254,
                1.0757218599319458,
                2.5408875942230225,
                -0.0632510706782341,
                -0.506897509098053,
                -0.8851024508476257,
                -0.03910887613892555,
                -1.0611233711242676
            ],
            [
                0.19380804896354675,
                -0.42841637134552,
                -0.35429513454437256,
                -0.09268293529748917,
                0.21182921528816223,
                0.064350925385952,
                0.7173330783843994,
                -0.1656351387500763,
                0.6861091256141663,
                0.3694998621940613,
                0.02117367833852768,
                -0.28644758462905884,
                0.036100562661886215,
                0.2335556149482727,
                0.15532246232032776,
                0.07537461072206497,
                -0.22406361997127533,
                -0.023982103914022446,
                0.11882127076387405,
                0.5205132961273193,
                -0.6621682047843933,
                0.38600608706474304,
                0.21189932525157928,
                -0.2167716920375824,
                -0.011498985812067986,
                -1.486806869506836,
                0.1936010867357254,
                -0.1411525458097458,
                -0.2777255177497864,
                -0.19993482530117035,
                -0.6635542511940002,
                0.6076512932777405,
                0.443037748336792,
                0.3439955711364746,
                0.4817443788051605,
                0.37840691208839417
            ],
            [
                -0.17549125850200653,
                0.5299332141876221,
                0.1928974688053131,
                -0.917657196521759,
                -0.5592373013496399,
                0.6637554168701172,
                0.5191431045532227,
                1.1220663785934448,
                0.5289798378944397,
                0.1865878850221634,
                0.33964088559150696,
                0.3640577495098114,
                -0.13409489393234253,
                0.1329793781042099,
                0.381289541721344,
                -0.47612595558166504,
                -0.2932913601398468,
                0.5691946148872375,
                -0.19228820502758026,
                0.1575966328382492,
                0.005009790416806936,
                0.07402585446834564,
                -0.12976187467575073,
                -0.1239614263176918,
                0.7000216841697693,
                -0.48832520842552185,
                -0.020379360765218735,
                0.16637834906578064,
                0.5360506176948547,
                -0.40307027101516724,
                -0.4843798577785492,
                -0.5272708535194397,
                -0.6506703495979309,
                -0.055113960057497025,
                -0.4202316105365753,
                0.07813791185617447
            ],
            [
                -0.7306229472160339,
                -0.42592954635620117,
                0.3600412905216217,
                -0.38629135489463806,
                -0.5411988496780396,
                0.17654123902320862,
                0.24616651237010956,
                -0.7375141382217407,
                0.2725757658481598,
                0.35444679856300354,
                0.3723357915878296,
                0.6171739101409912,
                -0.6281761527061462,
                0.4006979167461395,
                0.2309417575597763,
                -0.519648551940918,
                0.1900176852941513,
                0.3859962821006775,
                0.13577914237976074,
                -0.08457592129707336,
                -0.9772176742553711,
                0.5592437982559204,
                -0.7626042366027832,
                -0.5636931657791138,
                0.12403573095798492,
                0.18850572407245636,
                0.31831806898117065,
                0.30616816878318787,
                -0.10655058175325394,
                0.8544402718544006,
                0.08228417485952377,
                -0.18282143771648407,
                -0.13191159069538116,
                -0.827560544013977,
                0.5432979464530945,
                0.6487703919410706
            ],
            [
                -0.18074268102645874,
                1.0989139080047607,
                -0.48746228218078613,
                0.469932496547699,
                0.037448808550834656,
                0.35157230496406555,
                -0.6251569986343384,
                -0.06823123246431351,
                0.4650977551937103,
                1.3458818197250366,
                -0.3102356493473053,
                0.06271225214004517,
                0.267265260219574,
                0.6898501515388489,
                0.3171594440937042,
                0.6111065149307251,
                -0.8152668476104736,
                -0.003639805130660534,
                -0.17719879746437073,
                0.08629507571458817,
                -0.20560243725776672,
                -0.012168161571025848,
                0.2624548077583313,
                0.9208940863609314,
                -0.05472579225897789,
                -0.6856796741485596,
                0.07097405940294266,
                -0.7394190430641174,
                0.29140251874923706,
                -0.7816886305809021,
                -0.8570486903190613,
                0.80171799659729,
                -0.01165764406323433,
                0.8426789045333862,
                -0.01647234335541725,
                0.10837675631046295
            ],
            [
                -0.24264036118984222,
                0.29746463894844055,
                0.7363882660865784,
                0.13229751586914062,
                -0.18856818974018097,
                0.31581100821495056,
                -0.0912664458155632,
                -0.44972798228263855,
                -0.800266444683075,
                -0.21008360385894775,
                -0.6549081206321716,
                0.3263494372367859,
                -0.12250146269798279,
                0.27912092208862305,
                -0.5792632102966309,
                0.14327892661094666,
                -0.2152612954378128,
                -0.5103892087936401,
                0.0793066993355751,
                -0.3926427662372589,
                0.06789431720972061,
                0.39980098605155945,
                0.05606628209352493,
                0.28954067826271057,
                -0.6288518309593201,
                -0.2372179627418518,
                0.5449128746986389,
                0.2729349434375763,
                0.2291768491268158,
                0.04226083308458328,
                0.14349409937858582,
                -0.19857381284236908,
                0.07335244119167328,
                0.27709102630615234,
                0.23319011926651,
                0.11281460523605347
            ],
            [
                0.14004658162593842,
                -1.3643321990966797,
                0.8737754225730896,
                -0.08428321778774261,
                -0.29112687706947327,
                0.17860154807567596,
                0.3894069790840149,
                0.794844388961792,
                0.40201103687286377,
                -0.5650663375854492,
                1.8858942985534668,
                -0.06753773987293243,
                0.13609212636947632,
                -1.361509084701538,
                -0.7316017746925354,
                0.34471094608306885,
                2.1768558025360107,
                -0.14048227667808533,
                -0.4501654803752899,
                0.017729490995407104,
                -0.21988360583782196,
                -0.19429193437099457,
                -0.5586440563201904,
                -0.04013929143548012,
                -0.1639990359544754,
                0.44228535890579224,
                -0.324940025806427,
                -0.6242888569831848,
                1.1293307542800903,
                0.39276349544525146,
                0.7481902837753296,
                -0.3991159200668335,
                0.1625964194536209,
                0.26356378197669983,
                -0.3193659484386444,
                0.8493149876594543
            ],
            [
                -0.12938399612903595,
                -0.5004540085792542,
                0.6066800355911255,
                -0.9128571152687073,
                -0.2830440104007721,
                0.13204744458198547,
                1.037256121635437,
                0.5170267820358276,
                0.6162934899330139,
                -0.19472305476665497,
                -1.1898959875106812,
                -0.8741219639778137,
                0.06502430140972137,
                0.18485240638256073,
                0.22300392389297485,
                0.19960586726665497,
                0.10490148514509201,
                -0.14495182037353516,
                0.34787696599960327,
                1.1491518020629883,
                0.7148292660713196,
                0.48638206720352173,
                0.2895093262195587,
                0.29787540435791016,
                0.34789371490478516,
                -0.2740280032157898,
                -1.7159500122070312,
                0.5534414052963257,
                -1.0671390295028687,
                0.1933324933052063,
                -0.4701474606990814,
                0.2005366086959839,
                0.3514852821826935,
                0.09401056170463562,
                -1.270161509513855,
                0.9060461521148682
            ],
            [
                0.044928960502147675,
                -0.07992715388536453,
                -0.11547325551509857,
                -0.647988498210907,
                0.02135244943201542,
                -0.19653820991516113,
                -0.6376244425773621,
                0.3941349983215332,
                -0.5378499031066895,
                -0.35341063141822815,
                -0.06933585554361343,
                -0.5074750185012817,
                -0.3424282371997833,
                -0.00026062867254950106,
                -0.5113500356674194,
                -0.21994586288928986,
                0.06227385625243187,
                -0.18157513439655304,
                0.6090433597564697,
                0.30249351263046265,
                -0.02550746314227581,
                -0.022337201982736588,
                -0.5100089907646179,
                0.9785518050193787,
                0.26343801617622375,
                0.24328839778900146,
                -0.5626425743103027,
                0.07479558885097504,
                0.7650288939476013,
                0.5832313895225525,
                0.5487895607948303,
                0.5464918613433838,
                0.2668478488922119,
                0.11873584985733032,
                -0.4574301242828369,
                0.021157853305339813
            ],
            [
                -0.3022773265838623,
                -0.3034650981426239,
                0.1981251984834671,
                -0.6248885989189148,
                0.023532235994935036,
                -0.7150794267654419,
                0.16756406426429749,
                -0.07066887617111206,
                0.236028254032135,
                0.01885989122092724,
                -0.043537020683288574,
                -0.24719379842281342,
                -0.5833514928817749,
                0.022852346301078796,
                0.06626451760530472,
                -0.6037496328353882,
                0.531838059425354,
                -0.22242611646652222,
                0.49609261751174927,
                -0.3720393478870392,
                0.18113157153129578,
                -0.5997812747955322,
                -0.1931896060705185,
                0.12173467129468918,
                -0.0846269503235817,
                0.024613311514258385,
                -0.7965819835662842,
                1.0375396013259888,
                0.4726670980453491,
                -0.07377072423696518,
                -0.3227510452270508,
                0.30645751953125,
                0.3350151479244232,
                0.2975422441959381,
                0.3742122948169708,
                -0.0078046806156635284
            ],
            [
                0.13572989404201508,
                -0.32070550322532654,
                0.08303190022706985,
                -1.0827441215515137,
                0.36451008915901184,
                0.7127636671066284,
                0.3101671040058136,
                0.20865705609321594,
                -0.32651200890541077,
                -0.2672652006149292,
                0.14629118144512177,
                -0.8031421303749084,
                0.7224355340003967,
                -0.5607750415802002,
                0.0676666870713234,
                0.1788417547941208,
                0.14775070548057556,
                0.4081382751464844,
                -0.30915388464927673,
                -0.4474000036716461,
                -0.4250127971172333,
                0.11884529888629913,
                0.30011722445487976,
                0.719205915927887,
                -0.8249545693397522,
                -1.6388784646987915,
                -0.12665092945098877,
                -0.895806074142456,
                0.39587587118148804,
                0.7583082318305969,
                0.47712042927742004,
                0.36819782853126526,
                -0.06998207420110703,
                0.0521579384803772,
                -1.062553882598877,
                0.3361944556236267
            ],
            [
                0.12722334265708923,
                0.14491006731987,
                -0.15263976156711578,
                0.4547163248062134,
                0.16642124950885773,
                0.21081387996673584,
                0.5499181151390076,
                -0.10465744882822037,
                -0.06072493642568588,
                -0.5846858620643616,
                -0.20271672308444977,
                -0.07812625914812088,
                -0.48012688755989075,
                -0.04703792184591293,
                0.10776399821043015,
                0.27706196904182434,
                -0.6866579651832581,
                0.7240525484085083,
                -0.8661024570465088,
                -0.41399434208869934,
                -0.0723186731338501,
                0.5682826638221741,
                -0.8109441995620728,
                -0.378475159406662,
                -0.49344485998153687,
                -0.0570257343351841,
                0.7561613917350769,
                -0.32814353704452515,
                -0.5025769472122192,
                -0.37791988253593445,
                1.3978208303451538,
                -0.38571280241012573,
                -0.14001582562923431,
                -0.43369320034980774,
                -0.011083315126597881,
                0.1990317851305008
            ],
            [
                0.06917016953229904,
                0.8460127115249634,
                0.3724091053009033,
                0.4332440495491028,
                0.8969457149505615,
                0.10687457025051117,
                0.05769864842295647,
                -1.0844357013702393,
                -0.5769290328025818,
                -0.25908464193344116,
                -0.042699746787548065,
                0.9477010369300842,
                0.4571297764778137,
                -0.047179583460092545,
                0.19978779554367065,
                -0.6795049905776978,
                -0.42418402433395386,
                -0.1237771138548851,
                0.03821651265025139,
                0.429905503988266,
                -0.09830953925848007,
                0.30900153517723083,
                0.368838906288147,
                0.048570506274700165,
                0.15070457756519318,
                -0.8619316220283508,
                0.9024007320404053,
                -0.5618861317634583,
                1.1275275945663452,
                0.5748882293701172,
                -0.5340127348899841,
                1.200268268585205,
                -0.17296579480171204,
                -0.6408823132514954,
                0.2312268614768982,
                -0.9634823799133301
            ],
            [
                -0.027574805542826653,
                0.20608408749103546,
                -0.563210666179657,
                0.5921856760978699,
                -0.22490383684635162,
                -0.5619081854820251,
                0.5703120231628418,
                -0.7006608843803406,
                -0.5269036889076233,
                -0.2686544358730316,
                0.22097446024417877,
                0.24601534008979797,
                -0.3629089295864105,
                0.5700532793998718,
                -0.8123092651367188,
                0.44156068563461304,
                -0.26236364245414734,
                -0.5765364170074463,
                0.1909494698047638,
                0.5097402930259705,
                0.28238990902900696,
                0.43255847692489624,
                -0.4429880678653717,
                -0.5991514325141907,
                -0.052887190133333206,
                -0.27638089656829834,
                0.4735088646411896,
                -0.3671424686908722,
                -0.09213286638259888,
                -1.0905704498291016,
                -0.27057909965515137,
                -0.3852981925010681,
                -0.2205905020236969,
                -0.0800221860408783,
                -0.33676427602767944,
                -0.08037734031677246
            ],
            [
                0.9913925528526306,
                -0.04525664821267128,
                -0.6727902889251709,
                0.2581038773059845,
                -0.11812920868396759,
                -0.6480761170387268,
                -0.45158299803733826,
                0.8708209991455078,
                -0.573811411857605,
                -0.6295292377471924,
                -0.3127882182598114,
                -0.7483229637145996,
                -0.002225804142653942,
                -0.6292044520378113,
                -0.2001296579837799,
                -0.09248939156532288,
                0.4086381494998932,
                -0.2716403007507324,
                0.8393192291259766,
                0.5470958352088928,
                0.46596571803092957,
                0.5720958113670349,
                -0.9540703892707825,
                1.3306388854980469,
                -0.24878287315368652,
                0.2602972686290741,
                -0.745128333568573,
                0.21626585721969604,
                0.35715314745903015,
                -0.4467805027961731,
                -0.5772672891616821,
                0.28264319896698,
                -0.05127941071987152,
                0.7646547555923462,
                -0.6486671566963196,
                0.7389692664146423
            ]
        ],
        [
            [
                -0.42176881432533264,
                -2.578083038330078,
                1.784157395362854,
                -3.529143810272217,
                4.045104026794434,
                -0.9823322296142578,
                -0.7732034921646118,
                1.2198573350906372,
                2.5145392417907715,
                0.5309839844703674,
                0.9346975684165955,
                -4.496794700622559,
                -0.08066045492887497,
                2.4537606239318848,
                1.5424884557724,
                0.18296654522418976,
                1.0367709398269653,
                -1.065467119216919
            ],
            [
                -0.2542418837547302,
                -0.13147033751010895,
                0.09393930435180664,
                0.04855199158191681,
                0.1635536402463913,
                -0.2449873685836792,
                0.23259788751602173,
                -0.08747709542512894,
                -0.10513713955879211,
                -0.23599353432655334,
                0.12874826788902283,
                0.17302799224853516,
                -0.2621377408504486,
                0.5402419567108154,
                -0.16141551733016968,
                0.06533859670162201,
                0.4190480709075928,
                0.15343455970287323
            ],
            [
                0.6286198496818542,
                -1.6565903425216675,
                1.9994500875473022,
                -2.6877782344818115,
                -2.1472394466400146,
                0.6042100191116333,
                -2.074061870574951,
                0.4304434359073639,
                1.2111291885375977,
                -6.326110363006592,
                0.10619597136974335,
                -2.014817714691162,
                2.2498586177825928,
                -1.0079914331436157,
                0.5359662175178528,
                2.4246132373809814,
                -2.7488179206848145,
                -0.6888908743858337
            ],
            [
                -1.1171314716339111,
                2.3025262355804443,
                1.1294459104537964,
                -2.4470431804656982,
                1.9045697450637817,
                -0.553693413734436,
                1.5188062191009521,
                2.2391507625579834,
                -1.1457266807556152,
                -1.6223407983779907,
                -3.264760732650757,
                -1.3203299045562744,
                -1.1314876079559326,
                -1.6879503726959229,
                1.3699560165405273,
                1.8285390138626099,
                0.4744609594345093,
                -2.5083649158477783
            ],
            [
                -0.0880940854549408,
                -0.02694621868431568,
                -0.24979396164417267,
                0.1389535665512085,
                -0.712556779384613,
                0.34290337562561035,
                -0.11207994818687439,
                0.28214165568351746,
                0.09118786454200745,
                0.24885587394237518,
                -0.01600736752152443,
                -0.07644344121217728,
                -0.42315661907196045,
                0.11886030435562134,
                0.31217366456985474,
                -0.020539922639727592,
                -0.020562881603837013,
                0.05158724635839462
            ],
            [
                -0.05407378077507019,
                0.2691247761249542,
                -0.024988928809762,
                -0.3416847288608551,
                -0.4098367691040039,
                0.058632783591747284,
                0.2445349544286728,
                0.42282599210739136,
                0.15270520746707916,
                -0.17534781992435455,
                0.039400599896907806,
                -0.1569904386997223,
                0.2768435776233673,
                0.4049053192138672,
                0.3119448721408844,
                0.32711899280548096,
                -0.11272918432950974,
                0.18900474905967712
            ],
            [
                -2.0312201976776123,
                -1.7612826824188232,
                -1.6398720741271973,
                -4.064726829528809,
                -2.3294219970703125,
                0.1786818504333496,
                3.0859360694885254,
                -0.25947463512420654,
                -0.22015003859996796,
                -1.353126883506775,
                2.6767048835754395,
                -2.7027461528778076,
                2.011335849761963,
                -1.2174243927001953,
                -1.9884012937545776,
                0.5315094590187073,
                -0.13818542659282684,
                -3.3254995346069336
            ],
            [
                -1.7760742902755737,
                0.33085599541664124,
                1.3638869524002075,
                -0.23915952444076538,
                0.022633081302046776,
                0.2630426585674286,
                3.254762887954712,
                0.1382143795490265,
                2.3102543354034424,
                0.19317306578159332,
                -0.8288139700889587,
                -1.9194836616516113,
                2.42897367477417,
                -0.417499840259552,
                1.5865312814712524,
                -2.3711652755737305,
                -2.4834022521972656,
                -2.401334524154663
            ],
            [
                1.2279975414276123,
                0.20621339976787567,
                2.3750805854797363,
                -2.2095377445220947,
                -0.9277172088623047,
                -6.636661052703857,
                -0.33621716499328613,
                0.11913599818944931,
                -0.12313047051429749,
                -0.9688720703125,
                -1.4098626375198364,
                -1.934748649597168,
                2.394559383392334,
                -0.01734023727476597,
                -0.8513210415840149,
                -0.5738186240196228,
                -1.9997693300247192,
                -0.8045353889465332
            ],
            [
                -0.7228472232818604,
                -3.7041115760803223,
                -0.0404181107878685,
                -2.416761875152588,
                1.1620441675186157,
                -0.7108026146888733,
                -0.2342863529920578,
                -0.6558427810668945,
                1.4086850881576538,
                0.7526609301567078,
                -1.2289235591888428,
                -1.20303475856781,
                -2.460087776184082,
                -5.809418678283691,
                0.301929235458374,
                0.3218826651573181,
                -0.3053379952907562,
                1.0613125562667847
            ],
            [
                0.16860084235668182,
                -0.5462518334388733,
                0.5214873552322388,
                -2.1453261375427246,
                0.8621482849121094,
                0.33009669184684753,
                -0.3169857859611511,
                0.13715951144695282,
                -0.875163197517395,
                -0.6666721105575562,
                -0.22636453807353973,
                -1.2394598722457886,
                0.9528142809867859,
                -1.3634529113769531,
                -0.6188610792160034,
                -0.49742934107780457,
                -1.0915712118148804,
                -0.4845481812953949
            ],
            [
                -1.1807914972305298,
                0.11785415560007095,
                0.24971511960029602,
                -0.943913996219635,
                0.676435112953186,
                -0.18561123311519623,
                -0.0027447461616247892,
                3.695373296737671,
                2.317161798477173,
                0.9383582472801208,
                -1.184579610824585,
                -0.8255333304405212,
                0.2992333471775055,
                -1.3128281831741333,
                -3.4720263481140137,
                -0.048566777259111404,
                -1.72104012966156,
                -0.7576452493667603
            ],
            [
                -0.7150377035140991,
                -0.42397600412368774,
                -1.3741480112075806,
                -2.830392360687256,
                1.8349628448486328,
                -0.13113994896411896,
                3.789294719696045,
                0.23691047728061676,
                0.18575605750083923,
                -2.1849122047424316,
                1.783714771270752,
                -0.7945712208747864,
                2.639981508255005,
                1.351239562034607,
                -3.064209461212158,
                0.2035159468650818,
                0.45190858840942383,
                -0.07866635173559189
            ],
            [
                0.42040500044822693,
                -0.5956360101699829,
                0.570859432220459,
                -2.064455509185791,
                1.2452131509780884,
                0.126677468419075,
                -0.5281465649604797,
                0.08899387717247009,
                -0.6957318782806396,
                -0.8547558784484863,
                -0.4845512807369232,
                -1.293765664100647,
                1.199993371963501,
                -1.3934510946273804,
                -0.8011859059333801,
                -0.5431668162345886,
                -1.1310124397277832,
                -0.45851773023605347
            ],
            [
                0.3846679627895355,
                -0.6016882061958313,
                0.4885875880718231,
                -2.0212411880493164,
                0.7776005864143372,
                0.18658548593521118,
                -0.33197304606437683,
                -0.13123053312301636,
                -0.5983597636222839,
                -0.7092218399047852,
                -0.32380515336990356,
                -1.1170127391815186,
                0.908480167388916,
                -1.3898289203643799,
                -0.9879140853881836,
                -0.605202853679657,
                -1.3029780387878418,
                -0.391597718000412
            ],
            [
                -0.18424803018569946,
                -1.2424752712249756,
                3.9600651264190674,
                -1.2891571521759033,
                2.2335805892944336,
                1.2056080102920532,
                0.7316585183143616,
                1.455693006515503,
                -1.0054031610488892,
                1.2291276454925537,
                2.077544927597046,
                -0.36386236548423767,
                0.450298935174942,
                0.6981521248817444,
                -0.24528056383132935,
                0.4485856592655182,
                -4.1460394859313965,
                -0.9800748229026794
            ],
            [
                0.3720410168170929,
                -0.6177682280540466,
                0.7416045069694519,
                -1.8754875659942627,
                0.7641751170158386,
                -0.045668989419937134,
                0.2777228355407715,
                0.08036880940198898,
                -0.16303996741771698,
                -0.7063831090927124,
                -0.6584393978118896,
                -1.3800946474075317,
                1.1628719568252563,
                -1.2040901184082031,
                -0.8859437704086304,
                -0.8924018740653992,
                -1.464859962463379,
                -0.5807809233665466
            ],
            [
                -0.7975748777389526,
                -0.12568967044353485,
                -0.946584165096283,
                -0.22720594704151154,
                1.3475672006607056,
                5.76361608505249,
                -0.03770110383629799,
                0.13142424821853638,
                -0.25830885767936707,
                0.3552762269973755,
                0.8642703294754028,
                0.22617663443088531,
                -1.0692113637924194,
                -0.5278245210647583,
                0.3148733675479889,
                0.1850392073392868,
                0.8671669960021973,
                0.00385268940590322
            ],
            [
                0.624727189540863,
                1.8648464679718018,
                0.9708269834518433,
                -0.91862952709198,
                -0.4117480516433716,
                0.6105536818504333,
                0.3446395695209503,
                -0.23360058665275574,
                -2.0524566173553467,
                -1.056623935699463,
                -1.445021629333496,
                -0.8439053297042847,
                3.7007999420166016,
                -4.434737205505371,
                -2.519951581954956,
                -0.7553555965423584,
                -0.30006593465805054,
                0.1631683111190796
            ],
            [
                0.3668457567691803,
                -0.8495280146598816,
                0.6525000929832458,
                -2.2427453994750977,
                1.2455552816390991,
                0.190613254904747,
                -0.4290038049221039,
                0.06199517101049423,
                -0.7290573120117188,
                -0.9018142223358154,
                -0.5402141213417053,
                -1.4340143203735352,
                1.226727843284607,
                -1.5254440307617188,
                -0.8992785215377808,
                -0.42459753155708313,
                -1.2814968824386597,
                -0.4824855625629425
            ],
            [
                -3.3257977962493896,
                0.7186326384544373,
                0.2649827301502228,
                -1.5415202379226685,
                2.7488842010498047,
                -0.5064683556556702,
                1.3230469226837158,
                -2.3512463569641113,
                -2.5308048725128174,
                0.8535673022270203,
                0.012531151995062828,
                -0.6758675575256348,
                -0.03938572108745575,
                -0.9352542161941528,
                -0.2552098035812378,
                -1.6642259359359741,
                0.20078019797801971,
                -0.37161898612976074
            ],
            [
                -0.26869577169418335,
                -1.1540942192077637,
                -0.5070779919624329,
                -0.42434704303741455,
                0.06857483834028244,
                0.04811793938279152,
                -2.646035671234131,
                -1.310954213142395,
                0.6329697370529175,
                1.5773500204086304,
                0.1813010275363922,
                -1.6791296005249023,
                3.1081817150115967,
                0.5746473670005798,
                -1.0592089891433716,
                -0.8896794319152832,
                -1.3654054403305054,
                -1.2160582542419434
            ],
            [
                0.4117770791053772,
                -0.8306916952133179,
                0.7043130397796631,
                -2.2928497791290283,
                1.1582823991775513,
                0.23467351496219635,
                -0.5920076966285706,
                -0.0687248632311821,
                -0.6252585053443909,
                -0.9633459448814392,
                -0.6313952803611755,
                -1.4909340143203735,
                1.1696887016296387,
                -1.7229331731796265,
                -1.0045989751815796,
                -0.5694847106933594,
                -1.436524510383606,
                -0.6348724365234375
            ],
            [
                0.4391423165798187,
                -0.7891756296157837,
                0.5312560796737671,
                -2.0746910572052,
                0.8143336176872253,
                0.24125568568706512,
                -0.3351856470108032,
                -0.15027962625026703,
                -0.6055447459220886,
                -0.7753685116767883,
                -0.46915751695632935,
                -1.249427080154419,
                0.9976272583007812,
                -1.603398323059082,
                -1.0210806131362915,
                -0.5085673928260803,
                -1.38621985912323,
                -0.422138512134552
            ],
            [
                -0.2417338639497757,
                -1.1127278804779053,
                1.4586514234542847,
                -2.611844778060913,
                1.7818368673324585,
                0.8293967247009277,
                0.2896430194377899,
                0.2603400647640228,
                -1.068686842918396,
                -0.4573996961116791,
                0.01272385660558939,
                -1.9179167747497559,
                1.6138404607772827,
                -1.0929147005081177,
                -1.2448761463165283,
                0.006915916223078966,
                -2.0785984992980957,
                -1.799071192741394
            ],
            [
                0.20284642279148102,
                -0.5771220922470093,
                0.6698616147041321,
                -2.2750797271728516,
                1.0736415386199951,
                -0.010273630730807781,
                -0.482298880815506,
                -0.10776223987340927,
                -0.718497633934021,
                -0.8221516609191895,
                -0.24407288432121277,
                -1.3092172145843506,
                0.8127847909927368,
                -1.6944224834442139,
                -1.2298095226287842,
                -0.27212023735046387,
                -1.4364557266235352,
                -0.6047778725624084
            ],
            [
                0.20151831209659576,
                -0.4404471218585968,
                0.5598700046539307,
                -2.1376800537109375,
                0.9800624847412109,
                0.3122124671936035,
                -0.20643971860408783,
                0.01386959571391344,
                -0.5032513737678528,
                -0.49534204602241516,
                -0.24585112929344177,
                -1.3025357723236084,
                0.72865891456604,
                -1.4671804904937744,
                -0.7266567945480347,
                -0.5702083110809326,
                -1.2149534225463867,
                -0.6077183485031128
            ],
            [
                0.42222005128860474,
                2.1997501850128174,
                -0.0012474500108510256,
                -0.7358112335205078,
                -0.6903988718986511,
                1.103294014930725,
                0.1505565643310547,
                0.5500250458717346,
                -3.005197525024414,
                -0.841131865978241,
                0.3148600161075592,
                0.8115776777267456,
                1.2615269422531128,
                2.2594401836395264,
                -1.0029798746109009,
                -0.6608194708824158,
                -4.0246262550354,
                -1.9884226322174072
            ],
            [
                0.4370987117290497,
                -0.771116316318512,
                0.646898090839386,
                -2.1428935527801514,
                1.1153481006622314,
                0.12895743548870087,
                -0.3893342614173889,
                0.038935091346502304,
                -0.539812445640564,
                -0.8993085622787476,
                -0.44618505239486694,
                -1.3703619241714478,
                1.1084612607955933,
                -1.494097113609314,
                -1.0282106399536133,
                -0.38428905606269836,
                -1.2632207870483398,
                -0.4537756145000458
            ],
            [
                5.884781360626221,
                -0.43546605110168457,
                -0.0786590576171875,
                -1.5413455963134766,
                0.36267468333244324,
                0.1115875318646431,
                1.149468183517456,
                -1.8938614130020142,
                -2.3762004375457764,
                1.5769176483154297,
                0.11637421697378159,
                -0.9896770715713501,
                0.9873341917991638,
                -0.4791158139705658,
                1.8445942401885986,
                -1.3834284543991089,
                0.03644817695021629,
                -0.39534884691238403
            ],
            [
                0.5509810447692871,
                -0.9567786455154419,
                2.2697529792785645,
                0.2301931083202362,
                -0.33098721504211426,
                0.8900061845779419,
                -2.4398717880249023,
                -0.4364148676395416,
                -1.2257475852966309,
                0.5861815810203552,
                1.1876394748687744,
                -1.121367335319519,
                -1.5793062448501587,
                -2.228895902633667,
                0.6995347142219543,
                -1.594934344291687,
                -2.190769910812378,
                0.03773529455065727
            ],
            [
                0.298556923866272,
                -0.8591557741165161,
                0.6305342316627502,
                -2.278393268585205,
                1.0177961587905884,
                0.3004380762577057,
                -0.4636313021183014,
                -0.19093281030654907,
                -0.5824835300445557,
                -0.976758599281311,
                -0.768461287021637,
                -1.4035738706588745,
                1.0258724689483643,
                -1.5706254243850708,
                -1.1469827890396118,
                -0.5409230589866638,
                -1.4110713005065918,
                -0.5847179293632507
            ],
            [
                0.5149401426315308,
                -0.6846947073936462,
                0.46359363198280334,
                -1.8594831228256226,
                0.7606862783432007,
                0.30920353531837463,
                -0.2865454852581024,
                -0.10947119444608688,
                -0.5611773729324341,
                -0.7705459594726562,
                -0.42343688011169434,
                -1.1338623762130737,
                0.9430712461471558,
                -1.5018576383590698,
                -1.0557218790054321,
                -0.35679876804351807,
                -1.1720302104949951,
                -0.3487277328968048
            ],
            [
                1.4167641401290894,
                1.0104365348815918,
                0.3931596279144287,
                0.08183472603559494,
                1.9417279958724976,
                -0.06888117641210556,
                -2.9998557567596436,
                -0.6481764912605286,
                -0.5133119225502014,
                -0.582245409488678,
                -3.1331663131713867,
                -0.49843454360961914,
                -0.08983664959669113,
                -1.7928948402404785,
                -0.12384938448667526,
                -1.0671886205673218,
                0.07226383686065674,
                1.227813959121704
            ],
            [
                1.2676275968551636,
                -0.20103836059570312,
                -0.6276019811630249,
                -1.5999560356140137,
                0.8996357321739197,
                -0.22108618915081024,
                -2.6650784015655518,
                0.07794743031263351,
                -2.2243576049804688,
                -0.6402341723442078,
                0.49667656421661377,
                0.43117037415504456,
                -1.1592007875442505,
                -0.48535019159317017,
                -2.0242342948913574,
                2.0378329753875732,
                0.7035874724388123,
                0.7181403040885925
            ],
            [
                0.3445473909378052,
                -0.51209557056427,
                0.726957380771637,
                -2.0751075744628906,
                0.8717222809791565,
                -0.4774869382381439,
                -0.24985861778259277,
                -0.11669347435235977,
                -0.6309755444526672,
                -0.5391530394554138,
                -0.3450614809989929,
                -1.2173128128051758,
                1.2842060327529907,
                -1.2369664907455444,
                -0.9311636686325073,
                -0.5295102000236511,
                -1.627305507659912,
                -0.6762836575508118
            ]
        ]
    ]
}