{
    "biases": [
        [
            0.5476253032684326,
            -1.1338651180267334,
            -0.13793587684631348,
            1.2716680765151978,
            -1.0847123861312866,
            0.48555508255958557,
            0.5090230107307434,
            1.1206238269805908,
            -0.35069870948791504,
            1.384097933769226,
            -0.7881103754043579,
            0.29463279247283936,
            -0.42558789253234863,
            1.267805814743042,
            0.884271502494812,
            0.9690280556678772,
            0.8907983303070068,
            1.1011568307876587,
            0.9698901176452637,
            0.2869150936603546,
            0.34796279668807983,
            0.33520635962486267,
            0.45160210132598877,
            -0.5199326276779175,
            -1.3393501043319702,
            1.2784795761108398,
            1.1827223300933838,
            -0.2678301930427551,
            -0.20367664098739624,
            -0.9134106636047363,
            0.5194942355155945,
            -0.6087979078292847,
            0.5042486786842346,
            -0.5289917588233948,
            0.7671884298324585,
            0.10241083055734634,
            0.2208728939294815,
            -0.698000967502594,
            1.2200826406478882,
            -0.15765827894210815,
            -0.37608930468559265,
            -0.8255257606506348,
            -0.12701714038848877,
            0.8244363069534302,
            -1.368155837059021,
            -0.9485219717025757,
            -0.23977001011371613,
            1.081717610359192,
            -0.4191634953022003,
            -0.9883761405944824,
            -1.1042368412017822,
            0.18280744552612305,
            -0.3944089412689209,
            -0.6624539494514465,
            -1.2203449010849,
            0.1143665462732315,
            0.08787915110588074,
            -1.0991359949111938,
            0.002552988240495324,
            0.12825125455856323,
            -0.3289232850074768,
            0.7104945778846741,
            0.35631799697875977,
            -1.3460543155670166,
            1.047753930091858,
            0.19914928078651428,
            -1.7605339288711548,
            -0.026000337675213814,
            0.8942140340805054,
            -0.5799952149391174,
            0.741805374622345,
            -0.6129830479621887
        ],
        [
            -0.446157306432724,
            0.3210373520851135,
            0.7735239267349243,
            -0.9558994174003601,
            0.1017841026186943,
            0.07334263622760773,
            0.2896442711353302,
            0.41580814123153687,
            -0.036948539316654205,
            -0.26086124777793884,
            -0.10548723489046097,
            1.7405648231506348,
            -0.5544887185096741,
            -0.17431114614009857,
            0.7007381916046143,
            -0.3207017481327057,
            0.03729690611362457,
            -0.8353472948074341,
            -0.2672146260738373,
            1.1238867044448853,
            0.8735410571098328,
            -1.7739403247833252,
            -0.14826317131519318,
            0.3471566140651703,
            2.3476691246032715,
            0.3219479024410248,
            -0.24190299212932587,
            -0.09280122816562653,
            1.0622539520263672,
            0.1251024454832077,
            -1.1342946290969849,
            0.25399282574653625,
            -1.8250268697738647,
            -0.688502848148346,
            -1.0284053087234497,
            0.31821778416633606,
            1.1566071510314941,
            0.1357245296239853,
            -0.6117500066757202,
            -1.0024813413619995,
            0.998074471950531,
            -0.41549158096313477,
            1.915179967880249,
            -0.17987662553787231,
            0.4077787399291992,
            -0.28992190957069397,
            0.6458034515380859,
            -0.4884682595729828,
            0.5670902132987976,
            0.2630970776081085,
            0.9545093774795532,
            -0.14810222387313843,
            -1.1478360891342163,
            -0.532588005065918,
            0.15783601999282837,
            1.4650819301605225,
            -0.17237058281898499,
            -0.19419339299201965,
            0.5204431414604187,
            1.1110565662384033,
            0.09083960205316544,
            -0.3441615104675293,
            -1.153875708580017,
            1.3203468322753906,
            0.9726304411888123,
            1.6715617179870605,
            -0.6848257184028625,
            0.8834042549133301,
            0.26114407181739807,
            0.5414444208145142,
            -0.5308386087417603,
            -1.915236234664917
        ],
        [
            7.921797275543213,
            5.836399555206299,
            5.043912887573242,
            3.6747727394104004,
            6.407939910888672,
            3.330341339111328,
            6.632659435272217,
            4.273259162902832,
            5.4537672996521,
            -2.94409441947937,
            -1.9042099714279175,
            -2.9698092937469482,
            -0.9157259464263916,
            -2.189040422439575,
            -1.2621312141418457,
            -2.312528610229492,
            -1.0559331178665161,
            -0.8970898985862732,
            -2.645376443862915,
            -0.8492591381072998,
            -2.4506661891937256,
            -0.6809380650520325,
            -3.155118227005005,
            -2.014568567276001,
            -2.006568193435669,
            -3.082885265350342,
            -3.6310391426086426,
            -2.556194305419922,
            -1.8608331680297852,
            -0.09891942143440247,
            -0.6936514377593994,
            -2.549917697906494,
            -0.7730754613876343,
            -0.9951930642127991,
            -0.8542300462722778,
            -3.1511685848236084
        ]
    ],
    "weights": [
        [
            [
                -0.9650351405143738,
                -0.9564329385757446,
                -0.8649742603302002,
                0.1510392427444458,
                1.268662452697754,
                -0.9098674058914185,
                1.6832377910614014,
                -0.5271941423416138
            ],
            [
                -0.710152804851532,
                -0.40029287338256836,
                2.139009475708008,
                -0.3625415861606598,
                -0.08096246421337128,
                -0.04673394560813904,
                -0.9614691138267517,
                0.678246259689331
            ],
            [
                -0.6409465074539185,
                0.4544677436351776,
                -0.2557385563850403,
                0.08751709759235382,
                1.2544032335281372,
                -0.27876707911491394,
                -0.7858998775482178,
                2.948786735534668
            ],
            [
                -0.4286224842071533,
                0.899733304977417,
                -1.965040683746338,
                1.0357547998428345,
                -0.1633295863866806,
                0.7888317704200745,
                -0.25753527879714966,
                -0.8641432523727417
            ],
            [
                -0.11635684967041016,
                -0.5175617337226868,
                -0.5628435611724854,
                -1.0522239208221436,
                0.5483406782150269,
                -1.1934185028076172,
                -0.8960636854171753,
                2.387044906616211
            ],
            [
                -0.8184038996696472,
                0.5546905398368835,
                -1.1762728691101074,
                -2.0890610218048096,
                -0.2999351918697357,
                -0.3559166193008423,
                -0.035593751817941666,
                0.7399103045463562
            ],
            [
                0.30122458934783936,
                -2.13497257232666,
                -0.7004956603050232,
                -1.2569676637649536,
                -1.4849389791488647,
                -0.1995123028755188,
                0.815585732460022,
                0.5920923352241516
            ],
            [
                0.848294734954834,
                -2.484142541885376,
                -1.3196651935577393,
                0.4919483959674835,
                -1.0760908126831055,
                0.2585781514644623,
                -0.2635921835899353,
                0.6498194336891174
            ],
            [
                -0.7455114722251892,
                0.749799907207489,
                0.009312725625932217,
                -0.2530989646911621,
                0.1737632304430008,
                1.8327901363372803,
                1.8700346946716309,
                0.8547427654266357
            ],
            [
                1.552354097366333,
                0.44415172934532166,
                -0.9226207137107849,
                -0.5595172047615051,
                -1.1542985439300537,
                1.029571771621704,
                -0.5793944597244263,
                -0.037994906306266785
            ],
            [
                -0.6603918671607971,
                0.6770333647727966,
                0.006020591594278812,
                0.04834858700633049,
                3.2098541259765625,
                -0.1836819052696228,
                -0.881662905216217,
                -0.0690060406923294
            ],
            [
                -1.2390828132629395,
                0.3885178565979004,
                -1.006593942642212,
                -1.211320161819458,
                2.1171107292175293,
                -0.7757002711296082,
                -0.8709526062011719,
                0.518903374671936
            ],
            [
                0.13544142246246338,
                0.07518288493156433,
                -0.6089842915534973,
                2.441192626953125,
                0.26357707381248474,
                -0.32855045795440674,
                0.7915316820144653,
                1.864633321762085
            ],
            [
                0.2586190104484558,
                0.545082151889801,
                0.9610112905502319,
                1.3414300680160522,
                1.21254563331604,
                -1.4205435514450073,
                0.3250827491283417,
                -0.5294084548950195
            ],
            [
                -0.29229316115379333,
                0.31238946318626404,
                -0.4190080761909485,
                -0.650053858757019,
                0.1301264464855194,
                -2.3424296379089355,
                1.1011544466018677,
                0.27575382590293884
            ],
            [
                -1.365930438041687,
                0.5079696178436279,
                -1.0814168453216553,
                -0.13301345705986023,
                -0.6287053823471069,
                -0.20348615944385529,
                1.9278185367584229,
                1.2380205392837524
            ],
            [
                -2.3424453735351562,
                -0.0853806883096695,
                0.07324954122304916,
                -0.8758788108825684,
                -0.23072531819343567,
                1.2695006132125854,
                -0.06573737412691116,
                -1.2528305053710938
            ],
            [
                -1.813249945640564,
                -1.2850183248519897,
                -0.04066600650548935,
                -0.8116453886032104,
                -0.5517784357070923,
                -0.4231431186199188,
                0.0453476756811142,
                -1.2027664184570312
            ],
            [
                0.0039052236825227737,
                -0.3992150127887726,
                -0.10737325996160507,
                0.03951926529407501,
                -1.2913562059402466,
                -0.784622073173523,
                1.2402887344360352,
                0.6737381219863892
            ],
            [
                -0.24547012150287628,
                0.10219550877809525,
                0.15297961235046387,
                -1.042545199394226,
                -0.8861855268478394,
                1.3497803211212158,
                0.4719441533088684,
                -1.851306438446045
            ],
            [
                -1.5116132497787476,
                -1.102681279182434,
                0.9336705803871155,
                0.015116294845938683,
                -1.0797680616378784,
                -0.005222692620009184,
                0.05564950406551361,
                0.3660917580127716
            ],
            [
                -0.711467981338501,
                -0.6163350939750671,
                -0.09062550216913223,
                2.8204715251922607,
                -0.06164498254656792,
                -0.2330501228570938,
                -0.27921348810195923,
                -0.74749356508255
            ],
            [
                -1.0063831806182861,
                0.15892070531845093,
                -1.6074103116989136,
                -0.9342860579490662,
                2.1316850185394287,
                -0.5388120412826538,
                0.1749536544084549,
                0.04515333101153374
            ],
            [
                -0.4616895914077759,
                -0.4877747595310211,
                0.5608774423599243,
                0.5149579644203186,
                -0.5864537954330444,
                -1.6529889106750488,
                -0.8388991355895996,
                2.575239658355713
            ],
            [
                -1.6894514560699463,
                -0.40752145648002625,
                0.3561980724334717,
                1.0616170167922974,
                1.1654669046401978,
                -0.7730147242546082,
                1.0188775062561035,
                0.13488759100437164
            ],
            [
                -0.17672573029994965,
                0.27264469861984253,
                -2.1996066570281982,
                -1.286442518234253,
                0.6953560709953308,
                0.27788248658180237,
                0.4978402256965637,
                1.1231945753097534
            ],
            [
                -1.4628838300704956,
                0.35247984528541565,
                0.7806331515312195,
                -0.8832212686538696,
                0.25288838148117065,
                0.7787529826164246,
                0.13469591736793518,
                1.041885495185852
            ],
            [
                -0.5206846594810486,
                0.07082384079694748,
                -2.0183193683624268,
                1.0192137956619263,
                1.3939712047576904,
                -0.7597615718841553,
                -1.1738473176956177,
                0.637698233127594
            ],
            [
                -0.5297669172286987,
                0.6432034373283386,
                1.810394287109375,
                -1.7164545059204102,
                0.9244368076324463,
                -0.8441407084465027,
                0.3817473351955414,
                0.2262497842311859
            ],
            [
                2.4102518558502197,
                -0.5230685472488403,
                0.02784164622426033,
                1.1682528257369995,
                -0.2984676957130432,
                -0.2926834225654602,
                1.0507850646972656,
                0.44288042187690735
            ],
            [
                2.106830596923828,
                0.0016675324877724051,
                -0.9075692892074585,
                -0.7145824432373047,
                0.32203832268714905,
                0.6672570705413818,
                -0.6810088157653809,
                0.25606217980384827
            ],
            [
                -0.25444895029067993,
                0.9916334748268127,
                0.5247318148612976,
                0.3420381247997284,
                0.5708818435668945,
                -1.237514615058899,
                -2.2585809230804443,
                0.108491912484169
            ],
            [
                -0.4968893527984619,
                -0.5528547167778015,
                0.3658785820007324,
                1.4477115869522095,
                -0.4856441915035248,
                0.06720365583896637,
                1.630443811416626,
                1.019757866859436
            ],
            [
                0.8648393750190735,
                1.0769343376159668,
                -0.4968649446964264,
                1.07358980178833,
                -2.22373366355896,
                -0.05930526182055473,
                -0.8444493412971497,
                0.9464181661605835
            ],
            [
                -0.8830728530883789,
                -0.17233069241046906,
                0.5006468296051025,
                0.5131184458732605,
                -2.770901679992676,
                -0.12542523443698883,
                -0.452783465385437,
                0.709736704826355
            ],
            [
                -0.0903058797121048,
                0.47453251481056213,
                -0.6386238932609558,
                0.7423313856124878,
                -0.48151305317878723,
                1.9065037965774536,
                -1.1182448863983154,
                -1.4725689888000488
            ],
            [
                -2.8792366981506348,
                -0.2949776351451874,
                0.3814380168914795,
                -0.4476456344127655,
                0.8089348673820496,
                -0.6975797414779663,
                0.11377836763858795,
                -0.12180426716804504
            ],
            [
                0.5876336097717285,
                0.5326800346374512,
                1.0097731351852417,
                1.4040751457214355,
                -0.06380508095026016,
                -0.8083686232566833,
                -1.2751497030258179,
                -1.4318146705627441
            ],
            [
                -1.884730339050293,
                0.7542122602462769,
                -0.976334810256958,
                -0.36158838868141174,
                0.5180512070655823,
                -0.5841906666755676,
                -0.2048303782939911,
                -0.1964799463748932
            ],
            [
                -1.1263759136199951,
                0.2854239344596863,
                -0.20949992537498474,
                -0.282083123922348,
                -2.0026798248291016,
                1.4116207361221313,
                -0.34366872906684875,
                1.0485926866531372
            ],
            [
                -0.07314860820770264,
                1.2435582876205444,
                0.6993414759635925,
                0.2817707359790802,
                -2.505448818206787,
                -0.033992789685726166,
                -0.468963086605072,
                -0.5660651922225952
            ],
            [
                -0.5520960688591003,
                1.754932165145874,
                0.7640897035598755,
                -1.317270040512085,
                0.5972775816917419,
                0.0494375005364418,
                1.3226605653762817,
                -0.3649868071079254
            ],
            [
                -1.5395444631576538,
                0.7004992365837097,
                0.7832696437835693,
                -1.2635290622711182,
                1.599839448928833,
                0.02864992991089821,
                0.10212250798940659,
                -1.3166097402572632
            ],
            [
                -0.655306875705719,
                -1.6415859460830688,
                0.13714179396629333,
                1.223663091659546,
                1.009297251701355,
                0.14647634327411652,
                -0.7225794792175293,
                -1.800018548965454
            ],
            [
                0.7486503720283508,
                -0.16050133109092712,
                1.2218854427337646,
                1.3954532146453857,
                -0.696026623249054,
                0.3446357548236847,
                -1.6586594581604004,
                1.500396490097046
            ],
            [
                0.1434624195098877,
                -0.3082239329814911,
                2.5217390060424805,
                0.7227386236190796,
                0.27403172850608826,
                -0.45511773228645325,
                -0.7312836647033691,
                0.34905946254730225
            ],
            [
                1.0776585340499878,
                0.19245919585227966,
                0.12471136450767517,
                -0.5119566321372986,
                1.3379055261611938,
                -2.5515878200531006,
                0.4346626102924347,
                -0.9250727891921997
            ],
            [
                0.619391679763794,
                -0.6562557220458984,
                -0.039897091686725616,
                -1.4965848922729492,
                -1.9012436866760254,
                0.9455749988555908,
                -0.6025242805480957,
                -0.5299787521362305
            ],
            [
                2.9621269702911377,
                0.620609700679779,
                -0.7350624799728394,
                -0.879177987575531,
                -0.23852913081645966,
                -0.07685309648513794,
                -0.64833664894104,
                0.6806056499481201
            ],
            [
                0.7455368638038635,
                -0.1979951411485672,
                0.5811587572097778,
                -0.19693240523338318,
                -0.2013118714094162,
                1.231662392616272,
                1.3354967832565308,
                -0.3919162452220917
            ],
            [
                0.3530421257019043,
                -0.728789746761322,
                0.6913604140281677,
                1.5155391693115234,
                1.0431915521621704,
                -0.39394477009773254,
                -1.3107715845108032,
                -0.5493658185005188
            ],
            [
                0.6887622475624084,
                0.3002924919128418,
                2.2071316242218018,
                -1.4709922075271606,
                0.29365018010139465,
                0.05584428086876869,
                0.5123268961906433,
                -0.036298684775829315
            ],
            [
                1.4846761226654053,
                -1.411327838897705,
                -0.8532161116600037,
                1.5813889503479004,
                -0.547860860824585,
                0.1961662769317627,
                0.388905793428421,
                0.6141013503074646
            ],
            [
                1.1933213472366333,
                0.5074832439422607,
                0.9197317957878113,
                2.682358980178833,
                -0.5290306210517883,
                -0.18132252991199493,
                -0.5410836338996887,
                -1.3168777227401733
            ],
            [
                0.7289228439331055,
                0.1755317747592926,
                -1.166498064994812,
                0.8597404360771179,
                -0.19667591154575348,
                -0.8563199043273926,
                1.0751290321350098,
                1.659602165222168
            ],
            [
                0.6917785406112671,
                0.46813061833381653,
                -2.462144374847412,
                1.025968074798584,
                -0.26038098335266113,
                -0.6532524228096008,
                -0.8632377982139587,
                0.5521582365036011
            ],
            [
                -0.953376054763794,
                -1.4559381008148193,
                0.621441662311554,
                0.3492146134376526,
                -2.17669415473938,
                -0.9065712690353394,
                -1.022706389427185,
                -0.11612089723348618
            ],
            [
                0.10292446613311768,
                0.21651911735534668,
                -0.19973668456077576,
                0.9752144813537598,
                -0.1371741145849228,
                -0.5730852484703064,
                1.9188512563705444,
                0.5648924708366394
            ],
            [
                -1.2122251987457275,
                1.608069658279419,
                -0.5164982676506042,
                -0.46429887413978577,
                -0.5686025023460388,
                1.5222653150558472,
                1.750496506690979,
                -0.03956923633813858
            ],
            [
                0.44161033630371094,
                -1.6504673957824707,
                0.35706546902656555,
                1.0323102474212646,
                1.8322151899337769,
                -0.8983817100524902,
                0.4596194326877594,
                -0.7685503363609314
            ],
            [
                -1.427878975868225,
                1.0530730485916138,
                0.052560508251190186,
                0.0034123449586331844,
                -0.5557324886322021,
                1.234431505203247,
                -1.0178922414779663,
                -1.6779756546020508
            ],
            [
                1.0658737421035767,
                -0.11641812324523926,
                -0.38841211795806885,
                0.7232003808021545,
                -1.2882473468780518,
                -1.4091392755508423,
                0.9631099700927734,
                -0.8939671516418457
            ],
            [
                0.9286295771598816,
                -0.5572555661201477,
                0.5062025189399719,
                -2.5005173683166504,
                0.06204803287982941,
                0.27777525782585144,
                -1.506289005279541,
                -0.5166786313056946
            ],
            [
                0.1825007051229477,
                3.5725879669189453,
                0.7274200916290283,
                -0.18291305005550385,
                -0.2342877984046936,
                0.5645192861557007,
                0.41899019479751587,
                -0.25461408495903015
            ],
            [
                -1.331573724746704,
                -0.44444116950035095,
                -1.2160391807556152,
                -0.3775818347930908,
                1.892838478088379,
                -0.2317967712879181,
                0.6698054671287537,
                -0.07496055960655212
            ],
            [
                0.019177310168743134,
                0.4418068826198578,
                1.2550996541976929,
                -0.6968509554862976,
                0.39801865816116333,
                -2.437467575073242,
                -0.3291098475456238,
                0.24231000244617462
            ],
            [
                1.015202283859253,
                -0.16356518864631653,
                -0.46767038106918335,
                0.08120133727788925,
                -0.03463246673345566,
                -1.1105177402496338,
                0.1484069973230362,
                2.2713677883148193
            ],
            [
                -0.26055967807769775,
                -1.5869196653366089,
                -0.2504943013191223,
                -0.23094730079174042,
                -1.2908837795257568,
                1.01646089553833,
                1.6560338735580444,
                -1.2404299974441528
            ],
            [
                -0.4715861976146698,
                0.17145821452140808,
                0.7655095458030701,
                -2.632315158843994,
                0.4045943319797516,
                -0.6906373500823975,
                0.00931453611701727,
                -0.3888149559497833
            ],
            [
                0.39464110136032104,
                2.5622622966766357,
                0.9576250910758972,
                -0.4878978729248047,
                1.5493998527526855,
                0.42875176668167114,
                0.2957475781440735,
                -0.8782751560211182
            ],
            [
                0.7787027955055237,
                -0.3833291828632355,
                -1.6970627307891846,
                1.036710500717163,
                -0.7678037881851196,
                0.1853676289319992,
                -0.4631875157356262,
                -0.7933309674263
            ],
            [
                -1.5866477489471436,
                0.7983157634735107,
                -0.4212270975112915,
                -0.17835633456707,
                -2.00278377532959,
                0.44602638483047485,
                0.01596900261938572,
                -0.5846980214118958
            ]
        ],
        [
            [
                0.8798883557319641,
                -0.9733338356018066,
                -1.1318871974945068,
                1.1825261116027832,
                -1.2788386344909668,
                -1.1166634559631348,
                -0.685200572013855,
                1.573899507522583,
                -1.1292403936386108,
                -0.13174967467784882,
                0.8615756034851074,
                0.39056530594825745,
                1.305694818496704,
                0.6882209777832031,
                -0.2533390522003174,
                -0.8713274598121643,
                -0.18520648777484894,
                0.28364109992980957,
                0.3969029486179352,
                -0.9667741060256958,
                -0.45434749126434326,
                1.7924160957336426,
                0.743299126625061,
                -0.22336344420909882,
                0.5217302441596985,
                -0.029588909819722176,
                -1.4672983884811401,
                0.786656379699707,
                -0.9582862854003906,
                -0.40194201469421387,
                -0.1643439531326294,
                -0.23522625863552094,
                0.1910969316959381,
                -0.3331407308578491,
                0.01672733761370182,
                1.0816112756729126,
                0.007033318281173706,
                0.7936586141586304,
                -0.20712167024612427,
                -0.8011188507080078,
                -0.41507628560066223,
                -1.455496907234192,
                -0.21852385997772217,
                1.6863912343978882,
                -0.2223661094903946,
                -0.9153066277503967,
                0.523070752620697,
                -0.2212197333574295,
                -0.19273458421230316,
                0.15653924643993378,
                1.1606258153915405,
                -1.1419185400009155,
                0.7970544099807739,
                1.3112963438034058,
                0.20855596661567688,
                1.1544221639633179,
                0.1791752427816391,
                0.43180492520332336,
                -1.3889511823654175,
                1.590627908706665,
                0.925899863243103,
                1.0272642374038696,
                -0.7900320887565613,
                -0.94748455286026,
                1.0523196458816528,
                -0.7580640912055969,
                -1.5646156072616577,
                0.19681644439697266,
                -0.6755404472351074,
                -0.2697424292564392,
                0.986962080001831,
                -0.08892098069190979
            ],
            [
                -0.6206631660461426,
                0.1159382238984108,
                -0.6272967457771301,
                0.1865764558315277,
                -1.8600444793701172,
                -1.1629936695098877,
                -2.3763439655303955,
                -0.2955908179283142,
                -0.4037500023841858,
                1.3681901693344116,
                -0.4040742814540863,
                -0.7118873596191406,
                1.155099630355835,
                0.4192613661289215,
                -1.8582314252853394,
                -1.5382386445999146,
                0.03224505856633186,
                -0.7230909466743469,
                -0.3733173906803131,
                0.48862218856811523,
                0.26117372512817383,
                1.002092957496643,
                -0.783971905708313,
                -1.0997215509414673,
                -0.8321852087974548,
                -1.388208270072937,
                -0.5201365947723389,
                -0.3142533004283905,
                -0.8245951533317566,
                0.10709215700626373,
                1.2787069082260132,
                1.070814609527588,
                0.009918401017785072,
                0.5515799522399902,
                0.5366777777671814,
                1.3943313360214233,
                -1.1275837421417236,
                1.4390798807144165,
                -0.5379343628883362,
                0.8377464413642883,
                1.1084997653961182,
                -0.2850772440433502,
                -1.0937190055847168,
                0.036218926310539246,
                1.6061419248580933,
                0.5596577525138855,
                -1.1654853820800781,
                0.23748424649238586,
                -0.4494905173778534,
                -0.09653683006763458,
                1.1187505722045898,
                -0.22831158339977264,
                0.13734251260757446,
                3.0720739364624023,
                -0.02707955799996853,
                0.61186283826828,
                0.02910231240093708,
                -0.34288477897644043,
                -0.5242523550987244,
                -0.7678622603416443,
                1.0369458198547363,
                0.28184571862220764,
                -0.8321481943130493,
                0.7119535207748413,
                -1.1928356885910034,
                -0.3129601776599884,
                -0.5519508719444275,
                -0.10076290369033813,
                -1.5964412689208984,
                1.5954225063323975,
                0.9726531505584717,
                -0.05306166410446167
            ],
            [
                -1.0641149282455444,
                0.6224559545516968,
                -1.1188015937805176,
                0.2920266091823578,
                -0.3703150153160095,
                0.6171764731407166,
                0.7842122316360474,
                0.6729521751403809,
                0.08634061366319656,
                1.0127805471420288,
                -3.157264232635498,
                -1.169012427330017,
                0.09964866936206818,
                -0.5873220562934875,
                -0.19666028022766113,
                0.895514190196991,
                -0.33485978841781616,
                0.3449006676673889,
                0.5183679461479187,
                0.26456618309020996,
                0.8631458878517151,
                -0.5863001942634583,
                -1.7103276252746582,
                0.17113222181797028,
                -1.5917834043502808,
                -0.08647914975881577,
                0.09718949347734451,
                -0.7929766178131104,
                -0.8785607218742371,
                -0.7393002510070801,
                0.15964047610759735,
                -0.17938171327114105,
                0.04262750595808029,
                1.150199055671692,
                1.8962966203689575,
                0.6719455718994141,
                -0.6659513711929321,
                0.07663575559854507,
                0.11816683411598206,
                1.245756983757019,
                0.8370866775512695,
                -0.6392147541046143,
                -1.3502442836761475,
                -0.6167823672294617,
                1.1159192323684692,
                0.3270520865917206,
                -1.1788334846496582,
                1.5958813428878784,
                0.1327647864818573,
                -0.09922114759683609,
                -0.828587532043457,
                0.7400325536727905,
                0.21947242319583893,
                -0.3320279121398926,
                -0.5469563603401184,
                0.3587420880794525,
                0.6395203471183777,
                -0.3811073899269104,
                0.17529799044132233,
                -1.5678236484527588,
                0.42863747477531433,
                0.5051942467689514,
                0.5576633214950562,
                -0.06348209828138351,
                -0.9894105195999146,
                0.2604220509529114,
                -0.10374611616134644,
                0.24209760129451752,
                0.9626362919807434,
                -0.15821874141693115,
                0.6639420390129089,
                0.9405726194381714
            ],
            [
                0.07101675122976303,
                0.7684622406959534,
                -1.0418514013290405,
                -0.8120045065879822,
                1.1112909317016602,
                -0.10249254107475281,
                2.2945950031280518,
                1.034285545349121,
                -0.8641992211341858,
                -0.781844973564148,
                -1.439476728439331,
                -1.2003707885742188,
                -0.49173182249069214,
                -0.6435958743095398,
                1.2090944051742554,
                -0.09750857949256897,
                -0.07800845056772232,
                1.3680086135864258,
                -0.5798737406730652,
                0.5665148496627808,
                1.3374584913253784,
                0.20181071758270264,
                -1.1158795356750488,
                0.523216187953949,
                1.3906762599945068,
                -0.2812608480453491,
                0.11457818746566772,
                0.7290054559707642,
                -0.030820755288004875,
                0.1198771595954895,
                -1.8377522230148315,
                -1.1310145854949951,
                -0.042578116059303284,
                -0.5415555238723755,
                1.1638565063476562,
                -1.0149142742156982,
                0.49562156200408936,
                -1.0357985496520996,
                0.36662226915359497,
                0.0462399385869503,
                -0.1001291424036026,
                -0.15766304731369019,
                0.005293611437082291,
                0.32235297560691833,
                0.16537345945835114,
                0.08354459702968597,
                0.683942437171936,
                0.22623082995414734,
                -0.3218950629234314,
                -0.7038441896438599,
                0.909359335899353,
                -0.7627905607223511,
                1.2901406288146973,
                -0.8796725869178772,
                1.2420134544372559,
                0.30111607909202576,
                1.8915483951568604,
                1.2457377910614014,
                0.4003649055957794,
                0.671085000038147,
                -0.34438544511795044,
                1.0973191261291504,
                -0.25255629420280457,
                -0.7590349912643433,
                -0.48417243361473083,
                0.1856403797864914,
                1.0816800594329834,
                2.4941580295562744,
                -0.5272661447525024,
                -2.4564316272735596,
                0.37407544255256653,
                0.7912665605545044
            ],
            [
                1.3724255561828613,
                -0.5278415083885193,
                0.050305478274822235,
                0.19096460938453674,
                0.08104050159454346,
                0.37171512842178345,
                0.042558200657367706,
                -1.0334099531173706,
                -1.6743496656417847,
                -0.4480266571044922,
                -0.5230389833450317,
                0.5985280871391296,
                0.34997615218162537,
                2.94350528717041,
                2.3000667095184326,
                0.9987585544586182,
                -0.10124868899583817,
                0.35312092304229736,
                0.7703626155853271,
                -0.9964234232902527,
                0.08293454349040985,
                0.18812359869480133,
                -0.11743476986885071,
                0.848275363445282,
                0.26121050119400024,
                0.507225513458252,
                0.27785801887512207,
                0.11437945067882538,
                0.9156728386878967,
                -0.4669240117073059,
                -0.5888094305992126,
                1.4287391901016235,
                -0.0030365954153239727,
                0.6307697892189026,
                1.4383057355880737,
                -1.776729702949524,
                1.0970226526260376,
                1.3209302425384521,
                1.902268648147583,
                -0.45621973276138306,
                0.8344905972480774,
                0.40839090943336487,
                0.6746903657913208,
                -0.042422182857990265,
                -0.312523752450943,
                -0.06299412250518799,
                1.9690423011779785,
                -0.9040204286575317,
                0.24309664964675903,
                -1.5338112115859985,
                -0.38274702429771423,
                -0.2451125681400299,
                -1.015658974647522,
                0.40187111496925354,
                0.47074174880981445,
                0.7211534380912781,
                0.7772471904754639,
                -0.6687639951705933,
                -0.4648888111114502,
                -0.11763819307088852,
                -1.2309635877609253,
                1.081243634223938,
                -0.0065002464689314365,
                -0.5453444123268127,
                0.3451024889945984,
                2.4149036407470703,
                0.7824750542640686,
                -1.865212321281433,
                0.8572957515716553,
                -0.28308433294296265,
                0.5551384687423706,
                -0.06693877279758453
            ],
            [
                0.6594147682189941,
                0.09936875104904175,
                0.5940480828285217,
                0.8599339723587036,
                0.39175155758857727,
                0.27258938550949097,
                -0.6639714241027832,
                0.4271007180213928,
                0.43484947085380554,
                -0.5985795259475708,
                0.1930675506591797,
                0.155183807015419,
                0.9084438681602478,
                0.18650923669338226,
                0.6281245946884155,
                1.1895058155059814,
                1.694292664527893,
                1.697890043258667,
                -0.09043018519878387,
                -0.34041234850883484,
                1.382820963859558,
                1.018916368484497,
                0.4114009439945221,
                0.27808672189712524,
                0.5984262824058533,
                0.1815667599439621,
                1.1093809604644775,
                0.09779396653175354,
                0.4614635705947876,
                -2.1109671592712402,
                -1.5189006328582764,
                0.06801619380712509,
                0.6434592008590698,
                -0.6910793781280518,
                1.0944747924804688,
                0.2160288691520691,
                2.243109703063965,
                -0.38487520813941956,
                1.5025204420089722,
                1.1645777225494385,
                -0.5198662281036377,
                -0.6683893799781799,
                0.7520610094070435,
                0.4034864902496338,
                -0.04420198127627373,
                -0.08053986728191376,
                -1.6968821287155151,
                -0.356376975774765,
                -2.183758020401001,
                -0.79938805103302,
                -0.1203356459736824,
                -0.6828144788742065,
                -0.1275717318058014,
                -0.9861297607421875,
                -0.9771572351455688,
                0.06695562601089478,
                0.12557904422283173,
                -0.05116632953286171,
                0.817742645740509,
                0.13808931410312653,
                1.0450801849365234,
                -0.7208892703056335,
                -0.7230350375175476,
                -0.6719993352890015,
                1.398023247718811,
                -0.32741817831993103,
                -1.2536579370498657,
                0.2171296328306198,
                -0.08404418081045151,
                0.1931695193052292,
                -0.4624160826206207,
                0.9618505239486694
            ],
            [
                1.0822490453720093,
                -0.6824091672897339,
                0.8514826893806458,
                0.4175615608692169,
                0.5232020020484924,
                0.0852351188659668,
                0.7178850769996643,
                0.0210843738168478,
                -0.6706354022026062,
                -0.2007513791322708,
                1.461622714996338,
                1.4362514019012451,
                1.099426507949829,
                3.083012819290161,
                0.5070145726203918,
                0.6606656312942505,
                -0.9784555435180664,
                -1.7325016260147095,
                -0.10475707799196243,
                -1.4680967330932617,
                -0.9356817007064819,
                0.1583695113658905,
                1.464759111404419,
                0.752293586730957,
                0.2028212994337082,
                1.103417158126831,
                0.5495812892913818,
                0.7092491388320923,
                -0.06663476675748825,
                0.8364580869674683,
                0.7668688893318176,
                1.4501252174377441,
                0.36065444350242615,
                0.21794569492340088,
                -1.0044567584991455,
                -1.0043858289718628,
                0.10701604932546616,
                -0.0481942817568779,
                0.9804834723472595,
                -1.5860685110092163,
                -1.1862335205078125,
                -0.7186639904975891,
                0.01167421042919159,
                0.42862018942832947,
                0.3418562710285187,
                -0.14973308145999908,
                1.0057274103164673,
                -1.8054301738739014,
                0.7504518032073975,
                -2.0283610820770264,
                -0.11281172931194305,
                -1.0967854261398315,
                0.24754923582077026,
                -0.41354110836982727,
                0.48879343271255493,
                1.5773603916168213,
                -0.7195740342140198,
                -1.3666719198226929,
                -0.3925462067127228,
                1.1393464803695679,
                -0.98591148853302,
                0.01665361411869526,
                -0.4553919732570648,
                -0.24817369878292084,
                0.4276234805583954,
                0.9686621427536011,
                0.5078263878822327,
                -1.9078065156936646,
                -0.4279715418815613,
                0.012521527707576752,
                0.9427559971809387,
                -0.4564549922943115
            ],
            [
                -0.877691388130188,
                0.3642818331718445,
                0.06733180582523346,
                -0.31150293350219727,
                0.13006830215454102,
                0.9716129302978516,
                0.8943151831626892,
                0.4579596221446991,
                -0.6711937189102173,
                0.955455482006073,
                -2.9288339614868164,
                -0.8234105706214905,
                0.041555654257535934,
                0.2809598445892334,
                0.3838118016719818,
                0.5105077028274536,
                0.17684605717658997,
                -0.005235324613749981,
                0.9990906119346619,
                0.5979172587394714,
                1.2609564065933228,
                -0.1317465752363205,
                -0.9713378548622131,
                -0.09183192998170853,
                -0.6342746019363403,
                -0.22144611179828644,
                0.5751467347145081,
                -0.49962007999420166,
                -0.6815792918205261,
                0.016630155965685844,
                0.05860292539000511,
                -0.5448908805847168,
                -0.0840081125497818,
                0.6502681374549866,
                2.558434247970581,
                -0.17810577154159546,
                0.20901978015899658,
                -0.27558448910713196,
                -0.08096443116664886,
                1.019625186920166,
                1.401017189025879,
                -0.04240677133202553,
                -0.9854139089584351,
                -0.6337781548500061,
                0.22354063391685486,
                0.3074464499950409,
                -0.5966772437095642,
                0.6031377911567688,
                0.06937455385923386,
                -0.2038990706205368,
                -1.0385141372680664,
                0.543596088886261,
                0.3997899293899536,
                -0.6477280855178833,
                0.09345944970846176,
                -0.05581080913543701,
                0.6911970973014832,
                0.5511630177497864,
                0.24764885008335114,
                -1.4696590900421143,
                0.19559460878372192,
                1.0780161619186401,
                -0.011150078848004341,
                0.22943063080310822,
                -1.3543682098388672,
                1.3506942987442017,
                -0.06565242260694504,
                0.35790014266967773,
                0.6598451733589172,
                -1.0936665534973145,
                0.6265892386436462,
                1.3037675619125366
            ],
            [
                0.8680498003959656,
                0.4259917736053467,
                0.2500259578227997,
                -2.104257106781006,
                0.6780252456665039,
                0.23469708859920502,
                1.2625943422317505,
                0.47933229804039,
                0.5438895225524902,
                0.5163705348968506,
                -1.4662832021713257,
                -0.33966711163520813,
                -0.35050418972969055,
                -0.47514787316322327,
                1.4857670068740845,
                0.7417981028556824,
                0.3206550180912018,
                1.6054587364196777,
                0.43047189712524414,
                -0.18341754376888275,
                0.2222275286912918,
                -0.5772188305854797,
                -0.04560788720846176,
                0.5825879573822021,
                -0.26175978779792786,
                0.08620979636907578,
                1.3983219861984253,
                -0.8588652610778809,
                0.2761731743812561,
                0.1901300549507141,
                0.12439612299203873,
                -2.006871461868286,
                0.6374616622924805,
                -1.1339638233184814,
                1.3783739805221558,
                -1.4813669919967651,
                0.1977318823337555,
                -1.8930407762527466,
                -0.3761819005012512,
                0.3056017756462097,
                0.5786330699920654,
                0.7721751928329468,
                -0.03868365287780762,
                -0.75210040807724,
                -0.6954883933067322,
                -0.03646816313266754,
                0.1964258849620819,
                0.5971875190734863,
                -0.1854444295167923,
                1.662716031074524,
                -1.2489417791366577,
                1.5509766340255737,
                0.3703359067440033,
                -1.687217116355896,
                0.33613869547843933,
                -2.4415318965911865,
                0.6472061276435852,
                0.7877681255340576,
                0.22326834499835968,
                0.09870180487632751,
                -1.1116418838500977,
                0.12984015047550201,
                1.4189995527267456,
                -1.608952522277832,
                -0.45981496572494507,
                1.10675847530365,
                0.8100773692131042,
                0.40971890091896057,
                2.1844136714935303,
                -1.1555641889572144,
                -0.5203796029090881,
                -0.5997979640960693
            ],
            [
                0.7619116902351379,
                0.5506805181503296,
                0.0647791251540184,
                0.5579586029052734,
                -0.24022327363491058,
                -1.1274869441986084,
                -0.3442673981189728,
                -0.1321396827697754,
                0.3277803361415863,
                0.026252415031194687,
                -0.2826281189918518,
                -1.4896960258483887,
                1.6978766918182373,
                0.4590446650981903,
                -1.1766583919525146,
                0.5264866948127747,
                -0.3144214153289795,
                -1.191507339477539,
                -0.29120346903800964,
                0.06328736245632172,
                0.21871346235275269,
                1.7092459201812744,
                -1.0001838207244873,
                -0.1460067331790924,
                0.7123571634292603,
                -1.692878007888794,
                -0.35445964336395264,
                0.6831516027450562,
                -0.32869014143943787,
                1.5434298515319824,
                0.08463247865438461,
                -0.6848608255386353,
                1.1872164011001587,
                0.7747343182563782,
                0.320923388004303,
                0.02846749871969223,
                -1.1715912818908691,
                0.7156310677528381,
                -0.3196355402469635,
                -0.44235920906066895,
                0.26433178782463074,
                -0.31727173924446106,
                -0.589279055595398,
                0.19105269014835358,
                1.3257511854171753,
                0.4691872000694275,
                -0.5194205641746521,
                -0.24989520013332367,
                0.06196873262524605,
                1.1030428409576416,
                1.0640898942947388,
                -1.13249671459198,
                0.8629829287528992,
                2.187993049621582,
                1.054337739944458,
                -0.07994996011257172,
                0.004266038071364164,
                1.045433521270752,
                0.30854836106300354,
                0.835805356502533,
                0.07861817628145218,
                0.44323793053627014,
                -2.527308702468872,
                0.7047677040100098,
                -1.1647346019744873,
                -1.115724802017212,
                0.7232848405838013,
                0.16725189983844757,
                -2.2316038608551025,
                -0.023139605298638344,
                -0.011860664933919907,
                -0.004685884807258844
            ],
            [
                -3.0114710330963135,
                -0.7547305822372437,
                0.7218014597892761,
                0.45528265833854675,
                -0.33589857816696167,
                0.5751282572746277,
                -1.0451198816299438,
                -0.9016696214675903,
                0.03923864662647247,
                1.8359476327896118,
                0.5056090950965881,
                0.7574669718742371,
                -0.19943316280841827,
                -0.5942298173904419,
                -0.026562878862023354,
                -0.835907518863678,
                -1.3393604755401611,
                -1.1662529706954956,
                -1.2462536096572876,
                -0.6457754969596863,
                -1.6927025318145752,
                -1.2656549215316772,
                0.6598292589187622,
                -0.306774377822876,
                -1.2132545709609985,
                0.2443750947713852,
                -0.689096987247467,
                1.1101971864700317,
                -0.4312266707420349,
                0.7497633099555969,
                1.6361310482025146,
                1.47432279586792,
                -1.6245734691619873,
                1.089337706565857,
                -0.5109337568283081,
                0.8077434301376343,
                -1.657089114189148,
                0.931329071521759,
                0.012598328292369843,
                -0.07474380731582642,
                0.7473998069763184,
                1.0416429042816162,
                0.02834223583340645,
                -1.602975845336914,
                0.9812713861465454,
                0.40512147545814514,
                0.6387958526611328,
                0.17354018986225128,
                1.5680464506149292,
                -0.9146390557289124,
                -0.04375683143734932,
                -0.17295806109905243,
                -0.2715923488140106,
                1.4534467458724976,
                0.22548259794712067,
                1.373526930809021,
                -0.717947244644165,
                -1.0527628660202026,
                0.9765332937240601,
                -0.5161378383636475,
                0.19850127398967743,
                -0.22330547869205475,
                0.6819131374359131,
                1.8480335474014282,
                -0.6579110026359558,
                0.26792585849761963,
                -0.4470827281475067,
                -1.2443225383758545,
                0.0596170537173748,
                0.8191147446632385,
                0.5487498641014099,
                -0.29306161403656006
            ],
            [
                0.41934818029403687,
                0.48578736186027527,
                0.0891311839222908,
                -0.19776396453380585,
                0.14487367868423462,
                -0.09040756523609161,
                -0.10459426045417786,
                -1.0473483800888062,
                2.7896435260772705,
                -0.9018809199333191,
                0.6164276599884033,
                0.3987736999988556,
                0.5187452435493469,
                0.038165464997291565,
                0.004994824528694153,
                1.2209032773971558,
                -0.4697238802909851,
                -1.4989478588104248,
                -0.12797217071056366,
                -0.3582744896411896,
                -1.340376853942871,
                -1.7669626474380493,
                0.6459247469902039,
                -0.42859286069869995,
                0.8352629542350769,
                0.3542351722717285,
                0.5174700021743774,
                -1.168211579322815,
                1.5399667024612427,
                1.0052200555801392,
                -0.048712167888879776,
                -0.7934443354606628,
                0.32457149028778076,
                0.8805217146873474,
                -1.7118678092956543,
                -0.9325541257858276,
                -0.5480212569236755,
                -0.024731818586587906,
                -1.56447434425354,
                -0.9162235260009766,
                -0.5861819386482239,
                1.8542358875274658,
                -0.2204267680644989,
                -2.3407208919525146,
                0.6156412363052368,
                -0.11170685291290283,
                0.6098015308380127,
                -1.064207673072815,
                1.7507017850875854,
                1.2798835039138794,
                -1.0894827842712402,
                0.9747923016548157,
                0.5928587317466736,
                0.012235048227012157,
                0.5470092296600342,
                -0.3678792715072632,
                -2.2379260063171387,
                1.5558903217315674,
                1.881464958190918,
                0.38669517636299133,
                -0.5244163274765015,
                0.3643021583557129,
                -0.6784235239028931,
                1.443176031112671,
                -0.09052358567714691,
                -0.7414089441299438,
                -0.02542353980243206,
                0.32484397292137146,
                0.08321032673120499,
                1.271130919456482,
                -1.0062000751495361,
                0.6295973062515259
            ],
            [
                -1.913671851158142,
                1.0386254787445068,
                0.8041782379150391,
                -0.01315993070602417,
                0.6496935486793518,
                0.30172431468963623,
                1.7163578271865845,
                0.6618700623512268,
                0.7182380557060242,
                1.359839677810669,
                0.304340660572052,
                1.0019004344940186,
                -2.3847978115081787,
                -1.5243253707885742,
                -0.8790256977081299,
                -1.5922619104385376,
                0.15588241815567017,
                0.2157113403081894,
                -1.3281296491622925,
                0.6654120683670044,
                -0.5573070645332336,
                -1.9485414028167725,
                0.23737139999866486,
                -0.6190641522407532,
                -1.5189675092697144,
                0.7997360229492188,
                0.09209615737199783,
                0.10449228435754776,
                -0.28689342737197876,
                -0.33641043305397034,
                1.7354717254638672,
                0.16303037106990814,
                -2.2810771465301514,
                -0.6812562942504883,
                -1.2185486555099487,
                0.8402889966964722,
                -0.9101974368095398,
                -0.619749903678894,
                -0.6277604103088379,
                0.046824049204587936,
                -0.8491274118423462,
                0.03534141182899475,
                0.764308512210846,
                -0.11643699556589127,
                0.3443029522895813,
                0.06971495598554611,
                0.3004327714443207,
                1.2392098903656006,
                1.25816011428833,
                -0.1444186568260193,
                -0.17249377071857452,
                1.0874264240264893,
                0.12330713123083115,
                -0.19688144326210022,
                -1.0149582624435425,
                0.15253041684627533,
                0.15644550323486328,
                -2.2268733978271484,
                0.1506175845861435,
                -0.41717982292175293,
                -0.5823822021484375,
                -1.658028244972229,
                3.2356035709381104,
                -0.6428028345108032,
                0.12931767106056213,
                -0.2161528319120407,
                -0.08108662068843842,
                -0.5448243021965027,
                1.7458006143569946,
                -0.0003890820953529328,
                -0.5236819386482239,
                -0.9298797249794006
            ],
            [
                0.7473567128181458,
                -0.04570235311985016,
                -1.5552339553833008,
                -0.3125587999820709,
                -0.9848612546920776,
                0.5590961575508118,
                0.9400416612625122,
                -0.24956759810447693,
                -1.4971765279769897,
                0.8590899705886841,
                -1.3613972663879395,
                -0.16883204877376556,
                -2.2754805088043213,
                0.5651788115501404,
                1.0141146183013916,
                0.09815438836812973,
                0.5457894802093506,
                1.2025249004364014,
                0.1093360111117363,
                1.0505077838897705,
                -0.33617791533470154,
                -1.1439622640609741,
                -0.37659358978271484,
                -0.5528300404548645,
                -1.85188889503479,
                0.5124202966690063,
                0.01458740048110485,
                -0.7206993699073792,
                0.3181554675102234,
                -1.0384782552719116,
                0.5510885119438171,
                0.205376997590065,
                -1.0231242179870605,
                -0.007579986937344074,
                0.645108163356781,
                0.25914520025253296,
                -0.16040611267089844,
                0.08414619415998459,
                -0.08378337323665619,
                -0.039426613599061966,
                1.0005439519882202,
                0.7698180675506592,
                0.35718828439712524,
                -0.4736800789833069,
                -1.244118332862854,
                -0.44484418630599976,
                1.088810920715332,
                2.131918430328369,
                0.9588744640350342,
                -0.19870586693286896,
                -0.9874380230903625,
                0.6466928124427795,
                -1.3946027755737305,
                -0.28794294595718384,
                -1.2706125974655151,
                -0.1391916424036026,
                1.512911319732666,
                -1.7783629894256592,
                -0.21307958662509918,
                0.07597632706165314,
                0.40976375341415405,
                0.9396954774856567,
                2.318401575088501,
                -0.3698367774486542,
                -0.851068377494812,
                0.9007463455200195,
                -1.079571008682251,
                0.014417534694075584,
                2.4651529788970947,
                -0.18625636398792267,
                -0.08575695008039474,
                1.401224136352539
            ],
            [
                -0.5232662558555603,
                0.49058642983436584,
                -1.6177502870559692,
                -0.6468817591667175,
                -1.4706616401672363,
                -1.0505520105361938,
                -0.5002502202987671,
                -0.5816727876663208,
                0.4660540819168091,
                -0.24476180970668793,
                -1.508602499961853,
                -1.313677430152893,
                -0.8944510221481323,
                -0.06364119797945023,
                -0.4210537075996399,
                0.06743819266557693,
                1.042740821838379,
                -0.1011250838637352,
                0.664983332157135,
                1.0845731496810913,
                1.1958825588226318,
                0.42502519488334656,
                -1.5791916847229004,
                -0.5665450692176819,
                -0.5323371887207031,
                -2.068824529647827,
                0.519287109375,
                -1.2359075546264648,
                -0.3466346263885498,
                -0.2891589403152466,
                -0.21497154235839844,
                -0.33229556679725647,
                0.8501402139663696,
                1.5730692148208618,
                1.650987148284912,
                0.09792079776525497,
                -0.08449852466583252,
                0.7333609461784363,
                -1.2224678993225098,
                1.2892656326293945,
                1.8015681505203247,
                -0.28983789682388306,
                -0.7744382619857788,
                -0.4619494378566742,
                0.7588576674461365,
                1.4670565128326416,
                -0.803118109703064,
                0.7155714631080627,
                -0.3537679612636566,
                0.531324028968811,
                -0.7860399484634399,
                0.9646431803703308,
                -0.2777497470378876,
                1.302909016609192,
                -0.6153714060783386,
                -1.0379213094711304,
                0.4365769326686859,
                0.3080942630767822,
                0.37971317768096924,
                -1.0035864114761353,
                1.9423431158065796,
                1.0600697994232178,
                0.37713292241096497,
                1.023443579673767,
                -2.655860185623169,
                0.2258308082818985,
                -0.4965646266937256,
                0.08029183745384216,
                -0.6076720952987671,
                0.09933909773826599,
                0.2423778921365738,
                1.5240094661712646
            ],
            [
                0.5443447232246399,
                0.4084762930870056,
                0.4641202688217163,
                -0.8795533776283264,
                0.9948191046714783,
                -0.6542448997497559,
                -1.0768955945968628,
                -1.0668830871582031,
                0.14562705159187317,
                -1.198342204093933,
                2.674452543258667,
                0.5103955864906311,
                -0.033595629036426544,
                0.5324919819831848,
                -0.6428779363632202,
                -1.0740563869476318,
                -0.24938999116420746,
                -1.0273557901382446,
                -0.8362126350402832,
                -0.5536673069000244,
                -0.7119178175926208,
                -0.33344224095344543,
                1.1915615797042847,
                -0.04586656391620636,
                1.2119555473327637,
                0.008491848595440388,
                -0.338279128074646,
                0.6813732981681824,
                0.5333983898162842,
                0.25702038407325745,
                0.17908774316310883,
                0.616556704044342,
                -0.5828390121459961,
                -0.22586636245250702,
                -2.3723716735839844,
                0.05656140297651291,
                -0.043790124356746674,
                -0.0596352256834507,
                -0.680749237537384,
                -0.9434568285942078,
                -1.2409621477127075,
                0.8775852918624878,
                0.756472647190094,
                0.5533163547515869,
                -0.07238523662090302,
                -0.12930619716644287,
                0.41208747029304504,
                -1.3809573650360107,
                -0.018009215593338013,
                0.6170809864997864,
                0.922441840171814,
                -0.5153921842575073,
                -0.04690536484122276,
                0.36015841364860535,
                0.21287040412425995,
                0.08897837996482849,
                -1.004400610923767,
                0.24690033495426178,
                -0.3697706460952759,
                1.333113670349121,
                -0.36873772740364075,
                -1.092990756034851,
                -0.5883787274360657,
                0.5838533043861389,
                0.5347863435745239,
                -1.000244379043579,
                0.11925935745239258,
                -0.2824857234954834,
                -0.9679486155509949,
                1.1357226371765137,
                -0.7765577435493469,
                -1.0167770385742188
            ],
            [
                0.36826080083847046,
                -1.163122296333313,
                -1.3744910955429077,
                -0.18701738119125366,
                -1.3359901905059814,
                -1.1121340990066528,
                0.1925208568572998,
                0.889380156993866,
                0.020392989739775658,
                1.4043946266174316,
                -0.786476194858551,
                -0.5136992931365967,
                0.31380411982536316,
                0.7986581921577454,
                0.3703900873661041,
                -0.8479573726654053,
                -1.5357201099395752,
                -0.3500157296657562,
                1.372209906578064,
                -0.36682799458503723,
                -1.6395677328109741,
                -0.28431400656700134,
                -0.5786654949188232,
                -1.1369454860687256,
                -1.9786159992218018,
                -0.1476069986820221,
                -0.5955759286880493,
                -0.4574354588985443,
                -0.7778714299201965,
                1.2604310512542725,
                2.0031678676605225,
                -0.2734855115413666,
                -0.15106609463691711,
                1.0723713636398315,
                -1.2452178001403809,
                0.10349280387163162,
                -2.1131961345672607,
                0.7639865875244141,
                -1.2596603631973267,
                -0.7328557968139648,
                0.33659788966178894,
                -0.8062930703163147,
                -0.9000388383865356,
                -0.14179323613643646,
                -0.3444857895374298,
                0.07771278917789459,
                1.38287353515625,
                0.9035435914993286,
                1.9675899744033813,
                0.2879825234413147,
                -0.5643924474716187,
                0.2308265119791031,
                0.3276444673538208,
                1.5955225229263306,
                0.12284243851900101,
                0.6305958032608032,
                -0.38130196928977966,
                0.08165963739156723,
                -0.37017226219177246,
                0.6207055449485779,
                -1.155825138092041,
                1.8898497819900513,
                1.1972784996032715,
                -0.7596240043640137,
                -0.848275899887085,
                0.6243765950202942,
                -0.4794620871543884,
                -0.31198981404304504,
                0.6914007663726807,
                -0.0511196032166481,
                1.2944525480270386,
                -0.5936630368232727
            ],
            [
                -0.5352087616920471,
                -0.2320834845304489,
                -0.5040590763092041,
                -0.41372036933898926,
                0.179739847779274,
                -0.3420051038265228,
                0.5368936061859131,
                -0.028877053409814835,
                -0.3630228042602539,
                0.22809499502182007,
                0.2401997596025467,
                0.3472258448600769,
                -0.7067633867263794,
                -0.2834807336330414,
                -0.4266557991504669,
                -1.2709259986877441,
                -1.5872427225112915,
                -1.072102665901184,
                -0.47887352108955383,
                0.1198093444108963,
                -0.9575332999229431,
                -1.2761294841766357,
                0.4063403606414795,
                -0.327688604593277,
                -0.12144690006971359,
                -0.00035980454413220286,
                -1.2825052738189697,
                -0.4395582675933838,
                0.08566661179065704,
                1.7333494424819946,
                1.167277216911316,
                0.17561987042427063,
                -0.8450619578361511,
                0.12058975547552109,
                -1.429250955581665,
                0.07599222660064697,
                -1.2821154594421387,
                0.7361634373664856,
                -1.6025846004486084,
                -1.1038289070129395,
                0.7272011041641235,
                0.3826056122779846,
                -0.5336257815361023,
                -0.7374482154846191,
                0.0039476994425058365,
                0.12094177305698395,
                1.455785870552063,
                -0.22570176422595978,
                2.792656660079956,
                0.4375140070915222,
                0.11001891642808914,
                0.7922844290733337,
                0.9957698583602905,
                0.6832814812660217,
                0.5806503295898438,
                -0.24682901799678802,
                -0.4680463969707489,
                -0.13398747146129608,
                -0.4862332046031952,
                0.46448031067848206,
                -0.7244961857795715,
                0.3058270215988159,
                1.4061853885650635,
                -0.0884106382727623,
                -0.7268420457839966,
                0.5474498271942139,
                0.9020785689353943,
                0.08792627602815628,
                -0.04689328372478485,
                0.33765023946762085,
                0.005834173411130905,
                -0.5497077703475952
            ],
            [
                -0.43891632556915283,
                2.2148303985595703,
                1.0277737379074097,
                -1.316307544708252,
                2.147062063217163,
                1.0550857782363892,
                0.039808690547943115,
                0.4604650139808655,
                -1.3334006071090698,
                -0.8318317532539368,
                0.44460856914520264,
                0.4533902108669281,
                0.9453756809234619,
                0.33299520611763,
                0.5675984025001526,
                -0.3555810749530792,
                -1.0622785091400146,
                0.3158668279647827,
                -0.27295351028442383,
                -1.8215657472610474,
                -0.24155189096927643,
                -0.43253350257873535,
                -1.6518287658691406,
                2.0758919715881348,
                0.17315183579921722,
                -0.32699745893478394,
                0.13592380285263062,
                0.2687910795211792,
                0.6090386509895325,
                0.6726059317588806,
                -0.3849252164363861,
                0.4184686541557312,
                -0.5384126305580139,
                1.2236621379852295,
                0.6030457019805908,
                -0.4967099726200104,
                -0.3176047205924988,
                0.04620800167322159,
                -0.9844247698783875,
                -0.525225818157196,
                0.4540185034275055,
                -0.5607125163078308,
                -0.6278425455093384,
                -0.6969624161720276,
                1.2251834869384766,
                0.703116238117218,
                0.5365371704101562,
                -0.34986603260040283,
                1.3609014749526978,
                -0.8903768658638,
                0.07396990805864334,
                0.6737262606620789,
                -0.32962608337402344,
                -0.6028249263763428,
                -0.2626422047615051,
                0.7795009016990662,
                1.1147650480270386,
                -0.7242415547370911,
                -1.3213281631469727,
                0.06921971589326859,
                -0.5540769696235657,
                0.11357521265745163,
                0.960727870464325,
                0.07306155562400818,
                -2.1853086948394775,
                1.1497797966003418,
                1.0938283205032349,
                -1.5377572774887085,
                0.3700786828994751,
                -1.0587745904922485,
                -0.6054074168205261,
                -0.437154620885849
            ],
            [
                0.18989147245883942,
                -0.9600965976715088,
                -0.7753526568412781,
                0.4152706265449524,
                -1.2370810508728027,
                0.12139744311571121,
                0.02304057776927948,
                -0.42084816098213196,
                0.8342270851135254,
                0.23269911110401154,
                -1.0614789724349976,
                -1.1560180187225342,
                0.9609478712081909,
                0.2787758409976959,
                -0.7758157849311829,
                0.882496178150177,
                -0.06667353212833405,
                -0.5541490912437439,
                0.9535061120986938,
                0.3988262116909027,
                0.4848889410495758,
                -0.13845986127853394,
                -0.5332704782485962,
                -0.6518857479095459,
                0.6159807443618774,
                -0.635043203830719,
                -0.8133494257926941,
                -0.7528307437896729,
                -0.7506259083747864,
                0.47781533002853394,
                -0.5366954207420349,
                -1.3449881076812744,
                1.4797654151916504,
                1.1900360584259033,
                0.39411404728889465,
                -0.07392333447933197,
                -1.08254873752594,
                -0.008271670900285244,
                -0.1210780218243599,
                0.8188065886497498,
                1.0055726766586304,
                1.268169641494751,
                -0.31669488549232483,
                -0.7037727236747742,
                0.15105962753295898,
                -0.17961585521697998,
                0.43036770820617676,
                -0.3923153281211853,
                -0.06965667009353638,
                1.3148125410079956,
                -0.2928135395050049,
                -1.0570757389068604,
                0.6074514389038086,
                0.6929587721824646,
                0.06457532197237015,
                0.3760274350643158,
                -1.4129817485809326,
                1.235668659210205,
                1.4566131830215454,
                -0.5160138607025146,
                0.008922632783651352,
                1.6603163480758667,
                -2.540637493133545,
                1.074588418006897,
                -0.8251510262489319,
                -0.7226920127868652,
                -0.6475349068641663,
                0.8865928649902344,
                -1.017712116241455,
                0.7580901384353638,
                1.1685192584991455,
                1.1651853322982788
            ],
            [
                0.600352942943573,
                0.0065848855301737785,
                1.1476677656173706,
                0.36776643991470337,
                0.10879059880971909,
                -1.005969524383545,
                -0.5688422918319702,
                -0.2737918198108673,
                0.6535410284996033,
                0.23702269792556763,
                -0.22204366326332092,
                -1.0608218908309937,
                1.8079606294631958,
                0.25001123547554016,
                -0.19343115389347076,
                1.3756299018859863,
                -1.409577488899231,
                -2.0514187812805176,
                0.38338130712509155,
                -0.6787623763084412,
                -0.5386393070220947,
                0.7835503220558167,
                -0.6407706141471863,
                0.39164167642593384,
                -0.6884494423866272,
                -0.6159055233001709,
                -0.5115018486976624,
                0.06622728705406189,
                -0.6702755093574524,
                2.0621888637542725,
                0.7807013392448425,
                0.4477284550666809,
                1.2136516571044922,
                0.5397785902023315,
                0.03441494330763817,
                -0.3905700445175171,
                -0.7690762281417847,
                0.2333575040102005,
                -0.8247413635253906,
                -0.3632334768772125,
                0.4222727119922638,
                -0.5672000050544739,
                -2.2677407264709473,
                -1.515378475189209,
                1.3097184896469116,
                0.785378098487854,
                0.17545320093631744,
                -1.341909646987915,
                0.5056677460670471,
                0.7625840902328491,
                -0.3789842426776886,
                -0.5070330500602722,
                0.7392245531082153,
                0.4860851466655731,
                1.6527992486953735,
                0.128563791513443,
                -1.212186336517334,
                0.8215354681015015,
                0.06989745795726776,
                -0.011549231596291065,
                -0.4601811170578003,
                0.5019475221633911,
                -1.2818106412887573,
                0.6030473113059998,
                -0.7433015704154968,
                0.08715499192476273,
                1.6557101011276245,
                -0.9334883689880371,
                -1.2857699394226074,
                0.1984066367149353,
                0.27078038454055786,
                0.17709670960903168
            ],
            [
                -1.0048764944076538,
                0.3805401623249054,
                0.8504663109779358,
                -0.7013581395149231,
                1.179083228111267,
                1.0933527946472168,
                0.9457947611808777,
                0.21014337241649628,
                -0.6607233881950378,
                1.1503044366836548,
                0.2750285863876343,
                0.6812404990196228,
                -1.663435459136963,
                -1.0380114316940308,
                0.9372901320457458,
                -0.8869618773460388,
                -0.6136699914932251,
                0.3351150453090668,
                -0.509133517742157,
                0.18512438237667084,
                0.05329106003046036,
                -1.9011503458023071,
                0.48599186539649963,
                0.8105849623680115,
                -1.1432714462280273,
                0.6893588304519653,
                0.10679638385772705,
                0.7127095460891724,
                -0.4802338778972626,
                -0.03603286296129227,
                0.9786769151687622,
                0.4923366904258728,
                -1.8852533102035522,
                -0.18165946006774902,
                0.05102468281984329,
                -0.005977554712444544,
                -1.3258306980133057,
                -0.4945603609085083,
                -0.12057705968618393,
                0.12187571823596954,
                0.0030449519399553537,
                -0.04742912948131561,
                0.35617005825042725,
                -0.46395519375801086,
                -0.8733322620391846,
                0.10024502128362656,
                0.699042797088623,
                1.9472192525863647,
                1.3350324630737305,
                -0.278986394405365,
                -0.4946213662624359,
                0.283143013715744,
                -0.2450590878725052,
                -0.5555415153503418,
                0.34182918071746826,
                -0.02745300717651844,
                0.9405039548873901,
                -0.5936010479927063,
                -1.5995373725891113,
                -1.2861850261688232,
                -0.14413920044898987,
                0.2267850637435913,
                3.035090208053589,
                -0.5828823447227478,
                -0.1900673657655716,
                0.5278446078300476,
                0.6115296483039856,
                0.17726708948612213,
                1.3598017692565918,
                -0.29302069544792175,
                -0.19307230412960052,
                -1.3532075881958008
            ],
            [
                0.49991706013679504,
                -0.49861544370651245,
                -0.4884871244430542,
                0.3179756700992584,
                -1.3977323770523071,
                -1.5183357000350952,
                -0.08160001784563065,
                0.07543210685253143,
                0.7964898943901062,
                -0.21957573294639587,
                1.5242999792099,
                1.0494370460510254,
                -1.3692388534545898,
                0.3246003985404968,
                -0.6426643133163452,
                -0.8081592321395874,
                1.0634334087371826,
                0.4252966046333313,
                -0.9896775484085083,
                0.9122862815856934,
                -0.4271911680698395,
                0.23403611779212952,
                1.4581650495529175,
                -2.405043125152588,
                -0.7193345427513123,
                0.2474496066570282,
                0.5585687756538391,
                -0.07034160196781158,
                0.4964071810245514,
                -0.5456637144088745,
                1.252768635749817,
                0.3810544013977051,
                0.09699457138776779,
                -2.0765154361724854,
                -2.0297226905822754,
                0.17034566402435303,
                -0.2634238600730896,
                0.5341270565986633,
                0.07717354595661163,
                -0.7722734212875366,
                -1.765705943107605,
                0.039205893874168396,
                1.5403850078582764,
                1.3945322036743164,
                -1.9496104717254639,
                -0.47578197717666626,
                -0.17433656752109528,
                0.3060453236103058,
                -0.6378578543663025,
                0.38903841376304626,
                0.31660205125808716,
                0.6007230877876282,
                -0.55852872133255,
                0.18373112380504608,
                -1.6563299894332886,
                -0.2155488133430481,
                0.008040565997362137,
                -1.1833707094192505,
                -0.043821997940540314,
                0.8907285928726196,
                0.5182530879974365,
                -1.1048834323883057,
                0.2874985337257385,
                -0.7407801747322083,
                1.1433073282241821,
                -0.4632502794265747,
                -2.0030577182769775,
                0.812390923500061,
                0.24551331996917725,
                0.19744600355625153,
                -0.9765174388885498,
                -0.633166491985321
            ],
            [
                -1.6505928039550781,
                0.44478777050971985,
                0.7487322092056274,
                0.465029776096344,
                0.8811819553375244,
                1.345192313194275,
                0.5093097686767578,
                -0.29057013988494873,
                0.4817541241645813,
                0.9672284126281738,
                -0.9247255921363831,
                -1.5141777992248535,
                1.262808084487915,
                -0.31315284967422485,
                -0.08618921786546707,
                0.4519505500793457,
                -0.538693368434906,
                -1.3462918996810913,
                -0.11266924440860748,
                0.3601621389389038,
                -0.4372314214706421,
                -0.6581069827079773,
                -0.23978398740291595,
                0.5099102258682251,
                -0.6649990677833557,
                0.47559431195259094,
                -0.45339465141296387,
                -1.0097006559371948,
                -0.5298900008201599,
                0.9513091444969177,
                0.5132354497909546,
                -1.26548433303833,
                1.3362340927124023,
                2.2129552364349365,
                1.222045660018921,
                0.7952175736427307,
                -1.2581523656845093,
                -0.5493980646133423,
                -0.3174895942211151,
                2.0634944438934326,
                0.3105011582374573,
                -0.03172332048416138,
                -1.1243336200714111,
                -0.8596441745758057,
                0.5686066150665283,
                0.3346112370491028,
                -1.4855231046676636,
                0.3446984887123108,
                1.2615495920181274,
                1.317068099975586,
                -0.8763927221298218,
                0.15400823950767517,
                0.36888280510902405,
                -0.10116788744926453,
                1.3065558671951294,
                1.0510293245315552,
                -0.5486927032470703,
                0.2908836305141449,
                1.038523554801941,
                -2.0661659240722656,
                0.27296683192253113,
                -0.8195009827613831,
                -0.8768285512924194,
                1.3517661094665527,
                -1.7861460447311401,
                -0.9161584973335266,
                1.4416264295578003,
                0.9516364932060242,
                -0.7138585448265076,
                -0.9405398368835449,
                0.7906659245491028,
                0.4005897343158722
            ],
            [
                1.4328534603118896,
                0.9632906913757324,
                0.7764426469802856,
                0.153000608086586,
                0.46806544065475464,
                1.2446298599243164,
                0.6277111172676086,
                0.9892248511314392,
                0.9359254240989685,
                -0.1447247564792633,
                -1.12847900390625,
                -0.33821165561676025,
                -0.3811597228050232,
                1.091612458229065,
                -0.22715669870376587,
                2.1081366539001465,
                1.0373615026474,
                -0.4097864329814911,
                1.9146604537963867,
                0.014035136438906193,
                1.0134010314941406,
                -0.6736238598823547,
                -0.4971010386943817,
                0.6352033615112305,
                -0.11335936188697815,
                -0.4377220571041107,
                1.9337942600250244,
                -0.7586313486099243,
                0.3280041515827179,
                0.13237719237804413,
                -0.654929518699646,
                -1.0062936544418335,
                0.9576202034950256,
                0.5645267367362976,
                1.5713934898376465,
                -0.8396227955818176,
                0.45240288972854614,
                -0.38886362314224243,
                0.37269169092178345,
                -0.13140209019184113,
                -0.4077019989490509,
                -0.1602582335472107,
                -0.5756689310073853,
                -1.1826039552688599,
                0.5822319984436035,
                -0.08758197724819183,
                -0.6921507120132446,
                0.6087677478790283,
                -0.3496965169906616,
                0.8859632611274719,
                -2.2600502967834473,
                1.19452702999115,
                -0.011238856241106987,
                -1.1650266647338867,
                -0.37974095344543457,
                -0.365474671125412,
                -1.9981458187103271,
                -0.14837777614593506,
                0.8537285327911377,
                -0.5841003656387329,
                0.07149198651313782,
                1.267726182937622,
                -0.40817809104919434,
                0.006203064229339361,
                -0.749038815498352,
                -0.6521626710891724,
                -0.5163207650184631,
                -0.6566805839538574,
                0.6696760654449463,
                0.5234969258308411,
                -0.07815060019493103,
                0.5183674693107605
            ],
            [
                -0.10201240330934525,
                1.1965073347091675,
                0.11803637444972992,
                -1.785675048828125,
                0.3184650242328644,
                -1.775824785232544,
                0.4997575283050537,
                1.7777197360992432,
                -0.8482776880264282,
                -0.31900516152381897,
                0.41169050335884094,
                -0.16945549845695496,
                0.05860118195414543,
                1.3135472536087036,
                -0.7365915179252625,
                -1.2612669467926025,
                -0.04554283618927002,
                -0.06488417088985443,
                -0.7118861675262451,
                0.07819484174251556,
                0.43506330251693726,
                1.0226455926895142,
                -1.3366858959197998,
                0.5554701089859009,
                -0.25308671593666077,
                -0.8726359009742737,
                0.2044835239648819,
                -0.12272772938013077,
                0.22938041388988495,
                0.6183918118476868,
                0.4576433002948761,
                0.3714546859264374,
                0.10200632363557816,
                0.028157103806734085,
                1.0769519805908203,
                -1.009223461151123,
                -0.72651207447052,
                0.42191118001937866,
                -1.0822502374649048,
                -0.4306715428829193,
                -0.138707235455513,
                -2.1027891635894775,
                -0.34751713275909424,
                1.3686766624450684,
                1.6587756872177124,
                1.8436962366104126,
                -0.2719719707965851,
                -0.3693286180496216,
                0.5429303646087646,
                -1.005025863647461,
                0.7393926382064819,
                -0.19252949953079224,
                0.9552035927772522,
                0.31672272086143494,
                -1.5634342432022095,
                -0.04721671715378761,
                1.5049617290496826,
                -1.5107465982437134,
                -1.5039963722229004,
                1.315263032913208,
                -1.1586734056472778,
                -0.39111006259918213,
                0.8981629610061646,
                -1.5897070169448853,
                -0.131406769156456,
                0.30245107412338257,
                0.19146092236042023,
                0.14232730865478516,
                -0.48163703083992004,
                -2.13443922996521,
                -0.052656903862953186,
                -1.2090113162994385
            ],
            [
                -1.5167430639266968,
                0.3353317081928253,
                0.07589895278215408,
                1.4684783220291138,
                0.20292921364307404,
                1.386656403541565,
                -0.9144628643989563,
                -3.1746597290039062,
                -0.3508608639240265,
                -0.6588317155838013,
                0.32166948914527893,
                -0.44019564986228943,
                0.36084622144699097,
                -0.0758909210562706,
                0.13472840189933777,
                0.08272649347782135,
                0.265845388174057,
                -0.9246590733528137,
                -0.17392852902412415,
                0.4379337728023529,
                -0.0932755395770073,
                -0.30835050344467163,
                -0.49111348390579224,
                -0.3917081654071808,
                0.3878481984138489,
                -0.3002515733242035,
                -0.5087084770202637,
                -0.786422610282898,
                0.35952240228652954,
                -0.5112687349319458,
                -0.7259063124656677,
                0.9457123875617981,
                -0.005343378521502018,
                1.2590619325637817,
                -0.23305094242095947,
                0.7322526574134827,
                0.12168309837579727,
                1.0184431076049805,
                1.0227428674697876,
                1.1792134046554565,
                0.6993090510368347,
                1.7929965257644653,
