{
    "biases": [
        [
            -0.2216080278158188,
            -0.11138217151165009,
            0.2119462788105011,
            -0.38756850361824036,
            0.48676377534866333,
            -0.24221286177635193,
            0.06679699569940567,
            0.33583253622055054,
            0.36386045813560486,
            -0.637826144695282,
            -0.3095617890357971,
            0.6859343647956848,
            -0.04620176553726196,
            -0.45173126459121704,
            -0.0608983114361763,
            0.6360353827476501,
            0.3406093418598175,
            -0.8805726766586304
        ],
        [
            0.179665207862854,
            0.15381275117397308,
            -0.2420167773962021,
            0.8889253735542297,
            0.5326305031776428,
            -0.007382262032479048,
            -1.02043616771698,
            -0.37762510776519775,
            -0.03753342479467392,
            0.03075456991791725,
            -1.1367019414901733,
            -0.5551425814628601,
            0.2668219208717346,
            -0.4880499243736267,
            0.6852281093597412,
            -1.371117115020752,
            0.26648300886154175,
            -0.0860409364104271
        ],
        [
            3.5188658237457275,
            4.819309711456299,
            3.6667380332946777,
            4.8645501136779785,
            5.3052978515625,
            3.6803362369537354,
            3.14414119720459,
            2.616260051727295,
            5.272302150726318,
            -5.929540157318115,
            -7.103618621826172,
            -5.001058101654053,
            -9.055627822875977,
            -9.095483779907227,
            -9.251542091369629,
            -5.952047824859619,
            -6.000890731811523,
            -8.38251781463623,
            -6.461594104766846,
            -6.834194183349609,
            -6.782603740692139,
            -9.037503242492676,
            -9.423576354980469,
            -9.289633750915527,
            -6.594937324523926,
            -6.517284870147705,
            -8.770127296447754,
            -5.81450080871582,
            -6.512881755828857,
            -8.555689811706543,
            -5.873928546905518,
            -9.176259994506836,
            -6.540595054626465,
            -6.282705307006836,
            -7.299360275268555,
            -8.307761192321777
        ]
    ],
    "weights": [
        [
            [
                0.13955779373645782,
                1.1760895252227783,
                -0.3261992335319519,
                0.6689267754554749,
                -0.5197499394416809,
                0.060411807149648666,
                0.47214314341545105,
                -0.1109219491481781
            ],
            [
                0.7013311386108398,
                1.4633101224899292,
                -0.15230794250965118,
                -0.8631834387779236,
                0.8952194452285767,
                -0.36601144075393677,
                0.8011855483055115,
                -1.0551589727401733
            ],
            [
                -0.9752443432807922,
                0.11261837929487228,
                0.7653279304504395,
                -1.5308051109313965,
                0.8462211489677429,
                0.2460639476776123,
                -0.5498504638671875,
                0.9862295985221863
            ],
            [
                0.9097358584403992,
                0.16997897624969482,
                0.46777087450027466,
                0.901113748550415,
                0.2414865344762802,
                -0.380546510219574,
                0.01506402250379324,
                1.2499878406524658
            ],
            [
                1.0417810678482056,
                -0.36953049898147583,
                -0.5801897644996643,
                0.25929245352745056,
                0.2597258687019348,
                -1.7817035913467407,
                -0.5341113805770874,
                0.5518071055412292
            ],
            [
                1.4696781635284424,
                0.9330942630767822,
                0.01787172257900238,
                -0.061792053282260895,
                0.27110666036605835,
                1.0320703983306885,
                -0.08712022751569748,
                -0.5800051093101501
            ],
            [
                -0.2241155505180359,
                -1.0186840295791626,
                0.24225503206253052,
                -0.3070577383041382,
                -0.73924720287323,
                0.14000152051448822,
                1.3886891603469849,
                0.1720992624759674
            ],
            [
                1.357201099395752,
                -0.5123708844184875,
                -0.6142553687095642,
                -0.8670294284820557,
                -0.5479470491409302,
                -0.15230882167816162,
                0.06331724673509598,
                -0.31621041893959045
            ],
            [
                -1.102603793144226,
                0.09589802473783493,
                -0.30639663338661194,
                0.027445804327726364,
                -2.0746920108795166,
                -0.3020932674407959,
                0.20509743690490723,
                0.6660258769989014
            ],
            [
                0.5436336398124695,
                -0.006044736597687006,
                0.560002863407135,
                -0.34672969579696655,
                -0.0936119332909584,
                -0.1256868839263916,
                0.8125030398368835,
                1.1020559072494507
            ],
            [
                -0.1340845674276352,
                0.6124812960624695,
                0.4514985680580139,
                0.25644245743751526,
                -0.683294951915741,
                1.041513442993164,
                -1.1679171323776245,
                1.1474418640136719
            ],
            [
                -0.3749401569366455,
                -0.05094572901725769,
                -1.1171735525131226,
                -0.8849115371704102,
                0.006172672379761934,
                0.18641537427902222,
                -0.15937554836273193,
                0.617806613445282
            ],
            [
                0.6730488538742065,
                -0.7217797040939331,
                -0.522916853427887,
                -0.36565712094306946,
                1.0846202373504639,
                1.0602014064788818,
                -0.04805973172187805,
                -1.7755584716796875
            ],
            [
                -0.03827190026640892,
                0.5967130064964294,
                -0.4455305337905884,
                0.48799601197242737,
                0.2326512187719345,
                -1.1485397815704346,
                -0.5743708610534668,
                -0.9474928379058838
            ],
            [
                0.6698261499404907,
                -0.27095380425453186,
                -1.4184675216674805,
                -0.28190043568611145,
                -0.05745916813611984,
                0.06936271488666534,
                -0.26577264070510864,
                0.9637414216995239
            ],
            [
                0.4824715554714203,
                -0.17927810549736023,
                0.35817962884902954,
                -0.5672614574432373,
                -1.1253107786178589,
                -0.5245221257209778,
                -0.28232887387275696,
                0.10850027203559875
            ],
            [
                -0.3373434841632843,
                -0.3993879556655884,
                0.9246941804885864,
                -0.1336306929588318,
                -0.18944676220417023,
                -0.5623220205307007,
                -1.0143681764602661,
                -0.4614376723766327
            ],
            [
                0.8549360632896423,
                -0.4542321562767029,
                -0.09303059428930283,
                0.4071323573589325,
                -0.16194874048233032,
                0.5094091296195984,
                -0.17718905210494995,
                1.498394250869751
            ]
        ],
        [
            [
                0.13258914649486542,
                1.7680970430374146,
                1.2368494272232056,
                -0.2893834412097931,
                -0.32662317156791687,
                -0.05952641740441322,
                -0.47134265303611755,
                0.2532632648944855,
                -0.31584516167640686,
                0.14494667947292328,
                -0.49303776025772095,
                1.161962628364563,
                -0.6634048819541931,
                0.010125597938895226,
                -0.37202832102775574,
                0.07474964112043381,
                -0.6315889358520508,
                -0.8561079502105713
            ],
            [
                -0.00802410114556551,
                -0.780793309211731,
                -0.7155433297157288,
                -0.09699942171573639,
                0.9793265461921692,
                -1.0207908153533936,
                -0.39104339480400085,
                0.40254881978034973,
                0.37892603874206543,
                -1.0183106660842896,
                -1.0131514072418213,
                0.48881155252456665,
                -0.4298960864543915,
                1.5606045722961426,
                -0.6262607574462891,
                -0.20493026077747345,
                -0.5310412049293518,
                -1.7999738454818726
            ],
            [
                0.1458209604024887,
                0.7925580739974976,
                0.626215934753418,
                0.5355627536773682,
                0.8467501401901245,
                -0.33637288212776184,
                0.19417428970336914,
                -0.10822106897830963,
                0.9710036516189575,
                1.25563645362854,
                0.7047435641288757,
                0.3636317551136017,
                -2.0903987884521484,
                -0.032312992960214615,
                0.3653077185153961,
                -0.4486815929412842,
                -0.3752151131629944,
                0.8592776656150818
            ],
            [
                0.00870418455451727,
                0.48112839460372925,
                -1.1252611875534058,
                0.22980010509490967,
                0.8541801571846008,
                -0.2593007981777191,
                -0.4493018090724945,
                0.6234726309776306,
                0.826011061668396,
                0.19935841858386993,
                -0.5478711724281311,
                -0.012742848135530949,
                -0.15011729300022125,
                0.27503493428230286,
                -0.11266717314720154,
                1.0813788175582886,
                -0.09968522936105728,
                -0.6307184100151062
            ],
            [
                0.22551196813583374,
                0.09029530733823776,
                -0.14457358419895172,
                -0.09511875361204147,
                -0.30329203605651855,
                0.3618393838405609,
                0.7004490494728088,
                0.8839044570922852,
                2.1379048824310303,
                -0.4211794435977936,
                0.31466901302337646,
                0.5093432664871216,
                -0.26565641164779663,
                -1.162599802017212,
                0.01178792305290699,
                1.447916030883789,
                0.3751966655254364,
                -0.16997569799423218
            ],
            [
                -0.017261359840631485,
                1.164691686630249,
                0.8076217770576477,
                -0.012943431735038757,
                -1.4518412351608276,
                0.16887186467647552,
                0.7184959650039673,
                -0.21236945688724518,
                -0.8104472756385803,
                0.7134737372398376,
                -0.5424294471740723,
                0.4529609680175781,
                -0.24955250322818756,
                -1.1735541820526123,
                -0.9305597543716431,
                -1.206510305404663,
                -0.8027546405792236,
                0.404387503862381
            ],
            [
                -0.32908496260643005,
                0.20331668853759766,
                -0.9310961961746216,
                -0.6547317504882812,
                0.5234368443489075,
                0.41543182730674744,
                0.28246137499809265,
                1.3898344039916992,
                -0.05289555341005325,
                0.4892272651195526,
                -0.49998271465301514,
                1.1578397750854492,
                0.9783864617347717,
                0.5912519693374634,
                1.9285550117492676,
                -0.23556841909885406,
                -0.8840169310569763,
                0.30296823382377625
            ],
            [
                -0.7214950323104858,
                0.6870251893997192,
                -0.027328981086611748,
                0.6366201043128967,
                0.914569616317749,
                0.7318073511123657,
                0.27698612213134766,
                0.9450646638870239,
                -1.0842161178588867,
                1.074804663658142,
                0.1759345382452011,
                -0.3482014834880829,
                0.3127872943878174,
                0.13973890244960785,
                0.7363443374633789,
                0.18493175506591797,
                -0.4460955858230591,
                1.0492632389068604
            ],
            [
                -0.6367508769035339,
                0.9282854199409485,
                1.0257614850997925,
                -0.6841030716896057,
                -0.2658061981201172,
                -0.27240756154060364,
                -0.4721945822238922,
                0.7369429469108582,
                -0.47206375002861023,
                -0.5720797777175903,
                0.09555015712976456,
                -0.3085622787475586,
                1.230141520500183,
                0.499475359916687,
                -0.586297333240509,
                0.7957781553268433,
                0.9943299293518066,
                -0.6879568099975586
            ],
            [
                0.04274187237024307,
                0.4130866527557373,
                -1.8633264303207397,
                0.14406511187553406,
                0.09242907166481018,
                1.1782151460647583,
                -0.4673084318637848,
                0.7093394994735718,
                -0.4146905541419983,
                -0.4151212275028229,
                0.5471975207328796,
                0.15004827082157135,
                0.784001886844635,
                -0.5516149401664734,
                0.31949612498283386,
                0.1390392780303955,
                -0.4867645800113678,
                1.1364833116531372
            ],
            [
                -0.6462979912757874,
                0.5940914154052734,
                -0.03807820752263069,
                -0.5156486630439758,
                -0.2764112949371338,
                0.09166781604290009,
                0.5050120949745178,
                -0.1499336212873459,
                -0.35482078790664673,
                1.2750455141067505,
                0.3187170624732971,
                -0.4885205030441284,
                0.2564185559749603,
                -0.4419548809528351,
                -0.721346378326416,
                0.4120953381061554,
                0.9484599232673645,
                0.35424602031707764
            ],
            [
                1.4856200218200684,
                0.3974190354347229,
                -0.9735603928565979,
                -0.09818854182958603,
                -0.33710747957229614,
                1.0011190176010132,
                -1.0022153854370117,
                0.020642487332224846,
                0.03187127411365509,
                0.1512390822172165,
                0.17047147452831268,
                -0.6508308053016663,
                0.18506066501140594,
                0.7578052282333374,
                -0.18355591595172882,
                -0.5303560495376587,
                -0.4490084946155548,
                -0.2042710781097412
            ],
            [
                0.3635225296020508,
                0.5352737307548523,
                -0.765613853931427,
                0.9071998000144958,
                0.6358144879341125,
                0.7247121930122375,
                -1.0418146848678589,
                -0.20023423433303833,
                -0.6047242879867554,
                0.25633329153060913,
                0.8994078636169434,
                -0.9151935577392578,
                -0.5027378797531128,
                0.15327027440071106,
                0.5780726075172424,
                -0.05941719189286232,
                0.1990479677915573,
                1.186869502067566
            ],
            [
                -1.1450088024139404,
                -1.463602066040039,
                0.9630853533744812,
                -1.5622748136520386,
                0.5041429996490479,
                -0.8158119320869446,
                0.2157200276851654,
                -0.15592563152313232,
                0.7733819484710693,
                -0.3561774492263794,
                0.3230348527431488,
                0.8826795220375061,
                0.5986047983169556,
                -0.40832117199897766,
                0.3510023355484009,
                0.24328118562698364,
                0.8759265542030334,
                0.02553941123187542
            ],
            [
                -1.0990290641784668,
                -0.5135380029678345,
                0.7264831066131592,
                0.4593472480773926,
                0.2267424464225769,
                -0.1721879094839096,
                -0.703823983669281,
                -0.10550982505083084,
                -0.49891600012779236,
                -0.7419978976249695,
                0.08736983686685562,
                0.35808730125427246,
                0.4198710024356842,
                -0.26759397983551025,
                0.5434545278549194,
                -0.09417055547237396,
                0.6879016160964966,
                0.6349985599517822
            ],
            [
                0.4377940595149994,
                -0.3405969738960266,
                1.0651881694793701,
                -0.9406611323356628,
                -0.08582480251789093,
                -0.5662446022033691,
                -0.21999309957027435,
                0.4185985326766968,
                -0.2904842793941498,
                -0.4264317452907562,
                0.45681363344192505,
                0.46966201066970825,
                0.03133053332567215,
                2.241852045059204,
                0.2299916297197342,
                -1.3718267679214478,
                0.054679207503795624,
                -0.4172952175140381
            ],
            [
                0.33932459354400635,
                0.11860472708940506,
                1.4972374439239502,
                0.20620925724506378,
                -1.1779553890228271,
                0.9497196674346924,
                -0.5623684525489807,
                -0.5193992257118225,
                -0.2827870845794678,
                -0.05156927555799484,
                0.5849974751472473,
                0.746990978717804,
                0.4891921579837799,
                -0.5604443550109863,
                0.23698782920837402,
                -0.5220916271209717,
                -1.2008569240570068,
                -0.18272441625595093
            ],
            [
                -0.1323515921831131,
                -0.14591562747955322,
                -0.07245156913995743,
                0.4504880905151367,
                -0.1869436800479889,
                0.10139931738376617,
                1.1396949291229248,
                -0.05350162833929062,
                -0.19097863137722015,
                0.34171199798583984,
                -1.0619033575057983,
                0.4663565158843994,
                0.6540639400482178,
                -0.09497559815645218,
                -0.10909188538789749,
                -1.1879322528839111,
                -0.8835595846176147,
                -0.42870718240737915
            ]
        ],
        [
            [
                -0.9060482978820801,
                0.7536278367042542,
                -0.856823742389679,
                -1.12212336063385,
                0.5194489359855652,
                0.588725209236145,
                -0.7439607381820679,
                -1.4566359519958496,
                -0.8131061792373657,
                -0.7893381714820862,
                1.9778711795806885,
                -0.9198490381240845,
                -2.1192028522491455,
                1.6396980285644531,
                1.2069507837295532,
                1.3341816663742065,
                -1.2890896797180176,
                1.2409573793411255
            ],
            [
                0.7809000015258789,
                1.4903773069381714,
                -0.5982277393341064,
                -1.9695227146148682,
                0.27043968439102173,
                -2.2430667877197266,
                3.2766189575195312,
                -2.4802417755126953,
                -1.9667026996612549,
                -2.680832624435425,
                -3.2324929237365723,
                -0.02697904035449028,
                -1.1157503128051758,
                1.1661860942840576,
                0.9542779326438904,
                0.6740902662277222,
                0.8082606196403503,
                1.2355291843414307
            ],
            [
                1.2716223001480103,
                0.3357714116573334,
                0.4454634189605713,
                0.39429932832717896,
                1.545678734779358,
                0.9131902456283569,
                0.9801396727561951,
                0.967519223690033,
                0.9819880723953247,
                0.26685142517089844,
                1.0648115873336792,
                -0.5736729502677917,
                -2.321044921875,
                1.3239978551864624,
                -0.00955687090754509,
                1.2520745992660522,
                -0.20991475880146027,
                1.4058359861373901
            ],
            [
                -0.6473784446716309,
                0.4929434359073639,
                -0.8398988246917725,
                1.0989885330200195,
                0.7362954616546631,
                -0.2814105451107025,
                0.1333862543106079,
                -0.23411743342876434,
                0.7220451235771179,
                -0.7764434814453125,
                -0.1930081695318222,
                -0.14440326392650604,
                -0.1964072436094284,
                -0.09271565824747086,
                -0.8461464643478394,
                0.7721883654594421,
                -0.0523894727230072,
                -0.903389036655426
            ],
            [
                -0.14116673171520233,
                -0.13577313721179962,
                -0.3196251690387726,
                0.29226261377334595,
                -0.08193644881248474,
                0.4418239891529083,
                -0.08126343786716461,
                0.007624916732311249,
                -0.5026229619979858,
                0.38870033621788025,
                -0.34908178448677063,
                -0.39215683937072754,
                -0.5785685777664185,
                -0.23908425867557526,
                0.3687940835952759,
                -0.2898465394973755,
                -0.3316551446914673,
                -0.2810463607311249
            ],
            [
                -0.13125981390476227,
                1.7164220809936523,
                -0.4143202006816864,
                1.3846131563186646,
                0.9660527110099792,
                -1.300248622894287,
                2.3052282333374023,
                6.451160907745361,
                -0.08209764957427979,
                4.44271183013916,
                -4.750091075897217,
                -0.7036510705947876,
                -3.061115264892578,
                1.3834553956985474,
                1.3529459238052368,
                2.636932849884033,
                1.3508834838867188,
                1.8973934650421143
            ],
            [
                -1.5228668451309204,
                0.6797665953636169,
                1.7900238037109375,
                0.7453701496124268,
                1.981080412864685,
                -1.7939472198486328,
                0.5024667978286743,
                -0.5864138007164001,
                -1.7184796333312988,
                -1.5629109144210815,
                1.3695300817489624,
                -0.3878155052661896,
                -0.9717659950256348,
                0.8921595811843872,
                -1.3063232898712158,
                0.7494909167289734,
                -2.1724748611450195,
                -1.667311668395996
            ],
            [
                -0.4779141843318939,
                1.0426123142242432,
                -2.4329721927642822,
                1.6236144304275513,
                -0.7021234631538391,
                -2.859636068344116,
                0.3220866322517395,
                -1.3169337511062622,
                2.3816750049591064,
                1.355603814125061,
                0.3594725430011749,
                0.09362838417291641,
                1.3674088716506958,
                2.5643320083618164,
                2.4304137229919434,
                2.3722755908966064,
                -1.24990975856781,
                -3.0333964824676514
            ],
            [
                0.344731867313385,
                0.22808974981307983,
                0.03636091202497482,
                -0.33020853996276855,
                0.3313817083835602,
                -0.26531511545181274,
                -0.10447259992361069,
                -0.051302120089530945,
                -0.21920675039291382,
                0.3809053301811218,
                -0.17798885703086853,
                -0.03484339639544487,
                0.18174511194229126,
                0.06632231920957565,
                0.049523819237947464,
                0.0500013530254364,
                0.28021904826164246,
                -0.3825393319129944
            ],
            [
                1.6268024444580078,
                -0.29511865973472595,
                0.720664918422699,
                -0.2604869306087494,
                -0.022727759554982185,
                0.739418089389801,
                -2.138997793197632,
                -1.1384543180465698,
                0.6764130592346191,
                -0.2583279013633728,
                0.2556301951408386,
                1.7083148956298828,
                0.5245140194892883,
                -0.8438884615898132,
                -1.591153860092163,
                1.609315037727356,
                0.9742655754089355,
                -0.36633411049842834
            ],
            [
                -1.961575984954834,
                -0.9436715245246887,
                -0.3761959373950958,
                -1.840539574623108,
                0.07078403979539871,
                -1.018080234527588,
                1.1838111877441406,
                -1.9747756719589233,
                -1.2282040119171143,
                -0.5632845759391785,
                1.5126750469207764,
                1.2756586074829102,
                0.28092920780181885,
                0.780959963798523,
                -1.3876795768737793,
                1.0049726963043213,
                -1.0411503314971924,
                1.11803138256073
            ],
            [
                -1.9213882684707642,
                0.08408750593662262,
                -0.5035484433174133,
                -0.17527547478675842,
                -1.0241782665252686,
                0.07524870336055756,
                -0.6760743260383606,
                -0.6206747889518738,
                -2.1517012119293213,
                -0.591712474822998,
                -0.3644160032272339,
                1.219007968902588,
                1.709882378578186,
                -0.8492199778556824,
                -1.0023730993270874,
                -0.5816217660903931,
                -1.5250554084777832,
                0.5663846135139465
            ],
            [
                -1.7278634309768677,
                0.47344306111335754,
                0.5799475908279419,
                -1.2716953754425049,
                -1.3217358589172363,
                -1.680824875831604,
                1.847427248954773,
                0.6318703293800354,
                -0.13228675723075867,
                0.4755094647407532,
                2.142537832260132,
                0.4982999265193939,
                -0.533057451248169,
                1.7124453783035278,
                -0.9325613379478455,
                2.133434772491455,
                -0.22789599001407623,
                0.1688709259033203
            ],
            [
                -1.4570752382278442,
                0.4048300087451935,
                0.5095531344413757,
                -1.3437875509262085,
                -1.3330152034759521,
                -1.691668152809143,
                1.8491789102554321,
                0.5234299302101135,
                -0.21762420237064362,
                0.36710700392723083,
                2.3919081687927246,
                0.4854700565338135,
                -0.37927013635635376,
                1.7127047777175903,
                -0.8502631783485413,
                2.1419930458068848,
                -0.3139725923538208,
                0.26851290464401245
            ],
            [
                -1.37628972530365,
                0.3631945848464966,
                0.45813658833503723,
                -1.392325758934021,
                -1.4723265171051025,
                -1.746867060661316,
                2.194624900817871,
                0.9043843150138855,
                -0.07239000499248505,
                0.5950824618339539,
                2.2752742767333984,
                0.3139459490776062,
                -0.8057377934455872,
                1.9288661479949951,
                -0.6951552033424377,
                2.27095627784729,
                -0.350305438041687,
                0.3334795832633972
            ],
            [
                0.13319316506385803,
                1.8353887796401978,
                -1.534765362739563,
                1.084367275238037,
                -3.8562076091766357,
                0.3045096695423126,
                0.6312949657440186,
                0.07420171797275543,
                1.4667959213256836,
                -2.6368155479431152,
                2.3062260150909424,
                0.1361159384250641,
                0.7208097577095032,
                -0.6920505166053772,
                -0.796628475189209,
                1.085940957069397,
                -0.45020297169685364,
                0.35963794589042664
            ],
            [
                0.06791853904724121,
                0.12728410959243774,
                -1.6270216703414917,
                1.9804457426071167,
                -0.7432349920272827,
                0.466652512550354,
                0.9708690643310547,
                0.25831592082977295,
                -0.7363932132720947,
                -0.4466823637485504,
                1.957592248916626,
                1.057862639427185,
                -1.8965593576431274,
                -0.42716142535209656,
                -2.0166099071502686,
                -0.33450552821159363,
                -1.078436017036438,
                2.2579145431518555
            ],
            [
                -1.244540810585022,
                0.11687576025724411,
                0.3814820647239685,
                -1.0738298892974854,
                -1.3873134851455688,
                -1.3090763092041016,
                1.5296164751052856,
                0.35726067423820496,
                -0.22240769863128662,
                0.14469587802886963,
                2.3599119186401367,
                0.7819870114326477,
                -0.01612773910164833,
                1.3022962808609009,
                -0.8373324871063232,
                1.638161301612854,
                -0.5867540240287781,
                0.45611050724983215
            ],
            [
                1.0575640201568604,
                0.03077707625925541,
                0.28946653008461,
                -0.38707783818244934,
                -0.9204431772232056,
                0.03973652794957161,
                2.417689561843872,
                1.0226423740386963,
                -0.6737921833992004,
                0.14091239869594574,
                -0.09653095155954361,
                1.7614014148712158,
                0.08744542300701141,
                0.44770514965057373,
                -1.358091950416565,
                -0.19825901091098785,
                0.9862281084060669,
                -0.38250845670700073
            ],
            [
                -0.42131438851356506,
                0.3352915048599243,
                -0.5045944452285767,
                0.3662858307361603,
                -0.9225717782974243,
                -0.013614627532660961,
                0.39531880617141724,
                0.9073988795280457,
                0.22613178193569183,
                0.5879440307617188,
                2.270625352859497,
                0.6088778376579285,
                -0.02661568485200405,
                0.7358183860778809,
                -0.40091413259506226,
                0.8421086668968201,
                0.47338834404945374,
                0.9198123812675476
            ],
            [
                0.17134606838226318,
                0.05475931614637375,
                -0.7702085375785828,
                0.37404072284698486,
                -1.3457987308502197,
                0.6634005904197693,
                1.3352670669555664,
                1.1683446168899536,
                -0.05095679685473442,
                0.5562865138053894,
                1.7513420581817627,
                0.10266928374767303,
                0.4529508650302887,
                0.41379934549331665,
                0.06856086105108261,
                0.6955187320709229,
                0.28509774804115295,
                0.7835830450057983
            ],
            [
                -1.4836770296096802,
                0.3367462158203125,
                0.6513655185699463,
                -1.1867847442626953,
                -1.8921709060668945,
                -1.7819693088531494,
                1.939092993736267,
                0.6754342317581177,
                -0.6178289651870728,
                0.23295721411705017,
                2.168566942214966,
                0.44381654262542725,
                -0.6311686635017395,
                1.7166564464569092,
                -0.8950327038764954,
                2.02687668800354,
                -0.33972877264022827,
                -0.07026755064725876
            ],
            [
                -1.4219955205917358,
                0.45807820558547974,
                0.6686540246009827,
                -1.421915888786316,
                -1.4462785720825195,
                -1.6949182748794556,
                2.0309226512908936,
                0.4465179443359375,
                -0.12157375365495682,
                0.28122788667678833,
                2.458003044128418,
                0.4973124861717224,
                -0.50926274061203,
                1.7468948364257812,
                -1.092818260192871,
                2.357489824295044,
                -0.3936391770839691,
                0.32761457562446594
            ],
            [
                -1.3053605556488037,
                0.21252119541168213,
                0.4497750699520111,
                -1.420068383216858,
                -1.4702640771865845,
                -1.6076257228851318,
                2.3352842330932617,
                0.6494307518005371,
                -0.07957027107477188,
                0.4185585379600525,
                2.3666656017303467,
                0.2700619399547577,
                -0.7467204928398132,
                1.8568285703659058,
                -0.8065571784973145,
                2.302549123764038,
                -0.3763495981693268,
                0.0700477659702301
            ],
            [
                -0.34022578597068787,
                -1.8048639297485352,
                0.2817755937576294,
                -3.3934438228607178,
                -3.7998733520507812,
                -0.6987940073013306,
                0.3870152533054352,
                0.08227378875017166,
                -0.134935662150383,
                -0.14586368203163147,
                0.8586868047714233,
                0.08171246200799942,
                -0.2748527526855469,
                -0.2939779758453369,
                1.0343538522720337,
                -0.09902841597795486,
                -1.06449556350708,
                1.2212821245193481
            ],
            [
                -0.6592935919761658,
                -0.3617478013038635,
                2.359694480895996,
                -1.991752028465271,
                0.09077481925487518,
                -0.9311033487319946,
                0.9833733439445496,
                1.4917329549789429,
                -0.7651850581169128,
                -0.8257350325584412,
                1.367639422416687,
                0.15952512621879578,
                -0.5903204083442688,
                0.211623877286911,
                -1.4909274578094482,
                0.831213653087616,
                0.09198955446481705,
                1.9988925457000732
            ],
            [
                -1.235284447669983,
                0.3253459334373474,
                0.47444838285446167,
                -1.0592799186706543,
                -1.3596879243850708,
                -1.287279486656189,
                1.7024283409118652,
                0.5659860372543335,
                -0.07633697986602783,
                0.3204367160797119,
                2.1746327877044678,
                0.5701987743377686,
                -0.17194096744060516,
                1.4477802515029907,
                -0.8443236947059631,
                1.8787142038345337,
                -0.49007079005241394,
                0.32926180958747864
            ],
            [
                -1.9941459894180298,
                -1.009277105331421,
                -1.4324064254760742,
                0.08411913365125656,
                0.25995567440986633,
                -1.0299664735794067,
                2.885087251663208,
                0.6182882785797119,
                -1.0766984224319458,
                0.7763921618461609,
                0.0041364822536706924,
                -0.27761557698249817,
                -0.133133664727211,
                -0.13320240378379822,
                0.6933121681213379,
                -0.01303801592439413,
                -0.3099948763847351,
                2.7486467361450195
            ],
            [
                -1.2553106546401978,
                -0.4766983091831207,
                0.5742445588111877,
                -0.36863502860069275,
                -0.7154523730278015,
                0.2852802872657776,
                -1.3154634237289429,
                1.642812728881836,
                0.5328340530395508,
                1.7676379680633545,
                1.6875029802322388,
                0.19844359159469604,
                -0.21719878911972046,
                0.392886757850647,
                -0.6854342818260193,
                0.5172301530838013,
                -0.7553462386131287,
                -0.9086599946022034
            ],
            [
                -1.191448450088501,
                0.27142688632011414,
                0.8264776468276978,
                -1.1042348146438599,
                -1.1219604015350342,
                -1.072351098060608,
                1.6466851234436035,
                0.7176988124847412,
                0.05202309414744377,
                -0.10593775659799576,
                1.8145171403884888,
                0.23060482740402222,
                -0.6551539301872253,
                1.4593029022216797,
                -1.1520262956619263,
                1.8663642406463623,
                -0.4581066071987152,
                0.5452657341957092
            ],
            [
                -0.7182836532592773,
                -0.5345094799995422,
                0.9175552725791931,
                -0.7662450075149536,
                -1.9614983797073364,
                -0.733579158782959,
                0.9703458547592163,
                1.1899471282958984,
                -2.19088077545166,
                0.18180929124355316,
                0.6922684907913208,
                0.7924029231071472,
                0.3012043535709381,
                -0.16248078644275665,
                0.14529642462730408,
                -0.3597024381160736,
                -1.2852576971054077,
                0.35536885261535645
            ],
            [
                -1.260341763496399,
                0.3846774697303772,
                0.7909010052680969,
                -1.215819001197815,
                -1.3965457677841187,
                -1.4627931118011475,
                1.9706164598464966,
                0.2165990173816681,
                -0.08191335201263428,
                0.04874347522854805,
                2.211318016052246,
                0.5267462134361267,
                -0.501025915145874,
                1.4704989194869995,
                -1.0836410522460938,
                2.1612582206726074,
                -0.4031095504760742,
                0.41648733615875244
            ],
            [
                -1.5737890005111694,
                -1.0946617126464844,
                0.6587057113647461,
                -1.8231391906738281,
                -2.0912017822265625,
                -0.03753776103258133,
                0.747571587562561,
                -4.258791923522949,
                0.37655752897262573,
                -3.883396625518799,
                5.45254373550415,
                0.3007904589176178,
                2.2835545539855957,
                0.4368617534637451,
                -1.7467799186706543,
                -0.6731244325637817,
                -1.1180555820465088,
                -0.8389471173286438
            ],
            [
                -1.5994898080825806,
                -0.7000572681427002,
                -1.7029526233673096,
                -0.4501555562019348,
                1.4269882440567017,
                0.055497050285339355,
                0.711590051651001,
                -0.40803465247154236,
                0.23546430468559265,
                0.9542729258537292,
                1.5306788682937622,
                0.778517484664917,
                -0.5166242122650146,
                1.0982165336608887,
                -0.47833460569381714,
                -0.05838818475604057,
                1.414231538772583,
                -0.18841670453548431
            ],
            [
                -1.3240160942077637,
                -0.11520883440971375,
                3.1217966079711914,
                -1.9880027770996094,
                -0.5588853359222412,
                -1.8314063549041748,
                0.5158588290214539,
                0.2919829785823822,
                -0.8835675120353699,
                0.47886040806770325,
                -0.21750478446483612,
                -0.2835681736469269,
                1.8307993412017822,
                1.95989990234375,
                2.7410049438476562,
                1.2751729488372803,
                0.1591244637966156,
                -2.663469076156616
            ],
            [
                -1.043174386024475,
                0.5922073125839233,
                0.2579757571220398,
                -0.9401363730430603,
                -1.2039028406143188,
                -0.9391186833381653,
                1.5136728286743164,
                0.49357104301452637,
                0.094671331346035,
                0.5266842842102051,
                1.5339269638061523,
                0.40783581137657166,
                -0.22391241788864136,
                1.381570816040039,
                -0.6581413149833679,
                1.8825432062149048,
                -0.248752623796463,
                0.45615240931510925
            ]
        ]
    ]
}